<?xml version="1.0"?>
<MethodSetup Method="DL::DNN_CPU">
  <GeneralInfo>
    <Info name="TMVA Release" value="4.2.1 [262657]"/>
    <Info name="ROOT Release" value="6.33/01 [401665]"/>
    <Info name="Creator" value="nsonmez"/>
    <Info name="Date" value="Tue Sep 17 20:26:35 2024"/>
    <Info name="Host" value="Darwin MacAir-1879.local 23.6.0 Darwin Kernel Version 23.6.0: Mon Jul 29 21:16:46 PDT 2024; root:xnu-10063.141.2~1/RELEASE_ARM64_T8112 arm64"/>
    <Info name="Dir" value="/Users/nsonmez/root_install/tutorials/tmva"/>
    <Info name="Training events" value="14000"/>
    <Info name="TrainingTime" value="1.25294590e+00"/>
    <Info name="AnalysisType" value="Classification"/>
  </GeneralInfo>
  <Options>
    <Option name="V" modified="Yes">True</Option>
    <Option name="VerbosityLevel" modified="No">Verbose</Option>
    <Option name="VarTransform" modified="Yes">G</Option>
    <Option name="H" modified="Yes">False</Option>
    <Option name="CreateMVAPdfs" modified="No">False</Option>
    <Option name="IgnoreNegWeightsInTraining" modified="No">False</Option>
    <Option name="InputLayout" modified="Yes">1|1|7</Option>
    <Option name="BatchLayout" modified="Yes">1|128|7</Option>
    <Option name="Layout" modified="Yes">DENSE|64|TANH,DENSE|64|TANH,DENSE|64|TANH,DENSE|64|TANH,DENSE|1|LINEAR</Option>
    <Option name="ErrorStrategy" modified="Yes">CROSSENTROPY</Option>
    <Option name="WeightInitialization" modified="Yes">XAVIER</Option>
    <Option name="RandomSeed" modified="No">0</Option>
    <Option name="ValidationSize" modified="No">20%</Option>
    <Option name="Architecture" modified="Yes">CPU</Option>
    <Option name="TrainingStrategy" modified="Yes">LearningRate=1e-3,Momentum=0.9,ConvergenceSteps=10,BatchSize=128,TestRepetitions=1,MaxEpochs=30,WeightDecay=1e-4,Regularization=None,Optimizer=ADAM,ADAM_beta1=0.9,ADAM_beta2=0.999,ADAM_eps=1.E-7,DropConfig=0.0+0.0+0.0+0.</Option>
  </Options>
  <Variables NVar="7">
    <Variable VarIndex="0" Expression="m_jj" Label="m_jj" Title="m_jj" Unit="" Internal="m_jj" Type="F" Min="1.46605730e-01" Max="1.61319084e+01"/>
    <Variable VarIndex="1" Expression="m_jjj" Label="m_jjj" Title="m_jjj" Unit="" Internal="m_jjj" Type="F" Min="3.42014521e-01" Max="8.94014835e+00"/>
    <Variable VarIndex="2" Expression="m_lv" Label="m_lv" Title="m_lv" Unit="" Internal="m_lv" Type="F" Min="2.66787767e-01" Max="3.68023324e+00"/>
    <Variable VarIndex="3" Expression="m_jlv" Label="m_jlv" Title="m_jlv" Unit="" Internal="m_jlv" Type="F" Min="4.35224533e-01" Max="6.58312130e+00"/>
    <Variable VarIndex="4" Expression="m_bb" Label="m_bb" Title="m_bb" Unit="" Internal="m_bb" Type="F" Min="8.09864625e-02" Max="5.86379290e+00"/>
    <Variable VarIndex="5" Expression="m_wbb" Label="m_wbb" Title="m_wbb" Unit="" Internal="m_wbb" Type="F" Min="3.85025799e-01" Max="6.40131283e+00"/>
    <Variable VarIndex="6" Expression="m_wwbb" Label="m_wwbb" Title="m_wwbb" Unit="" Internal="m_wwbb" Type="F" Min="4.32279825e-01" Max="4.53500271e+00"/>
  </Variables>
  <Spectators NSpec="0"/>
  <Classes NClass="2">
    <Class Name="Signal" Index="0"/>
    <Class Name="Background" Index="1"/>
  </Classes>
  <Transformations NTransformations="1">
    <Transform Name="Gauss" FlatOrGauss="Gauss">
      <Selection>
        <Input NInputs="7">
          <Input Type="Variable" Label="m_jj" Expression="m_jj"/>
          <Input Type="Variable" Label="m_jjj" Expression="m_jjj"/>
          <Input Type="Variable" Label="m_lv" Expression="m_lv"/>
          <Input Type="Variable" Label="m_jlv" Expression="m_jlv"/>
          <Input Type="Variable" Label="m_bb" Expression="m_bb"/>
          <Input Type="Variable" Label="m_wbb" Expression="m_wbb"/>
          <Input Type="Variable" Label="m_wwbb" Expression="m_wwbb"/>
        </Input>
        <Output NOutputs="7">
          <Output Type="Variable" Label="m_jj" Expression="m_jj"/>
          <Output Type="Variable" Label="m_jjj" Expression="m_jjj"/>
          <Output Type="Variable" Label="m_lv" Expression="m_lv"/>
          <Output Type="Variable" Label="m_jlv" Expression="m_jlv"/>
          <Output Type="Variable" Label="m_bb" Expression="m_bb"/>
          <Output Type="Variable" Label="m_wbb" Expression="m_wbb"/>
          <Output Type="Variable" Label="m_wwbb" Expression="m_wwbb"/>
        </Output>
      </Selection>
      <Variable VarIndex="0">
        <CumulativePDF_cls0>
          <PDF Name="GaussTransform var0 cls0" MinNSmooth="0" MaxNSmooth="0" InterpolMethod="1" KDE_type="0" KDE_iter="1" KDE_border="1" KDE_finefactor="0.0000000000000000e+00">
            <Histogram Name="Cumulative_Var0_cls0_original" NBins="701" XMin="1.5095862746238708e-01" XMax="1.3098125457763672e+01" HasEquidistantBins="0">
              1.03479042e-03 2.31935782e-03 3.73773417e-03 5.17395185e-03 6.60124887e-03 8.02854635e-03 9.45584290e-03 1.08831404e-02 1.23104369e-02 1.37377344e-02 1.51650310e-02 1.65923275e-02 1.80196259e-02 1.94469225e-02 2.08742190e-02 2.23015174e-02 2.37288140e-02 2.51561105e-02 2.65834071e-02 2.80107055e-02 2.94380020e-02 3.08652986e-02 3.22925970e-02 3.37198935e-02 3.51471901e-02 3.65744866e-02 3.80017832e-02 3.94290797e-02 4.08563800e-02 4.22836766e-02 4.37109731e-02 4.51382697e-02 4.65655662e-02 4.79928628e-02 4.94201593e-02 5.08474559e-02 5.22747561e-02 5.37020527e-02 5.51293492e-02 5.65566458e-02 5.79839423e-02 5.94112389e-02 6.08385354e-02 6.22658357e-02 6.36931285e-02 6.51204288e-02 6.65477216e-02 6.79750219e-02 6.94023222e-02 7.08296150e-02 7.22569153e-02 7.36842081e-02 7.51115084e-02 7.65388012e-02 7.79661015e-02 7.93934017e-02 8.08206946e-02 8.22479948e-02 8.36752877e-02 8.51025879e-02 8.65298808e-02 8.79571810e-02 8.93844813e-02 9.08117741e-02 9.22390744e-02 9.36663672e-02 9.50936675e-02 9.65209603e-02 9.79482606e-02 9.93755609e-02 1.00802854e-01 1.02230154e-01 1.03657447e-01 1.05084747e-01 1.06512040e-01 1.07939340e-01 1.09366640e-01 1.10793933e-01 1.12221234e-01 1.13648526e-01 1.15075827e-01 1.16503119e-01 1.17930420e-01 1.19357720e-01 1.20785013e-01 1.22212313e-01 1.23639606e-01 1.25066906e-01 1.26494199e-01 1.27921492e-01 1.29348800e-01 1.30776092e-01 1.32203385e-01 1.33630693e-01 1.35057986e-01 1.36485279e-01 1.37912571e-01 1.39339879e-01 1.40767172e-01 1.42194465e-01 1.43621773e-01 1.45049065e-01 1.46476358e-01 1.47903651e-01 1.49330959e-01 1.50758252e-01 1.52185544e-01 1.53612852e-01 1.55040145e-01 1.56467438e-01 1.57894731e-01 1.59322038e-01 1.60749331e-01 1.62176624e-01 1.63603932e-01 1.65031224e-01 1.66458517e-01 1.67885810e-01 1.69313118e-01 1.70740411e-01 1.72167704e-01 1.73595011e-01 1.75022304e-01 1.76449597e-01 1.77876890e-01 1.79304197e-01 1.80731490e-01 1.82158783e-01 1.83586091e-01 1.85013384e-01 1.86440676e-01 1.87867969e-01 1.89295277e-01 1.90722570e-01 1.92149863e-01 1.93577170e-01 1.95004463e-01 1.96431756e-01 1.97859049e-01 1.99286357e-01 2.00713649e-01 2.02140942e-01 2.03568250e-01 2.04995543e-01 2.06422836e-01 2.07850128e-01 2.09277436e-01 2.10704729e-01 2.12132022e-01 2.13559315e-01 2.14986622e-01 2.16413915e-01 2.17841208e-01 2.19268516e-01 2.20695809e-01 2.22123101e-01 2.23550394e-01 2.24977702e-01 2.26404995e-01 2.27832288e-01 2.29259595e-01 2.30686888e-01 2.32114181e-01 2.33541474e-01 2.34968781e-01 2.36396074e-01 2.37823367e-01 2.39250675e-01 2.40677968e-01 2.42105260e-01 2.43532553e-01 2.44959861e-01 2.46387154e-01 2.47814447e-01 2.49241754e-01 2.50669032e-01 2.52096355e-01 2.53523648e-01 2.54950941e-01 2.56378233e-01 2.57805526e-01 2.59232819e-01 2.60660112e-01 2.62087435e-01 2.63514727e-01 2.64942020e-01 2.66369313e-01 2.67796606e-01 2.69223899e-01 2.70651191e-01 2.72078514e-01 2.73505807e-01 2.74933100e-01 2.76360393e-01 2.77787685e-01 2.79214978e-01 2.80642271e-01 2.82069594e-01 2.83496886e-01 2.84924179e-01 2.86351472e-01 2.87778765e-01 2.89206058e-01 2.90633351e-01 2.92060673e-01 2.93487966e-01 2.94915259e-01 2.96342552e-01 2.97769845e-01 2.99197137e-01 3.00624430e-01 3.02051753e-01 3.03479046e-01 3.04906338e-01 3.06333631e-01 3.07760924e-01 3.09188217e-01 3.10615510e-01 3.12042832e-01 3.13470125e-01 3.14897418e-01 3.16324711e-01 3.17752004e-01 3.19179296e-01 3.20606589e-01 3.22033912e-01 3.23461205e-01 3.24888498e-01 3.26315790e-01 3.27743083e-01 3.29170376e-01 3.30597669e-01 3.32024992e-01 3.33452284e-01 3.34879577e-01 3.36306870e-01 3.37734163e-01 3.39161456e-01 3.40588748e-01 3.42016071e-01 3.43443364e-01 3.44870657e-01 3.46297950e-01 3.47725242e-01 3.49152535e-01 3.50579828e-01 3.52007151e-01 3.53434443e-01 3.54861736e-01 3.56289029e-01 3.57716322e-01 3.59143615e-01 3.60570908e-01 3.61998230e-01 3.63425523e-01 3.64852816e-01 3.66280109e-01 3.67707402e-01 3.69134694e-01 3.70561987e-01 3.71989310e-01 3.73416603e-01 3.74843895e-01 3.76271188e-01 3.77698481e-01 3.79125774e-01 3.80553067e-01 3.81980389e-01 3.83407682e-01 3.84834975e-01 3.86262268e-01 3.87689561e-01 3.89116853e-01 3.90544146e-01 3.91971469e-01 3.93398762e-01 3.94826055e-01 3.96253347e-01 3.97680640e-01 3.99107933e-01 4.00535226e-01 4.01962519e-01 4.03389841e-01 4.04817134e-01 4.06244427e-01 4.07671720e-01 4.09099013e-01 4.10526305e-01 4.11953598e-01 4.13380921e-01 4.14808214e-01 4.16235507e-01 4.17662799e-01 4.19090092e-01 4.20517385e-01 4.21944678e-01 4.23372000e-01 4.24799293e-01 4.26226586e-01 4.27653879e-01 4.29081172e-01 4.30508465e-01 4.31935757e-01 4.33363080e-01 4.34790373e-01 4.36217666e-01 4.37644958e-01 4.39072251e-01 4.40499544e-01 4.41926837e-01 4.43354160e-01 4.44781452e-01 4.46208745e-01 4.47636038e-01 4.49063331e-01 4.50490624e-01 4.51917917e-01 4.53345239e-01 4.54772532e-01 4.56199825e-01 4.57627118e-01 4.59054410e-01 4.60481703e-01 4.61908996e-01 4.63336319e-01 4.64763612e-01 4.66190904e-01 4.67618197e-01 4.69045490e-01 4.70472783e-01 4.71900076e-01 4.73327398e-01 4.74754691e-01 4.76181984e-01 4.77609277e-01 4.79036570e-01 4.80463862e-01 4.81891155e-01 4.83318478e-01 4.84745771e-01 4.86173064e-01 4.87600356e-01 4.89027649e-01 4.90454942e-01 4.91882235e-01 4.93309557e-01 4.94736850e-01 4.96164143e-01 4.97591436e-01 4.99018729e-01 5.00446022e-01 5.01873314e-01 5.03300607e-01 5.04727900e-01 5.06155193e-01 5.07582545e-01 5.09009838e-01 5.10437131e-01 5.11864424e-01 5.13291717e-01 5.14719009e-01 5.16146302e-01 5.17573595e-01 5.19000888e-01 5.20428181e-01 5.21855474e-01 5.23282766e-01 5.24710059e-01 5.26137352e-01 5.27564645e-01 5.28991997e-01 5.30419290e-01 5.31846583e-01 5.33273876e-01 5.34701169e-01 5.36128461e-01 5.37555754e-01 5.38983047e-01 5.40410340e-01 5.41837633e-01 5.43264925e-01 5.44692218e-01 5.46119511e-01 5.47546804e-01 5.48974156e-01 5.50401449e-01 5.51828742e-01 5.53256035e-01 5.54683328e-01 5.56110620e-01 5.57537913e-01 5.58965206e-01 5.60392499e-01 5.61819792e-01 5.63247085e-01 5.64674377e-01 5.66101670e-01 5.67528963e-01 5.68956316e-01 5.70383608e-01 5.71810901e-01 5.73238194e-01 5.74665487e-01 5.76092780e-01 5.77520072e-01 5.78947365e-01 5.80374658e-01 5.81801951e-01 5.83229244e-01 5.84656537e-01 5.86083829e-01 5.87511122e-01 5.88938475e-01 5.90365767e-01 5.91793060e-01 5.93220353e-01 5.94647646e-01 5.96074939e-01 5.97502232e-01 5.98929524e-01 6.00356817e-01 6.01784110e-01 6.03211403e-01 6.04638696e-01 6.06065989e-01 6.07493281e-01 6.08920634e-01 6.10347927e-01 6.11775219e-01 6.13202512e-01 6.14629805e-01 6.16057098e-01 6.17484391e-01 6.18911684e-01 6.20338976e-01 6.21766269e-01 6.23193562e-01 6.24620855e-01 6.26048148e-01 6.27475441e-01 6.28902793e-01 6.30330086e-01 6.31757379e-01 6.33184671e-01 6.34611964e-01 6.36039257e-01 6.37466550e-01 6.38893843e-01 6.40321136e-01 6.41748428e-01 6.43175721e-01 6.44603014e-01 6.46030307e-01 6.47457600e-01 6.48884952e-01 6.50312245e-01 6.51739538e-01 6.53166831e-01 6.54594123e-01 6.56021416e-01 6.57448709e-01 6.58876002e-01 6.60303295e-01 6.61730587e-01 6.63157880e-01 6.64585173e-01 6.66012466e-01 6.67439759e-01 6.68867111e-01 6.70294404e-01 6.71721697e-01 6.73148990e-01 6.74576283e-01 6.76003575e-01 6.77430868e-01 6.78858161e-01 6.80285454e-01 6.81712747e-01 6.83140039e-01 6.84567332e-01 6.85994625e-01 6.87421918e-01 6.88849270e-01 6.90276563e-01 6.91703856e-01 6.93131149e-01 6.94558442e-01 6.95985734e-01 6.97413027e-01 6.98840320e-01 7.00267613e-01 7.01694906e-01 7.03122199e-01 7.04549491e-01 7.05976784e-01 7.07404077e-01 7.08831429e-01 7.10258722e-01 7.11686015e-01 7.13113308e-01 7.14540601e-01 7.15967894e-01 7.17395186e-01 7.18822479e-01 7.20249772e-01 7.21677065e-01 7.23104358e-01 7.24531651e-01 7.25958943e-01 7.27386236e-01 7.28813589e-01 7.30240881e-01 7.31668174e-01 7.33095467e-01 7.34522760e-01 7.35950053e-01 7.37377346e-01 7.38804638e-01 7.40231931e-01 7.41659224e-01 7.43086517e-01 7.44513810e-01 7.45941103e-01 7.47368395e-01 7.48795748e-01 7.50223041e-01 7.51650333e-01 7.53077626e-01 7.54504919e-01 7.55932212e-01 7.57359505e-01 7.58786798e-01 7.60214090e-01 7.61641383e-01 7.63068676e-01 7.64495969e-01 7.65923262e-01 7.67350554e-01 7.68777847e-01 7.70205200e-01 7.71632493e-01 7.73059785e-01 7.74487078e-01 7.75914371e-01 7.77341664e-01 7.78768957e-01 7.80196249e-01 7.81623542e-01 7.83050835e-01 7.84478128e-01 7.85905421e-01 7.87332714e-01 7.88760006e-01 7.90187359e-01 7.91614652e-01 7.93041945e-01 7.94469237e-01 7.95896530e-01 7.97323823e-01 7.98751116e-01 8.00178409e-01 8.01605701e-01 8.03032994e-01 8.04460287e-01 8.05887580e-01 8.07314873e-01 8.08742166e-01 8.10169518e-01 8.11596811e-01 8.13024104e-01 8.14451396e-01 8.15878689e-01 8.17305982e-01 8.18733275e-01 8.20160568e-01 8.21587861e-01 8.23015153e-01 8.24442446e-01 8.25869739e-01 8.27297032e-01 8.28724325e-01 8.30151677e-01 8.31578970e-01 8.33006263e-01 8.34433556e-01 8.35860848e-01 8.37288141e-01 8.38715434e-01 8.40142727e-01 8.41570020e-01 8.42997313e-01 8.44424605e-01 8.45851898e-01 8.47279191e-01 8.48706484e-01 8.50133836e-01 8.51561129e-01 8.52988422e-01 8.54415715e-01 8.55843008e-01 8.57270300e-01 8.58697593e-01 8.60124886e-01 8.61552179e-01 8.62979472e-01 8.64406765e-01 8.65834057e-01 8.67261350e-01 8.68688643e-01 8.70115995e-01 8.71543288e-01 8.72970581e-01 8.74397874e-01 8.75825167e-01 8.77252460e-01 8.78679752e-01 8.80107045e-01 8.81534338e-01 8.82961631e-01 8.84388924e-01 8.85816216e-01 8.87243509e-01 8.88670802e-01 8.90098155e-01 8.91525447e-01 8.92952740e-01 8.94380033e-01 8.95807326e-01 8.97234619e-01 8.98661911e-01 9.00089204e-01 9.01516497e-01 9.02943790e-01 9.04371083e-01 9.05798376e-01 9.07225668e-01 9.08652961e-01 9.10080314e-01 9.11507607e-01 9.12934899e-01 9.14362192e-01 9.15789485e-01 9.17216778e-01 9.18644071e-01 9.20071363e-01 9.21498656e-01 9.22925949e-01 9.24353242e-01 9.25780535e-01 9.27207828e-01 9.28635120e-01 9.30062473e-01 9.31489766e-01 9.32917058e-01 9.34344351e-01 9.35771644e-01 9.37198937e-01 9.38626230e-01 9.40053523e-01 9.41480815e-01 9.42908108e-01 9.44335401e-01 9.45762694e-01 9.47189987e-01 9.48617280e-01 9.50044632e-01 9.51471925e-01 9.52899218e-01 9.54326510e-01 9.55753803e-01 9.57181096e-01 9.58608389e-01 9.60035682e-01 9.61462975e-01 9.62890267e-01 9.64317560e-01 9.65744853e-01 9.67172146e-01 9.68599439e-01 9.70026791e-01 9.71454084e-01 9.72881377e-01 9.74308670e-01 9.75735962e-01 9.77163255e-01 9.78590548e-01 9.80017841e-01 9.81445134e-01 9.82872427e-01 9.84299719e-01 9.85727012e-01 9.87154305e-01 9.88581598e-01 9.90008950e-01 9.91436243e-01 9.92863536e-01 9.94290829e-01 9.95718122e-01 9.97145414e-01 9.98572707e-01 1.00000000e+00 
            </Histogram>
            <HistogramBinning NBins="701">
              1.50958627e-01 1.51058629e-01 2.17474610e-01 2.58181244e-01 2.73685992e-01 2.96367824e-01 3.06989759e-01 3.18181872e-01 3.39275271e-01 3.54866654e-01 3.66999507e-01 3.77556473e-01 3.86016428e-01 3.98523271e-01 4.02881533e-01 4.11975503e-01 4.27569151e-01 4.34641331e-01 4.42364603e-01 4.50613588e-01 4.54521418e-01 4.63865101e-01 4.71126556e-01 4.74000126e-01 4.83749747e-01 4.89373744e-01 4.94818717e-01 4.99849766e-01 5.02513468e-01 5.06701827e-01 5.13874412e-01 5.19849539e-01 5.23544192e-01 5.26456475e-01 5.31486392e-01 5.34914136e-01 5.41099131e-01 5.45528114e-01 5.48858941e-01 5.52082598e-01 5.57114780e-01 5.60779750e-01 5.64948618e-01 5.68879306e-01 5.71727812e-01 5.76839745e-01 5.78843296e-01 5.82129657e-01 5.86503863e-01 5.90130031e-01 5.94808757e-01 6.02661967e-01 6.03570819e-01 6.05427265e-01 6.08354449e-01 6.11451507e-01 6.15591943e-01 6.17407322e-01 6.20118976e-01 6.22619629e-01 6.26029193e-01 6.30720377e-01 6.32674873e-01 6.35838091e-01 6.38697982e-01 6.41369700e-01 6.43592179e-01 6.46222830e-01 6.47789598e-01 6.50275528e-01 6.54561937e-01 6.56331658e-01 6.58867717e-01 6.60986364e-01 6.62823439e-01 6.64519072e-01 6.67947948e-01 6.69875085e-01 6.73184216e-01 6.74870729e-01 6.76323473e-01 6.78495824e-01 6.82289600e-01 6.84594154e-01 6.85879290e-01 6.87033236e-01 6.90094948e-01 6.92268372e-01 6.94731474e-01 6.97757840e-01 6.98724806e-01 7.01176465e-01 7.02644050e-01 7.04443455e-01 7.05033004e-01 7.06133366e-01 7.07508624e-01 7.09208786e-01 7.11455226e-01 7.13492930e-01 7.14833915e-01 7.16268420e-01 7.17796445e-01 7.19591260e-01 7.21126139e-01 7.22721398e-01 7.24131942e-01 7.25558460e-01 7.26641774e-01 7.28294134e-01 7.29272485e-01 7.30435550e-01 7.31477797e-01 7.32824564e-01 7.34109700e-01 7.34909058e-01 7.36430228e-01 7.37122357e-01 7.38853276e-01 7.39897847e-01 7.40748525e-01 7.41835237e-01 7.43010879e-01 7.44201362e-01 7.44721353e-01 7.45834291e-01 7.47006536e-01 7.47976899e-01 7.49408007e-01 7.50619054e-01 7.52457142e-01 7.53563225e-01 7.55112946e-01 7.56373048e-01 7.57812083e-01 7.58899927e-01 7.59943247e-01 7.60999143e-01 7.61895537e-01 7.63556898e-01 7.64707506e-01 7.65627742e-01 7.66460121e-01 7.67819405e-01 7.68351912e-01 7.69119322e-01 7.70763636e-01 7.71344066e-01 7.72386312e-01 7.73429692e-01 7.73808300e-01 7.74451375e-01 7.75759339e-01 7.76364863e-01 7.78110623e-01 7.79131234e-01 7.80248702e-01 7.81014979e-01 7.82101691e-01 7.82894254e-01 7.83808768e-01 7.84548759e-01 7.85178185e-01 7.86654949e-01 7.87490785e-01 7.88295865e-01 7.89634526e-01 7.90714443e-01 7.91582227e-01 7.93367922e-01 7.94630229e-01 7.95746624e-01 7.96821892e-01 7.97436535e-01 7.98492432e-01 7.99176633e-01 7.99715996e-01 8.00571263e-01 8.01337540e-01 8.02273750e-01 8.02810788e-01 8.03461909e-01 8.04631829e-01 8.05568039e-01 8.06096017e-01 8.07035625e-01 8.07933092e-01 8.08294594e-01 8.08938801e-01 8.09835076e-01 8.10922980e-01 8.11669827e-01 8.12694967e-01 8.13332379e-01 8.13879788e-01 8.14738393e-01 8.15169454e-01 8.15544605e-01 8.16357672e-01 8.16779554e-01 8.17203760e-01 8.17656457e-01 8.18622351e-01 8.19526613e-01 8.19965601e-01 8.20473075e-01 8.21148098e-01 8.21648657e-01 8.22059214e-01 8.23121965e-01 8.23971450e-01 8.24477732e-01 8.24928164e-01 8.25554192e-01 8.25984120e-01 8.26550841e-01 8.27466488e-01 8.28060627e-01 8.28603387e-01 8.29369664e-01 8.30052733e-01 8.30624044e-01 8.31048250e-01 8.31785977e-01 8.32159996e-01 8.32542002e-01 8.33040297e-01 8.33585382e-01 8.34087074e-01 8.34691465e-01 8.35404158e-01 8.35881948e-01 8.36311877e-01 8.36553574e-01 8.37179601e-01 8.37674558e-01 8.37966442e-01 8.38406563e-01 8.38787436e-01 8.39194596e-01 8.39681447e-01 8.40421557e-01 8.40767026e-01 8.41195822e-01 8.41615438e-01 8.42234552e-01 8.42763722e-01 8.43214095e-01 8.44044209e-01 8.44697654e-01 8.45181108e-01 8.45909834e-01 8.46290708e-01 8.47210884e-01 8.47810745e-01 8.48265648e-01 8.48713815e-01 8.49334180e-01 8.49855304e-01 8.50520074e-01 8.50855350e-01 8.51462007e-01 8.51745963e-01 8.52240801e-01 8.52777898e-01 8.53397071e-01 8.53864610e-01 8.54304731e-01 8.54651451e-01 8.55334461e-01 8.55839550e-01 8.56334507e-01 8.56882930e-01 8.57499838e-01 8.58132780e-01 8.58692706e-01 8.59185278e-01 8.59948158e-01 8.60575318e-01 8.60926569e-01 8.61262858e-01 8.61761212e-01 8.62278938e-01 8.62802327e-01 8.63250434e-01 8.63884509e-01 8.64349663e-01 8.64902735e-01 8.65431845e-01 8.65632534e-01 8.66665661e-01 8.67045403e-01 8.67925763e-01 8.68395507e-01 8.69012415e-01 8.69820893e-01 8.70647550e-01 8.71393442e-01 8.72060418e-01 8.72705877e-01 8.73155117e-01 8.73423100e-01 8.74076545e-01 8.74682069e-01 8.75390112e-01 8.75805199e-01 8.76422107e-01 8.76977503e-01 8.77787113e-01 8.78230631e-01 8.78840744e-01 8.79554570e-01 8.80010724e-01 8.80583048e-01 8.81150961e-01 8.81981134e-01 8.82517040e-01 8.82940114e-01 8.83202434e-01 8.83764565e-01 8.84057581e-01 8.84562790e-01 8.85064542e-01 8.85673404e-01 8.86252642e-01 8.86655211e-01 8.87294888e-01 8.87795568e-01 8.88479710e-01 8.89117181e-01 8.89520824e-01 8.89793336e-01 8.90226662e-01 8.90698731e-01 8.91080737e-01 8.91706765e-01 8.92427444e-01 8.92726243e-01 8.93177807e-01 8.93616796e-01 8.94106030e-01 8.94482255e-01 8.94917905e-01 8.95361483e-01 8.95703554e-01 8.96131158e-01 8.96859884e-01 8.97318244e-01 8.97677481e-01 8.98176849e-01 8.98798347e-01 8.99410665e-01 8.99773359e-01 9.00456369e-01 9.01051641e-01 9.01864648e-01 9.02482629e-01 9.02847588e-01 9.03317392e-01 9.04042602e-01 9.04725671e-01 9.05254781e-01 9.05822635e-01 9.06245708e-01 9.06563818e-01 9.07016516e-01 9.07592416e-01 9.08245802e-01 9.08741832e-01 9.09266353e-01 9.09879863e-01 9.10321116e-01 9.10620987e-01 9.10841107e-01 9.11161542e-01 9.11424994e-01 9.11658704e-01 9.12256241e-01 9.12583530e-01 9.13025916e-01 9.13739800e-01 9.14362371e-01 9.14791107e-01 9.15356755e-01 9.15592790e-01 9.16001022e-01 9.16362464e-01 9.16656733e-01 9.17481124e-01 9.17882502e-01 9.18394506e-01 9.18825567e-01 9.19142485e-01 9.19656873e-01 9.20223534e-01 9.20624971e-01 9.21100497e-01 9.21627283e-01 9.22068596e-01 9.22312558e-01 9.22786951e-01 9.23257887e-01 9.23956931e-01 9.24279571e-01 9.24560189e-01 9.25056159e-01 9.25589859e-01 9.25998092e-01 9.26848769e-01 9.27373290e-01 9.27887619e-01 9.28479373e-01 9.29041564e-01 9.29323256e-01 9.29978848e-01 9.30535316e-01 9.30937827e-01 9.31755483e-01 9.32547987e-01 9.33037221e-01 9.33525264e-01 9.33979034e-01 9.34615374e-01 9.34925497e-01 9.35258567e-01 9.35762525e-01 9.36183274e-01 9.36783075e-01 9.37633753e-01 9.38068271e-01 9.38676000e-01 9.39112723e-01 9.39702272e-01 9.40344274e-01 9.41345453e-01 9.41882491e-01 9.42831218e-01 9.43491459e-01 9.44108367e-01 9.44949985e-01 9.45718527e-01 9.46347952e-01 9.46924925e-01 9.47861135e-01 9.49029982e-01 9.49609280e-01 9.50227320e-01 9.50955927e-01 9.51661825e-01 9.52412128e-01 9.53001678e-01 9.53798711e-01 9.54267442e-01 9.55336988e-01 9.55939114e-01 9.57025826e-01 9.57868457e-01 9.58804667e-01 9.59466040e-01 9.60443258e-01 9.60883498e-01 9.61610973e-01 9.62153733e-01 9.62969124e-01 9.63693202e-01 9.64364827e-01 9.65095758e-01 9.65706944e-01 9.66683090e-01 9.67249811e-01 9.67843890e-01 9.69163239e-01 9.70399320e-01 9.71126795e-01 9.71939862e-01 9.72738087e-01 9.73637819e-01 9.74190891e-01 9.75280941e-01 9.76206899e-01 9.76961792e-01 9.77391601e-01 9.78479564e-01 9.79652882e-01 9.81502473e-01 9.82414722e-01 9.83829856e-01 9.85202789e-01 9.86453652e-01 9.87522185e-01 9.88212049e-01 9.89579260e-01 9.90867794e-01 9.92313683e-01 9.93463099e-01 9.94389057e-01 9.95827019e-01 9.97210205e-01 9.98122394e-01 9.99144137e-01 9.99628782e-01 1.00091171e+00 1.00209415e+00 1.00314999e+00 1.00393569e+00 1.00516951e+00 1.00631559e+00 1.00734067e+00 1.00806928e+00 1.00899637e+00 1.01001704e+00 1.01106715e+00 1.01268530e+00 1.01362717e+00 1.01515055e+00 1.01666033e+00 1.01911891e+00 1.02043140e+00 1.02188182e+00 1.02383971e+00 1.02507353e+00 1.02629256e+00 1.02805436e+00 1.02972484e+00 1.03139424e+00 1.03246725e+00 1.03423023e+00 1.03603649e+00 1.03876984e+00 1.04069471e+00 1.04242778e+00 1.04464459e+00 1.04636300e+00 1.04718173e+00 1.04989457e+00 1.05108285e+00 1.05393243e+00 1.05577064e+00 1.05655742e+00 1.05975032e+00 1.06132281e+00 1.06288385e+00 1.06413472e+00 1.06673121e+00 1.06885898e+00 1.07076788e+00 1.07324803e+00 1.07709312e+00 1.07933497e+00 1.08217323e+00 1.08378565e+00 1.08728862e+00 1.08881664e+00 1.09224331e+00 1.09588766e+00 1.09748650e+00 1.09973514e+00 1.10163832e+00 1.10318220e+00 1.10484719e+00 1.10661805e+00 1.10901952e+00 1.11108685e+00 1.11286569e+00 1.11631632e+00 1.11908722e+00 1.12121046e+00 1.12667823e+00 1.12974787e+00 1.13128281e+00 1.13590670e+00 1.13949418e+00 1.14503837e+00 1.14896095e+00 1.15192568e+00 1.15412652e+00 1.15944040e+00 1.16427529e+00 1.16736555e+00 1.17027330e+00 1.17426431e+00 1.17851770e+00 1.18421924e+00 1.18898571e+00 1.19138026e+00 1.19432235e+00 1.19842744e+00 1.20213342e+00 1.20506406e+00 1.20899808e+00 1.21224797e+00 1.21652412e+00 1.22058356e+00 1.22407293e+00 1.22950077e+00 1.23370850e+00 1.23826981e+00 1.24313879e+00 1.24941051e+00 1.25759792e+00 1.26426876e+00 1.26958251e+00 1.27778137e+00 1.28290129e+00 1.28920722e+00 1.29728055e+00 1.30422509e+00 1.31123793e+00 1.31717896e+00 1.32300591e+00 1.33589137e+00 1.33973420e+00 1.34604001e+00 1.35008824e+00 1.35568702e+00 1.36173069e+00 1.37160563e+00 1.37683964e+00 1.38611042e+00 1.39820898e+00 1.40841484e+00 1.41695571e+00 1.42485809e+00 1.43987584e+00 1.44658089e+00 1.45997941e+00 1.47000265e+00 1.48232949e+00 1.49079049e+00 1.49905777e+00 1.51440632e+00 1.52525055e+00 1.53414488e+00 1.54471552e+00 1.55736160e+00 1.56308591e+00 1.57779586e+00 1.58659899e+00 1.60641766e+00 1.62194860e+00 1.62985086e+00 1.63858569e+00 1.64974916e+00 1.65872335e+00 1.66969311e+00 1.68000150e+00 1.69460881e+00 1.70773375e+00 1.71850955e+00 1.73694837e+00 1.75478268e+00 1.76454377e+00 1.78492105e+00 1.80200279e+00 1.81928992e+00 1.83767164e+00 1.86409259e+00 1.87888229e+00 1.89635181e+00 1.91926062e+00 1.92739093e+00 1.94358325e+00 1.96209037e+00 1.97080231e+00 1.99550128e+00 2.01509190e+00 2.03711104e+00 2.06502581e+00 2.09121871e+00 2.13078713e+00 2.15879321e+00 2.19679952e+00 2.21192002e+00 2.24783969e+00 2.27259564e+00 2.33734250e+00 2.38840532e+00 2.43317366e+00 2.45011854e+00 2.50047469e+00 2.55306554e+00 2.60987544e+00 2.66685653e+00 2.71439600e+00 2.76492286e+00 2.86774421e+00 3.00453520e+00 3.06319261e+00 3.15633297e+00 3.31346703e+00 3.43192196e+00 3.51413798e+00 3.72752357e+00 3.94502568e+00 4.05943251e+00 4.28393602e+00 4.43997574e+00 4.76873684e+00 5.45250988e+00 6.08414888e+00 7.87591171e+00 1.30981255e+01 
            </HistogramBinning>
          </PDF>
        </CumulativePDF_cls0>
        <CumulativePDF_cls1>
          <PDF Name="GaussTransform var0 cls1" MinNSmooth="0" MaxNSmooth="0" InterpolMethod="1" KDE_type="0" KDE_iter="1" KDE_border="1" KDE_finefactor="0.0000000000000000e+00">
            <Histogram Name="Cumulative_Var0_cls1_original" NBins="701" XMin="1.4650572836399078e-01" XMax="1.6131908416748047e+01" HasEquidistantBins="0">
              1.03479042e-03 2.31935782e-03 3.73773417e-03 5.17395185e-03 6.60124887e-03 8.02854635e-03 9.45584290e-03 1.08831404e-02 1.23104369e-02 1.37377344e-02 1.51650310e-02 1.65923275e-02 1.80196259e-02 1.94469225e-02 2.08742190e-02 2.23015174e-02 2.37288140e-02 2.51561105e-02 2.65834071e-02 2.80107055e-02 2.94380020e-02 3.08652986e-02 3.22925970e-02 3.37198935e-02 3.51471901e-02 3.65744866e-02 3.80017832e-02 3.94290797e-02 4.08563800e-02 4.22836766e-02 4.37109731e-02 4.51382697e-02 4.65655662e-02 4.79928628e-02 4.94201593e-02 5.08474559e-02 5.22747561e-02 5.37020527e-02 5.51293492e-02 5.65566458e-02 5.79839423e-02 5.94112389e-02 6.08385354e-02 6.22658357e-02 6.36931285e-02 6.51204288e-02 6.65477216e-02 6.79750219e-02 6.94023222e-02 7.08296150e-02 7.22569153e-02 7.36842081e-02 7.51115084e-02 7.65388012e-02 7.79661015e-02 7.93934017e-02 8.08206946e-02 8.22479948e-02 8.36752877e-02 8.51025879e-02 8.65298808e-02 8.79571810e-02 8.93844813e-02 9.08117741e-02 9.22390744e-02 9.36663672e-02 9.50936675e-02 9.65209603e-02 9.79482606e-02 9.93755609e-02 1.00802854e-01 1.02230154e-01 1.03657447e-01 1.05084747e-01 1.06512040e-01 1.07939340e-01 1.09366640e-01 1.10793933e-01 1.12221234e-01 1.13648526e-01 1.15075827e-01 1.16503119e-01 1.17930420e-01 1.19357720e-01 1.20785013e-01 1.22212313e-01 1.23639606e-01 1.25066906e-01 1.26494199e-01 1.27921492e-01 1.29348800e-01 1.30776092e-01 1.32203385e-01 1.33630693e-01 1.35057986e-01 1.36485279e-01 1.37912571e-01 1.39339879e-01 1.40767172e-01 1.42194465e-01 1.43621773e-01 1.45049065e-01 1.46476358e-01 1.47903651e-01 1.49330959e-01 1.50758252e-01 1.52185544e-01 1.53612852e-01 1.55040145e-01 1.56467438e-01 1.57894731e-01 1.59322038e-01 1.60749331e-01 1.62176624e-01 1.63603932e-01 1.65031224e-01 1.66458517e-01 1.67885810e-01 1.69313118e-01 1.70740411e-01 1.72167704e-01 1.73595011e-01 1.75022304e-01 1.76449597e-01 1.77876890e-01 1.79304197e-01 1.80731490e-01 1.82158783e-01 1.83586091e-01 1.85013384e-01 1.86440676e-01 1.87867969e-01 1.89295277e-01 1.90722570e-01 1.92149863e-01 1.93577170e-01 1.95004463e-01 1.96431756e-01 1.97859049e-01 1.99286357e-01 2.00713649e-01 2.02140942e-01 2.03568250e-01 2.04995543e-01 2.06422836e-01 2.07850128e-01 2.09277436e-01 2.10704729e-01 2.12132022e-01 2.13559315e-01 2.14986622e-01 2.16413915e-01 2.17841208e-01 2.19268516e-01 2.20695809e-01 2.22123101e-01 2.23550394e-01 2.24977702e-01 2.26404995e-01 2.27832288e-01 2.29259595e-01 2.30686888e-01 2.32114181e-01 2.33541474e-01 2.34968781e-01 2.36396074e-01 2.37823367e-01 2.39250675e-01 2.40677968e-01 2.42105260e-01 2.43532553e-01 2.44959861e-01 2.46387154e-01 2.47814447e-01 2.49241754e-01 2.50669032e-01 2.52096355e-01 2.53523648e-01 2.54950941e-01 2.56378233e-01 2.57805526e-01 2.59232819e-01 2.60660112e-01 2.62087435e-01 2.63514727e-01 2.64942020e-01 2.66369313e-01 2.67796606e-01 2.69223899e-01 2.70651191e-01 2.72078514e-01 2.73505807e-01 2.74933100e-01 2.76360393e-01 2.77787685e-01 2.79214978e-01 2.80642271e-01 2.82069594e-01 2.83496886e-01 2.84924179e-01 2.86351472e-01 2.87778765e-01 2.89206058e-01 2.90633351e-01 2.92060673e-01 2.93487966e-01 2.94915259e-01 2.96342552e-01 2.97769845e-01 2.99197137e-01 3.00624430e-01 3.02051753e-01 3.03479046e-01 3.04906338e-01 3.06333631e-01 3.07760924e-01 3.09188217e-01 3.10615510e-01 3.12042832e-01 3.13470125e-01 3.14897418e-01 3.16324711e-01 3.17752004e-01 3.19179296e-01 3.20606589e-01 3.22033912e-01 3.23461205e-01 3.24888498e-01 3.26315790e-01 3.27743083e-01 3.29170376e-01 3.30597669e-01 3.32024992e-01 3.33452284e-01 3.34879577e-01 3.36306870e-01 3.37734163e-01 3.39161456e-01 3.40588748e-01 3.42016071e-01 3.43443364e-01 3.44870657e-01 3.46297950e-01 3.47725242e-01 3.49152535e-01 3.50579828e-01 3.52007151e-01 3.53434443e-01 3.54861736e-01 3.56289029e-01 3.57716322e-01 3.59143615e-01 3.60570908e-01 3.61998230e-01 3.63425523e-01 3.64852816e-01 3.66280109e-01 3.67707402e-01 3.69134694e-01 3.70561987e-01 3.71989310e-01 3.73416603e-01 3.74843895e-01 3.76271188e-01 3.77698481e-01 3.79125774e-01 3.80553067e-01 3.81980389e-01 3.83407682e-01 3.84834975e-01 3.86262268e-01 3.87689561e-01 3.89116853e-01 3.90544146e-01 3.91971469e-01 3.93398762e-01 3.94826055e-01 3.96253347e-01 3.97680640e-01 3.99107933e-01 4.00535226e-01 4.01962519e-01 4.03389841e-01 4.04817134e-01 4.06244427e-01 4.07671720e-01 4.09099013e-01 4.10526305e-01 4.11953598e-01 4.13380921e-01 4.14808214e-01 4.16235507e-01 4.17662799e-01 4.19090092e-01 4.20517385e-01 4.21944678e-01 4.23372000e-01 4.24799293e-01 4.26226586e-01 4.27653879e-01 4.29081172e-01 4.30508465e-01 4.31935757e-01 4.33363080e-01 4.34790373e-01 4.36217666e-01 4.37644958e-01 4.39072251e-01 4.40499544e-01 4.41926837e-01 4.43354160e-01 4.44781452e-01 4.46208745e-01 4.47636038e-01 4.49063331e-01 4.50490624e-01 4.51917917e-01 4.53345239e-01 4.54772532e-01 4.56199825e-01 4.57627118e-01 4.59054410e-01 4.60481703e-01 4.61908996e-01 4.63336319e-01 4.64763612e-01 4.66190904e-01 4.67618197e-01 4.69045490e-01 4.70472783e-01 4.71900076e-01 4.73327398e-01 4.74754691e-01 4.76181984e-01 4.77609277e-01 4.79036570e-01 4.80463862e-01 4.81891155e-01 4.83318478e-01 4.84745771e-01 4.86173064e-01 4.87600356e-01 4.89027649e-01 4.90454942e-01 4.91882235e-01 4.93309557e-01 4.94736850e-01 4.96164143e-01 4.97591436e-01 4.99018729e-01 5.00446022e-01 5.01873314e-01 5.03300607e-01 5.04727900e-01 5.06155193e-01 5.07582545e-01 5.09009838e-01 5.10437131e-01 5.11864424e-01 5.13291717e-01 5.14719009e-01 5.16146302e-01 5.17573595e-01 5.19000888e-01 5.20428181e-01 5.21855474e-01 5.23282766e-01 5.24710059e-01 5.26137352e-01 5.27564645e-01 5.28991997e-01 5.30419290e-01 5.31846583e-01 5.33273876e-01 5.34701169e-01 5.36128461e-01 5.37555754e-01 5.38983047e-01 5.40410340e-01 5.41837633e-01 5.43264925e-01 5.44692218e-01 5.46119511e-01 5.47546804e-01 5.48974156e-01 5.50401449e-01 5.51828742e-01 5.53256035e-01 5.54683328e-01 5.56110620e-01 5.57537913e-01 5.58965206e-01 5.60392499e-01 5.61819792e-01 5.63247085e-01 5.64674377e-01 5.66101670e-01 5.67528963e-01 5.68956316e-01 5.70383608e-01 5.71810901e-01 5.73238194e-01 5.74665487e-01 5.76092780e-01 5.77520072e-01 5.78947365e-01 5.80374658e-01 5.81801951e-01 5.83229244e-01 5.84656537e-01 5.86083829e-01 5.87511122e-01 5.88938475e-01 5.90365767e-01 5.91793060e-01 5.93220353e-01 5.94647646e-01 5.96074939e-01 5.97502232e-01 5.98929524e-01 6.00356817e-01 6.01784110e-01 6.03211403e-01 6.04638696e-01 6.06065989e-01 6.07493281e-01 6.08920634e-01 6.10347927e-01 6.11775219e-01 6.13202512e-01 6.14629805e-01 6.16057098e-01 6.17484391e-01 6.18911684e-01 6.20338976e-01 6.21766269e-01 6.23193562e-01 6.24620855e-01 6.26048148e-01 6.27475441e-01 6.28902793e-01 6.30330086e-01 6.31757379e-01 6.33184671e-01 6.34611964e-01 6.36039257e-01 6.37466550e-01 6.38893843e-01 6.40321136e-01 6.41748428e-01 6.43175721e-01 6.44603014e-01 6.46030307e-01 6.47457600e-01 6.48884952e-01 6.50312245e-01 6.51739538e-01 6.53166831e-01 6.54594123e-01 6.56021416e-01 6.57448709e-01 6.58876002e-01 6.60303295e-01 6.61730587e-01 6.63157880e-01 6.64585173e-01 6.66012466e-01 6.67439759e-01 6.68867111e-01 6.70294404e-01 6.71721697e-01 6.73148990e-01 6.74576283e-01 6.76003575e-01 6.77430868e-01 6.78858161e-01 6.80285454e-01 6.81712747e-01 6.83140039e-01 6.84567332e-01 6.85994625e-01 6.87421918e-01 6.88849270e-01 6.90276563e-01 6.91703856e-01 6.93131149e-01 6.94558442e-01 6.95985734e-01 6.97413027e-01 6.98840320e-01 7.00267613e-01 7.01694906e-01 7.03122199e-01 7.04549491e-01 7.05976784e-01 7.07404077e-01 7.08831429e-01 7.10258722e-01 7.11686015e-01 7.13113308e-01 7.14540601e-01 7.15967894e-01 7.17395186e-01 7.18822479e-01 7.20249772e-01 7.21677065e-01 7.23104358e-01 7.24531651e-01 7.25958943e-01 7.27386236e-01 7.28813589e-01 7.30240881e-01 7.31668174e-01 7.33095467e-01 7.34522760e-01 7.35950053e-01 7.37377346e-01 7.38804638e-01 7.40231931e-01 7.41659224e-01 7.43086517e-01 7.44513810e-01 7.45941103e-01 7.47368395e-01 7.48795748e-01 7.50223041e-01 7.51650333e-01 7.53077626e-01 7.54504919e-01 7.55932212e-01 7.57359505e-01 7.58786798e-01 7.60214090e-01 7.61641383e-01 7.63068676e-01 7.64495969e-01 7.65923262e-01 7.67350554e-01 7.68777847e-01 7.70205200e-01 7.71632493e-01 7.73059785e-01 7.74487078e-01 7.75914371e-01 7.77341664e-01 7.78768957e-01 7.80196249e-01 7.81623542e-01 7.83050835e-01 7.84478128e-01 7.85905421e-01 7.87332714e-01 7.88760006e-01 7.90187359e-01 7.91614652e-01 7.93041945e-01 7.94469237e-01 7.95896530e-01 7.97323823e-01 7.98751116e-01 8.00178409e-01 8.01605701e-01 8.03032994e-01 8.04460287e-01 8.05887580e-01 8.07314873e-01 8.08742166e-01 8.10169518e-01 8.11596811e-01 8.13024104e-01 8.14451396e-01 8.15878689e-01 8.17305982e-01 8.18733275e-01 8.20160568e-01 8.21587861e-01 8.23015153e-01 8.24442446e-01 8.25869739e-01 8.27297032e-01 8.28724325e-01 8.30151677e-01 8.31578970e-01 8.33006263e-01 8.34433556e-01 8.35860848e-01 8.37288141e-01 8.38715434e-01 8.40142727e-01 8.41570020e-01 8.42997313e-01 8.44424605e-01 8.45851898e-01 8.47279191e-01 8.48706484e-01 8.50133836e-01 8.51561129e-01 8.52988422e-01 8.54415715e-01 8.55843008e-01 8.57270300e-01 8.58697593e-01 8.60124886e-01 8.61552179e-01 8.62979472e-01 8.64406765e-01 8.65834057e-01 8.67261350e-01 8.68688643e-01 8.70115995e-01 8.71543288e-01 8.72970581e-01 8.74397874e-01 8.75825167e-01 8.77252460e-01 8.78679752e-01 8.80107045e-01 8.81534338e-01 8.82961631e-01 8.84388924e-01 8.85816216e-01 8.87243509e-01 8.88670802e-01 8.90098155e-01 8.91525447e-01 8.92952740e-01 8.94380033e-01 8.95807326e-01 8.97234619e-01 8.98661911e-01 9.00089204e-01 9.01516497e-01 9.02943790e-01 9.04371083e-01 9.05798376e-01 9.07225668e-01 9.08652961e-01 9.10080314e-01 9.11507607e-01 9.12934899e-01 9.14362192e-01 9.15789485e-01 9.17216778e-01 9.18644071e-01 9.20071363e-01 9.21498656e-01 9.22925949e-01 9.24353242e-01 9.25780535e-01 9.27207828e-01 9.28635120e-01 9.30062473e-01 9.31489766e-01 9.32917058e-01 9.34344351e-01 9.35771644e-01 9.37198937e-01 9.38626230e-01 9.40053523e-01 9.41480815e-01 9.42908108e-01 9.44335401e-01 9.45762694e-01 9.47189987e-01 9.48617280e-01 9.50044632e-01 9.51471925e-01 9.52899218e-01 9.54326510e-01 9.55753803e-01 9.57181096e-01 9.58608389e-01 9.60035682e-01 9.61462975e-01 9.62890267e-01 9.64317560e-01 9.65744853e-01 9.67172146e-01 9.68599439e-01 9.70026791e-01 9.71454084e-01 9.72881377e-01 9.74308670e-01 9.75735962e-01 9.77163255e-01 9.78590548e-01 9.80017841e-01 9.81445134e-01 9.82872427e-01 9.84299719e-01 9.85727012e-01 9.87154305e-01 9.88581598e-01 9.90008950e-01 9.91436243e-01 9.92863536e-01 9.94290829e-01 9.95718122e-01 9.97145414e-01 9.98572707e-01 1.00000000e+00 
            </Histogram>
            <HistogramBinning NBins="701">
              1.46505728e-01 1.46605730e-01 2.24079266e-01 2.45089397e-01 2.73233294e-01 2.85357028e-01 3.10457438e-01 3.21527541e-01 3.33865643e-01 3.42831880e-01 3.56902093e-01 3.68045181e-01 3.86046052e-01 3.93592596e-01 3.98737669e-01 4.06338960e-01 4.13183063e-01 4.21663523e-01 4.31496382e-01 4.38229889e-01 4.44087625e-01 4.50435728e-01 4.59420174e-01 4.67969030e-01 4.73521203e-01 4.79571670e-01 4.86591399e-01 4.92879033e-01 4.97242987e-01 5.02105296e-01 5.06811321e-01 5.11092007e-01 5.14728427e-01 5.19734383e-01 5.22992253e-01 5.27185142e-01 5.31175077e-01 5.35560727e-01 5.39271295e-01 5.43589592e-01 5.48105240e-01 5.53692698e-01 5.59543610e-01 5.62684059e-01 5.66376328e-01 5.72757483e-01 5.75478256e-01 5.77993751e-01 5.82452416e-01 5.85014641e-01 5.88323772e-01 5.90277135e-01 5.93488216e-01 5.97223878e-01 6.00652814e-01 6.04249299e-01 6.07452452e-01 6.10410392e-01 6.13968134e-01 6.17826939e-01 6.20731294e-01 6.23800993e-01 6.26383781e-01 6.29471719e-01 6.31447911e-01 6.33125305e-01 6.34458303e-01 6.37987554e-01 6.42604649e-01 6.44772351e-01 6.47228599e-01 6.48954988e-01 6.52435243e-01 6.54868662e-01 6.57882452e-01 6.59332931e-01 6.61944270e-01 6.62780106e-01 6.64847434e-01 6.67033434e-01 6.69096231e-01 6.70511365e-01 6.71802163e-01 6.73625529e-01 6.75887883e-01 6.76856041e-01 6.79517508e-01 6.80849373e-01 6.82316959e-01 6.83083236e-01 6.84333026e-01 6.86513245e-01 6.88138247e-01 6.89440429e-01 6.91693664e-01 6.93985701e-01 6.95170462e-01 6.96644902e-01 6.97689414e-01 6.99231088e-01 7.01046467e-01 7.02492356e-01 7.04416096e-01 7.06076384e-01 7.07073033e-01 7.08882689e-01 7.09940851e-01 7.11506486e-01 7.12849796e-01 7.14092672e-01 7.15662956e-01 7.17312932e-01 7.18131661e-01 7.19863832e-01 7.20926583e-01 7.22712278e-01 7.24085212e-01 7.24776208e-01 7.25365758e-01 7.26316810e-01 7.27799237e-01 7.28942931e-01 7.30193794e-01 7.32002318e-01 7.32971668e-01 7.34146118e-01 7.35003710e-01 7.36563563e-01 7.37861216e-01 7.38983333e-01 7.40756452e-01 7.42031336e-01 7.43632376e-01 7.44605005e-01 7.46163845e-01 7.46584594e-01 7.48087585e-01 7.48890281e-01 7.49555111e-01 7.50468433e-01 7.51833439e-01 7.52386510e-01 7.54590690e-01 7.56334245e-01 7.57286310e-01 7.58170068e-01 7.59012818e-01 7.59328604e-01 7.61204481e-01 7.61990190e-01 7.63684630e-01 7.64945745e-01 7.66236663e-01 7.67119229e-01 7.68177390e-01 7.68742979e-01 7.69557178e-01 7.70956337e-01 7.71702170e-01 7.72244930e-01 7.73063660e-01 7.73778617e-01 7.74426341e-01 7.75288403e-01 7.76819825e-01 7.77753770e-01 7.78628349e-01 7.79501855e-01 7.80458570e-01 7.81504154e-01 7.82836020e-01 7.83892035e-01 7.85007179e-01 7.85503268e-01 7.86608219e-01 7.87522733e-01 7.88155556e-01 7.88470328e-01 7.89387107e-01 7.90266335e-01 7.91056514e-01 7.91803420e-01 7.92519569e-01 7.93103397e-01 7.93851435e-01 7.94564128e-01 7.94907331e-01 7.95582473e-01 7.96306551e-01 7.97644019e-01 7.98159540e-01 7.98736513e-01 7.99632728e-01 8.00921261e-01 8.01716089e-01 8.02054763e-01 8.02808523e-01 8.03370714e-01 8.04078817e-01 8.04662645e-01 8.05273890e-01 8.05866778e-01 8.06780159e-01 8.07281911e-01 8.08284283e-01 8.08710754e-01 8.09426844e-01 8.10033500e-01 8.11132729e-01 8.12014163e-01 8.12408745e-01 8.13086092e-01 8.13595831e-01 8.14368963e-01 8.15079331e-01 8.16088498e-01 8.16740811e-01 8.17442119e-01 8.17925572e-01 8.18507135e-01 8.19089890e-01 8.19664598e-01 8.20158303e-01 8.20583642e-01 8.21319103e-01 8.22177768e-01 8.23155046e-01 8.23813021e-01 8.24209809e-01 8.24964702e-01 8.25660229e-01 8.26406002e-01 8.27141464e-01 8.27804089e-01 8.28254461e-01 8.29179227e-01 8.29576015e-01 8.30317259e-01 8.30601215e-01 8.31398308e-01 8.32250118e-01 8.33429217e-01 8.34133863e-01 8.34659517e-01 8.35416675e-01 8.35967481e-01 8.36661875e-01 8.37577641e-01 8.37986946e-01 8.38552535e-01 8.39155793e-01 8.39728236e-01 8.40274394e-01 8.40552628e-01 8.41342926e-01 8.41881096e-01 8.42167318e-01 8.42911959e-01 8.43559682e-01 8.44128609e-01 8.44726205e-01 8.45102489e-01 8.45579147e-01 8.46124172e-01 8.47050130e-01 8.47346604e-01 8.47748041e-01 8.48225832e-01 8.48726392e-01 8.49159658e-01 8.49426508e-01 8.49978387e-01 8.50358129e-01 8.51158619e-01 8.51897597e-01 8.52124453e-01 8.53058398e-01 8.53846371e-01 8.54454100e-01 8.54939938e-01 8.55440497e-01 8.55812252e-01 8.56106400e-01 8.56672049e-01 8.57221603e-01 8.57828259e-01 8.58393848e-01 8.59089494e-01 8.59627664e-01 8.60071242e-01 8.60630035e-01 8.61057639e-01 8.61780584e-01 8.62051964e-01 8.62663209e-01 8.63123834e-01 8.63600552e-01 8.64063442e-01 8.64730537e-01 8.65350962e-01 8.66161704e-01 8.66593778e-01 8.67226720e-01 8.67813945e-01 8.68416071e-01 8.68804872e-01 8.69200528e-01 8.69502783e-01 8.70013595e-01 8.70517612e-01 8.71038735e-01 8.72098088e-01 8.72534811e-01 8.72886062e-01 8.73159766e-01 8.73490453e-01 8.73677373e-01 8.74435723e-01 8.74899805e-01 8.75460863e-01 8.76113057e-01 8.76733482e-01 8.77500892e-01 8.77803028e-01 8.78533959e-01 8.79404068e-01 8.79930854e-01 8.80220473e-01 8.80626500e-01 8.81583095e-01 8.82408738e-01 8.82881999e-01 8.83625388e-01 8.84266317e-01 8.84586751e-01 8.85025740e-01 8.85481834e-01 8.85997236e-01 8.86386096e-01 8.86963069e-01 8.87493372e-01 8.87927830e-01 8.88396502e-01 8.88615429e-01 8.89081776e-01 8.89482021e-01 8.89862895e-01 8.90198112e-01 8.90797973e-01 8.91339660e-01 8.91788900e-01 8.92014682e-01 8.92437756e-01 8.92937183e-01 8.93468559e-01 8.94068360e-01 8.94444704e-01 8.94906461e-01 8.95437896e-01 8.96368325e-01 8.96834731e-01 8.97243023e-01 8.97669494e-01 8.98094833e-01 8.98743629e-01 8.99081111e-01 8.99744809e-01 9.00080025e-01 9.00675237e-01 9.01061893e-01 9.01643395e-01 9.02156591e-01 9.02498662e-01 9.03109848e-01 9.03479338e-01 9.04488504e-01 9.05214846e-01 9.05668736e-01 9.06046093e-01 9.06561553e-01 9.07075822e-01 9.07805681e-01 9.08299387e-01 9.08706427e-01 9.09150064e-01 9.09650624e-01 9.09983575e-01 9.10601676e-01 9.11122799e-01 9.11570966e-01 9.12057817e-01 9.12672460e-01 9.13206100e-01 9.13673639e-01 9.14116085e-01 9.14636075e-01 9.15096760e-01 9.15443420e-01 9.16251898e-01 9.16984022e-01 9.17214274e-01 9.17788982e-01 9.18443561e-01 9.18928146e-01 9.19303358e-01 9.19637442e-01 9.20143783e-01 9.20664907e-01 9.21122134e-01 9.21769798e-01 9.22578275e-01 9.22938585e-01 9.23252225e-01 9.23659325e-01 9.24288750e-01 9.24809873e-01 9.25232947e-01 9.25730109e-01 9.26514685e-01 9.27011788e-01 9.27851081e-01 9.28442895e-01 9.29444075e-01 9.29872811e-01 9.30470347e-01 9.30958390e-01 9.31313097e-01 9.31796551e-01 9.32497799e-01 9.33022320e-01 9.33879852e-01 9.34785247e-01 9.35386240e-01 9.36421633e-01 9.36829805e-01 9.37096655e-01 9.37455833e-01 9.38102424e-01 9.38514113e-01 9.38969016e-01 9.39747930e-01 9.40372765e-01 9.41078663e-01 9.41969156e-01 9.42735434e-01 9.43403661e-01 9.44115222e-01 9.44668293e-01 9.45048034e-01 9.45595324e-01 9.46284115e-01 9.46894169e-01 9.47446048e-01 9.48140562e-01 9.49215889e-01 9.49687898e-01 9.50269520e-01 9.51457679e-01 9.51891005e-01 9.52491999e-01 9.53165889e-01 9.53799903e-01 9.54748631e-01 9.55321074e-01 9.55850124e-01 9.56325650e-01 9.56973374e-01 9.57779586e-01 9.58072603e-01 9.58764732e-01 9.59721446e-01 9.61356699e-01 9.62359011e-01 9.63199377e-01 9.63725150e-01 9.64606583e-01 9.65373993e-01 9.66321588e-01 9.67154026e-01 9.67894077e-01 9.68350112e-01 9.69357073e-01 9.70011652e-01 9.70902145e-01 9.71736908e-01 9.72717524e-01 9.73559082e-01 9.74565983e-01 9.75398421e-01 9.76239920e-01 9.77021098e-01 9.78113472e-01 9.79566216e-01 9.81382787e-01 9.82216299e-01 9.83399928e-01 9.84191358e-01 9.85305369e-01 9.86463904e-01 9.87266719e-01 9.88563299e-01 9.90212142e-01 9.91109550e-01 9.92156327e-01 9.93660450e-01 9.94798422e-01 9.96896565e-01 9.98540938e-01 9.99145269e-01 1.00055814e+00 1.00116253e+00 1.00226176e+00 1.00376916e+00 1.00525391e+00 1.00675452e+00 1.00812066e+00 1.00922441e+00 1.01049244e+00 1.01235569e+00 1.01312196e+00 1.01443565e+00 1.01602757e+00 1.01891136e+00 1.02091146e+00 1.02273142e+00 1.02416015e+00 1.02594471e+00 1.02675664e+00 1.02887082e+00 1.03081727e+00 1.03288925e+00 1.03426445e+00 1.03517091e+00 1.03775370e+00 1.03909481e+00 1.04085767e+00 1.04277563e+00 1.04609168e+00 1.04851830e+00 1.04975319e+00 1.05210567e+00 1.05433834e+00 1.05590403e+00 1.05893266e+00 1.06059515e+00 1.06254053e+00 1.06503093e+00 1.06639600e+00 1.06779289e+00 1.06944060e+00 1.07159233e+00 1.07371557e+00 1.07598031e+00 1.07766676e+00 1.07925415e+00 1.08130538e+00 1.08443332e+00 1.08671284e+00 1.08958757e+00 1.09176314e+00 1.09441221e+00 1.09726977e+00 1.09974992e+00 1.10291433e+00 1.10616302e+00 1.10820985e+00 1.11051786e+00 1.11353970e+00 1.11571193e+00 1.11851025e+00 1.12217748e+00 1.12601113e+00 1.12796569e+00 1.13056445e+00 1.13295901e+00 1.13741767e+00 1.13968909e+00 1.14260948e+00 1.14619005e+00 1.14930308e+00 1.15505016e+00 1.15902984e+00 1.16189206e+00 1.16674972e+00 1.17230308e+00 1.17388809e+00 1.17690980e+00 1.18092370e+00 1.18604374e+00 1.18945324e+00 1.19302237e+00 1.19756091e+00 1.20507538e+00 1.21041214e+00 1.21560037e+00 1.21913540e+00 1.22351420e+00 1.22752810e+00 1.23048139e+00 1.23439264e+00 1.23980916e+00 1.24327564e+00 1.24937630e+00 1.25622952e+00 1.25910318e+00 1.26503277e+00 1.26742744e+00 1.27315176e+00 1.28021014e+00 1.28716600e+00 1.29371142e+00 1.30046201e+00 1.30323303e+00 1.30700743e+00 1.31343865e+00 1.32150066e+00 1.32887852e+00 1.33493352e+00 1.34137630e+00 1.34837770e+00 1.35577834e+00 1.36137724e+00 1.36799097e+00 1.37433112e+00 1.38219917e+00 1.38547182e+00 1.39242768e+00 1.40679562e+00 1.41603208e+00 1.42270279e+00 1.43118680e+00 1.43778908e+00 1.44537210e+00 1.45093679e+00 1.45948911e+00 1.46666157e+00 1.47520256e+00 1.48571610e+00 1.49433684e+00 1.49955952e+00 1.51187479e+00 1.52756536e+00 1.53587830e+00 1.55309677e+00 1.56367898e+00 1.57698619e+00 1.58689559e+00 1.60291684e+00 1.61622405e+00 1.63258767e+00 1.64107132e+00 1.65621471e+00 1.68425477e+00 1.70627415e+00 1.72302532e+00 1.73958254e+00 1.75276446e+00 1.77542233e+00 1.79107881e+00 1.81691802e+00 1.82088637e+00 1.84240389e+00 1.87036419e+00 1.89011431e+00 1.91847372e+00 1.93846321e+00 1.95799661e+00 1.97800910e+00 2.01454449e+00 2.05557275e+00 2.07705617e+00 2.10109377e+00 2.13388896e+00 2.17678738e+00 2.20520353e+00 2.26280046e+00 2.33654404e+00 2.37225842e+00 2.42378902e+00 2.46398473e+00 2.50886703e+00 2.55187941e+00 2.59694433e+00 2.67642379e+00 2.77735209e+00 2.81905317e+00 2.88910222e+00 2.95398569e+00 3.06522250e+00 3.13172531e+00 3.30711555e+00 3.53133416e+00 3.62380123e+00 3.81793833e+00 4.01429892e+00 4.24094629e+00 4.41625690e+00 4.64890242e+00 4.99253368e+00 5.38471937e+00 6.60027361e+00 1.61319084e+01 
            </HistogramBinning>
          </PDF>
        </CumulativePDF_cls1>
        <CumulativePDF_cls2>
          <PDF Name="GaussTransform var0 cls2" MinNSmooth="0" MaxNSmooth="0" InterpolMethod="1" KDE_type="0" KDE_iter="1" KDE_border="1" KDE_finefactor="0.0000000000000000e+00">
            <Histogram Name="Cumulative_Var0_cls2_original" NBins="1401" XMin="1.4650572836399078e-01" XMax="1.6131908416748047e+01" HasEquidistantBins="0">
              5.17626060e-04 1.16019638e-03 1.86970108e-03 2.58813030e-03 3.30209732e-03 4.01606411e-03 4.73003136e-03 5.44399815e-03 6.15796540e-03 6.87193219e-03 7.58589897e-03 8.29986576e-03 9.01383348e-03 9.72780026e-03 1.04417671e-02 1.11557338e-02 1.18697006e-02 1.25836683e-02 1.32976351e-02 1.40116019e-02 1.47255687e-02 1.54395355e-02 1.61535032e-02 1.68674700e-02 1.75814368e-02 1.82954036e-02 1.90093704e-02 1.97233371e-02 2.04373039e-02 2.11512726e-02 2.18652394e-02 2.25792062e-02 2.32931729e-02 2.40071397e-02 2.47211065e-02 2.54350733e-02 2.61490401e-02 2.68630069e-02 2.75769737e-02 2.82909423e-02 2.90049091e-02 2.97188759e-02 3.04328427e-02 3.11468095e-02 3.18607762e-02 3.25747430e-02 3.32887098e-02 3.40026766e-02 3.47166434e-02 3.54306102e-02 3.61445770e-02 3.68585438e-02 3.75725105e-02 3.82864811e-02 3.90004478e-02 3.97144146e-02 4.04283814e-02 4.11423482e-02 4.18563150e-02 4.25702818e-02 4.32842486e-02 4.39982153e-02 4.47121821e-02 4.54261489e-02 4.61401157e-02 4.68540825e-02 4.75680493e-02 4.82820161e-02 4.89959829e-02 4.97099496e-02 5.04239164e-02 5.11378832e-02 5.18518500e-02 5.25658205e-02 5.32797873e-02 5.39937541e-02 5.47077209e-02 5.54216877e-02 5.61356544e-02 5.68496212e-02 5.75635880e-02 5.82775548e-02 5.89915216e-02 5.97054884e-02 6.04194552e-02 6.11334220e-02 6.18473887e-02 6.25613555e-02 6.32753223e-02 6.39892891e-02 6.47032559e-02 6.54172227e-02 6.61311895e-02 6.68451563e-02 6.75591230e-02 6.82730898e-02 6.89870566e-02 6.97010234e-02 7.04149902e-02 7.11289570e-02 7.18429238e-02 7.25568905e-02 7.32708648e-02 7.39848316e-02 7.46987984e-02 7.54127651e-02 7.61267319e-02 7.68406987e-02 7.75546655e-02 7.82686323e-02 7.89825991e-02 7.96965659e-02 8.04105327e-02 8.11244994e-02 8.18384662e-02 8.25524330e-02 8.32663998e-02 8.39803666e-02 8.46943334e-02 8.54083002e-02 8.61222669e-02 8.68362337e-02 8.75502005e-02 8.82641673e-02 8.89781341e-02 8.96921009e-02 9.04060677e-02 9.11200345e-02 9.18340012e-02 9.25479680e-02 9.32619348e-02 9.39759016e-02 9.46898684e-02 9.54038352e-02 9.61178020e-02 9.68317688e-02 9.75457355e-02 9.82597023e-02 9.89736691e-02 9.96876359e-02 1.00401610e-01 1.01115577e-01 1.01829544e-01 1.02543510e-01 1.03257477e-01 1.03971444e-01 1.04685411e-01 1.05399378e-01 1.06113344e-01 1.06827311e-01 1.07541278e-01 1.08255245e-01 1.08969212e-01 1.09683178e-01 1.10397145e-01 1.11111112e-01 1.11825079e-01 1.12539046e-01 1.13253012e-01 1.13966979e-01 1.14680946e-01 1.15394913e-01 1.16108879e-01 1.16822846e-01 1.17536813e-01 1.18250780e-01 1.18964747e-01 1.19678713e-01 1.20392680e-01 1.21106647e-01 1.21820614e-01 1.22534581e-01 1.23248547e-01 1.23962514e-01 1.24676481e-01 1.25390455e-01 1.26104414e-01 1.26818389e-01 1.27532348e-01 1.28246322e-01 1.28960282e-01 1.29674256e-01 1.30388215e-01 1.31102189e-01 1.31816149e-01 1.32530123e-01 1.33244082e-01 1.33958057e-01 1.34672016e-01 1.35385990e-01 1.36099949e-01 1.36813924e-01 1.37527883e-01 1.38241857e-01 1.38955817e-01 1.39669791e-01 1.40383750e-01 1.41097724e-01 1.41811684e-01 1.42525658e-01 1.43239632e-01 1.43953592e-01 1.44667566e-01 1.45381525e-01 1.46095499e-01 1.46809459e-01 1.47523433e-01 1.48237392e-01 1.48951367e-01 1.49665326e-01 1.50379300e-01 1.51093259e-01 1.51807234e-01 1.52521193e-01 1.53235167e-01 1.53949127e-01 1.54663101e-01 1.55377060e-01 1.56091034e-01 1.56804994e-01 1.57518968e-01 1.58232927e-01 1.58946902e-01 1.59660861e-01 1.60374835e-01 1.61088794e-01 1.61802769e-01 1.62516728e-01 1.63230702e-01 1.63944662e-01 1.64658636e-01 1.65372595e-01 1.66086569e-01 1.66800529e-01 1.67514503e-01 1.68228462e-01 1.68942437e-01 1.69656411e-01 1.70370370e-01 1.71084344e-01 1.71798304e-01 1.72512278e-01 1.73226237e-01 1.73940212e-01 1.74654171e-01 1.75368145e-01 1.76082104e-01 1.76796079e-01 1.77510038e-01 1.78224012e-01 1.78937972e-01 1.79651946e-01 1.80365905e-01 1.81079879e-01 1.81793839e-01 1.82507813e-01 1.83221772e-01 1.83935747e-01 1.84649706e-01 1.85363680e-01 1.86077639e-01 1.86791614e-01 1.87505573e-01 1.88219547e-01 1.88933507e-01 1.89647481e-01 1.90361440e-01 1.91075414e-01 1.91789374e-01 1.92503348e-01 1.93217307e-01 1.93931282e-01 1.94645241e-01 1.95359215e-01 1.96073174e-01 1.96787149e-01 1.97501123e-01 1.98215082e-01 1.98929057e-01 1.99643016e-01 2.00356990e-01 2.01070949e-01 2.01784924e-01 2.02498883e-01 2.03212857e-01 2.03926817e-01 2.04640791e-01 2.05354750e-01 2.06068724e-01 2.06782684e-01 2.07496658e-01 2.08210617e-01 2.08924592e-01 2.09638551e-01 2.10352525e-01 2.11066484e-01 2.11780459e-01 2.12494418e-01 2.13208392e-01 2.13922352e-01 2.14636326e-01 2.15350285e-01 2.16064259e-01 2.16778219e-01 2.17492193e-01 2.18206152e-01 2.18920127e-01 2.19634086e-01 2.20348060e-01 2.21062019e-01 2.21775994e-01 2.22489953e-01 2.23203927e-01 2.23917887e-01 2.24631861e-01 2.25345835e-01 2.26059794e-01 2.26773769e-01 2.27487728e-01 2.28201702e-01 2.28915662e-01 2.29629636e-01 2.30343595e-01 2.31057569e-01 2.31771529e-01 2.32485503e-01 2.33199462e-01 2.33913437e-01 2.34627396e-01 2.35341370e-01 2.36055329e-01 2.36769304e-01 2.37483263e-01 2.38197237e-01 2.38911197e-01 2.39625171e-01 2.40339130e-01 2.41053104e-01 2.41767064e-01 2.42481038e-01 2.43194997e-01 2.43908972e-01 2.44622931e-01 2.45336905e-01 2.46050864e-01 2.46764839e-01 2.47478798e-01 2.48192772e-01 2.48906732e-01 2.49620706e-01 2.50334680e-01 2.51048625e-01 2.51762599e-01 2.52476573e-01 2.53190547e-01 2.53904521e-01 2.54618466e-01 2.55332440e-01 2.56046414e-01 2.56760389e-01 2.57474333e-01 2.58188307e-01 2.58902282e-01 2.59616256e-01 2.60330200e-01 2.61044174e-01 2.61758149e-01 2.62472123e-01 2.63186067e-01 2.63900042e-01 2.64614016e-01 2.65327990e-01 2.66041934e-01 2.66755909e-01 2.67469883e-01 2.68183857e-01 2.68897802e-01 2.69611776e-01 2.70325750e-01 2.71039724e-01 2.71753669e-01 2.72467643e-01 2.73181617e-01 2.73895591e-01 2.74609536e-01 2.75323510e-01 2.76037484e-01 2.76751459e-01 2.77465403e-01 2.78179377e-01 2.78893352e-01 2.79607326e-01 2.80321300e-01 2.81035244e-01 2.81749219e-01 2.82463193e-01 2.83177167e-01 2.83891112e-01 2.84605086e-01 2.85319060e-01 2.86033034e-01 2.86746979e-01 2.87460953e-01 2.88174927e-01 2.88888901e-01 2.89602846e-01 2.90316820e-01 2.91030794e-01 2.91744769e-01 2.92458713e-01 2.93172687e-01 2.93886662e-01 2.94600636e-01 2.95314580e-01 2.96028554e-01 2.96742529e-01 2.97456503e-01 2.98170447e-01 2.98884422e-01 2.99598396e-01 3.00312370e-01 3.01026314e-01 3.01740289e-01 3.02454263e-01 3.03168237e-01 3.03882182e-01 3.04596156e-01 3.05310130e-01 3.06024104e-01 3.06738049e-01 3.07452023e-01 3.08165997e-01 3.08879972e-01 3.09593946e-01 3.10307890e-01 3.11021864e-01 3.11735839e-01 3.12449813e-01 3.13163757e-01 3.13877732e-01 3.14591706e-01 3.15305680e-01 3.16019624e-01 3.16733599e-01 3.17447573e-01 3.18161547e-01 3.18875492e-01 3.19589466e-01 3.20303440e-01 3.21017414e-01 3.21731359e-01 3.22445333e-01 3.23159307e-01 3.23873281e-01 3.24587226e-01 3.25301200e-01 3.26015174e-01 3.26729149e-01 3.27443093e-01 3.28157067e-01 3.28871042e-01 3.29585016e-01 3.30298960e-01 3.31012934e-01 3.31726909e-01 3.32440883e-01 3.33154827e-01 3.33868802e-01 3.34582776e-01 3.35296750e-01 3.36010724e-01 3.36724669e-01 3.37438643e-01 3.38152617e-01 3.38866591e-01 3.39580536e-01 3.40294510e-01 3.41008484e-01 3.41722459e-01 3.42436403e-01 3.43150377e-01 3.43864352e-01 3.44578326e-01 3.45292270e-01 3.46006244e-01 3.46720219e-01 3.47434193e-01 3.48148137e-01 3.48862112e-01 3.49576086e-01 3.50290060e-01 3.51004004e-01 3.51717979e-01 3.52431953e-01 3.53145927e-01 3.53859872e-01 3.54573846e-01 3.55287820e-01 3.56001794e-01 3.56715739e-01 3.57429713e-01 3.58143687e-01 3.58857661e-01 3.59571606e-01 3.60285580e-01 3.60999554e-01 3.61713529e-01 3.62427473e-01 3.63141447e-01 3.63855422e-01 3.64569396e-01 3.65283370e-01 3.65997314e-01 3.66711289e-01 3.67425263e-01 3.68139237e-01 3.68853182e-01 3.69567156e-01 3.70281130e-01 3.70995104e-01 3.71709049e-01 3.72423023e-01 3.73136997e-01 3.73850971e-01 3.74564916e-01 3.75278890e-01 3.75992864e-01 3.76706839e-01 3.77420783e-01 3.78134757e-01 3.78848732e-01 3.79562706e-01 3.80276650e-01 3.80990624e-01 3.81704599e-01 3.82418573e-01 3.83132517e-01 3.83846492e-01 3.84560466e-01 3.85274440e-01 3.85988384e-01 3.86702359e-01 3.87416333e-01 3.88130307e-01 3.88844252e-01 3.89558226e-01 3.90272200e-01 3.90986174e-01 3.91700149e-01 3.92414093e-01 3.93128067e-01 3.93842041e-01 3.94556016e-01 3.95269960e-01 3.95983934e-01 3.96697909e-01 3.97411883e-01 3.98125827e-01 3.98839802e-01 3.99553776e-01 4.00267750e-01 4.00981694e-01 4.01695669e-01 4.02409643e-01 4.03123617e-01 4.03837562e-01 4.04551536e-01 4.05265510e-01 4.05979484e-01 4.06693429e-01 4.07407403e-01 4.08121377e-01 4.08835351e-01 4.09549296e-01 4.10263270e-01 4.10977244e-01 4.11691219e-01 4.12405163e-01 4.13119137e-01 4.13833112e-01 4.14547086e-01 4.15261030e-01 4.15975004e-01 4.16688979e-01 4.17402953e-01 4.18116897e-01 4.18830872e-01 4.19544846e-01 4.20258820e-01 4.20972794e-01 4.21686739e-01 4.22400713e-01 4.23114687e-01 4.23828661e-01 4.24542606e-01 4.25256580e-01 4.25970554e-01 4.26684529e-01 4.27398473e-01 4.28112447e-01 4.28826421e-01 4.29540396e-01 4.30254340e-01 4.30968314e-01 4.31682289e-01 4.32396263e-01 4.33110207e-01 4.33824182e-01 4.34538156e-01 4.35252130e-01 4.35966074e-01 4.36680049e-01 4.37394023e-01 4.38107997e-01 4.38821942e-01 4.39535916e-01 4.40249890e-01 4.40963864e-01 4.41677809e-01 4.42391783e-01 4.43105757e-01 4.43819731e-01 4.44533676e-01 4.45247650e-01 4.45961624e-01 4.46675599e-01 4.47389573e-01 4.48103517e-01 4.48817492e-01 4.49531466e-01 4.50245440e-01 4.50959384e-01 4.51673359e-01 4.52387333e-01 4.53101307e-01 4.53815252e-01 4.54529226e-01 4.55243200e-01 4.55957174e-01 4.56671119e-01 4.57385093e-01 4.58099067e-01 4.58813041e-01 4.59526986e-01 4.60240960e-01 4.60954934e-01 4.61668909e-01 4.62382853e-01 4.63096827e-01 4.63810802e-01 4.64524776e-01 4.65238720e-01 4.65952694e-01 4.66666669e-01 4.67380643e-01 4.68094587e-01 4.68808562e-01 4.69522536e-01 4.70236510e-01 4.70950454e-01 4.71664429e-01 4.72378403e-01 4.73092377e-01 4.73806322e-01 4.74520296e-01 4.75234270e-01 4.75948244e-01 4.76662219e-01 4.77376163e-01 4.78090137e-01 4.78804111e-01 4.79518086e-01 4.80232030e-01 4.80946004e-01 4.81659979e-01 4.82373953e-01 4.83087897e-01 4.83801872e-01 4.84515846e-01 4.85229820e-01 4.85943764e-01 4.86657739e-01 4.87371713e-01 4.88085687e-01 4.88799632e-01 4.89513606e-01 4.90227580e-01 4.90941554e-01 4.91655499e-01 4.92369473e-01 4.93083447e-01 4.93797421e-01 4.94511366e-01 4.95225340e-01 4.95939314e-01 4.96653289e-01 4.97367233e-01 4.98081207e-01 4.98795182e-01 4.99509156e-01 5.00223100e-01 5.00937104e-01 5.01651049e-01 5.02364993e-01 5.03078997e-01 5.03792942e-01 5.04506946e-01 5.05220890e-01 5.05934834e-01 5.06648839e-01 5.07362783e-01 5.08076727e-01 5.08790731e-01 5.09504676e-01 5.10218680e-01 5.10932624e-01 5.11646569e-01 5.12360573e-01 5.13074517e-01 5.13788462e-01 5.14502466e-01 5.15216410e-01 5.15930414e-01 5.16644359e-01 5.17358303e-01 5.18072307e-01 5.18786252e-01 5.19500196e-01 5.20214200e-01 5.20928144e-01 5.21642148e-01 5.22356093e-01 5.23070037e-01 5.23784041e-01 5.24497986e-01 5.25211930e-01 5.25925934e-01 5.26639879e-01 5.27353883e-01 5.28067827e-01 5.28781772e-01 5.29495776e-01 5.30209720e-01 5.30923724e-01 5.31637669e-01 5.32351613e-01 5.33065617e-01 5.33779562e-01 5.34493506e-01 5.35207510e-01 5.35921454e-01 5.36635458e-01 5.37349403e-01 5.38063347e-01 5.38777351e-01 5.39491296e-01 5.40205240e-01 5.40919244e-01 5.41633189e-01 5.42347193e-01 5.43061137e-01 5.43775082e-01 5.44489086e-01 5.45203030e-01 5.45916975e-01 5.46630979e-01 5.47344923e-01 5.48058927e-01 5.48772871e-01 5.49486816e-01 5.50200820e-01 5.50914764e-01 5.51628709e-01 5.52342713e-01 5.53056657e-01 5.53770661e-01 5.54484606e-01 5.55198550e-01 5.55912554e-01 5.56626499e-01 5.57340503e-01 5.58054447e-01 5.58768392e-01 5.59482396e-01 5.60196340e-01 5.60910285e-01 5.61624289e-01 5.62338233e-01 5.63052237e-01 5.63766181e-01 5.64480126e-01 5.65194130e-01 5.65908074e-01 5.66622019e-01 5.67336023e-01 5.68049967e-01 5.68763971e-01 5.69477916e-01 5.70191860e-01 5.70905864e-01 5.71619809e-01 5.72333753e-01 5.73047757e-01 5.73761702e-01 5.74475706e-01 5.75189650e-01 5.75903594e-01 5.76617599e-01 5.77331543e-01 5.78045487e-01 5.78759491e-01 5.79473436e-01 5.80187440e-01 5.80901384e-01 5.81615329e-01 5.82329333e-01 5.83043277e-01 5.83757222e-01 5.84471226e-01 5.85185170e-01 5.85899174e-01 5.86613119e-01 5.87327063e-01 5.88041067e-01 5.88755012e-01 5.89469016e-01 5.90182960e-01 5.90896904e-01 5.91610909e-01 5.92324853e-01 5.93038797e-01 5.93752801e-01 5.94466746e-01 5.95180750e-01 5.95894694e-01 5.96608639e-01 5.97322643e-01 5.98036587e-01 5.98750532e-01 5.99464536e-01 6.00178480e-01 6.00892484e-01 6.01606429e-01 6.02320373e-01 6.03034377e-01 6.03748322e-01 6.04462266e-01 6.05176270e-01 6.05890214e-01 6.06604218e-01 6.07318163e-01 6.08032107e-01 6.08746111e-01 6.09460056e-01 6.10174000e-01 6.10888004e-01 6.11601949e-01 6.12315953e-01 6.13029897e-01 6.13743842e-01 6.14457846e-01 6.15171790e-01 6.15885794e-01 6.16599739e-01 6.17313683e-01 6.18027687e-01 6.18741632e-01 6.19455576e-01 6.20169580e-01 6.20883524e-01 6.21597528e-01 6.22311473e-01 6.23025417e-01 6.23739421e-01 6.24453366e-01 6.25167310e-01 6.25881314e-01 6.26595259e-01 6.27309263e-01 6.28023207e-01 6.28737152e-01 6.29451156e-01 6.30165100e-01 6.30879045e-01 6.31593049e-01 6.32306993e-01 6.33020997e-01 6.33734941e-01 6.34448886e-01 6.35162890e-01 6.35876834e-01 6.36590779e-01 6.37304783e-01 6.38018727e-01 6.38732731e-01 6.39446676e-01 6.40160620e-01 6.40874624e-01 6.41588569e-01 6.42302573e-01 6.43016517e-01 6.43730462e-01 6.44444466e-01 6.45158410e-01 6.45872355e-01 6.46586359e-01 6.47300303e-01 6.48014307e-01 6.48728251e-01 6.49442196e-01 6.50156200e-01 6.50870144e-01 6.51584089e-01 6.52298093e-01 6.53012037e-01 6.53726041e-01 6.54439986e-01 6.55153930e-01 6.55867934e-01 6.56581879e-01 6.57295823e-01 6.58009827e-01 6.58723772e-01 6.59437776e-01 6.60151720e-01 6.60865664e-01 6.61579669e-01 6.62293613e-01 6.63007557e-01 6.63721561e-01 6.64435506e-01 6.65149510e-01 6.65863454e-01 6.66577399e-01 6.67291403e-01 6.68005347e-01 6.68719351e-01 6.69433296e-01 6.70147240e-01 6.70861244e-01 6.71575189e-01 6.72289133e-01 6.73003137e-01 6.73717082e-01 6.74431086e-01 6.75145030e-01 6.75858974e-01 6.76572978e-01 6.77286923e-01 6.78000867e-01 6.78714871e-01 6.79428816e-01 6.80142820e-01 6.80856764e-01 6.81570709e-01 6.82284713e-01 6.82998657e-01 6.83712602e-01 6.84426606e-01 6.85140550e-01 6.85854554e-01 6.86568499e-01 6.87282443e-01 6.87996447e-01 6.88710392e-01 6.89424336e-01 6.90138340e-01 6.90852284e-01 6.91566288e-01 6.92280233e-01 6.92994177e-01 6.93708181e-01 6.94422126e-01 6.95136070e-01 6.95850074e-01 6.96564019e-01 6.97278023e-01 6.97991967e-01 6.98705912e-01 6.99419916e-01 7.00133860e-01 7.00847864e-01 7.01561809e-01 7.02275753e-01 7.02989757e-01 7.03703701e-01 7.04417646e-01 7.05131650e-01 7.05845594e-01 7.06559598e-01 7.07273543e-01 7.07987487e-01 7.08701491e-01 7.09415436e-01 7.10129380e-01 7.10843384e-01 7.11557329e-01 7.12271333e-01 7.12985277e-01 7.13699222e-01 7.14413226e-01 7.15127170e-01 7.15841115e-01 7.16555119e-01 7.17269063e-01 7.17983067e-01 7.18697011e-01 7.19410956e-01 7.20124960e-01 7.20838904e-01 7.21552849e-01 7.22266853e-01 7.22980797e-01 7.23694801e-01 7.24408746e-01 7.25122690e-01 7.25836694e-01 7.26550639e-01 7.27264643e-01 7.27978587e-01 7.28692532e-01 7.29406536e-01 7.30120480e-01 7.30834424e-01 7.31548429e-01 7.32262373e-01 7.32976377e-01 7.33690321e-01 7.34404266e-01 7.35118270e-01 7.35832214e-01 7.36546159e-01 7.37260163e-01 7.37974107e-01 7.38688111e-01 7.39402056e-01 7.40116000e-01 7.40830004e-01 7.41543949e-01 7.42257893e-01 7.42971897e-01 7.43685842e-01 7.44399846e-01 7.45113790e-01 7.45827734e-01 7.46541739e-01 7.47255683e-01 7.47969627e-01 7.48683631e-01 7.49397576e-01 7.50111580e-01 7.50825524e-01 7.51539469e-01 7.52253473e-01 7.52967417e-01 7.53681421e-01 7.54395366e-01 7.55109310e-01 7.55823314e-01 7.56537259e-01 7.57251203e-01 7.57965207e-01 7.58679152e-01 7.59393156e-01 7.60107100e-01 7.60821044e-01 7.61535048e-01 7.62248993e-01 7.62962937e-01 7.63676941e-01 7.64390886e-01 7.65104890e-01 7.65818834e-01 7.66532779e-01 7.67246783e-01 7.67960727e-01 7.68674672e-01 7.69388676e-01 7.70102620e-01 7.70816624e-01 7.71530569e-01 7.72244513e-01 7.72958517e-01 7.73672462e-01 7.74386406e-01 7.75100410e-01 7.75814354e-01 7.76528358e-01 7.77242303e-01 7.77956247e-01 7.78670251e-01 7.79384196e-01 7.80098200e-01 7.80812144e-01 7.81526089e-01 7.82240093e-01 7.82954037e-01 7.83667982e-01 7.84381986e-01 7.85095930e-01 7.85809934e-01 7.86523879e-01 7.87237823e-01 7.87951827e-01 7.88665771e-01 7.89379716e-01 7.90093720e-01 7.90807664e-01 7.91521668e-01 7.92235613e-01 7.92949557e-01 7.93663561e-01 7.94377506e-01 7.95091450e-01 7.95805454e-01 7.96519399e-01 7.97233403e-01 7.97947347e-01 7.98661292e-01 7.99375296e-01 8.00089240e-01 8.00803185e-01 8.01517189e-01 8.02231133e-01 8.02945137e-01 8.03659081e-01 8.04373026e-01 8.05087030e-01 8.05800974e-01 8.06514978e-01 8.07228923e-01 8.07942867e-01 8.08656871e-01 8.09370816e-01 8.10084760e-01 8.10798764e-01 8.11512709e-01 8.12226713e-01 8.12940657e-01 8.13654602e-01 8.14368606e-01 8.15082550e-01 8.15796494e-01 8.16510499e-01 8.17224443e-01 8.17938447e-01 8.18652391e-01 8.19366336e-01 8.20080340e-01 8.20794284e-01 8.21508229e-01 8.22222233e-01 8.22936177e-01 8.23650181e-01 8.24364126e-01 8.25078070e-01 8.25792074e-01 8.26506019e-01 8.27219963e-01 8.27933967e-01 8.28647912e-01 8.29361916e-01 8.30075860e-01 8.30789804e-01 8.31503808e-01 8.32217753e-01 8.32931697e-01 8.33645701e-01 8.34359646e-01 8.35073650e-01 8.35787594e-01 8.36501539e-01 8.37215543e-01 8.37929487e-01 8.38643491e-01 8.39357436e-01 8.40071380e-01 8.40785384e-01 8.41499329e-01 8.42213273e-01 8.42927277e-01 8.43641222e-01 8.44355226e-01 8.45069170e-01 8.45783114e-01 8.46497118e-01 8.47211063e-01 8.47925007e-01 8.48639011e-01 8.49352956e-01 8.50066960e-01 8.50780904e-01 8.51494849e-01 8.52208853e-01 8.52922797e-01 8.53636742e-01 8.54350746e-01 8.55064690e-01 8.55778694e-01 8.56492639e-01 8.57206583e-01 8.57920587e-01 8.58634531e-01 8.59348476e-01 8.60062480e-01 8.60776424e-01 8.61490428e-01 8.62204373e-01 8.62918317e-01 8.63632321e-01 8.64346266e-01 8.65060270e-01 8.65774214e-01 8.66488159e-01 8.67202163e-01 8.67916107e-01 8.68630052e-01 8.69344056e-01 8.70058000e-01 8.70772004e-01 8.71485949e-01 8.72199893e-01 8.72913897e-01 8.73627841e-01 8.74341786e-01 8.75055790e-01 8.75769734e-01 8.76483738e-01 8.77197683e-01 8.77911627e-01 8.78625631e-01 8.79339576e-01 8.80053520e-01 8.80767524e-01 8.81481469e-01 8.82195473e-01 8.82909417e-01 8.83623362e-01 8.84337366e-01 8.85051310e-01 8.85765254e-01 8.86479259e-01 8.87193203e-01 8.87907207e-01 8.88621151e-01 8.89335096e-01 8.90049100e-01 8.90763044e-01 8.91477048e-01 8.92190993e-01 8.92904937e-01 8.93618941e-01 8.94332886e-01 8.95046830e-01 8.95760834e-01 8.96474779e-01 8.97188783e-01 8.97902727e-01 8.98616672e-01 8.99330676e-01 9.00044620e-01 9.00758564e-01 9.01472569e-01 9.02186513e-01 9.02900517e-01 9.03614461e-01 9.04328406e-01 9.05042410e-01 9.05756354e-01 9.06470299e-01 9.07184303e-01 9.07898247e-01 9.08612251e-01 9.09326196e-01 9.10040140e-01 9.10754144e-01 9.11468089e-01 9.12182033e-01 9.12896037e-01 9.13609982e-01 9.14323986e-01 9.15037930e-01 9.15751874e-01 9.16465878e-01 9.17179823e-01 9.17893827e-01 9.18607771e-01 9.19321716e-01 9.20035720e-01 9.20749664e-01 9.21463609e-01 9.22177613e-01 9.22891557e-01 9.23605561e-01 9.24319506e-01 9.25033450e-01 9.25747454e-01 9.26461399e-01 9.27175343e-01 9.27889347e-01 9.28603292e-01 9.29317296e-01 9.30031240e-01 9.30745184e-01 9.31459188e-01 9.32173133e-01 9.32887077e-01 9.33601081e-01 9.34315026e-01 9.35029030e-01 9.35742974e-01 9.36456919e-01 9.37170923e-01 9.37884867e-01 9.38598812e-01 9.39312816e-01 9.40026760e-01 9.40740764e-01 9.41454709e-01 9.42168653e-01 9.42882657e-01 9.43596601e-01 9.44310546e-01 9.45024550e-01 9.45738494e-01 9.46452498e-01 9.47166443e-01 9.47880387e-01 9.48594391e-01 9.49308336e-01 9.50022340e-01 9.50736284e-01 9.51450229e-01 9.52164233e-01 9.52878177e-01 9.53592122e-01 9.54306126e-01 9.55020070e-01 9.55734074e-01 9.56448019e-01 9.57161963e-01 9.57875967e-01 9.58589911e-01 9.59303856e-01 9.60017860e-01 9.60731804e-01 9.61445808e-01 9.62159753e-01 9.62873697e-01 9.63587701e-01 9.64301646e-01 9.65015590e-01 9.65729594e-01 9.66443539e-01 9.67157543e-01 9.67871487e-01 9.68585432e-01 9.69299436e-01 9.70013380e-01 9.70727324e-01 9.71441329e-01 9.72155273e-01 9.72869277e-01 9.73583221e-01 9.74297166e-01 9.75011170e-01 9.75725114e-01 9.76439118e-01 9.77153063e-01 9.77867007e-01 9.78581011e-01 9.79294956e-01 9.80008900e-01 9.80722904e-01 9.81436849e-01 9.82150853e-01 9.82864797e-01 9.83578742e-01 9.84292746e-01 9.85006690e-01 9.85720634e-01 9.86434639e-01 9.87148583e-01 9.87862587e-01 9.88576531e-01 9.89290476e-01 9.90004480e-01 9.90718424e-01 9.91432369e-01 9.92146373e-01 9.92860317e-01 9.93574321e-01 9.94288266e-01 9.95002210e-01 9.95716214e-01 9.96430159e-01 9.97144103e-01 9.97858107e-01 9.98572052e-01 9.99286056e-01 1.00000000e+00 
            </Histogram>
            <HistogramBinning NBins="1401">
              1.46505728e-01 1.46605730e-01 1.95636600e-01 2.24079266e-01 2.43772343e-01 2.54121780e-01 2.65126854e-01 2.73685992e-01 2.82993168e-01 2.93807834e-01 3.03593934e-01 3.07775438e-01 3.13351542e-01 3.21527541e-01 3.29010218e-01 3.37329894e-01 3.42690468e-01 3.48444462e-01 3.56902093e-01 3.63070041e-01 3.68045181e-01 3.75303209e-01 3.80424321e-01 3.86046052e-01 3.91496718e-01 3.95037383e-01 3.98711443e-01 4.01356936e-01 4.05109704e-01 4.09680039e-01 4.13175076e-01 4.17941540e-01 4.25198466e-01 4.29381102e-01 4.31626350e-01 4.36697334e-01 4.40956324e-01 4.43891495e-01 4.47477788e-01 4.50613588e-01 4.53970641e-01 4.57677782e-01 4.62737352e-01 4.66436476e-01 4.70394462e-01 4.72068459e-01 4.73770916e-01 4.77614909e-01 4.79974210e-01 4.83904839e-01 4.87654179e-01 4.90989566e-01 4.93860871e-01 4.97124404e-01 4.99023020e-01 5.01246572e-01 5.02513468e-01 5.04103065e-01 5.06811321e-01 5.10316610e-01 5.12388527e-01 5.14307678e-01 5.17136753e-01 5.19849539e-01 5.22178054e-01 5.23544192e-01 5.25590956e-01 5.26633203e-01 5.29105425e-01 5.31486392e-01 5.33042908e-01 5.35560727e-01 5.37841320e-01 5.40736556e-01 5.43260038e-01 5.44880390e-01 5.47164440e-01 5.48582971e-01 5.51041484e-01 5.53270817e-01 5.56251526e-01 5.58868527e-01 5.60405672e-01 5.61923444e-01 5.64400136e-01 5.65264523e-01 5.67822278e-01 5.69838285e-01 5.72288811e-01 5.74090481e-01 5.75644732e-01 5.77333510e-01 5.78647137e-01 5.80621004e-01 5.82452416e-01 5.84565341e-01 5.85547149e-01 5.87297559e-01 5.89167595e-01 5.90277135e-01 5.91850758e-01 5.93873680e-01 5.96879542e-01 5.98098516e-01 6.01136267e-01 6.02947116e-01 6.03845656e-01 6.05066895e-01 6.06332660e-01 6.07516289e-01 6.09812856e-01 6.10889316e-01 6.12120867e-01 6.14071906e-01 6.15885019e-01 6.17417574e-01 6.18999183e-01 6.20295703e-01 6.22374475e-01 6.23314083e-01 6.24523938e-01 6.26383781e-01 6.27343953e-01 6.29535615e-01 6.31174207e-01 6.31994069e-01 6.33125305e-01 6.33686364e-01 6.35048985e-01 6.36917949e-01 6.38668299e-01 6.39842808e-01 6.41439259e-01 6.43194199e-01 6.44489586e-01 6.45666361e-01 6.46592319e-01 6.47775948e-01 6.48323298e-01 6.49809122e-01 6.51878774e-01 6.53122842e-01 6.54621184e-01 6.56079650e-01 6.57495916e-01 6.58346593e-01 6.59332931e-01 6.60668254e-01 6.61429942e-01 6.62174582e-01 6.62813187e-01 6.63958013e-01 6.64847434e-01 6.66644573e-01 6.67699397e-01 6.68307126e-01 6.69423521e-01 6.69976592e-01 6.71114564e-01 6.72238946e-01 6.73520625e-01 6.74493313e-01 6.75267577e-01 6.76021278e-01 6.76856041e-01 6.77975833e-01 6.79070532e-01 6.80286050e-01 6.81320310e-01 6.82316959e-01 6.82889402e-01 6.83383107e-01 6.84594154e-01 6.85246408e-01 6.85963690e-01 6.86906695e-01 6.87812090e-01 6.88610256e-01 6.89783692e-01 6.91204488e-01 6.92250192e-01 6.93298101e-01 6.94065511e-01 6.94932163e-01 6.95716679e-01 6.96916282e-01 6.97757840e-01 6.98346257e-01 6.99063480e-01 7.00252831e-01 7.01176465e-01 7.01884568e-01 7.02644050e-01 7.03809440e-01 7.04443455e-01 7.05033004e-01 7.05596268e-01 7.06100345e-01 7.06537068e-01 7.07507432e-01 7.08433330e-01 7.09062815e-01 7.09826827e-01 7.10918128e-01 7.11506486e-01 7.12580681e-01 7.13321865e-01 7.13720977e-01 7.14416564e-01 7.15142965e-01 7.15872705e-01 7.16867089e-01 7.17568398e-01 7.17995942e-01 7.18454421e-01 7.19732702e-01 7.20647216e-01 7.21071422e-01 7.21778393e-01 7.22721398e-01 7.23535597e-01 7.24131942e-01 7.24604070e-01 7.25013435e-01 7.25499213e-01 7.26080716e-01 7.26598442e-01 7.27613330e-01 7.28263319e-01 7.28679538e-01 7.29233682e-01 7.29703546e-01 7.30258882e-01 7.30850637e-01 7.31518865e-01 7.32331872e-01 7.32971668e-01 7.33523488e-01 7.34146118e-01 7.34758496e-01 7.34938622e-01 7.35999107e-01 7.36494064e-01 7.37076700e-01 7.37585306e-01 7.38186240e-01 7.38868177e-01 7.39430368e-01 7.40124762e-01 7.40756452e-01 7.41308391e-01 7.42029071e-01 7.42675662e-01 7.43132889e-01 7.43847847e-01 7.44297147e-01 7.44700789e-01 7.45473921e-01 7.46046424e-01 7.46497929e-01 7.46832073e-01 7.47398794e-01 7.48008847e-01 7.48335004e-01 7.49004364e-01 7.49528885e-01 7.50075042e-01 7.50614405e-01 7.51530111e-01 7.51971424e-01 7.52457142e-01 7.53397942e-01 7.54467487e-01 7.54988611e-01 7.55540550e-01 7.56373048e-01 7.57105052e-01 7.57644415e-01 7.58145034e-01 7.58623958e-01 7.58930683e-01 7.59198666e-01 7.59676456e-01 7.60296762e-01 7.61130393e-01 7.61634350e-01 7.61965036e-01 7.62852252e-01 7.63649344e-01 7.64493108e-01 7.64831781e-01 7.65327752e-01 7.65878558e-01 7.66349494e-01 7.66744018e-01 7.67294824e-01 7.67843366e-01 7.68259525e-01 7.68575430e-01 7.68823981e-01 7.69240201e-01 7.69874215e-01 7.70778477e-01 7.71161616e-01 7.71653116e-01 7.71998584e-01 7.72386312e-01 7.72803664e-01 7.73193657e-01 7.73533463e-01 7.73808300e-01 7.74174273e-01 7.74451375e-01 7.74982750e-01 7.75617957e-01 7.76109397e-01 7.76521087e-01 7.77372897e-01 7.77846098e-01 7.78271437e-01 7.78863251e-01 7.79386640e-01 7.79933929e-01 7.80382156e-01 7.80843973e-01 7.81468868e-01 7.81897604e-01 7.82240808e-01 7.82887399e-01 7.83531666e-01 7.83857763e-01 7.84284234e-01 7.84690261e-01 7.85105288e-01 7.85389185e-01 7.86160052e-01 7.86654949e-01 7.86969662e-01 7.87522733e-01 7.87990272e-01 7.88211524e-01 7.88447499e-01 7.88908184e-01 7.89521694e-01 7.90075898e-01 7.90568471e-01 7.90958464e-01 7.91454554e-01 7.91735053e-01 7.92252779e-01 7.92817175e-01 7.93333709e-01 7.93561816e-01 7.93956339e-01 7.94630229e-01 7.94898212e-01 7.95361221e-01 7.95610905e-01 7.96191335e-01 7.96592772e-01 7.97266662e-01 7.97624707e-01 7.97966838e-01 7.98451364e-01 7.98655510e-01 7.99086571e-01 7.99365938e-01 7.99715996e-01 8.00252020e-01 8.00674975e-01 8.01168799e-01 8.01568985e-01 8.01884890e-01 8.02074194e-01 8.02549720e-01 8.02810788e-01 8.03148329e-01 8.03461909e-01 8.04045737e-01 8.04336548e-01 8.04654658e-01 8.05085719e-01 8.05348039e-01 8.05676460e-01 8.06009412e-01 8.06375384e-01 8.06865692e-01 8.07224929e-01 8.07625234e-01 8.08048189e-01 8.08294594e-01 8.08663964e-01 8.08860123e-01 8.09193075e-01 8.09528410e-01 8.09898913e-01 8.10349405e-01 8.11107695e-01 8.11319768e-01 8.11815858e-01 8.12179565e-01 8.12681317e-01 8.12957227e-01 8.13189864e-01 8.13406527e-01 8.13750923e-01 8.13968718e-01 8.14542294e-01 8.14854681e-01 8.15147758e-01 8.15421462e-01 8.15838814e-01 8.16216230e-01 8.16573143e-01 8.16779554e-01 8.17088544e-01 8.17330301e-01 8.17508221e-01 8.17889094e-01 8.18134248e-01 8.18521917e-01 8.18829834e-01 8.19201589e-01 8.19620013e-01 8.19785416e-01 8.20140004e-01 8.20330441e-01 8.20542574e-01 8.20930302e-01 8.21319103e-01 8.21598470e-01 8.21924627e-01 8.22128713e-01 8.22798073e-01 8.23152661e-01 8.23535800e-01 8.23925853e-01 8.24153960e-01 8.24370563e-01 8.24767351e-01 8.24964702e-01 8.25315893e-01 8.25595260e-01 8.25845003e-01 8.26175690e-01 8.26530337e-01 8.26922596e-01 8.27333033e-01 8.27708304e-01 8.27997863e-01 8.28204274e-01 8.28528166e-01 8.28986526e-01 8.29200923e-01 8.29576015e-01 8.29817832e-01 8.30281973e-01 8.30399394e-01 8.30624044e-01 8.31003785e-01 8.31224918e-01 8.31666291e-01 8.32006097e-01 8.32229555e-01 8.32481503e-01 8.32867026e-01 8.33174884e-01 8.33481550e-01 8.33804369e-01 8.34133863e-01 8.34438324e-01 8.34691465e-01 8.34945738e-01 8.35416675e-01 8.35684717e-01 8.35906982e-01 8.36268485e-01 8.36420238e-01 8.36647093e-01 8.37069035e-01 8.37264001e-01 8.37626636e-01 8.37820470e-01 8.37969840e-01 8.38200212e-01 8.38457882e-01 8.38624418e-01 8.38837624e-01 8.39194596e-01 8.39394093e-01 8.39724779e-01 8.40092003e-01 8.40336025e-01 8.40453446e-01 8.40611994e-01 8.40967715e-01 8.41243684e-01 8.41492295e-01 8.41706693e-01 8.41968894e-01 8.42230082e-01 8.42475235e-01 8.42825294e-01 8.43130946e-01 8.43483269e-01 8.43768358e-01 8.44128609e-01 8.44486713e-01 8.44719350e-01 8.44905198e-01 8.45177710e-01 8.45324874e-01 8.45706880e-01 8.45971406e-01 8.46204042e-01 8.46591711e-01 8.47108305e-01 8.47297549e-01 8.47514272e-01 8.47810745e-01 8.47974896e-01 8.48248601e-01 8.48383129e-01 8.48726392e-01 8.49038839e-01 8.49268079e-01 8.49404812e-01 8.49715054e-01 8.49907756e-01 8.50206494e-01 8.50482464e-01 8.50762963e-01 8.50997865e-01 8.51277173e-01 8.51651311e-01 8.51844013e-01 8.51951182e-01 8.52172434e-01 8.52536142e-01 8.52913558e-01 8.53343487e-01 8.53554487e-01 8.53863478e-01 8.54148507e-01 8.54382277e-01 8.54606867e-01 8.54854405e-01 8.55082452e-01 8.55403960e-01 8.55564833e-01 8.55825901e-01 8.55974138e-01 8.56231868e-01 8.56626391e-01 8.56824815e-01 8.57064247e-01 8.57312918e-01 8.57737064e-01 8.57973099e-01 8.58206868e-01 8.58634472e-01 8.58957171e-01 8.59151065e-01 8.59429300e-01 8.59675586e-01 8.60017657e-01 8.60321045e-01 8.60593498e-01 8.60779405e-01 8.60979021e-01 8.61237824e-01 8.61633480e-01 8.61771464e-01 8.61919701e-01 8.62260640e-01 8.62550259e-01 8.62772644e-01 8.63056600e-01 8.63194585e-01 8.63473952e-01 8.63762438e-01 8.63992810e-01 8.64195764e-01 8.64503682e-01 8.64861727e-01 8.65094304e-01 8.65413547e-01 8.65584612e-01 8.65929067e-01 8.66355479e-01 8.66665661e-01 8.66927981e-01 8.67146850e-01 8.67577910e-01 8.67834508e-01 8.68182302e-01 8.68416071e-01 8.68648708e-01 8.68915498e-01 8.69200528e-01 8.69424045e-01 8.69702339e-01 8.69901836e-01 8.70185792e-01 8.70637298e-01 8.70921254e-01 8.71214390e-01 8.71761680e-01 8.72098088e-01 8.72478962e-01 8.72596443e-01 8.72843862e-01 8.73013735e-01 8.73159766e-01 8.73315930e-01 8.73490453e-01 8.73614669e-01 8.73920262e-01 8.74377549e-01 8.74545217e-01 8.74867857e-01 8.75162125e-01 8.75398099e-01 8.75688851e-01 8.75921488e-01 8.76240790e-01 8.76597762e-01 8.76958072e-01 8.77343476e-01 8.77573848e-01 8.77797365e-01 8.78009498e-01 8.78457606e-01 8.78755212e-01 8.79144013e-01 8.79477024e-01 8.79722238e-01 8.79963875e-01 8.80202293e-01 8.80380094e-01 8.80626500e-01 8.80883038e-01 8.81477118e-01 8.81810069e-01 8.82155538e-01 8.82483959e-01 8.82693827e-01 8.82924199e-01 8.83043885e-01 8.83387089e-01 8.83687019e-01 8.83862615e-01 8.84136319e-01 8.84327888e-01 8.84566188e-01 8.84795368e-01 8.85064542e-01 8.85340512e-01 8.85665417e-01 8.85875285e-01 8.86205971e-01 8.86280060e-01 8.86591375e-01 8.86795521e-01 8.87137592e-01 8.87420356e-01 8.87607396e-01 8.87847960e-01 8.88104618e-01 8.88426125e-01 8.88589203e-01 8.88910711e-01 8.89104664e-01 8.89340699e-01 8.89520824e-01 8.89650822e-01 8.89856040e-01 8.90078425e-01 8.90226662e-01 8.90437663e-01 8.90758038e-01 8.90994072e-01 8.91210794e-01 8.91433060e-01 8.91721666e-01 8.91909719e-01 8.92103672e-01 8.92437756e-01 8.92675996e-01 8.92883599e-01 8.93079698e-01 8.93294036e-01 8.93552959e-01 8.93914461e-01 8.94106030e-01 8.94298732e-01 8.94482255e-01 8.94708037e-01 8.94917905e-01 8.95120859e-01 8.95375133e-01 8.95627201e-01 8.95922542e-01 8.96286309e-01 8.96612346e-01 8.96859884e-01 8.97119820e-01 8.97303402e-01 8.97449374e-01 8.97677481e-01 8.97890687e-01 8.98136973e-01 8.98424327e-01 8.98773313e-01 8.98945451e-01 8.99328589e-01 8.99463117e-01 8.99750471e-01 9.00045812e-01 9.00262535e-01 9.00601149e-01 9.00832653e-01 9.01061893e-01 9.01433647e-01 9.01823580e-01 9.02086973e-01 9.02353823e-01 9.02497530e-01 9.02625263e-01 9.02946770e-01 9.03179407e-01 9.03400660e-01 9.03916061e-01 9.04202282e-01 9.04631019e-01 9.04841959e-01 9.05239880e-01 9.05503333e-01 9.05689240e-01 9.05928671e-01 9.06149924e-01 9.06270742e-01 9.06563818e-01 9.06726897e-01 9.07075822e-01 9.07425880e-01 9.07796502e-01 9.08097565e-01 9.08299387e-01 9.08571959e-01 9.08741832e-01 9.08964217e-01 9.09226418e-01 9.09526289e-01 9.09790874e-01 9.09958541e-01 9.10181999e-01 9.10359919e-01 9.10620987e-01 9.10809219e-01 9.10926640e-01 9.11161542e-01 9.11366761e-01 9.11511600e-01 9.11641598e-01 9.11883354e-01 9.12117124e-01 9.12418127e-01 9.12672460e-01 9.12954152e-01 9.13119435e-01 9.13450122e-01 9.13726091e-01 9.13989484e-01 9.14145768e-01 9.14458156e-01 9.14791107e-01 9.14918840e-01 9.15149212e-01 9.15410340e-01 9.15592790e-01 9.15928006e-01 9.16177750e-01 9.16362464e-01 9.16606486e-01 9.16784406e-01 9.17084277e-01 9.17288423e-01 9.17600870e-01 9.17795837e-01 9.18170989e-01 9.18402493e-01 9.18637395e-01 9.18871164e-01 9.19049084e-01 9.19224620e-01 9.19436753e-01 9.19656873e-01 9.20004606e-01 9.20223534e-01 9.20466483e-01 9.20660257e-01 9.20892894e-01 9.21122134e-01 9.21473384e-01 9.21748102e-01 9.22028661e-01 9.22221363e-01 9.22386706e-01 9.22720850e-01 9.22847450e-01 9.23125625e-01 9.23257887e-01 9.23528194e-01 9.23799515e-01 9.24094915e-01 9.24286485e-01 9.24460888e-01 9.24660504e-01 9.24837232e-01 9.25112069e-01 9.25413072e-01 9.25632060e-01 9.25894260e-01 9.26244378e-01 9.26609218e-01 9.27002668e-01 9.27166879e-01 9.27595615e-01 9.27887619e-01 9.28166926e-01 9.28479373e-01 9.28922951e-01 9.29114521e-01 9.29357409e-01 9.29564953e-01 9.29880798e-01 9.30232048e-01 9.30503368e-01 9.30810153e-01 9.30958390e-01 9.31122661e-01 9.31444168e-01 9.31796551e-01 9.32303965e-01 9.32500064e-01 9.32817101e-01 9.33037221e-01 9.33275521e-01 9.33544576e-01 9.33973372e-01 9.34194565e-01 9.34683740e-01 9.34925497e-01 9.35112536e-01 9.35364485e-01 9.35613155e-01 9.35879946e-01 9.36318934e-01 9.36548233e-01 9.36829805e-01 9.37020242e-01 9.37391996e-01 9.37474132e-01 9.37720418e-01 9.38102424e-01 9.38329339e-01 9.38590467e-01 9.38777447e-01 9.39073920e-01 9.39348757e-01 9.39735293e-01 9.39924598e-01 9.40371633e-01 9.40638423e-01 9.41231430e-01 9.41652238e-01 9.41969156e-01 9.42501664e-01 9.42785621e-01 9.43144858e-01 9.43429947e-01 9.43912268e-01 9.44115222e-01 9.44513261e-01 9.44784582e-01 9.45048034e-01 9.45391238e-01 9.45634127e-01 9.46009278e-01 9.46296632e-01 9.46547568e-01 9.46924925e-01 9.47295547e-01 9.47767615e-01 9.48055029e-01 9.48754013e-01 9.49207842e-01 9.49506640e-01 9.49637711e-01 9.50075567e-01 9.50269520e-01 9.50737059e-01 9.51309383e-01 9.51520383e-01 9.51764405e-01 9.52207983e-01 9.52456594e-01 9.52776968e-01 9.53165889e-01 9.53529596e-01 9.53799903e-01 9.54077005e-01 9.54455554e-01 9.54912782e-01 9.55329001e-01 9.55647171e-01 9.55864966e-01 9.56191063e-01 9.56571937e-01 9.56985891e-01 9.57453430e-01 9.57786381e-01 9.58072603e-01 9.58427250e-01 9.58804667e-01 9.59232271e-01 9.59559560e-01 9.60216403e-01 9.60694194e-01 9.60972428e-01 9.61469591e-01 9.61861789e-01 9.62258697e-01 9.62664604e-01 9.63102460e-01 9.63344276e-01 9.63719368e-01 9.64096844e-01 9.64453757e-01 9.64706898e-01 9.65368271e-01 9.65596378e-01 9.66139138e-01 9.66642022e-01 9.66930509e-01 9.67208743e-01 9.67437983e-01 9.67894077e-01 9.68229294e-01 9.68654633e-01 9.69204307e-01 9.69727695e-01 9.70168948e-01 9.70693529e-01 9.71017361e-01 9.71475720e-01 9.71809864e-01 9.72238600e-01 9.72738087e-01 9.73126948e-01 9.73637819e-01 9.73872721e-01 9.74295676e-01 9.75081384e-01 9.75398421e-01 9.75733697e-01 9.76224005e-01 9.76606011e-01 9.77021098e-01 9.77351785e-01 9.77731466e-01 9.78432715e-01 9.79059935e-01 9.79652882e-01 9.80510414e-01 9.81460273e-01 9.81773853e-01 9.82366800e-01 9.83149111e-01 9.83641684e-01 9.83954072e-01 9.84750032e-01 9.85305369e-01 9.85852718e-01 9.86463904e-01 9.86815095e-01 9.87418354e-01 9.87876773e-01 9.88316953e-01 9.89442408e-01 9.89836931e-01 9.90366042e-01 9.91109550e-01 9.91667092e-01 9.92313683e-01 9.92825687e-01 9.93507683e-01 9.94032145e-01 9.94720936e-01 9.95639980e-01 9.96321857e-01 9.97061968e-01 9.97772336e-01 9.98326600e-01 9.98780370e-01 9.99145269e-01 9.99396145e-01 1.00018632e+00 1.00072801e+00 1.00116253e+00 1.00163460e+00 1.00214088e+00 1.00268590e+00 1.00326860e+00 1.00391519e+00 1.00463355e+00 1.00524592e+00 1.00607264e+00 1.00643754e+00 1.00704300e+00 1.00753677e+00 1.00808525e+00 1.00873983e+00 1.00914919e+00 1.00970674e+00 1.01022446e+00 1.01098394e+00 1.01173651e+00 1.01255190e+00 1.01299548e+00 1.01337397e+00 1.01423609e+00 1.01499438e+00 1.01531601e+00 1.01662958e+00 1.01785314e+00 1.01911891e+00 1.02010071e+00 1.02056253e+00 1.02170622e+00 1.02259231e+00 1.02309513e+00 1.02386260e+00 1.02464819e+00 1.02557755e+00 1.02595162e+00 1.02656615e+00 1.02712274e+00 1.02833247e+00 1.02939534e+00 1.03016615e+00 1.03103626e+00 1.03199303e+00 1.03277183e+00 1.03357804e+00 1.03426445e+00 1.03478444e+00 1.03583467e+00 1.03657246e+00 1.03793395e+00 1.03909481e+00 1.03999448e+00 1.04081094e+00 1.04212224e+00 1.04260576e+00 1.04338694e+00 1.04486132e+00 1.04636300e+00 1.04707575e+00 1.04767334e+00 1.04908848e+00 1.04989457e+00 1.05075216e+00 1.05197561e+00 1.05302596e+00 1.05427110e+00 1.05521536e+00 1.05588114e+00 1.05623817e+00 1.05735099e+00 1.05918014e+00 1.06022120e+00 1.06122351e+00 1.06181991e+00 1.06274235e+00 1.06348133e+00 1.06441188e+00 1.06552017e+00 1.06644499e+00 1.06742001e+00 1.06795132e+00 1.06895590e+00 1.07040417e+00 1.07093668e+00 1.07231414e+00 1.07361639e+00 1.07502806e+00 1.07639873e+00 1.07715476e+00 1.07828820e+00 1.07925522e+00 1.08054376e+00 1.08131123e+00 1.08303988e+00 1.08387578e+00 1.08567846e+00 1.08728862e+00 1.08861935e+00 1.08943927e+00 1.09095824e+00 1.09194791e+00 1.09317374e+00 1.09493208e+00 1.09631526e+00 1.09748650e+00 1.09888446e+00 1.09974992e+00 1.10078990e+00 1.10188234e+00 1.10304201e+00 1.10422564e+00 1.10535002e+00 1.10648346e+00 1.10794425e+00 1.10895681e+00 1.10966027e+00 1.11085641e+00 1.11195230e+00 1.11340511e+00 1.11426151e+00 1.11602783e+00 1.11752272e+00 1.11859119e+00 1.12004507e+00 1.12199509e+00 1.12379444e+00 1.12647760e+00 1.12757683e+00 1.12853920e+00 1.12993836e+00 1.13123381e+00 1.13248467e+00 1.13467526e+00 1.13671410e+00 1.13837433e+00 1.13968909e+00 1.14087629e+00 1.14385235e+00 1.14565408e+00 1.14754701e+00 1.14923465e+00 1.15127575e+00 1.15299761e+00 1.15493619e+00 1.15695453e+00 1.15906405e+00 1.16070616e+00 1.16306663e+00 1.16510773e+00 1.16719449e+00 1.16843748e+00 1.17055833e+00 1.17277062e+00 1.17426431e+00 1.17621434e+00 1.17725194e+00 1.18012547e+00 1.18228066e+00 1.18494904e+00 1.18672788e+00 1.18906558e+00 1.19022858e+00 1.19188213e+00 1.19419694e+00 1.19610119e+00 1.19842744e+00 1.20118690e+00 1.20264661e+00 1.20507538e+00 1.20683146e+00 1.20985329e+00 1.21151817e+00 1.21432328e+00 1.21628463e+00 1.21817756e+00 1.22013891e+00 1.22238529e+00 1.22377646e+00 1.22641063e+00 1.22789299e+00 1.22979724e+00 1.23145068e+00 1.23436987e+00 1.23666191e+00 1.23912501e+00 1.24132574e+00 1.24327564e+00 1.24633169e+00 1.24941051e+00 1.25351560e+00 1.25622952e+00 1.25906897e+00 1.26327658e+00 1.26472485e+00 1.26626420e+00 1.26921761e+00 1.27176058e+00 1.27455425e+00 1.27930939e+00 1.28219438e+00 1.28461182e+00 1.28853440e+00 1.29151070e+00 1.29504561e+00 1.29962957e+00 1.30140853e+00 1.30342686e+00 1.30633461e+00 1.30997217e+00 1.31234396e+00 1.31628942e+00 1.31910598e+00 1.32300591e+00 1.32728207e+00 1.33148980e+00 1.33589137e+00 1.33800089e+00 1.34095430e+00 1.34494531e+00 1.34728301e+00 1.34927845e+00 1.35376000e+00 1.35577834e+00 1.35875440e+00 1.36163950e+00 1.36479807e+00 1.36900580e+00 1.37281442e+00 1.37572217e+00 1.37934840e+00 1.38390958e+00 1.38597357e+00 1.39096820e+00 1.39747930e+00 1.40206337e+00 1.40791309e+00 1.41308999e+00 1.41624868e+00 1.42027402e+00 1.42473257e+00 1.42806232e+00 1.43306828e+00 1.43827939e+00 1.44249856e+00 1.44638705e+00 1.44988775e+00 1.45604539e+00 1.45997941e+00 1.46473455e+00 1.46817827e+00 1.47165620e+00 1.48108649e+00 1.48527145e+00 1.48908007e+00 1.49219298e+00 1.49628687e+00 1.49955952e+00 1.50786090e+00 1.51440632e+00 1.52084887e+00 1.52588904e+00 1.52982318e+00 1.53558171e+00 1.53908241e+00 1.54994953e+00 1.55609584e+00 1.55869567e+00 1.56367898e+00 1.57069170e+00 1.57705462e+00 1.58250546e+00 1.58667886e+00 1.59551620e+00 1.60427380e+00 1.61255240e+00 1.61876702e+00 1.62713683e+00 1.63088858e+00 1.63603139e+00 1.63968027e+00 1.64614582e+00 1.65306747e+00 1.65762877e+00 1.66707051e+00 1.67489290e+00 1.68079972e+00 1.69057214e+00 1.69691217e+00 1.70773375e+00 1.71468961e+00 1.72026575e+00 1.72909176e+00 1.73868167e+00 1.74701726e+00 1.75312936e+00 1.75958347e+00 1.76740599e+00 1.77928793e+00 1.78790879e+00 1.80008709e+00 1.80824029e+00 1.81779599e+00 1.82088637e+00 1.83241487e+00 1.84054530e+00 1.85333943e+00 1.86950898e+00 1.87311244e+00 1.88449252e+00 1.89506316e+00 1.90496111e+00 1.91926062e+00 1.92569184e+00 1.93269336e+00 1.94161046e+00 1.95106375e+00 1.96189654e+00 1.96596742e+00 1.97335660e+00 1.99049544e+00 2.00224066e+00 2.01509190e+00 2.02771521e+00 2.04680371e+00 2.05724907e+00 2.07010031e+00 2.08197069e+00 2.09880161e+00 2.12120867e+00 2.13209867e+00 2.14621568e+00 2.16150713e+00 2.18505430e+00 2.20096183e+00 2.21006131e+00 2.23430419e+00 2.24843264e+00 2.27259564e+00 2.29222059e+00 2.33734250e+00 2.34867692e+00 2.38701391e+00 2.40831494e+00 2.43076754e+00 2.44348216e+00 2.46003938e+00 2.48511457e+00 2.50509286e+00 2.52012205e+00 2.55306554e+00 2.58272481e+00 2.60138035e+00 2.64240837e+00 2.67332196e+00 2.70810151e+00 2.74036050e+00 2.76802444e+00 2.79958820e+00 2.84642053e+00 2.88367438e+00 2.92612815e+00 2.98080564e+00 3.03719378e+00 3.06423044e+00 3.11309266e+00 3.14752960e+00 3.24190140e+00 3.31346703e+00 3.40108800e+00 3.45419216e+00 3.53133416e+00 3.58806419e+00 3.66716719e+00 3.77631736e+00 3.87666440e+00 3.98184609e+00 4.02745867e+00 4.18366909e+00 4.27098227e+00 4.34154415e+00 4.43997574e+00 4.57155561e+00 4.69405842e+00 4.94627142e+00 5.10129595e+00 5.41771936e+00 5.71058416e+00 6.23109961e+00 6.95927668e+00 8.15386105e+00 1.61319084e+01 
            </HistogramBinning>
          </PDF>
        </CumulativePDF_cls2>
      </Variable>
      <Variable VarIndex="1">
        <CumulativePDF_cls0>
          <PDF Name="GaussTransform var1 cls0" MinNSmooth="0" MaxNSmooth="0" InterpolMethod="1" KDE_type="0" KDE_iter="1" KDE_border="1" KDE_finefactor="0.0000000000000000e+00">
            <Histogram Name="Cumulative_Var1_cls0_original" NBins="701" XMin="4.1923341155052185e-01" XMax="7.3919677734375000e+00" HasEquidistantBins="0">
