<?xml version="1.0"?>
<MethodSetup Method="DL::DL_CPU">
  <GeneralInfo>
    <Info name="TMVA Release" value="4.2.1 [262657]"/>
    <Info name="ROOT Release" value="6.33/01 [401665]"/>
    <Info name="Creator" value="nsonmez"/>
    <Info name="Date" value="Tue Sep 17 20:37:02 2024"/>
    <Info name="Host" value="Darwin MacAir-1879.local 23.6.0 Darwin Kernel Version 23.6.0: Mon Jul 29 21:16:46 PDT 2024; root:xnu-10063.141.2~1/RELEASE_ARM64_T8112 arm64"/>
    <Info name="Dir" value="/Users/nsonmez/root_install/tutorials/tmva"/>
    <Info name="Training events" value="4000"/>
    <Info name="TrainingTime" value="1.58385038e-01"/>
    <Info name="AnalysisType" value="Multiclass"/>
  </GeneralInfo>
  <Options>
    <Option name="V" modified="Yes">True</Option>
    <Option name="VerbosityLevel" modified="No">Verbose</Option>
    <Option name="VarTransform" modified="Yes">N</Option>
    <Option name="H" modified="Yes">False</Option>
    <Option name="CreateMVAPdfs" modified="No">False</Option>
    <Option name="IgnoreNegWeightsInTraining" modified="No">False</Option>
    <Option name="InputLayout" modified="No">0|0|0</Option>
    <Option name="BatchLayout" modified="No">0|0|0</Option>
    <Option name="Layout" modified="Yes">TANH|100,TANH|50,TANH|10,LINEAR</Option>
    <Option name="ErrorStrategy" modified="Yes">CROSSENTROPY</Option>
    <Option name="WeightInitialization" modified="Yes">XAVIERUNIFORM</Option>
    <Option name="RandomSeed" modified="No">0</Option>
    <Option name="ValidationSize" modified="No">20%</Option>
    <Option name="Architecture" modified="Yes">CPU</Option>
    <Option name="TrainingStrategy" modified="Yes">Optimizer=ADAM,LearningRate=1e-3,TestRepetitions=1,ConvergenceSteps=10,BatchSize=100,MaxEpochs=20</Option>
  </Options>
  <Variables NVar="4">
    <Variable VarIndex="0" Expression="var1" Label="var1" Title="var1" Unit="" Internal="var1" Type="F" Min="-4.05916023e+00" Max="3.18076587e+00"/>
    <Variable VarIndex="1" Expression="var2" Label="var2" Title="Variable 2" Unit="" Internal="var2" Type="F" Min="-3.68905711e+00" Max="3.78774047e+00"/>
    <Variable VarIndex="2" Expression="var3" Label="var3" Title="Variable 3" Unit="units" Internal="var3" Type="F" Min="-3.62961459e+00" Max="4.56402540e+00"/>
    <Variable VarIndex="3" Expression="var4" Label="var4" Title="Variable 4" Unit="units" Internal="var4" Type="F" Min="-4.84856987e+00" Max="4.36252546e+00"/>
  </Variables>
  <Spectators NSpec="0"/>
  <Classes NClass="4">
    <Class Name="Signal" Index="0"/>
    <Class Name="bg0" Index="1"/>
    <Class Name="bg1" Index="2"/>
    <Class Name="bg2" Index="3"/>
  </Classes>
  <Transformations NTransformations="1">
    <Transform Name="Normalize">
      <Selection>
        <Input NInputs="4">
          <Input Type="Variable" Label="var1" Expression="var1"/>
          <Input Type="Variable" Label="var2" Expression="var2"/>
          <Input Type="Variable" Label="var3" Expression="var3"/>
          <Input Type="Variable" Label="var4" Expression="var4"/>
        </Input>
        <Output NOutputs="4">
          <Output Type="Variable" Label="var1" Expression="var1"/>
          <Output Type="Variable" Label="var2" Expression="var2"/>
          <Output Type="Variable" Label="var3" Expression="var3"/>
          <Output Type="Variable" Label="var4" Expression="var4"/>
        </Output>
      </Selection>
      <Class ClassIndex="0">
        <Ranges>
          <Range Index="0" Min="-3.6591601371765137e+00" Max="3.1396193504333496e+00"/>
          <Range Index="1" Min="-2.8854167461395264e+00" Max="3.7877404689788818e+00"/>
          <Range Index="2" Min="-3.5726830959320068e+00" Max="3.9199879169464111e+00"/>
          <Range Index="3" Min="-3.2970414161682129e+00" Max="4.3625254631042480e+00"/>
        </Ranges>
      </Class>
      <Class ClassIndex="1">
        <Ranges>
          <Range Index="0" Min="-4.0591602325439453e+00" Max="3.1807658672332764e+00"/>
          <Range Index="1" Min="-3.6890571117401123e+00" Max="2.7701563835144043e+00"/>
          <Range Index="2" Min="-3.6296145915985107e+00" Max="3.5640251636505127e+00"/>
          <Range Index="3" Min="-4.8485698699951172e+00" Max="3.5411651134490967e+00"/>
        </Ranges>
      </Class>
      <Class ClassIndex="2">
        <Ranges>
          <Range Index="0" Min="-4.0591602325439453e+00" Max="2.8644757270812988e+00"/>
          <Range Index="1" Min="-3.0890572071075439e+00" Max="3.3701565265655518e+00"/>
          <Range Index="2" Min="-3.5726830959320068e+00" Max="4.5640254020690918e+00"/>
          <Range Index="3" Min="-4.7970414161682129e+00" Max="3.5411651134490967e+00"/>
        </Ranges>
      </Class>
      <Class ClassIndex="3">
        <Ranges>
          <Range Index="0" Min="-1.1468367576599121e+00" Max="1.7020483016967773e+00"/>
          <Range Index="1" Min="-1.3663146495819092e+00" Max="1.7670378684997559e+00"/>
          <Range Index="2" Min="-1.8881578445434570e+00" Max="1.8991775512695312e+00"/>
          <Range Index="3" Min="-1.8976711034774780e+00" Max="1.8990987539291382e+00"/>
        </Ranges>
      </Class>
      <Class ClassIndex="4">
        <Ranges>
          <Range Index="0" Min="-4.0591602325439453e+00" Max="3.1807658672332764e+00"/>
          <Range Index="1" Min="-3.6890571117401123e+00" Max="3.7877404689788818e+00"/>
          <Range Index="2" Min="-3.6296145915985107e+00" Max="4.5640254020690918e+00"/>
          <Range Index="3" Min="-4.8485698699951172e+00" Max="4.3625254631042480e+00"/>
        </Ranges>
      </Class>
    </Transform>
  </Transformations>
  <MVAPdfs/>
  <Weights NetDepth="4" InputDepth="1" InputHeight="1" InputWidth="4" BatchSize="1" BatchDepth="1" BatchHeight="100" BatchWidth="4" LossFunction="C" Initialization="F" Regularization="0" OutputFunction="M" WeightDecay="0.0000000000000000e+00">
    <DenseLayer Width="100" ActivationFunction="3">
      <Weights Rows="100" Columns="4">
        -2.962141e-01  2.132202e-01  -2.528422e-01  4.607193e-01  9.007412e-02  2.299361e-01  2.292035e-01  -3.362701e-01  -2.676806e-01  -1.093014e-01  3.069811e-01  1.859000e-01  5.692388e-02  -2.172931e-01  1.151411e-01  1.970249e-01  -1.812853e-01  -2.334358e-01  -2.302799e-01  5.222234e-02  -3.109516e-01  1.924176e-01  -1.204225e-01  2.512591e-01  1.746826e-01  3.409765e-01  -1.308831e-01  2.654194e-01  2.924722e-01  1.324358e-01  2.599949e-02  -2.433184e-01  7.045468e-02  2.861877e-01  1.636294e-01  -4.123503e-01  1.578985e-01  2.171721e-02  6.707317e-02  -3.404448e-01  -1.699043e-01  1.260941e-01  1.410790e-01  2.317843e-01  -2.810717e-01  4.706822e-02  4.610441e-02  3.964348e-01  -5.588023e-03  1.306126e-01  4.072623e-02  -2.616787e-01  1.979232e-01  2.859804e-01  -2.587506e-01  2.284675e-01  -6.403733e-02  2.830118e-02  -3.568627e-01  -2.593629e-01  -1.676606e-01  6.058450e-02  1.656298e-01  2.748035e-01  2.976977e-01  -2.112776e-02  -4.333572e-01  2.282292e-01  -1.391143e-01  -2.135991e-01  -4.016714e-01  4.041835e-01  -6.714372e-02  2.245355e-01  1.004032e-02  -4.858484e-01  1.399381e-01  2.858751e-01  -3.911043e-02  -2.661256e-01  -2.325455e-01  -2.996112e-01  -6.809106e-03  3.057433e-01  -2.647772e-01  -1.879091e-01  -1.782487e-01  2.127491e-01  -2.432141e-01  2.635500e-01  -3.443084e-01  3.100563e-01  2.202279e-01  1.756079e-01  -1.849789e-01  -1.876791e-01  6.105902e-02  -1.814422e-01  -3.698353e-01  3.664826e-01  9.068412e-02  -3.117438e-01  -1.265701e-01  3.649676e-01  2.529877e-01  3.327108e-01  -2.011761e-01  5.400902e-02  -2.896330e-01  -3.289334e-01  -1.529956e-02  3.763567e-02  2.930719e-01  -1.298020e-01  -6.342060e-02  -3.452128e-01  1.878671e-01  -2.218898e-01  1.181237e-01  -2.028976e-01  4.526960e-01  1.612354e-01  2.107743e-01  -1.048269e-01  -2.140120e-01  -3.547984e-01  -1.972050e-01  1.045097e-01  1.779342e-01  1.814203e-01  1.072506e-01  -1.115275e-01  1.743093e-01  2.061473e-01  2.824396e-01  -5.953256e-02  6.663980e-03  2.902871e-01  -4.224796e-01  4.495839e-01  9.835557e-02  -2.944499e-01  1.877505e-01  -6.691663e-02  1.576990e-01  -1.525129e-01  4.503452e-01  3.919156e-01  4.852379e-02  -1.547419e-01  -3.449980e-01  1.121536e-01  2.147942e-01  -3.041769e-02  3.007032e-01  4.316262e-02  2.029469e-01  -1.617231e-01  1.279496e-01  -2.601042e-01  -2.760123e-01  -1.459383e-01  1.263019e-02  -8.381769e-02  1.359493e-01  -2.773430e-01  3.105346e-01  -4.322016e-01  -3.117054e-01  -2.013534e-01  -2.726190e-01  3.407928e-01  -2.836090e-01  2.557016e-01  2.629530e-01  4.163208e-01  1.932165e-01  -3.111033e-02  2.463770e-01  2.952794e-01  -2.227525e-01  -2.369926e-01  -2.971792e-01  1.716218e-01  2.069855e-01  4.585462e-03  3.977059e-01  -3.893075e-01  -4.230515e-02  8.465690e-02  3.338306e-01  3.377250e-01  1.660107e-01  2.091437e-01  8.512885e-02  2.554261e-01  2.812265e-01  5.882244e-02  -2.483377e-02  -2.824667e-01  -1.933609e-01  2.671906e-02  3.619224e-01  -7.651501e-02  1.671813e-02  -2.977711e-01  2.711005e-01  4.523026e-01  -2.068239e-01  1.082427e-01  2.169462e-01  1.347006e-01  -7.347196e-02  -6.326973e-02  -1.739739e-02  4.771923e-01  2.812509e-01  3.142189e-01  4.421013e-01  -2.954721e-01  1.607704e-01  -1.215402e-01  -3.280320e-01  4.521809e-01  3.678476e-01  3.371700e-01  2.616865e-01  -4.203539e-01  1.232391e-01  1.523445e-01  -3.207825e-01  1.737217e-02  2.945893e-02  3.260894e-01  -1.658903e-01  1.358287e-01  2.036284e-01  -2.365145e-01  -6.942596e-02  -6.457751e-02  -5.970883e-02  -2.374549e-01  -1.905405e-01  3.255507e-01  2.771735e-02  1.689517e-01  2.265392e-01  -4.713281e-01  3.064244e-01  -6.721459e-02  1.760713e-02  3.118892e-01  2.663698e-01  2.421111e-01  1.969948e-01  -3.944084e-01  1.834907e-01  1.140478e-01  4.717161e-02  -5.748337e-02  3.601198e-02  -3.419149e-01  2.415577e-01  -7.763066e-03  1.718155e-01  2.833520e-01  -2.547494e-01  -1.362755e-01  3.543406e-02  -1.049665e-01  4.629616e-01  -3.203300e-01  4.274296e-01  3.358588e-01  7.945983e-04  -1.947071e-01  -1.884175e-01  -2.504953e-01  3.960186e-01  5.360513e-03  -1.535695e-01  -2.103635e-01  1.636360e-01  -4.897476e-01  -8.528955e-02  2.456469e-01  2.176152e-01  -2.437269e-01  1.634456e-01  6.825731e-02  1.946627e-01  -1.325970e-01  2.711135e-02  -2.356465e-01  -2.782476e-01  4.091647e-01  7.737633e-02  1.519356e-01  -2.682180e-01  -3.070816e-01  2.081925e-01  3.815397e-01  3.337904e-01  6.763254e-02  -2.657525e-01  -3.092104e-01  -3.021882e-01  3.297933e-01  1.606906e-01  -2.147836e-02  -3.987980e-02  -3.327028e-01  -1.256873e-01  1.325637e-01  4.618274e-01  2.431432e-02  -1.896964e-01  1.428718e-01  -8.693918e-02  3.776390e-01  -1.943788e-01  -2.224086e-01  2.689689e-01  1.310723e-01  -3.318989e-01  -3.491937e-01  4.720569e-02  -2.773496e-01  -3.123975e-01  -2.886736e-01  2.349086e-01  2.673913e-01  7.411543e-02  1.946422e-01  -1.016958e-01  -4.199842e-01  -3.342851e-01  -3.171014e-02  3.897578e-03  1.062058e-01  -3.751801e-01  1.414155e-01  -2.855250e-01  5.059898e-01  1.719340e-01  3.940989e-03  1.654731e-01  4.205509e-01  1.337016e-01  2.989765e-01  2.259393e-01  -4.303254e-01  1.829308e-01  2.597341e-01  -2.297678e-01  3.302844e-01  -9.624557e-02  -1.723488e-01  1.682607e-01  -3.400273e-01  -2.625322e-01  3.162796e-02  -1.964953e-01  4.454024e-01  2.427091e-01  3.256513e-01  1.443227e-01  4.653043e-02  1.779103e-01  -1.050801e-01  -2.555009e-01  -2.172179e-01  2.960538e-02  -1.522923e-01  3.592086e-02  -4.261880e-01  -7.385057e-03  1.758457e-01  -3.097843e-02  -3.549528e-01  -8.597147e-02  -2.203834e-01  -4.709231e-02  4.096022e-01  2.771560e-01  1.494099e-01  -2.069994e-01  -1.113805e-01  1.403260e-01  -1.248917e-01  -1.515895e-01  -4.297251e-01  8.556434e-02  -1.595281e-01  4.529875e-02  -3.274939e-03  2.099768e-02  -8.925670e-02  -2.263690e-01  2.879126e-01  
      </Weights>
      <Biases Rows="100" Columns="1">
        5.853763e-02  5.918343e-02  7.880434e-02  7.117590e-02  -5.859216e-02  -1.310136e-01  6.410553e-02  -7.653873e-02  -5.890997e-02  4.080418e-02  7.251154e-02  4.639032e-02  7.269632e-02  -1.022663e-01  -4.584011e-02  -9.020933e-02  6.504162e-03  6.915695e-02  -6.547688e-02  -8.856063e-02  7.432214e-02  -5.839503e-02  4.083863e-02  2.138251e-02  -6.573240e-02  6.384668e-02  6.069320e-02  8.064293e-02  -3.347504e-02  9.802427e-02  1.464272e-01  -3.562102e-02  -8.105879e-02  7.165334e-02  -4.391047e-02  1.383716e-01  5.024041e-02  6.061071e-02  4.605811e-02  9.686861e-02  -3.512033e-02  -3.381783e-02  7.688294e-02  2.057116e-02  -1.016521e-01  6.633780e-02  6.895018e-02  7.202119e-02  5.682165e-02  6.026727e-02  -6.698976e-02  4.578912e-02  -9.209725e-02  6.671351e-03  8.859578e-02  6.025061e-02  4.869412e-02  -1.084600e-01  5.894363e-02  1.059359e-01  9.341401e-02  -5.313982e-02  3.173270e-02  3.981371e-02  -1.146735e-01  -4.019105e-02  -4.402715e-02  -6.600136e-02  6.283801e-02  -9.006958e-02  3.611309e-02  -8.434927e-02  -6.854433e-02  -4.505933e-02  6.851301e-02  3.976094e-02  -3.459233e-02  -8.037023e-02  -3.962574e-02  -6.281279e-02  -4.548684e-02  -1.032041e-01  -4.410938e-02  -1.927258e-02  9.468395e-02  6.047462e-02  -7.901856e-02  -1.061429e-02  3.105388e-02  1.782876e-01  -8.037686e-02  -4.106933e-02  1.196374e-01  5.829557e-02  2.507725e-02  -5.958946e-02  7.118128e-02  6.426894e-02  -5.637927e-02  1.242515e-01  
      </Biases>
    </DenseLayer>
    <DenseLayer Width="50" ActivationFunction="3">
      <Weights Rows="50" Columns="100">
        -1.202005e-01  -1.263892e-01  -1.476019e-01  -2.587220e-01  -7.385273e-02  -2.003318e-01  9.444293e-02  1.670677e-02  4.254479e-02  8.804536e-02  6.606246e-02  -3.432625e-02  1.580348e-01  -1.298071e-01  1.404159e-01  -3.582545e-01  -4.062204e-02  1.173844e-01  3.199807e-01  2.436607e-01  -2.361825e-01  5.610600e-02  1.716615e-01  6.435733e-02  1.176397e-01  -6.462747e-02  1.482944e-01  -2.188711e-01  2.654085e-02  9.295471e-02  -6.481421e-03  -1.577323e-01  -8.645120e-02  -2.270350e-01  1.861966e-01  -1.436289e-01  -7.390219e-02  -2.740523e-03  -2.571502e-01  2.068591e-01  -6.216582e-02  -1.053862e-01  -5.585014e-02  -3.431163e-01  -2.771882e-01  9.057183e-02  -1.894150e-01  -2.444910e-01  -1.417335e-01  7.529286e-02  -1.796983e-01  -3.382003e-01  -2.562406e-01  -1.701843e-01  4.303395e-02  -1.429560e-01  -1.193855e-01  2.378010e-01  -1.427371e-02  8.340167e-02  -1.555649e-01  2.510404e-02  -1.404396e-01  -1.044239e-01  -8.862346e-02  -1.802131e-01  2.587609e-01  -3.155331e-02  5.345358e-02  -8.013614e-02  9.496079e-02  -2.044719e-02  -1.712419e-01  -1.170061e-01  4.290912e-01  1.135053e-01  2.861733e-02  1.831840e-01  8.712353e-03  -3.532028e-02  -4.758510e-02  -4.363207e-02  -3.337032e-02  2.095256e-01  -8.417442e-02  -1.611925e-01  -2.624996e-01  6.071749e-03  -1.040122e-02  8.663318e-02  -1.162393e-01  1.615508e-01  2.562025e-01  2.853825e-01  2.616835e-01  -3.219832e-01  3.540615e-02  1.295344e-01  7.518072e-02  3.587378e-02  -1.794341e-01  7.999584e-02  -1.478582e-02  7.790539e-02  1.654848e-02  4.811651e-02  1.978165e-01  -7.812835e-02  -3.058060e-02  9.161838e-02  -2.199280e-01  -5.029601e-02  1.062718e-01  -8.890440e-02  2.953560e-02  6.056228e-02  2.043365e-01  1.371106e-01  -1.141431e-01  -2.683133e-02  -9.422251e-02  -3.833142e-02  9.186015e-02  9.886072e-02  1.602064e-01  -1.219368e-01  -8.732782e-02  9.141518e-02  -5.745646e-02  5.781785e-03  3.088695e-01  -6.937381e-02  -7.050565e-02  7.067595e-02  2.464327e-01  1.704540e-01  8.427016e-02  2.027539e-01  -8.753221e-02  -7.508186e-03  -1.611722e-01  6.890561e-02  -5.935182e-02  6.532256e-02  -1.753681e-01  1.765714e-01  -5.162758e-02  -1.801409e-01  8.215975e-03  2.772287e-01  -1.148910e-01  -1.165974e-01  4.922128e-02  5.808123e-02  -4.285854e-02  1.235149e-01  -1.040162e-01  7.485183e-02  8.723539e-02  1.373148e-01  9.794433e-02  2.765939e-02  1.978292e-01  -5.445726e-02  2.128035e-01  -2.318990e-01  6.225953e-02  1.893446e-02  1.787834e-01  -8.840192e-03  -1.810005e-03  7.635903e-02  -1.263767e-01  9.117024e-02  -3.509175e-02  5.489748e-03  -1.823261e-01  1.669896e-01  -2.209086e-01  -9.538390e-02  2.900588e-02  -4.366324e-02  9.254391e-02  -4.165575e-02  -3.010770e-01  1.954537e-01  1.318740e-02  1.174069e-01  1.182293e-01  -1.752444e-01  -1.603725e-01  -3.934516e-02  1.202789e-01  -4.876203e-03  -1.134990e-01  -1.331442e-01  2.113146e-01  -7.900506e-02  4.959201e-03  1.100310e-01  2.542721e-01  -1.846693e-01  2.938841e-01  3.957534e-02  2.020403e-01  6.592309e-02  6.940862e-02  -4.837863e-01  -2.864149e-01  -1.569140e-01  5.736477e-02  2.992319e-01  -2.900069e-01  -1.447981e-01  -4.830676e-02  1.125928e-01  1.268410e-01  2.880183e-01  -2.748833e-01  -1.592184e-01  2.170797e-01  3.193959e-01  3.013127e-01  -2.071561e-02  4.009152e-01  1.774439e-01  1.484876e-01  1.963092e-01  -7.825263e-02  -1.865568e-01  -4.608527e-02  2.410890e-01  -4.305460e-02  -3.954471e-02  3.170291e-01  1.639771e-01  -9.140790e-03  2.931855e-01  -1.965479e-01  -4.301961e-01  1.491176e-01  -1.620152e-01  7.640995e-02  4.799759e-03  3.080543e-02  7.688586e-02  -3.029989e-01  1.113560e-01  4.622153e-02  -7.722021e-02  9.175004e-02  2.031297e-01  1.797716e-01  2.747049e-01  -2.674253e-01  3.610235e-01  -2.949405e-01  1.702339e-01  3.506849e-03  -3.835010e-02  1.642230e-01  -1.799203e-01  1.492464e-01  -3.350220e-01  -3.008216e-01  -4.559723e-02  -9.453440e-02  -7.341424e-02  -3.999441e-02  1.127115e-01  -2.200834e-02  -3.094673e-01  -3.970272e-01  3.622358e-01  -4.333605e-02  -1.799871e-02  2.311236e-01  -3.125666e-02  -7.438215e-02  1.385262e-01  5.885807e-02  1.840199e-01  9.606261e-02  -1.413553e-01  -6.345264e-02  4.973327e-01  -2.247181e-02  -2.420424e-01  1.427829e-01  -2.628727e-01  2.648976e-01  -2.541869e-01  2.755186e-02  -1.813778e-01  -1.405394e-01  3.142757e-01  -2.216179e-01  -1.660035e-02  2.334427e-02  3.220100e-01  -1.325917e-01  -9.109818e-02  -3.494291e-01  -2.451070e-02  -1.078109e-01  1.058872e-01  -9.365115e-02  3.678409e-01  3.398576e-01  4.987756e-02  -2.373210e-01  -2.580500e-01  -3.700116e-02  2.600152e-01  1.173869e-01  8.762918e-02  6.674667e-02  -3.824873e-01  1.397408e-01  6.471683e-02  -3.385292e-01  -2.282825e-01  -7.509564e-02  2.380750e-03  3.071916e-02  -1.626987e-01  -9.416711e-02  -1.281751e-01  -4.846979e-03  -1.037433e-01  2.417519e-02  -1.466856e-01  3.542590e-01  5.901654e-02  -2.978712e-02  -8.591493e-02  -6.580747e-02  6.340495e-02  -1.837744e-02  -3.809085e-02  -1.575644e-01  1.490135e-01  -3.933904e-01  -7.760439e-02  1.644848e-01  -2.722925e-01  1.238055e-01  -2.844906e-01  -3.853676e-02  2.366699e-01  5.141345e-02  -1.752300e-01  1.549893e-03  -1.057824e-01  -1.667358e-01  -4.141726e-02  1.100471e-01  1.776270e-01  1.031641e-01  -4.980953e-02  -3.316299e-01  3.765240e-02  -1.791258e-02  2.567727e-01  3.290711e-01  1.348721e-01  1.090636e-01  2.634262e-01  2.762006e-01  9.026556e-02  2.304884e-01  2.779618e-01  2.019513e-01  -1.480074e-01  1.880180e-02  -3.178844e-02  -3.151978e-01  4.030604e-02  1.469211e-02  -2.276017e-01  -1.867675e-01  1.976184e-01  1.008130e-01  3.187762e-01  -1.223063e-01  -2.589917e-01  3.825448e-02  1.218918e-01  7.763197e-02  6.606925e-02  -7.777510e-02  -7.500465e-02  -9.482211e-02  2.539881e-01  2.679372e-01  -3.874354e-02  -6.770858e-03  -1.092579e-01  1.962670e-01  -1.323906e-01  -1.643020e-01  -8.674917e-02  1.959613e-01  1.069765e-01  -8.513846e-03  4.941228e-02  -2.038334e-01  -3.537136e-01  1.262439e-01  9.169082e-02  -3.134207e-02  2.235278e-02  -1.491703e-01  -3.402601e-01  9.518228e-03  1.299294e-02  -2.605283e-01  1.091394e-01  1.005236e-01  -1.508995e-01  2.165907e-01  3.191459e-01  5.254859e-02  4.354981e-02  -1.140642e-01  -5.198768e-02  -1.763282e-01  2.079940e-01  -9.376126e-02  1.695946e-01  -3.786151e-01  3.608115e-01  -1.407107e-01  -6.953695e-02  -2.211467e-01  1.963925e-01  -1.230732e-01  1.077064e-01  -9.281209e-02  -4.715232e-02  8.567341e-02  1.335756e-01  1.182117e-01  1.196842e-02  -1.641739e-01  3.483413e-01  1.329119e-01  -6.173963e-02  -3.578955e-01  -2.397026e-01  -4.450703e-02  8.894077e-02  -5.646548e-04  -2.027950e-01  -1.873617e-01  -2.950759e-01  -1.478139e-01  -1.012066e-01  -3.028614e-01  1.978199e-01  6.477820e-02  -7.482469e-02  -3.352295e-01  3.558445e-02  1.599462e-02  1.307063e-01  -2.201865e-01  1.492244e-01  -2.160620e-01  3.215242e-02  2.804590e-01  1.550670e-01  2.750283e-02  4.440132e-02  -4.103598e-02  -3.339944e-01  2.748773e-01  1.007541e-01  1.443948e-01  -1.639675e-01  2.748980e-01  2.095898e-01  -3.796393e-02  1.886304e-02  1.041296e-02  -2.736437e-02  -2.143197e-02  -1.564246e-02  -9.173196e-02  -1.872292e-02  1.613781e-01  -3.052138e-02  -7.372196e-02  2.627197e-01  -4.541592e-03  -1.588796e-01  -8.798347e-02  -7.779848e-02  2.121788e-02  7.762456e-02  3.751251e-01  -6.286715e-02  -3.547606e-02  1.845147e-01  -3.350647e-02  -6.046147e-02  1.643873e-01  -7.212140e-03  -2.725742e-01  -2.656152e-02  -1.076557e-01  2.846363e-01  1.051160e-01  -9.608152e-02  9.227891e-03  -9.978352e-02  -3.831382e-02  3.197048e-02  3.835125e-02  -4.215894e-03  3.564091e-01  -1.591475e-01  5.344319e-02  -5.512617e-03  8.158357e-02  2.223790e-01  1.845850e-01  6.685344e-03  -1.574722e-01  7.500752e-02  -9.351156e-02  -1.307030e-01  -1.243936e-01  1.369389e-01  3.244900e-02  1.280455e-01  -1.427590e-01  2.317306e-01  -1.424686e-01  -7.555109e-02  -1.456021e-01  -3.880963e-01  4.111909e-01  1.459400e-01  7.146312e-02  2.379490e-02  -1.544023e-01  1.836600e-01  4.805833e-02  1.086728e-01  7.576948e-02  2.285302e-01  -1.485389e-01  -2.494478e-02  -1.109253e-01  1.957995e-01  2.199189e-03  -5.191255e-03  5.655014e-02  -1.190823e-02  1.925365e-02  -1.974255e-01  -1.225632e-01  -1.501926e-01  -2.567548e-01  -3.276902e-01  1.167466e-01  -3.438508e-02  -1.434636e-01  -2.058495e-02  2.910667e-02  -1.351867e-01  -3.226990e-02  -3.805800e-02  1.028367e-02  -1.309519e-01  3.161851e-01  -3.569474e-01  -2.034988e-01  1.992951e-01  2.275586e-02  -6.807826e-02  4.611820e-02  -2.458418e-01  2.015249e-01  1.752517e-01  1.587165e-01  -2.777770e-01  2.684843e-01  2.135547e-01  7.292904e-02  -1.719299e-01  1.311709e-01  1.068526e-01  -5.752413e-02  1.562226e-01  8.654469e-03  -2.472761e-02  -1.498469e-01  2.948653e-01  -1.400701e-01  1.634094e-02  2.285853e-01  2.622842e-01  7.113348e-02  -2.415488e-01  -2.849376e-01  -7.246844e-02  -1.146212e-01  9.525163e-02  8.375964e-02  -1.918403e-01  1.149628e-01  -3.661989e-01  -8.778544e-02  -4.111474e-02  -2.152529e-01  -1.067459e-01  4.127656e-02  -3.033091e-01  1.180632e-01  -1.282695e-01  -2.381043e-02  6.268027e-02  -3.735372e-01  9.020323e-02  -1.698798e-01  3.186325e-01  1.234111e-02  3.209402e-02  2.082840e-01  8.330374e-02  -9.355435e-03  7.346910e-02  -1.339369e-01  1.715439e-01  1.955988e-01  -7.710595e-02  -1.124779e-01  2.221321e-02  2.579758e-01  2.294457e-01  4.476944e-02  2.926907e-02  1.099245e-01  1.685294e-01  2.005842e-01  -1.439417e-01  1.605465e-02  1.172230e-01  -6.793437e-02  2.082690e-01  -5.405156e-02  9.462627e-02  -8.948297e-02  -1.305308e-01  7.277693e-03  -2.726345e-01  -2.282494e-01  1.870574e-01  -1.748913e-02  7.843835e-02  1.392463e-01  -9.784187e-02  -1.050887e-01  1.629747e-01  -1.327374e-01  -4.516857e-02  -2.281699e-01  6.236612e-02  3.355857e-01  -8.353832e-02  -9.539077e-02  -2.714013e-01  -4.484516e-02  -1.874709e-01  -1.395170e-01  8.872673e-02  -1.663241e-01  -5.439967e-02  1.680030e-02  -1.165089e-01  2.499751e-01  -1.554151e-01  2.468671e-01  9.937146e-02  5.812630e-02  4.836313e-03  -1.326763e-01  4.066015e-01  -8.749226e-02  -8.447789e-02  5.388502e-02  2.369922e-01  1.680625e-01  -1.124844e-01  1.506186e-01  -1.103467e-03  8.508354e-02  1.883581e-01  -7.670087e-02  2.097903e-01  -1.584243e-01  -1.570503e-01  -2.189882e-01  2.435047e-02  2.986145e-01  1.062100e-01  -1.243421e-02  1.089788e-01  3.542420e-02  -1.043109e-01  -1.693824e-02  2.584288e-01  -1.779693e-01  -3.527718e-02  3.145649e-02  -8.737043e-02  2.558897e-02  3.697036e-01  -4.089392e-01  -2.567979e-01  -5.601318e-02  6.660120e-02  -3.070728e-02  -8.142164e-02  6.495547e-02  -2.765688e-01  -6.444177e-02  -2.920738e-01  2.810881e-01  -3.860010e-01  3.774249e-01  9.283584e-02  3.325016e-01  2.014584e-02  1.766539e-01  -1.310138e-01  -7.476927e-02  -1.942013e-01  -1.314179e-01  -3.203435e-01  -1.641833e-01  2.289032e-01  3.155384e-01  -2.566050e-01  -6.760472e-02  3.141218e-01  2.997111e-02  1.294872e-01  -1.586011e-01  -1.616464e-01  6.258251e-02  1.606747e-02  8.210602e-02  1.486954e-01  2.063982e-01  -1.773593e-02  1.487643e-02  -2.444827e-02  -2.753579e-01  1.989852e-01  -1.858452e-02  5.949222e-02  3.801735e-01  -1.609855e-01  3.545426e-01  -1.795485e-02  1.571209e-01  -1.494569e-01  -5.405920e-02  2.754619e-01  1.852239e-01  -1.193405e-01  4.575964e-02  3.901429e-01  -3.992312e-01  1.818201e-01  -1.186362e-01  6.393845e-03  7.268796e-02  -1.917549e-01  -8.345601e-03  2.875155e-02  2.235405e-02  -1.523616e-01  2.440923e-01  6.217492e-02  3.103631e-01  7.934544e-03  -1.465017e-01  4.095041e-01  -2.015193e-01  -3.138098e-01  1.447942e-01  -1.666182e-01  -2.700158e-02  -2.184062e-01  -1.020269e-01  9.174544e-02  -7.613011e-02  2.660365e-01  1.350748e-01  -2.156476e-01  -1.356586e-01  -6.498622e-02  6.434692e-02  2.054900e-02  1.173124e-01  4.688899e-02  4.829922e-02  -1.673765e-01  9.502959e-05  -7.455475e-02  1.466031e-01  -1.046273e-01  -8.713730e-02  4.129973e-02  1.777968e-01  -6.867499e-02  -2.685914e-01  6.492484e-02  -1.111343e-01  -7.541333e-03  -4.809757e-02  -8.803048e-02  1.092749e-02  5.385012e-02  6.230422e-02  -1.027836e-01  4.156456e-02  -2.423295e-01  2.452207e-01  -1.964978e-02  -1.650672e-01  -7.567455e-02  1.005211e-01  1.106968e-01  1.115241e-01  -2.419150e-01  9.509995e-02  1.685677e-01  -1.751405e-01  -1.474402e-01  2.282338e-02  -2.138439e-01  2.034705e-01  -1.319002e-01  1.773856e-01  -9.840638e-02  -9.105774e-02  1.254775e-01  -4.713887e-02  2.696654e-02  2.306606e-03  6.411989e-02  -3.743304e-02  -6.505818e-02  1.984013e-01  -2.062102e-01  -7.397272e-02  -3.864293e-03  -2.066904e-03  3.831551e-02  -1.415389e-01  -2.180083e-01  5.080803e-02  -7.410475e-02  1.761355e-01  1.395868e-01  7.358309e-03  3.257401e-04  -1.130874e-01  -7.227696e-02  1.456825e-01  -1.015467e-01  -2.439700e-01  -1.394076e-01  2.215025e-01  -5.741540e-02  -1.002291e-01  -7.947071e-03  -7.334988e-02  3.026596e-02  1.617740e-02  7.560505e-02  -1.421016e-01  2.411951e-02  1.320935e-02  1.076630e-01  -8.071478e-02  2.102358e-01  -1.819989e-01  7.834189e-02  2.030106e-01  7.210774e-02  -1.508801e-01  -1.341978e-01  -1.450860e-01  -1.573735e-01  -2.181634e-01  4.308255e-01  3.217861e-01  -9.498525e-02  -4.431861e-03  -3.723833e-01  5.075533e-02  1.675134e-01  1.251361e-01  4.237596e-01  1.502269e-02  5.778973e-03  2.141409e-02  -2.074267e-01  -1.763046e-02  -1.329318e-01  -3.704061e-01  -2.734758e-01  3.566600e-01  3.321054e-01  -1.143081e-01  -4.152447e-01  -1.277867e-01  -1.207281e-01  -2.724568e-01  -2.973168e-01  7.612756e-02  -2.343814e-02  1.380907e-01  1.240403e-01  3.019759e-01  -5.458108e-02  3.563703e-01  1.559482e-01  -4.376369e-01  1.352527e-01  2.032908e-01  -3.253704e-01  1.308054e-01  3.198381e-01  -2.091384e-01  2.750292e-01  -1.221356e-01  8.647081e-02  2.399840e-01  -4.114567e-01  4.932722e-01  2.527750e-02  -2.514900e-02  6.247967e-02  2.590094e-01  1.679881e-02  5.374223e-02  -1.027680e-01  3.483916e-01  -3.466750e-01  3.511133e-01  -2.648801e-01  1.328519e-02  -3.753304e-02  -3.079935e-01  3.439468e-01  5.217631e-02  1.875628e-01  7.355183e-02  2.024595e-01  1.721678e-03  4.517443e-01  1.855030e-01  2.154116e-01  2.139231e-01  2.038967e-01  2.621183e-01  -4.070314e-01  9.928722e-02  3.347307e-01  -1.617722e-01  2.139022e-01  2.730306e-01  -2.345790e-01  1.406551e-01  1.272846e-02  -9.665136e-02  3.643923e-01  -1.424837e-01  -5.616804e-01  -1.759787e-01  2.457817e-01  -2.674863e-01  1.576376e-01  -4.232607e-01  -8.872833e-02  1.164461e-01  1.307876e-01  2.630933e-01  -3.246247e-01  6.458983e-03  1.629690e-01  -2.500320e-02  -3.363030e-01  1.397744e-01  4.379440e-02  4.666728e-02  8.115614e-02  -2.085473e-02  -1.019209e-03  1.770183e-01  4.663684e-02  -1.040751e-01  1.349526e-01  -4.274096e-02  1.386761e-02  2.464023e-01  4.003050e-03  -7.992656e-02  1.191358e-01  1.709431e-02  2.150653e-01  2.108273e-01  5.788269e-02  3.275777e-02  -1.270972e-01  1.784652e-02  2.470900e-01  -7.488051e-02  1.126294e-01  6.529363e-02  1.238579e-01  8.324311e-02  2.599431e-02  6.211393e-02  1.345560e-01  1.868923e-01  2.324908e-01  9.118912e-02  -8.893865e-02  -2.531656e-01  9.495586e-02  1.710127e-02  2.233717e-01  -2.106649e-01  5.558025e-02  -1.287387e-01  5.255164e-02  1.104116e-01  -2.776433e-03  -9.057283e-02  7.845987e-03  7.545362e-02  -1.228003e-01  -2.257143e-01  -1.638483e-01  -2.399436e-01  7.525003e-02  9.297214e-02  1.763812e-01  4.029656e-02  2.260516e-01  -1.488801e-01  -9.756950e-02  -2.855395e-02  -1.567975e-02  1.655460e-01  1.025236e-01  -1.526683e-01  -6.659599e-02  1.954017e-01  -5.881222e-02  2.506218e-01  1.577000e-02  -1.521582e-01  -1.335937e-01  -2.056088e-01  -4.300135e-02  7.718168e-02  9.022875e-02  1.594858e-01  2.121886e-02  -2.121951e-01  1.903778e-01  -3.348475e-02  -1.238304e-01  -5.229740e-02  -9.833568e-02  -4.240321e-03  1.059827e-01  -1.543837e-01  9.210268e-02  4.798283e-02  3.911030e-02  1.351866e-01  1.857148e-01  1.630931e-01  5.527207e-02  7.156508e-02  4.697881e-03  8.215890e-02  -2.545622e-02  -1.672505e-01  1.742791e-01  -3.783813e-01  1.768417e-01  -1.742567e-02  -6.954707e-02  -9.153191e-02  -4.320099e-01  1.417880e-01  6.481516e-02  3.454679e-01  3.563586e-01  -1.618132e-01  -2.992610e-01  4.372328e-01  -1.062317e-01  -2.224166e-02  -2.519380e-01  6.358660e-02  -1.097091e-01  1.494713e-01  1.261137e-01  -2.529137e-01  -3.973276e-02  -7.447480e-02  2.356876e-01  -1.818006e-01  -1.769004e-01  6.773017e-02  -1.401391e-02  2.249626e-01  1.544863e-01  2.122941e-01  1.290217e-02  2.018600e-01  2.561537e-01  -3.141969e-01  3.129005e-01  2.342973e-01  2.369848e-02  1.828569e-01  1.995319e-01  9.432082e-02  4.950445e-02  -1.059378e-03  3.166675e-02  -3.071068e-02  3.503142e-02  4.834455e-01  -9.252916e-02  -5.455502e-02  4.778727e-01  1.580795e-01  -2.018849e-01  -1.721118e-01  -3.462178e-01  1.296701e-01  5.448624e-03  2.035610e-01  -4.045563e-01  1.080960e-01  -2.059774e-02  -2.073104e-01  3.334875e-01  1.024003e-01  4.618216e-01  -1.992229e-01  1.509983e-01  1.861588e-02  3.074555e-01  2.889992e-01  -1.550330e-03  2.684823e-01  -1.299293e-01  2.817496e-02  -4.568156e-01  7.612629e-02  1.557862e-01  -3.556313e-01  3.413815e-02  5.511891e-02  -3.321342e-01  1.447967e-02  -9.558073e-02  -6.144653e-02  2.566512e-01  -1.702605e-02  -4.728073e-01  -1.366322e-01  1.619515e-01  4.573584e-02  2.162308e-01  -3.956190e-01  1.415200e-01  -3.360649e-03  4.202514e-02  1.572755e-01  -4.770825e-01  -3.418626e-03  3.025606e-01  -1.563645e-01  1.137511e-01  -3.286348e-02  -1.716123e-01  2.955882e-01  2.888812e-01  -2.391809e-01  1.842905e-01  2.569335e-03  -3.197328e-01  -2.331983e-01  -4.356623e-02  9.495392e-02  2.649051e-01  -3.116649e-01  -9.986342e-02  -2.669083e-01  5.455302e-02  -4.093965e-02  -8.795663e-03  -1.830734e-01  -3.489053e-02  1.474676e-01  8.833158e-03  1.333459e-01  -2.812500e-01  1.045165e-01  -9.964895e-02  -2.307817e-01  1.547323e-01  -1.519832e-01  7.638446e-02  1.283262e-02  -4.059354e-03  -3.641173e-03  -1.154973e-02  5.295111e-02  -3.525069e-02  2.869554e-01  -1.484953e-01  8.309776e-02  -3.582217e-02  -1.609383e-01  1.187388e-01  6.886650e-02  2.071384e-01  9.301157e-02  1.311815e-01  7.805528e-02  -8.599462e-04  1.363922e-01  -2.625134e-01  6.890535e-02  3.723007e-01  3.207181e-01  2.325932e-01  9.636330e-02  1.495248e-01  -2.526094e-01  -3.413525e-01  6.951097e-02  8.847434e-02  -2.796691e-02  -2.009492e-02  4.279879e-02  -8.292059e-02  -1.488913e-01  1.908495e-01  -6.942689e-02  3.666966e-02  -3.078747e-01  3.415747e-01  9.743781e-02  -7.630297e-02  1.688492e-01  2.359865e-01  -4.246310e-01  1.240353e-02  1.424769e-01  -1.807799e-01  4.521057e-02  -6.227958e-03  2.462529e-01  1.505657e-01  1.961029e-01  -1.494711e-01  7.188215e-02  1.748886e-01  9.192827e-02  -6.736130e-03  2.916288e-02  -6.183288e-02  6.807607e-02  2.527476e-02  -2.176128e-01  -1.458169e-01  -7.720882e-02  1.924367e-01  -3.131030e-01  -1.056320e-01  3.302852e-02  -1.349577e-01  2.275954e-01  -2.893484e-01  1.340290e-01  1.588199e-01  2.512453e-01  -3.640067e-02  -3.042136e-02  -4.049648e-01  -2.260334e-01  -2.202742e-01  1.927757e-01  3.683805e-01  3.257416e-02  -1.135384e-02  -3.430386e-02  -1.788473e-01  1.514163e-01  3.423905e-01  -9.208054e-02  -1.302626e-01  5.113469e-02  3.567058e-01  1.967755e-01  -2.100361e-01  1.860221e-01  3.201649e-01  -7.094111e-03  1.454811e-02  -1.003122e-01  -1.575201e-01  -2.601745e-03  2.176192e-01  -5.710346e-02  -1.308930e-01  2.947082e-01  -3.268993e-02  -1.643645e-01  1.391143e-01  3.940462e-02  -7.470872e-02  1.730257e-01  -2.925521e-01  4.809863e-02  1.286874e-01  2.604257e-02  2.772133e-01  -1.485101e-01  3.431486e-02  -2.932968e-02  -1.185593e-01  -2.884457e-01  1.557352e-01  -4.626196e-02  3.224368e-01  -3.238427e-01  3.123433e-01  -3.366490e-01  1.537161e-01  2.402741e-03  1.087928e-02  3.290974e-01  -4.106120e-01  -8.466968e-03  -1.455400e-01  -2.283188e-01  -6.764747e-02  -2.496172e-01  -2.490188e-01  -2.335075e-01  -1.534146e-01  -1.731665e-01  -3.682235e-01  -4.146723e-01  1.651812e-01  -1.716327e-02  -7.017791e-03  1.049748e-01  -3.663781e-01  -1.361495e-01  -4.652563e-02  -1.800046e-01  -8.495240e-02  1.821954e-01  -2.863902e-01  1.951682e-01  2.871899e-01  -1.997987e-01  -2.560851e-01  1.227075e-01  -3.368409e-02  1.808179e-01  -9.641426e-02  1.414173e-01  -2.517530e-01  3.588033e-02  2.329914e-01  4.999313e-02  -1.006353e-01  -2.023779e-01  3.999605e-01  -2.661162e-01  -3.342801e-03  -3.804088e-01  -1.369026e-01  1.277246e-01  -1.333225e-01  -1.936418e-01  8.344627e-03  1.108350e-01  1.096637e-01  -3.476412e-01  -3.236544e-01  2.132477e-01  1.017705e-01  2.839917e-01  3.260624e-02  2.129198e-01  -2.830696e-01  1.012471e-01  1.487703e-01  -1.902756e-01  3.881531e-02  -2.487734e-01  1.755099e-01  -9.318883e-02  -3.679656e-02  2.057529e-01  -1.413219e-01  2.252164e-01  2.236820e-02  7.872935e-02  -9.624121e-04  1.894189e-01  -2.114530e-01  -2.840037e-02  1.086049e-01  -1.491598e-01  2.441749e-02  -1.956663e-01  1.021535e-01  1.538345e-01  -2.432698e-02  -4.571969e-02  -3.082568e-01  -1.520553e-01  -1.492618e-01  1.261572e-01  5.399050e-02  -1.339211e-01  3.263167e-01  1.445561e-01  -3.081293e-01  1.050634e-01  -2.600508e-01  -8.560678e-02  -2.569363e-01  9.777624e-02  2.817710e-01  -2.240034e-01  1.115196e-01  -3.187316e-01  5.211668e-02  -5.386882e-02  3.049600e-01  8.596016e-02  -6.477336e-02  3.067235e-02  7.707257e-02  6.021945e-02  -5.786770e-02  1.267786e-01  -1.023093e-01  1.806106e-02  -1.645967e-01  -7.743789e-02  -7.977550e-02  -1.377552e-01  3.439802e-01  -4.060250e-02  -2.411491e-01  1.889016e-02  8.628374e-02  -2.829441e-01  1.707000e-01  -3.297569e-01  -4.046357e-01  -1.119507e-01  1.106334e-01  -1.626765e-01  -8.398663e-02  -2.491716e-01  2.026112e-02  1.273895e-01  -2.637701e-02  3.032740e-01  -2.711813e-01  -3.452175e-02  1.759779e-01  2.469144e-02  -2.046939e-01  -2.553335e-01  1.157068e-01  5.049838e-02  -1.853138e-01  -1.502599e-02  1.396569e-01  -1.054708e-01  1.038074e-01  2.320804e-01  2.507770e-01  1.480539e-01  -9.395599e-02  1.650666e-01  -2.040929e-01  -6.147705e-02  -1.285581e-01  -1.829813e-01  -1.239832e-01  1.535434e-02  2.882159e-01  -2.468407e-01  -1.588995e-01  2.008436e-02  1.376294e-01  -2.325106e-01  -2.787587e-01  -1.406513e-01  -3.265290e-02  3.558492e-02  -1.652817e-01  7.304308e-03  1.170875e-01  2.654097e-01  5.446937e-02  -2.109475e-01  -1.271047e-01  -4.650781e-02  -3.580762e-02  4.532710e-02  1.194877e-01  5.894442e-02  -3.234332e-02  -6.822833e-02  -1.877305e-02  2.177813e-02  -1.953437e-01  8.027039e-02  -1.248797e-01  2.272972e-02  1.483151e-01  -7.276644e-02  -1.691922e-01  -6.153160e-02  -9.292438e-02  -1.198155e-01  -1.758632e-01  4.129303e-02  1.628428e-01  7.294882e-02  -1.344910e-01  -2.484717e-01  1.364582e-01  -2.698368e-01  1.972658e-01  8.717352e-02  -3.873371e-02  1.360231e-01  2.756661e-01  -1.936569e-01  1.558302e-01  3.413203e-02  9.592744e-02  -2.939532e-02  -3.640901e-01  1.175670e-01  1.321269e-01  -1.220138e-01  2.062450e-01  -1.402379e-01  1.083900e-01  -1.142879e-01  1.763322e-01  -1.361210e-01  7.302953e-02  -1.494311e-02  -2.548569e-01  -2.176581e-01  1.101349e-01  -1.699481e-01  1.407774e-01  -2.637594e-01  -1.226104e-01  -1.785795e-01  1.563026e-01  2.713471e-01  -3.084224e-01  -1.290058e-01  2.329309e-01  -5.416286e-02  -9.486491e-02  9.024217e-02  -5.596888e-02  1.815766e-01  9.935364e-02  5.866044e-02  1.226256e-01  1.346136e-01  -3.017544e-01  -1.856695e-01  1.471801e-03  2.217171e-02  7.454073e-02  -2.023254e-01  1.010077e-01  -1.612616e-01  -6.176055e-02  -3.626287e-03  -5.304772e-03  -1.970955e-01  -2.733936e-01  8.868299e-02  1.124642e-01  -2.303326e-02  -1.683941e-01  7.375713e-02  1.610083e-02  2.035933e-01  6.459970e-02  -3.370699e-01  -2.255315e-01  1.866057e-01  1.125330e-02  -1.708400e-01  8.473679e-02  3.690125e-01  -8.903209e-02  -8.505692e-03  1.915649e-02  8.087098e-02  -4.549573e-02  -3.238759e-02  -1.070565e-01  2.199004e-01  5.991324e-02  -1.458173e-01  -1.162177e-02  -9.728833e-02  1.236858e-01  1.480922e-02  -5.121029e-02  1.790976e-02  1.744170e-01  -9.607782e-02  1.344571e-01  -7.317141e-02  1.428187e-02  -2.319658e-01  -3.466395e-02  -7.369553e-02  9.981326e-02  1.509248e-01  -4.313107e-01  1.059011e-01  -2.504732e-01  7.260010e-02  -1.784965e-01  1.251090e-01  -2.742299e-01  -1.424597e-01  -1.028043e-01  -3.209329e-01  -9.783390e-04  -1.327302e-01  3.418238e-01  6.065086e-02  -2.461776e-02  1.410163e-01  -8.954761e-02  1.022809e-01  3.413519e-01  1.535821e-01  -2.073858e-01  7.997752e-02  3.623641e-02  1.965135e-01  2.867548e-01  2.062839e-01  -3.047642e-01  8.845097e-02  6.119297e-02  5.055693e-02  -1.161112e-01  8.803415e-02  -3.699611e-01  -2.918681e-01  1.028099e-01  2.661650e-02  -1.447056e-02  4.124174e-02  3.371385e-01  -1.042153e-01  3.743269e-01  2.593460e-01  -2.269909e-01  -9.717871e-02  -1.465790e-02  6.322452e-02  1.456577e-01  7.830586e-02  1.389640e-01  -9.046278e-02  -3.385003e-01  1.980473e-01  -2.026231e-01  2.669719e-02  -2.539744e-01  -3.022955e-01  -3.378956e-01  1.522864e-01  -1.979829e-02  -2.718667e-01  -2.370374e-01  -3.456914e-01  1.835753e-01  -2.264811e-01  -8.772950e-02  -1.181171e-01  -5.698626e-02  -7.139324e-02  1.453565e-01  4.210984e-02  -1.808113e-01  2.962747e-01  3.095334e-01  -3.603902e-01  1.998060e-01  -1.328959e-02  -3.801139e-01  2.795613e-01  8.689068e-02  -5.089270e-02  1.758805e-01  -2.862916e-01  2.417539e-02  -7.641061e-02  -3.904317e-01  3.074903e-01  6.893761e-02  -1.503041e-01  1.210840e-01  2.170988e-01  -2.106590e-01  2.095886e-02  -2.235884e-01  1.087259e-01  -3.209947e-01  2.436287e-01  -1.073507e-01  -2.706029e-01  1.754745e-01  -2.821100e-01  4.855668e-01  2.395416e-02  3.883656e-01  2.360062e-01  5.636088e-03  -2.175864e-01  2.056266e-01  8.966415e-03  1.067923e-01  3.696958e-01  5.679398e-02  1.014122e-02  -2.683317e-01  -5.493066e-02  2.577350e-01  -4.729777e-02  7.949330e-02  2.663261e-01  -3.167888e-01  1.457131e-01  2.590811e-02  -2.061178e-01  -3.326046e-02  1.757841e-01  -2.147384e-01  -5.880818e-02  3.238619e-01  -3.027331e-01  1.599576e-01  -4.648058e-01  2.075234e-01  3.302512e-02  2.620766e-01  2.818136e-01  -4.329625e-01  -1.584213e-01  2.838064e-01  -1.491179e-01  -3.799493e-01  1.309407e-01  1.059358e-01  6.499514e-03  9.740156e-02  -2.358741e-01  -9.925496e-04  3.896082e-02  2.400226e-01  6.685919e-02  -1.165735e-01  -1.538536e-02  -5.245313e-02  9.081560e-03  -6.876776e-02  -1.038489e-01  -2.929591e-02  9.559340e-03  -1.230870e-01  2.670018e-01  5.744368e-02  3.247958e-02  -3.042112e-02  1.097229e-01  4.816508e-02  -2.424667e-01  -2.419158e-01  8.837608e-02  -1.238856e-01  9.339193e-02  1.182514e-01  1.301032e-01  -1.250896e-01  -5.955524e-02  7.375863e-02  6.810726e-02  1.575601e-02  -3.579613e-02  9.857423e-02  -3.300606e-02  -4.844435e-02  -2.267951e-01  1.058404e-02  7.931425e-02  -1.404916e-03  -3.941143e-02  -6.877503e-02  2.545141e-01  1.016130e-01  -1.094037e-01  2.325531e-01  -2.192841e-02  -2.527850e-01  -9.518230e-03  -2.579575e-01  5.439954e-02  -1.348990e-01  1.856556e-01  -4.153198e-02  1.757574e-01  3.429135e-02  -1.486243e-02  -3.321276e-02  -1.086400e-01  2.147308e-01  -2.341894e-02  8.786155e-02  1.780082e-01  2.073903e-02  -7.705969e-02  -2.272510e-01  -1.096824e-01  -4.761062e-03  9.915840e-02  -1.719522e-01  -3.395813e-02  2.478301e-01  -8.115612e-02  1.310754e-02  -6.378619e-02  1.111909e-01  -1.000130e-01  -2.166352e-01  -2.261102e-02  4.320139e-02  -2.049315e-01  -2.265771e-01  1.509568e-01  6.797110e-02  1.999650e-01  -2.190974e-01  -7.124574e-02  2.172380e-01  1.232252e-01  1.233686e-02  -3.238893e-02  -1.327387e-01  1.992176e-01  9.733830e-02  6.085814e-02  -1.439082e-01  -4.078463e-02  2.192900e-01  -2.864265e-01  8.978863e-03  -2.766279e-01  -5.884814e-02  2.628778e-01  2.038192e-01  1.618687e-01  4.952297e-02  -1.301776e-01  -6.088163e-02  -1.156911e-01  2.732259e-01  -5.356084e-02  8.471963e-02  -3.083869e-02  4.644684e-03  -7.969516e-02  3.540525e-01  -5.882265e-02  -5.612933e-02  1.820128e-01  2.250812e-01  1.905723e-01  1.628396e-01  2.070748e-01  -2.987741e-01  -8.450959e-02  6.370267e-02  1.243888e-01  -1.727525e-01  2.657066e-01  -1.414177e-02  2.589238e-01  -1.376806e-01  1.978486e-01  8.689708e-02  1.608052e-01  -1.920304e-01  -1.670542e-01  -1.365562e-01  -9.299296e-02  8.662074e-02  2.066486e-01  -2.703096e-01  7.242694e-02  -3.725139e-02  2.996815e-01  -3.996385e-02  -9.989814e-02  1.708540e-01  -1.862404e-02  1.997595e-01  9.378151e-02  1.938095e-01  3.055784e-02  3.243784e-01  1.323448e-01  -8.094797e-02  -5.679075e-03  -2.015754e-01  2.949210e-01  -2.001844e-02  8.165219e-02  -5.887093e-02  1.215383e-01  -1.091448e-01  2.540292e-02  -1.353762e-01  -1.113467e-02  3.279360e-02  1.127062e-01  -7.039165e-02  -6.895596e-02  -5.531764e-02  -9.187535e-02  9.873831e-02  -5.581288e-02  -7.329819e-02  -8.094259e-02  -2.895849e-01  4.458544e-02  -1.407857e-01  -1.248450e-01  7.153316e-02  1.305843e-01  1.617294e-01  1.660411e-01  -1.487617e-01  1.693794e-01  8.028396e-03  -1.971469e-01  -2.493395e-02  -2.546195e-02  -1.899810e-01  2.902471e-01  -1.279750e-01  -2.444876e-01  1.083577e-01  -3.511476e-01  1.731501e-01  -9.660205e-02  9.323671e-02  -8.479356e-02  -1.899937e-01  -6.008118e-02  1.778925e-02  3.277728e-01  2.481471e-01  -2.621168e-01  5.582091e-03  2.228747e-01  -6.079291e-02  1.707510e-01  -4.911492e-02  1.944227e-01  1.759250e-02  2.968978e-01  2.463137e-01  -3.902479e-02  -2.589451e-01  -1.172041e-01  1.158608e-02  1.036912e-01  -5.984398e-02  1.706555e-01  -4.588031e-02  3.215973e-01  1.765748e-01  2.028919e-01  -1.378389e-01  1.869015e-01  -6.415980e-02  1.112957e-01  7.141734e-02  -2.241338e-02  8.654428e-02  -1.222373e-01  2.010891e-01  -2.290941e-01  2.796547e-01  -1.870185e-01  1.801727e-02  -4.511539e-02  -2.713824e-01  3.362105e-01  -1.204712e-01  2.622290e-02  1.333173e-02  2.144305e-02  -1.398916e-01  -9.925681e-02  9.715195e-03  1.839441e-01  -1.358046e-01  2.724281e-01  4.988338e-02  1.791095e-01  8.126094e-02  -1.945690e-01  3.359869e-01  3.427916e-03  2.654844e-01  1.421783e-01  -2.641743e-02  2.284675e-02  -8.509784e-02  1.282537e-01  -1.414638e-01  7.906617e-02  1.257703e-02  2.031012e-02  -3.137609e-01  -4.522958e-02  9.339164e-02  -1.293067e-01  3.665178e-02  -1.478469e-01  -2.908478e-01  4.977474e-02  -6.706881e-03  -3.653151e-01  9.986803e-03  -2.413362e-01  -3.271331e-01  -1.473191e-01  1.964713e-01  6.187903e-02  -1.357028e-01  -3.651948e-01  1.652042e-01  1.420612e-01  -2.260078e-02  3.002490e-01  -3.029053e-01  -2.222036e-02  2.281327e-01  -3.094357e-02  8.262105e-02  2.766100e-01  -1.196075e-01  8.156517e-02  2.563960e-01  1.718627e-01  -4.171642e-03  9.943622e-02  -2.597604e-02  -1.030062e-01  -1.104971e-01  -4.601378e-02  2.944615e-01  -1.604696e-01  -1.229742e-01  6.173975e-02  -2.070878e-01  3.191571e-01  3.843878e-01  -2.386431e-01  -3.331469e-01  3.673048e-01  2.092034e-02  7.221209e-02  -1.126162e-01  2.497478e-01  1.527737e-01  -9.399731e-02  2.935334e-01  -1.974266e-01  7.419407e-02  6.034236e-02  6.054826e-02  -8.295082e-02  -7.785872e-02  2.820652e-01  2.277319e-01  2.342437e-01  2.313777e-01  -1.631445e-01  -3.001990e-02  -3.650024e-02  -3.169843e-01  2.690019e-01  -1.719924e-02  -1.012621e-01  2.286409e-01  -2.373855e-02  1.624339e-01  1.610540e-01  -5.657420e-02  -1.905067e-03  9.739166e-02  -1.328294e-01  2.202338e-01  -4.563737e-02  1.513424e-01  -5.184745e-04  -1.831303e-01  1.039192e-01  1.493187e-01  2.711572e-01  -1.432652e-01  5.742190e-02  -1.984003e-01  3.030608e-02  -9.619392e-02  -1.963378e-01  -2.606921e-01  -4.202267e-02  -2.165789e-01  -1.148361e-01  -3.118522e-01  -2.888315e-01  7.195464e-02  1.667828e-01  -1.837002e-01  4.443367e-02  -3.660911e-01  1.049702e-02  1.303836e-01  -2.261804e-01  -1.730877e-01  -1.581000e-02  -1.178712e-01  1.757639e-01  5.078125e-02  -1.305829e-01  -8.830072e-02  1.468314e-01  2.042550e-01  1.678854e-01  -2.399404e-01  -9.440088e-02  -1.156182e-01  5.111131e-02  1.319684e-02  2.434799e-01  5.703462e-02  -2.669502e-01  1.748657e-01  6.549088e-02  -1.463364e-01  1.653003e-01  -3.308392e-02  1.350833e-01  1.008355e-01  2.031270e-01  -1.505328e-01  -1.465676e-01  -8.590476e-02  3.812211e-02  2.743736e-01  -4.014480e-01  2.883619e-01  2.377759e-03  2.863772e-01  2.460078e-02  1.857526e-01  -1.282051e-01  -2.746817e-01  3.388017e-01  3.261345e-01  2.514287e-01  -1.484384e-01  4.359416e-01  3.483842e-01  1.217335e-01  -1.006672e-01  -2.903072e-01  -5.245511e-02  -2.612368e-01  3.914727e-02  -1.587345e-01  -1.142592e-01  3.342644e-01  -1.511618e-02  2.760177e-01  7.581484e-02  -2.330503e-01  -2.908716e-01  -8.202254e-02  -1.449187e-01  3.447198e-01  4.197516e-02  2.457339e-01  1.203408e-01  -1.948973e-01  -9.645631e-02  7.081985e-02  -3.510660e-01  2.780213e-02  2.115364e-01  1.158621e-01  3.851871e-01  -2.823658e-01  -2.486973e-02  -4.318171e-01  7.633495e-02  -5.705325e-02  -4.425589e-02  2.756037e-01  -2.949342e-01  2.506747e-01  -1.259691e-01  1.046772e-01  2.164098e-01  -2.701597e-02  -5.728254e-02  -2.581150e-01  4.419669e-02  -1.935851e-01  -9.662731e-02  -2.714023e-01  2.014096e-01  6.730221e-03  -9.669507e-02  4.047776e-01  -6.144122e-02  1.061579e-01  3.636441e-01  2.477114e-01  -1.205138e-01  2.267132e-01  -3.233332e-02  -2.862212e-04  2.239357e-01  3.451874e-01  -3.128522e-01  7.665942e-02  -3.182506e-01  1.867898e-01  -1.001056e-01  3.949871e-02  -2.480301e-01  -1.990614e-01  2.715571e-01  -3.831015e-02  -1.584549e-01  9.768435e-02  -6.720816e-02  -9.891369e-03  2.683394e-01  1.832873e-02  -1.799034e-01  -5.941250e-02  -2.270159e-02  -1.471318e-01  1.056668e-01  1.923509e-01  6.229406e-02  3.530905e-02  1.036086e-01  2.576537e-01  -1.666590e-02  2.681676e-01  -1.047162e-01  -5.551983e-02  -4.133541e-02  1.670226e-01  1.284447e-02  -1.482005e-01  -2.037272e-01  -1.974252e-02  1.690122e-01  -1.866142e-01  -1.695843e-01  2.169017e-01  1.413479e-01  -4.638833e-02  -7.444683e-03  -1.115146e-01  -5.754587e-02  -2.276107e-01  6.920043e-03  4.563010e-02  -1.035492e-01  -1.489639e-01  8.456477e-02  -1.431654e-01  -2.195906e-02  1.090597e-02  -1.587429e-02  1.602405e-01  1.484884e-01  -2.727693e-01  -1.079967e-01  1.582673e-01  -2.489130e-02  -4.693230e-02  2.673890e-01  -1.184227e-01  -1.864247e-01  -7.354323e-02  1.818353e-02  7.620043e-02  -7.754704e-02  5.437168e-02  1.344561e-01  1.992196e-01  -6.980819e-02  1.316933e-01  3.852996e-02  -9.244164e-02  -4.670240e-02  -1.119832e-01  -2.869160e-01  -3.772586e-02  -3.634019e-02  -8.543308e-02  -2.536497e-01  1.773455e-01  -1.028129e-01  -3.185084e-02  -1.739608e-01  -4.056162e-02  1.193261e-01  7.999470e-02  -1.088873e-01  -2.414391e-01  -2.264100e-01  -3.053018e-01  -8.398037e-02  -2.527144e-01  1.367807e-01  2.136044e-01  1.478391e-01  -7.878990e-02  1.991726e-01  2.015505e-02  4.518288e-03  -2.820473e-01  -2.194461e-03  1.096184e-01  1.355806e-01  8.600207e-02  -2.235609e-01  2.634113e-01  2.066536e-01  -2.494308e-01  1.559021e-01  1.666008e-01  -1.650711e-01  -3.298184e-02  -1.927531e-01  7.848813e-02  2.403486e-01  -1.523343e-01  1.822568e-01  2.187607e-01  6.268814e-02  -1.326544e-01  2.168590e-01  -2.411976e-01  2.748691e-01  -1.486335e-01  1.054931e-01  1.156239e-01  2.351458e-02  -1.883359e-01  8.303054e-02  -1.557380e-01  -1.267308e-02  -1.583688e-01  -3.848071e-02  1.791545e-01  -2.163266e-01  -1.065901e-01  -2.347878e-01  6.753603e-02  -1.845598e-01  1.359737e-01  1.429145e-01  1.828948e-01  -9.265413e-02  2.495505e-01  -6.390652e-02  2.258255e-03  -1.407623e-01  -1.389697e-01  -1.793634e-01  -8.284270e-02  3.884794e-03  5.722745e-02  9.810852e-02  3.274825e-02  -1.048976e-01  5.245672e-02  7.073446e-02  2.015030e-01  -2.982218e-01  1.211771e-01  -1.141162e-01  1.278483e-01  4.917834e-02  -1.688200e-01  -1.606953e-01  -4.814357e-02  1.083094e-01  2.021625e-03  -1.259142e-01  -2.014656e-02  2.089300e-01  -3.876043e-02  -2.171372e-01  1.462111e-01  2.950979e-02  1.307071e-01  2.193892e-01  -2.933879e-02  -4.121265e-02  -1.353032e-02  -1.009948e-01  -8.482420e-02  1.099758e-01  -1.021260e-01  -1.552574e-01  7.543427e-02  -2.207663e-01  -6.185824e-02  2.053792e-01  5.368081e-03  2.400933e-02  3.201478e-02  -1.094741e-01  -5.611131e-02  2.937942e-02  -8.745221e-02  -1.454117e-01  4.181235e-02  3.425771e-02  7.044550e-02  1.259886e-01  -1.703927e-01  -2.243546e-01  6.845006e-02  1.016118e-01  -2.782270e-01  5.942083e-02  -3.285547e-02  9.524988e-02  2.351454e-01  3.481214e-02  -9.483552e-02  8.085365e-02  -1.746562e-01  -9.671315e-02  -4.068626e-02  8.712609e-02  6.892207e-02  -4.205283e-02  3.335874e-02  -2.520365e-02  1.787469e-01  1.154974e-01  -1.959870e-01  -5.207724e-02  -3.226094e-02  -2.196551e-03  -6.164558e-02  -1.044339e-01  -6.143388e-03  -2.438484e-01  2.028884e-01  -5.446554e-02  -1.993481e-01  1.456577e-01  -3.670447e-03  2.418942e-01  -6.584818e-03  4.702898e-02  3.201548e-01  -1.964699e-01  -4.962786e-02  1.892155e-01  4.610582e-03  1.891178e-01  1.048722e-01  1.053359e-01  9.362132e-02  7.397288e-02  8.242110e-02  -2.023994e-01  -1.188397e-01  -3.327295e-02  -1.064189e-01  7.767475e-02  -5.124183e-02  1.787467e-01  -1.886818e-02  2.655019e-01  -6.873056e-02  1.157849e-01  -1.209826e-01  6.404134e-02  1.622515e-01  9.507802e-02  -9.615243e-02  8.974825e-02  1.934043e-01  -1.361222e-01  5.380799e-02  2.091319e-02  1.891437e-01  -4.171186e-02  -2.567082e-01  -6.227135e-02  1.382238e-01  -1.139179e-01  1.317517e-01  -8.229910e-02  1.080942e-01  -1.824114e-01  -1.374747e-01  -1.989140e-01  7.442378e-02  2.107922e-02  -2.214263e-01  -3.088975e-01  1.370073e-01  -3.105573e-02  -4.865900e-02  -3.645673e-02  -1.059493e-01  -9.234758e-02  1.173764e-01  1.046183e-01  -1.938236e-01  1.322592e-01  -5.999441e-02  -7.361626e-02  -4.315390e-02  -1.510704e-02  2.440619e-01  4.328010e-02  -7.183342e-02  -2.050154e-01  5.088503e-03  1.300851e-01  -1.755483e-01  2.629107e-01  1.335193e-01  1.318137e-01  -3.274629e-02  -1.605193e-01  -1.111895e-01  -2.884062e-02  7.833579e-02  -1.966729e-01  1.124886e-01  -3.065903e-03  1.501716e-01  7.874060e-04  8.045632e-02  -2.685154e-01  1.125773e-01  -6.850174e-02  4.523312e-03  2.816367e-01  -1.575355e-01  -3.221506e-01  -5.771543e-02  -1.251631e-01  2.431209e-01  2.149387e-01  9.946647e-02  6.999058e-02  -9.176672e-03  2.584116e-01  7.962754e-02  8.998100e-02  1.331925e-01  -6.118181e-03  -1.723819e-01  -1.525584e-03  -4.177701e-02  7.900102e-02  -2.539408e-01  5.241222e-02  -7.408711e-02  1.609343e-01  -2.127491e-02  -5.823733e-02  1.457372e-01  -1.668631e-01  -1.151145e-02  1.261021e-01  1.188116e-01  -7.846257e-02  1.179804e-02  -2.960665e-02  -2.343738e-01  -7.376886e-02  -5.146200e-02  -9.490398e-02  1.032529e-01  -1.506902e-01  1.908921e-01  -9.914210e-02  3.210633e-01  1.441104e-02  -1.030115e-01  -5.955390e-02  -1.976069e-01  2.383239e-01  -6.085746e-02  7.007243e-02  1.238644e-01  -1.370813e-01  -6.268252e-02  -4.046880e-02  6.207241e-02  -2.317518e-01  -2.952519e-01  -1.177253e-01  1.900344e-01  -4.402749e-02  1.559876e-01  5.779813e-02  4.321145e-02  -2.955748e-01  -1.423354e-01  -1.715964e-01  -2.895473e-01  1.343916e-03  3.293950e-01  1.352697e-01  -9.269927e-03  1.633218e-01  1.347912e-01  2.502613e-01  -7.375866e-02  -2.118759e-01  2.137795e-01  2.348460e-01  2.833565e-01  -3.382163e-02  1.313028e-01  7.559220e-02  -2.573277e-01  9.973292e-04  9.380039e-03  6.418160e-02  -1.269214e-01  -2.800797e-01  -1.444212e-01  1.129727e-01  -8.058484e-02  1.198684e-01  1.712935e-01  2.933456e-01  4.072263e-02  -3.673244e-02  3.885330e-02  -1.447334e-01  -8.473833e-03  -1.663435e-01  2.896786e-02  -2.083482e-01  4.151560e-03  6.343950e-02  -1.186375e-01  -2.314264e-01  -7.573456e-02  2.398966e-01  -2.713732e-01  -1.420746e-01  1.661372e-01  -1.185241e-01  1.302989e-01  -3.672246e-02  -7.414586e-02  -1.477304e-01  1.025609e-01  -1.570322e-01  -1.170613e-02  -1.778540e-01  -1.175213e-01  6.802775e-03  -1.023564e-01  1.480491e-01  -5.782066e-03  -2.900392e-02  -7.743841e-02  -2.168987e-01  -1.798401e-01  -1.445442e-01  1.096546e-01  -2.504946e-01  -8.212873e-02  2.583911e-01  -1.263829e-01  7.709430e-03  1.387349e-01  -4.376338e-02  1.161507e-01  -1.236114e-01  1.972673e-01  -9.675255e-02  -1.105582e-01  -1.215599e-01  1.013120e-02  4.969526e-02  -2.213918e-01  -9.949216e-02  1.386978e-01  -2.822753e-02  1.862452e-01  -1.617211e-01  -3.207553e-02  -2.495144e-02  1.856654e-01  -6.449978e-02  6.828792e-02  -2.264197e-01  1.118059e-01  -4.815044e-02  -7.869665e-02  3.228028e-02  -1.169926e-01  -2.516348e-01  -1.191124e-01  5.822694e-02  1.237307e-01  1.484958e-01  -1.083231e-01  -2.655210e-01  -3.047544e-01  1.399379e-01  1.489111e-01  4.730235e-03  5.315347e-02  -1.205611e-01  1.544004e-01  2.542621e-01  2.939328e-02  -3.201587e-02  -1.142782e-01  3.020644e-01  -1.174145e-01  2.708171e-02  -4.028902e-01  1.891268e-01  -2.288862e-01  -2.931359e-01  -3.109721e-02  -1.145919e-02  -1.493908e-01  2.965705e-01  3.425256e-01  2.373040e-01  -1.704316e-01  -2.242012e-01  -1.369833e-01  -2.106358e-01  9.039193e-02  9.357022e-02  -1.999561e-01  -6.700418e-02  3.410538e-01  3.190092e-01  -2.214822e-01  1.190771e-01  -2.825471e-01  7.808657e-02  5.375099e-03  -2.280739e-01  7.292099e-02  -1.457763e-01  2.611455e-01  -1.849395e-01  3.351874e-03  4.724471e-02  1.592190e-01  -1.457035e-01  -2.469481e-01  -1.464623e-01  -6.933132e-02  -1.765584e-01  1.890087e-01  -1.531543e-01  2.585033e-01  3.719681e-01  -2.048630e-01  -1.744531e-01  1.347278e-01  -7.063181e-02  3.855932e-01  -1.602467e-01  8.041897e-02  1.621764e-01  7.777716e-02  -1.481210e-01  -1.403640e-02  -1.029068e-01  2.033907e-01  -2.466958e-01  3.114777e-01  1.014110e-01  -3.138663e-01  -2.198924e-01  -2.345645e-01  2.950690e-01  -1.521782e-01  2.978122e-01  2.381088e-01  2.257752e-01  1.303154e-01  3.764694e-01  -1.105720e-01  1.125879e-01  -7.010687e-02  2.654145e-01  3.500457e-01  1.178896e-02  1.863654e-01  9.089798e-02  5.987435e-02  1.148933e-01  2.326755e-01  5.371405e-02  1.712012e-01  2.366062e-01  -7.555135e-02  -5.928160e-02  -2.454418e-01  -3.165766e-01  -5.548866e-02  3.654822e-01  2.732170e-02  8.353583e-02  -4.476422e-02  7.574791e-02  5.491829e-02  1.808532e-01  -8.806746e-03  -1.419217e-02  6.033354e-02  -5.406414e-02  1.183873e-02  -3.018191e-01  -1.053784e-01  3.599455e-02  -1.114634e-01  -4.825579e-02  -2.514138e-01  -3.420390e-01  -6.143298e-02  1.427099e-01  6.609358e-02  4.836325e-02  9.442239e-02  -1.490818e-01  -1.524493e-01  -2.076608e-01  -3.134473e-01  -1.209651e-02  -4.387584e-02  -2.487053e-01  3.777139e-02  -1.051149e-01  -2.104879e-01  -1.115218e-01  -3.061533e-01  -7.920611e-02  -7.483881e-03  8.370089e-02  1.499860e-01  -2.497157e-03  6.013143e-02  9.779239e-02  2.617979e-01  -1.449338e-01  -5.537637e-02  2.296318e-02  -2.743941e-01  1.778003e-01  1.572533e-01  -1.484399e-01  2.791828e-01  2.367733e-01  8.406410e-02  2.141469e-01  -3.074179e-01  -1.439154e-01  1.133900e-01  -2.702846e-01  7.792246e-02  -1.624625e-02  1.767381e-01  2.481143e-02  1.403750e-01  1.996861e-02  -1.614904e-01  -1.884598e-02  2.328448e-01  -1.231584e-01  1.049827e-01  -4.916772e-02  4.529231e-02  -4.753515e-02  -1.444278e-01  1.983930e-01  2.451167e-01  3.406798e-01  -3.340023e-02  5.368517e-02  -3.159504e-02  2.859467e-01  1.269441e-02  2.138853e-02  -1.827687e-01  1.749644e-02  3.264989e-01  -3.296954e-01  5.995832e-02  5.192856e-02  -1.391108e-01  -1.475896e-01  1.661935e-01  -8.887196e-02  2.106136e-01  -1.184498e-01  1.021214e-01  -2.208126e-01  -2.031426e-01  -5.826858e-02  1.111076e-01  2.369058e-01  -1.160592e-01  1.232153e-01  -1.939923e-01  2.441740e-01  4.046131e-02  9.412090e-02  1.648859e-02  -2.492097e-01  1.917760e-01  -1.780228e-01  1.376298e-01  -1.784379e-01  1.562600e-01  -1.964485e-02  3.441725e-02  4.719868e-02  1.259202e-01  -2.078797e-02  -1.250129e-01  -1.240115e-01  -2.999702e-02  -1.160428e-01  4.433051e-02  -7.368860e-02  -1.018141e-01  -1.778568e-01  -6.287969e-02  -6.973394e-02  -1.044411e-02  -7.790031e-03  -5.189320e-02  -1.739880e-01  5.441214e-02  2.957118e-02  2.571305e-02  -1.672853e-01  1.742188e-02  2.163405e-01  -1.876425e-01  7.607599e-02  -1.070379e-01  -1.262576e-01  1.135788e-01  -5.893417e-03  2.284776e-01  -5.815787e-02  -1.978945e-01  -5.836980e-02  7.378186e-02  -9.651814e-02  2.548988e-01  2.461637e-02  -7.812456e-03  -3.831373e-02  -5.673018e-02  1.743250e-01  1.434499e-01  -1.270715e-01  7.886378e-02  2.782941e-01  -8.970474e-02  -3.602703e-02  2.048061e-01  1.322388e-01  2.746004e-01  -1.616368e-02  2.518642e-01  -1.643495e-01  -1.379644e-01  7.399640e-02  1.043118e-01  -1.379210e-01  1.155983e-02  -9.639318e-02  1.208037e-01  -2.051187e-01  2.448656e-01  2.619464e-01  3.041237e-02  1.105053e-01  -1.313299e-01  2.932674e-01  -4.457950e-02  5.236182e-02  3.118014e-01  -5.650948e-02  -2.878235e-01  -2.891257e-02  -8.265302e-02  -9.151988e-02  1.406448e-01  1.435699e-01  2.497724e-01  -3.345424e-02  2.247205e-01  -1.525523e-01  -1.484077e-01  -1.624024e-01  1.683990e-01  -2.407480e-02  1.573569e-01  -1.952208e-01  1.615122e-01  2.221131e-01  -6.578098e-02  -4.293514e-02  -2.010017e-01  2.986786e-01  -1.088975e-01  -8.679889e-02  -8.167560e-03  7.877119e-03  -4.344211e-02  2.025942e-01  -1.461945e-01  1.417532e-02  -3.246892e-01  -2.159677e-01  2.630352e-01  -1.497854e-02  3.408144e-02  1.601682e-01  2.904763e-02  -1.676350e-01  -4.708319e-02  1.083505e-01  -1.798030e-01  -3.484613e-02  9.394686e-02  2.917181e-02  -2.067592e-01  4.409987e-02  1.762602e-01  -3.312940e-01  2.430649e-01  4.378688e-02  6.923360e-02  -1.108895e-01  2.435404e-01  -7.262238e-02  -1.438675e-01  1.658872e-01  1.848880e-01  -2.018964e-01  1.557870e-01  -6.240989e-02  -8.252430e-02  -1.624895e-02  8.432364e-03  -3.620530e-02  1.592884e-01  1.338451e-01  -1.084433e-01  -1.221515e-01  1.057056e-01  1.428548e-01  -4.870396e-03  -1.425782e-01  5.548611e-02  2.413234e-02  1.606885e-01  1.075122e-02  -2.583084e-01  2.201668e-01  -2.294352e-01  -1.009000e-01  1.765584e-01  -2.940261e-04  -9.359372e-02  1.490146e-01  1.384686e-01  1.019146e-01  -3.335656e-02  -1.705339e-01  1.768023e-01  3.147168e-01  -6.346525e-02  3.497674e-03  5.416030e-02  -2.338365e-01  2.438626e-01  -3.148349e-01  -1.473796e-01  -2.604362e-01  9.638676e-02  1.037051e-01  1.478017e-02  1.349460e-01  -1.493877e-01  -7.366678e-02  5.259281e-03  1.350199e-01  -2.119253e-01  1.480589e-03  -2.402434e-01  1.094801e-01  1.153711e-01  1.611941e-01  1.133755e-01  1.707214e-02  2.014555e-01  2.049722e-01  8.372435e-02  2.001757e-01  -2.328921e-03  -8.202966e-02  -3.984924e-02  -1.735262e-01  3.803469e-02  1.615081e-01  -1.752718e-01  9.839304e-02  2.192318e-01  -1.286224e-01  3.076998e-01  -5.483294e-02  1.377253e-01  1.526349e-01  -1.709646e-02  -2.891713e-03  -1.061319e-01  -2.333319e-01  -1.043679e-01  1.595682e-01  -2.001722e-01  -7.183675e-02  1.113266e-01  2.499554e-01  1.028984e-01  2.318523e-01  -1.182372e-01  -1.432614e-01  2.050002e-01  -4.298838e-02  -2.217562e-02  5.210371e-02  2.112941e-01  -7.012804e-02  -8.264094e-02  1.359197e-01  -1.410321e-01  -4.908733e-02  -2.074794e-01  3.098274e-02  7.298396e-02  -2.184650e-01  1.010505e-01  1.234219e-01  4.521872e-02  -1.915461e-01  -7.332946e-02  -1.575969e-01  2.666129e-01  8.903012e-02  1.717121e-02  2.417294e-01  1.719130e-01  1.342994e-01  -5.460680e-02  1.693188e-01  6.742319e-02  -1.583097e-02  -2.775156e-02  2.279935e-01  8.326585e-02  4.376416e-02  -5.741508e-02  -6.683943e-02  -1.483202e-01  1.072530e-01  -1.023030e-01  5.508730e-03  -5.170815e-02  -1.636594e-01  -1.655556e-01  -1.623316e-01  -5.197345e-02  1.775188e-01  -4.743148e-02  7.764351e-02  -3.081352e-01  -9.055457e-02  6.525209e-02  -1.986918e-01  1.270973e-01  -9.363486e-02  -2.696648e-01  2.429601e-03  1.521564e-01  1.412584e-02  -8.250928e-02  1.901896e-01  2.777212e-01  4.638615e-02  3.443857e-02  -2.111196e-01  1.783952e-01  3.987649e-01  -5.556324e-02  -9.527127e-02  -3.041547e-02  -1.168311e-01  1.053369e-01  5.496322e-02  -2.383286e-01  -2.231262e-01  -8.491521e-02  3.133986e-01  -1.169303e-01  2.493006e-02  -1.902121e-01  1.403197e-01  2.310096e-01  1.900558e-01  1.230019e-01  -1.515498e-01  -2.148469e-01  -1.780123e-01  3.767827e-02  -1.818176e-02  -1.584761e-01  2.231156e-01  -1.015290e-01  -6.851187e-02  1.807878e-01  -8.384659e-02  5.412255e-02  -4.309725e-02  -3.045316e-02  9.528972e-02  -1.044308e-01  4.578900e-02  5.674345e-02  -2.523254e-01  1.353900e-01  2.175536e-01  4.149500e-02  -3.166975e-02  2.427319e-01  -1.321079e-01  2.960773e-02  7.700124e-02  2.299521e-01  -2.787009e-01  6.534456e-02  7.790390e-02  1.317206e-01  6.306919e-02  1.603212e-01  1.153010e-01  1.782380e-01  3.033413e-01  -1.973239e-01  -4.299840e-02  1.607666e-01  -1.887052e-01  -5.293847e-02  -1.478951e-02  1.105939e-01  -1.407265e-01  3.468823e-03  1.022983e-01  -5.728088e-02  -1.601211e-01  4.633303e-02  -1.560075e-01  2.430422e-01  2.892554e-01  1.544110e-01  -3.917650e-02  -5.930894e-02  2.614706e-01  2.419266e-01  -1.346014e-01  2.368792e-01  1.178783e-01  1.066183e-01  -1.707596e-01  1.381836e-01  -3.168485e-02  2.349692e-01  -1.397262e-01  5.663220e-04  -2.464284e-01  -1.641015e-01  -3.425583e-03  -3.605898e-02  -1.247275e-01  -1.208021e-02  -2.592999e-01  -1.741006e-01  2.026551e-02  -8.631695e-02  2.219710e-02  -1.882389e-01  -9.964644e-02  -2.158041e-01  -4.267061e-02  -2.175969e-01  -1.407453e-01  -1.437485e-02  2.715915e-02  -2.502705e-01  1.371035e-01  3.017007e-01  2.642278e-02  1.979447e-01  -3.163050e-01  -5.187302e-02  -3.131691e-02  -2.989576e-01  3.520279e-01  -1.973342e-01  -2.130836e-01  1.642948e-01  -1.856396e-01  1.156223e-01  -1.028366e-01  -2.328162e-01  5.387080e-02  -1.367607e-01  -2.487378e-01  -1.031749e-01  2.281572e-01  -2.759464e-01  8.354494e-03  -2.693597e-01  1.416164e-01  -1.580881e-01  2.440327e-02  2.121845e-01  2.347777e-01  -2.211156e-01  -4.030887e-02  -1.307088e-01  -1.207318e-01  1.597080e-01  1.617034e-01  -7.484355e-02  5.770183e-02  1.214072e-01  2.709468e-03  -5.106147e-02  -1.857449e-01  1.055526e-02  -2.179612e-01  4.634671e-02  -1.217222e-01  1.361109e-01  -1.395388e-01  3.067336e-02  1.115565e-01  1.311600e-01  5.702606e-02  -2.261270e-02  -4.328520e-03  1.711378e-01  -1.006464e-01  9.940093e-03  -1.133614e-02  -1.309358e-01  1.120125e-01  -1.953974e-02  2.731565e-01  4.961129e-02  -8.967163e-02  1.438088e-01  -7.275838e-02  -1.371825e-01  -1.620061e-01  -2.340600e-01  8.667646e-02  -9.331900e-02  -1.413474e-01  1.669074e-01  -3.790691e-03  2.005344e-01  2.177460e-01  -1.993757e-01  1.558150e-01  -9.324121e-02  6.743015e-02  -1.246037e-01  1.310135e-01  8.352523e-02  -8.913861e-02  -2.071468e-01  3.755468e-03  1.005843e-01  9.133958e-03  1.585002e-01  5.315327e-03  1.679603e-01  7.699491e-02  9.841648e-02  3.362470e-02  -6.392390e-02  1.943336e-02  1.563198e-01  -4.341889e-02  -2.101858e-01  4.308219e-02  1.756747e-01  1.319493e-01  7.190272e-02  -1.833162e-01  -1.913336e-01  -1.387446e-02  -9.678832e-02  -2.697843e-01  3.630932e-02  7.284665e-02  1.547160e-01  2.524398e-02  3.370721e-01  2.184509e-01  -7.733553e-02  5.062982e-02  7.732096e-02  -3.969662e-01  -2.393468e-01  2.753139e-03  -4.776916e-02  5.858759e-02  2.588858e-01  -1.465984e-01  -1.598423e-01  1.641363e-01  -1.714154e-01  -1.065028e-01  -4.239091e-02  -2.376539e-01  3.685452e-01  3.151222e-02  2.348382e-01  2.695967e-02  -2.289531e-01  1.641243e-01  1.272556e-01  2.103573e-01  -1.314907e-02  2.033158e-01  -6.503353e-02  -3.058680e-02  -3.099952e-01  -5.631667e-02  -2.476606e-01  4.514455e-02  -9.951226e-02  8.189215e-02  -5.421474e-02  -1.335418e-01  2.449667e-01  -1.831246e-01  1.046696e-01  2.101013e-01  -2.365686e-01  2.166419e-01  -3.868562e-02  2.394523e-01  -1.274478e-01  -5.674478e-02  -4.108266e-02  -6.831588e-02  -1.448279e-01  1.251749e-01  1.434577e-01  -4.260077e-02  -1.866939e-01  -3.973545e-01  2.553218e-02  -2.483545e-01  1.475850e-01  -1.284149e-01  1.856737e-03  -8.037435e-02  -1.275778e-01  1.872782e-01  -7.778782e-02  -1.441088e-01  -5.323324e-02  -4.729571e-02  1.954961e-02  -1.416406e-01  2.888206e-02  -1.647984e-01  -1.840033e-01  -1.994998e-01  -2.258616e-02  -3.394784e-01  -9.265024e-02  -3.522988e-03  3.032888e-02  1.149286e-01  2.015668e-01  -3.005634e-02  2.607445e-01  3.413788e-01  -1.140689e-01  -2.144131e-01  7.515547e-03  1.214842e-01  6.333753e-02  6.247115e-02  8.475973e-02  3.829255e-02  2.056481e-02  -6.763133e-02  -2.729344e-01  6.692415e-02  -1.069665e-01  7.339194e-02  1.158341e-01  -1.211915e-01  -2.915696e-02  -1.569210e-01  -5.857208e-02  -1.473183e-02  1.475252e-01  -4.087487e-02  -4.416707e-02  -3.770160e-01  3.486641e-02  1.318183e-01  -3.935744e-02  7.727788e-02  -3.892520e-02  3.294360e-02  -8.057243e-02  1.663153e-01  -2.748997e-01  -1.695906e-01  2.751987e-02  9.258394e-02  1.101884e-01  -2.520507e-01  -6.447900e-02  1.016508e-01  1.817247e-01  9.441677e-02  -3.004076e-01  -2.455645e-01  -2.114702e-01  -1.596545e-01  2.408442e-01  1.284345e-01  4.092495e-01  -2.879546e-01  1.870914e-01  1.121529e-01  1.649054e-01  -3.634349e-01  1.173237e-01  -1.732220e-01  -4.446491e-02  -2.980006e-02  1.271225e-01  1.063967e-01  -2.577191e-01  2.627022e-02  1.041370e-01  -2.697556e-01  -1.637604e-01  8.122811e-02  1.987179e-01  8.652630e-02  -1.499130e-01  8.685984e-02  -8.048252e-02  5.566179e-03  -1.515802e-01  6.737866e-02  1.166342e-01  -3.458704e-02  6.132315e-02  -1.662739e-02  1.599761e-02  -4.068817e-02  1.534313e-01  -1.816755e-01  -2.047355e-01  -1.301273e-01  -3.234955e-01  1.172170e-01  2.036029e-01  6.891840e-03  -1.594523e-01  1.500721e-01  8.862641e-02  -2.956813e-01  2.479665e-01  3.410925e-01  2.398127e-01  -2.349320e-01  7.610181e-02  -3.648219e-02  -2.071272e-01  7.971869e-02  6.466722e-02  -1.163654e-01  1.762467e-01  -9.091838e-02  2.684495e-01  7.760366e-02  8.542059e-02  -1.668497e-01  -1.398306e-01  3.103986e-01  -8.510315e-02  -2.860398e-01  -9.091509e-02  -6.148388e-02  -3.212118e-01  2.717734e-01  -1.918892e-01  -8.181085e-02  1.189469e-01  7.470698e-02  2.014470e-02  1.301267e-01  1.680352e-01  2.294504e-01  -1.261201e-01  -3.611423e-01  5.934137e-02  -2.526237e-01  -6.150039e-02  -1.717336e-01  -1.226752e-01  -1.631617e-01  3.362862e-01  1.461029e-01  -3.041906e-01  -5.009406e-02  -2.482426e-01  4.868195e-02  3.552677e-02  -3.768776e-01  1.762443e-02  -1.786641e-01  3.435284e-01  2.505356e-01  -1.655749e-01  6.096798e-03  1.988041e-01  2.059363e-01  -2.701249e-01  2.262484e-03  -8.879558e-03  -2.862893e-01  -5.648220e-02  5.758987e-03  -1.126941e-02  3.158559e-01  -1.843876e-01  -2.484733e-01  -1.684144e-01  -2.678041e-01  1.256060e-01  7.009902e-02  -2.521516e-01  -5.352007e-03  1.456506e-01  -2.575325e-01  2.115337e-01  -1.259420e-01  2.248262e-01  -4.197974e-01  -5.932757e-02  8.553557e-02  5.785447e-03  -1.853814e-01  -3.600442e-01  3.225921e-01  -1.516759e-01  -1.403279e-02  1.746255e-02  -2.361728e-02  -3.439328e-02  2.925823e-01  -9.777168e-02  1.482486e-01  1.139403e-01  1.812791e-01  3.753133e-01  -1.762761e-01  -1.244733e-01  1.787581e-02  -1.146838e-01  3.709572e-01  -5.601228e-02  -1.772271e-01  3.473655e-02  2.438526e-01  -2.115610e-02  3.070787e-01  -2.729131e-01  -3.724297e-01  4.341378e-02  5.888974e-02  -8.191420e-03  2.066733e-02  -8.162653e-02  1.803831e-01  -2.349618e-01  1.162103e-01  6.116310e-02  -3.073293e-01  -2.190333e-01  2.066646e-01  6.697443e-02  -1.452089e-01  -3.920857e-01  2.685062e-01  -2.839511e-01  -9.028560e-02  -6.843380e-02  -2.541188e-01  -2.369385e-01  1.879710e-01  2.897854e-02  4.331658e-01  -9.387283e-02  -8.537967e-02  1.984989e-01  5.893670e-02  2.642437e-01  -1.456859e-01  4.183251e-02  -1.162512e-01  9.396157e-02  2.594502e-01  -4.040720e-02  -1.375155e-01  -2.557248e-01  -4.597206e-02  -3.016094e-01  4.956492e-03  1.668704e-01  -8.268736e-02  3.440274e-01  2.854747e-01  2.405932e-02  -6.755319e-02  -1.893961e-01  1.624722e-01  -2.796397e-01  1.658094e-01  -2.846128e-01  1.193263e-01  -1.680268e-01  2.830180e-01  -8.096735e-02  2.693023e-01  -1.106803e-01  -3.365700e-01  -9.168016e-02  1.580722e-01  1.919099e-01  -1.213288e-01  -2.526784e-01  3.074575e-01  -4.692404e-02  -2.864603e-01  -1.637352e-01  -3.048029e-01  8.031826e-02  -1.845731e-01  2.293229e-01  3.700369e-02  -1.298168e-01  2.376623e-02  -4.406320e-02  2.652967e-01  -1.199932e-01  5.090513e-02  -1.026189e-01  2.053220e-01  1.964988e-01  2.660782e-02  -2.655864e-03  4.629495e-02  1.684678e-01  1.270556e-02  -1.257358e-01  -2.500901e-01  6.703878e-02  -1.488679e-01  9.407166e-03  3.680468e-01  2.185736e-02  -1.839538e-01  1.584300e-02  -8.732311e-02  -8.800428e-03  5.590117e-02  -1.522080e-01  -1.656588e-01  1.810684e-02  1.736016e-01  1.431109e-02  -9.140712e-04  -1.870312e-01  -9.016035e-02  2.603859e-01  2.200758e-01  8.714557e-02  -1.042965e-01  2.851375e-01  1.893548e-01  2.052194e-01  -1.041366e-01  2.471155e-03  -1.210394e-01  -2.512579e-01  -2.279994e-01  1.180792e-02  -3.633486e-02  1.766206e-01  2.471340e-01  5.733689e-02  1.206470e-01  -2.306134e-01  -1.518362e-01  -1.354423e-01  7.711957e-02  2.654705e-01  3.842646e-02  2.693952e-01  1.550665e-01  1.964309e-01  1.564594e-01  -2.313773e-02  -9.437599e-02  8.002894e-02  9.570812e-02  1.832483e-01  -2.774055e-02  -2.531029e-02  -1.092853e-01  2.286681e-01  4.054216e-02  2.162155e-01  1.716737e-01  8.654004e-02  -4.036139e-02  -2.830319e-02  1.325304e-02  -2.444811e-01  2.268328e-01  -1.121062e-01  -3.149091e-02  1.307988e-01  1.846934e-01  -1.817389e-01  -2.736591e-01  4.194642e-02  1.343425e-01  -1.516964e-01  -1.415243e-01  2.077046e-02  -1.085231e-02  -1.406761e-01  -3.621535e-02  -2.608114e-01  -1.184904e-01  1.771376e-01  2.778587e-02  -3.614908e-02  2.801490e-01  -1.108339e-01  1.408122e-01  1.079916e-01  7.988957e-02  1.630336e-01  2.368385e-01  8.652691e-02  9.460110e-02  1.329972e-01  -1.423859e-01  2.522340e-01  -4.281013e-02  -1.318274e-01  1.197781e-01  1.317489e-01  1.308441e-01  2.966622e-01  -1.391607e-01  5.766781e-02  2.878321e-01  -1.536207e-01  -6.301989e-02  -1.095369e-02  2.717631e-02  -2.988955e-01  -1.414074e-02  -1.612497e-01  -6.916138e-02  -1.017283e-01  -1.881463e-02  -1.154483e-01  -1.282250e-01  -3.061017e-02  -8.400399e-02  2.616710e-02  -8.597152e-02  1.060801e-01  2.181177e-02  7.621498e-03  1.744354e-01  1.621669e-01  -4.704683e-02  1.402794e-01  1.787660e-01  5.821613e-02  -2.987895e-01  -1.042716e-01  2.053066e-01  -1.424787e-01  -6.301861e-02  4.115191e-01  7.646665e-02  -1.121153e-01  -5.033955e-02  1.827120e-01  3.687258e-02  -5.595130e-02  1.333563e-01  -2.791426e-02  -3.262806e-01  2.194154e-01  1.796303e-01  -3.259830e-01  -3.643994e-03  1.480453e-01  7.251427e-02  -3.560630e-02  -1.540953e-01  1.195257e-02  -6.798455e-02  -3.805318e-02  -2.071649e-01  -5.471440e-02  -2.569860e-01  1.191701e-01  8.795987e-02  -8.258748e-02  -3.397215e-01  -2.370337e-01  -2.415135e-01  2.987562e-02  -2.613792e-01  2.795674e-02  -5.951593e-02  6.425056e-02  -5.471224e-02  -1.170383e-01  9.008377e-02  1.567733e-01  -1.924747e-01  -1.340606e-01  -8.291102e-03  2.456316e-01  -5.839479e-02  -2.148416e-02  -2.941945e-01  2.286735e-01  -1.674219e-01  2.109168e-01  1.004150e-01  -3.150530e-02  -6.548841e-02  -3.415695e-01  1.981180e-01  -9.339490e-02  2.110336e-01  1.712717e-01  -2.504890e-01  7.488935e-02  -1.147172e-02  -8.875724e-02  1.233888e-01  1.216092e-01  1.834135e-01  -8.498003e-02  -3.351888e-01  3.812873e-02  -9.701645e-02  -1.615325e-01  3.136374e-02  -7.360198e-02  8.478057e-02  -2.214143e-01  -4.173435e-02  -1.492672e-01  -1.878858e-02  7.758226e-02  8.420296e-02  1.104604e-01  4.087495e-02  1.099378e-01  -1.255941e-02  1.913711e-01  5.228584e-02  5.381169e-02  -5.836884e-02  1.566038e-01  -2.823654e-01  1.466327e-01  7.803614e-02  3.719194e-02  -1.385431e-01  -1.193318e-01  1.005484e-02  -6.550032e-02  -2.283270e-01  3.688852e-01  7.652816e-02  -2.601955e-01  -1.855668e-02  -1.701351e-01  2.986884e-02  -3.908482e-01  -2.276519e-01  -1.023063e-01  -1.205462e-01  2.693371e-01  1.192655e-01  -9.800868e-02  -1.333272e-01  2.056797e-01  -7.104282e-02  2.529024e-01  1.360974e-01  -2.901600e-01  -2.653543e-01  3.742386e-02  -2.290696e-01  -3.292113e-01  1.846987e-01  2.089351e-01  -1.988945e-01  -1.269083e-01  2.305393e-01  -1.453378e-01  -2.312359e-01  -1.164569e-01  4.080689e-02  -1.757179e-01  -3.058044e-02  -3.557234e-01  4.850660e-02  3.276874e-01  1.282765e-03  2.664340e-02  -8.172385e-02  -1.274752e-01  2.128979e-01  -1.435501e-01  -2.824887e-01  -3.897663e-01  -8.881961e-02  -8.280077e-02  -5.015268e-02  -4.463083e-02  -1.734945e-01  -2.170303e-01  -1.778573e-01  -2.982855e-01  -4.265685e-02  -2.361462e-01  -2.694305e-01  9.306343e-02  3.075459e-01  -2.632910e-02  -9.159525e-02  -1.456751e-01  1.195585e-01  -2.502195e-01  -4.206635e-02  -3.143600e-01  -6.221540e-02  3.464805e-01  -9.546459e-02  -3.885388e-02  9.702399e-02  -1.379606e-01  -3.751017e-01  1.167485e-01  1.917424e-01  1.099571e-01  -6.661029e-02  -7.457897e-02  4.122450e-01  2.195213e-01  -1.457076e-01  1.312383e-01  -2.846934e-02  -8.167015e-02  -2.016663e-01  7.378601e-03  1.253712e-01  -9.050209e-03  -3.683730e-01  2.418234e-02  -1.436123e-02  1.434424e-01  2.370332e-01  -1.570890e-01  1.350296e-01  1.491405e-01  -1.864266e-01  9.118635e-02  -1.832471e-01  1.584182e-01  1.770608e-01  2.413305e-01  -1.466347e-02  -2.054256e-02  -3.455370e-01  4.942327e-02  -2.829954e-02  -8.292033e-02  -6.055431e-02  -2.140982e-02  -2.525616e-01  4.748029e-02  -1.285994e-01  -1.359896e-01  1.444329e-01  -1.837312e-01  -2.635843e-01  9.154407e-02  -9.384104e-02  -1.376858e-01  -2.099565e-01  6.827356e-02  6.430523e-02  -1.484210e-01  3.203967e-01  -7.734369e-02  4.332914e-02  -2.680374e-02  3.516506e-03  -3.380762e-01  -6.286985e-02  -9.715659e-02  5.630828e-03  8.946968e-02  -2.540003e-02  7.245350e-02  1.321271e-01  -1.361041e-01  4.832427e-04  2.888040e-01  4.623847e-02  1.439204e-01  -7.146602e-02  6.387759e-02  1.900000e-01  5.650614e-02  1.233416e-01  1.241249e-01  2.363782e-01  7.062524e-02  5.499130e-02  -1.860469e-01  1.828360e-01  -6.146372e-02  -2.068285e-01  2.489567e-02  2.158153e-02  7.349361e-02  -1.293498e-01  -9.364457e-03  -3.521225e-02  -7.143146e-02  1.050059e-01  -2.447463e-01  7.805596e-02  -3.023681e-01  1.246369e-01  -6.612597e-02  -2.862851e-01  -2.418470e-01  1.135844e-01  1.281786e-01  9.141899e-02  5.076621e-04  -1.454580e-01  -5.408068e-02  -3.571329e-02  1.607688e-01  1.099171e-01  3.800380e-02  -1.344358e-01  2.918130e-01  -7.672872e-02  -2.169096e-01  -2.507801e-01  1.244594e-01  1.583859e-01  -1.429408e-01  -1.288643e-01  -4.406441e-02  2.075120e-01  7.946452e-02  7.279860e-02  -2.135090e-01  -1.639310e-01  2.032496e-01  6.485853e-02  -8.422566e-02  -1.710914e-01  -6.128335e-02  -5.966724e-02  1.126198e-01  2.362942e-01  -1.384017e-01  1.266747e-01  1.466064e-01  3.832033e-02  3.097481e-02  -7.368460e-02  -1.344217e-01  2.134675e-02  1.213565e-01  2.845810e-01  3.387081e-02  -8.977686e-02  -3.626931e-02  -2.470805e-02  1.364429e-01  2.610950e-01  -1.290098e-02  -1.855472e-01  -1.386685e-01  8.392238e-02  -1.238130e-01  -1.455410e-01  -8.656003e-02  -1.371708e-01  -9.395328e-02  1.726402e-01  -1.047548e-01  -8.928829e-03  -7.650733e-02  5.832023e-03  -4.466877e-02  -1.522037e-01  3.004407e-03  2.713522e-02  -1.259535e-01  -1.215337e-01  -9.672352e-02  2.546391e-01  2.116957e-01  -3.440782e-02  -1.006636e-01  -2.915407e-02  -1.302264e-02  -2.815145e-01  1.223454e-01  1.737930e-01  1.765558e-01  1.165737e-01  -1.301994e-01  -3.676801e-02  -1.878503e-01  2.009477e-01  3.274983e-02  -2.294025e-01  3.025389e-03  -6.021281e-02  1.535308e-01  6.799043e-02  -3.263625e-02  9.265169e-02  -2.630317e-01  -4.200953e-02  -2.219080e-01  2.204853e-01  -2.114916e-02  3.524613e-02  1.957058e-01  2.511074e-01  -2.095443e-01  1.631655e-01  8.559084e-03  -1.183056e-01  7.681321e-02  -1.402257e-02  5.755179e-02  1.671664e-01  2.894858e-01  -3.852987e-02  -3.545277e-02  -3.385878e-02  2.536066e-01  1.412068e-02  1.468506e-01  -9.364992e-02  6.350943e-02  2.650264e-02  -2.196304e-01  -4.335710e-02  -1.825371e-01  2.590798e-01  -2.656363e-01  -2.124802e-01  -1.269910e-01  -1.399578e-01  -4.082093e-02  1.406568e-01  2.937724e-01  1.133422e-01  1.566720e-01  -1.688846e-01  4.867220e-02  -2.181955e-01  -2.175563e-01  2.079224e-03  -6.766068e-02  1.508860e-01  6.397226e-02  -2.921720e-01  -1.508316e-01  -1.277972e-01  -1.225389e-01  1.628070e-01  5.441441e-02  -3.603525e-01  3.873869e-01  -3.076487e-02  8.778693e-02  -1.895234e-01  3.945276e-02  -1.359667e-01  8.043979e-02  3.052677e-01  -1.570777e-01  -1.236259e-02  -9.320897e-03  1.903076e-02  -2.363708e-01  3.906949e-02  -2.817121e-01  1.162354e-01  2.422305e-01  -1.513728e-01  2.706345e-02  1.878146e-01  -8.446013e-03  1.342020e-01  -6.086891e-02  -2.917764e-02  -4.275588e-02  7.947310e-02  2.186123e-01  8.666354e-02  1.537246e-01  -2.801105e-02  1.039649e-01  2.844808e-01  -3.558323e-02  1.076062e-01  -1.819992e-02  6.768019e-03  -1.095225e-01  -2.990811e-01  -1.194386e-01  -5.113343e-02  -8.057219e-02  9.707591e-02  -5.201804e-02  -1.435295e-01  -2.878554e-01  -7.181334e-02  -1.949943e-01  6.197934e-02  -8.125273e-02  2.045817e-01  1.282547e-01  7.885594e-02  -2.413611e-02  -1.084172e-01  -2.099884e-01  -5.468224e-02  1.161451e-01  -2.276669e-01  1.278551e-01  -5.821190e-02  1.516489e-01  -3.898166e-02  2.116162e-01  -9.257367e-02  8.368503e-02  -1.257545e-01  1.318251e-01  -2.030910e-01  -1.687037e-01  1.729470e-01  -2.930642e-02  -1.920682e-01  -8.539763e-02  -4.118031e-02  -1.946968e-01  2.795033e-01  -2.584718e-01  2.028762e-02  1.080098e-01  -3.334864e-04  2.507729e-01  -4.752459e-01  -2.219574e-01  -1.058207e-01  1.726045e-01  3.501424e-01  1.249640e-03  -1.058523e-01  -2.361563e-02  -4.734054e-01  -1.131464e-01  1.595119e-01  -3.933767e-01  4.320436e-01  8.934265e-02  -1.391284e-01  2.045938e-01  3.447582e-01  -1.408135e-01  1.895328e-01  9.518171e-02  2.467685e-01  3.418388e-01  -3.568928e-02  5.108105e-01  -1.282952e-02  2.334493e-02  -3.191252e-02  -1.012091e-01  -2.974889e-01  -4.114986e-01  2.001715e-01  -1.557534e-01  -4.049582e-01  1.266056e-01  -2.381318e-01  -3.707840e-01  2.390547e-01  -4.797284e-01  -3.721066e-01  1.957636e-01  -3.390340e-01  2.777061e-01  1.772649e-02  1.260786e-01  8.757286e-02  -3.440363e-01  -3.436838e-01  -3.020949e-01  -3.267847e-02  4.084300e-02  -5.417919e-02  -1.471904e-01  2.201221e-01  -4.169815e-01  2.497980e-01  -4.390654e-01  3.758665e-01  1.841345e-01  -1.604490e-01  8.742736e-02  -2.107914e-01  2.929742e-02  -4.705360e-01  1.739916e-01  -9.716572e-02  5.523131e-02  -3.704931e-01  -2.818704e-01  1.440533e-01  -1.690747e-01  -6.059498e-02  -2.500626e-01  3.286767e-01  1.316310e-01  -2.179991e-01  4.487766e-01  2.380582e-01  -1.041586e-01  3.627016e-01  2.256688e-03  2.370816e-01  -2.181219e-02  -3.325360e-02  3.174236e-03  4.514131e-01  8.730486e-02  -1.717226e-01  1.683337e-01  -2.727557e-01  3.991198e-01  -1.502304e-01  -1.007721e-01  -1.136073e-01  -1.063464e-02  4.851128e-01  -6.841037e-02  -2.172162e-01  2.176024e-02  -6.857705e-02  2.822163e-01  -2.083755e-01  2.646048e-01  -1.018141e-01  -2.371664e-01  3.108314e-04  -6.817602e-02  -2.211975e-01  -2.738443e-01  -1.157881e-01  3.357684e-01  3.032999e-01  -1.262452e-01  1.511430e-01  -2.714654e-01  1.711990e-01  7.157029e-02  -2.474907e-02  -2.061498e-01  -7.221480e-02  2.826692e-01  -5.134829e-02  -3.159783e-02  -4.844141e-02  1.734772e-01  1.859129e-01  5.178344e-02  -4.386997e-02  -5.178810e-02  -1.150699e-01  -1.134273e-01  -2.730202e-02  -1.787177e-01  1.594453e-01  2.855309e-01  -2.951559e-02  3.179164e-01  -1.164503e-01  1.777426e-01  -3.343935e-01  -2.161417e-01  -3.619083e-01  2.891327e-01  1.458941e-01  3.129129e-01  1.127550e-01  -5.831125e-02  3.388032e-01  -3.681976e-02  -1.430776e-01  -5.660446e-02  3.237502e-01  1.850591e-01  3.459710e-01  1.133315e-01  3.024641e-01  -1.370376e-01  -1.719240e-01  1.953354e-01  -3.290777e-01  -6.712141e-04  -3.718536e-01  2.781177e-01  -2.162772e-01  7.664043e-02  -5.541831e-02  -1.919198e-01  2.518217e-02  -9.222978e-02  -1.244364e-01  -1.341668e-01  -1.664574e-01  -2.684585e-01  9.642301e-02  -3.151602e-01  2.434744e-01  1.332976e-01  -2.822196e-01  -9.916881e-02  9.117123e-02  2.294371e-01  4.712696e-02  1.841832e-01  -1.741731e-01  8.053435e-02  3.776214e-01  1.368745e-01  -2.089783e-01  7.571545e-02  -2.380615e-01  2.981790e-01  1.091872e-01  -2.123747e-01  -2.669486e-01  -9.496297e-02  9.939665e-02  -2.177197e-01  -3.347569e-01  8.961443e-02  7.773288e-02  -3.563075e-01  3.235019e-01  1.605735e-01  1.709584e-01  -2.233568e-01  -3.514473e-01  1.291034e-01  -5.420781e-02  1.983110e-01  8.434704e-02  1.130092e-01  1.342279e-01  3.413709e-01  -3.422500e-01  -2.405509e-01  -1.514350e-01  4.567751e-02  -1.505139e-01  -1.383888e-02  1.315440e-02  -5.557215e-02  -2.457481e-01  -2.665244e-01  -8.749583e-02  -3.475216e-01  -2.082748e-01  -8.194721e-02  1.779987e-01  7.617525e-03  7.044768e-02  2.361691e-01  6.242834e-02  -4.767037e-02  2.897661e-01  -3.907734e-01  3.409876e-01  1.705370e-01  4.392936e-02  6.882373e-02  3.257262e-01  6.217845e-03  1.300000e-01  -1.131580e-01  -5.567807e-02  -1.062396e-01  6.035637e-02  3.525032e-01  1.733424e-01  8.036123e-02  1.906186e-01  6.002428e-02  1.113371e-01  -9.065501e-02  -2.216981e-01  2.299314e-01  -2.671472e-01  1.538577e-01  -2.808499e-01  -1.608972e-03  1.273955e-01  6.247771e-02  6.999977e-02  -1.250676e-02  3.403341e-01  8.395969e-02  -2.673151e-02  -2.531026e-01  -3.837850e-02  2.122497e-01  4.768235e-02  1.380119e-01  -1.034163e-01  -1.865425e-02  -2.990602e-01  1.285359e-01  1.446897e-01  -3.356532e-01  1.154931e-01  2.201568e-01  -4.595185e-02  -1.341380e-01  9.272777e-02  2.808437e-02  1.817824e-01  -2.078086e-01  -3.382253e-02  -1.224184e-01  2.018445e-01  4.150529e-02  -6.721504e-03  -4.537294e-01  -1.685942e-01  9.356685e-03  -5.141743e-02  1.995743e-01  -3.055211e-01  2.377810e-02  3.901351e-03  1.124296e-01  9.336985e-02  1.301197e-01  1.436327e-01  2.771151e-01  4.778536e-02  1.907938e-02  -2.468360e-02  -1.383295e-01  -1.665584e-01  -9.487639e-02  -1.612210e-02  5.266139e-03  2.586014e-02  -5.522816e-03  -3.218963e-01  -8.676192e-02  -1.165204e-01  -1.039053e-01  3.395224e-02  6.969452e-02  -5.359608e-02  1.416312e-01  8.848006e-02  7.339256e-02  -3.117296e-01  -3.349836e-02  1.334659e-01  -1.245295e-01  2.115529e-01  -1.418286e-01  -1.232721e-02  -1.979993e-01  -6.952864e-03  -1.197762e-01  -2.505642e-03  5.884192e-02  -4.575607e-03  1.311553e-01  1.749185e-01  -1.631658e-02  2.235109e-01  3.346134e-01  2.949227e-01  1.842093e-01  -1.948286e-01  9.025086e-02  1.399757e-01  -5.042840e-03  8.169346e-02  -2.170192e-01  -5.159594e-02  1.819195e-01  1.894342e-01  1.239998e-01  -6.057051e-02  -4.275823e-02  7.712879e-02  -1.651592e-01  -3.216890e-01  -1.573941e-01  2.124742e-01  2.086587e-01  -2.785130e-03  -2.216364e-01  -6.596749e-02  4.737946e-02  5.097007e-02  1.198706e-02  5.548558e-02  -3.119716e-01  2.617831e-01  2.539227e-01  1.514334e-01  -1.332589e-01  -1.366053e-01  -5.784329e-02  -1.679603e-01  5.025283e-02  -9.545012e-02  -1.105634e-01  1.152293e-01  3.022639e-01  3.516456e-01  2.372497e-01  -2.288958e-02  7.256367e-02  -2.125479e-01  -1.898496e-01  2.875491e-02  -2.911941e-01  1.052429e-02  -1.271443e-01  -2.851633e-01  -1.475897e-01  1.425002e-01  -1.124921e-01  -3.106126e-03  1.315089e-02  -4.203498e-02  -1.032724e-01  1.141641e-01  5.139615e-02  1.505242e-01  2.815121e-01  5.983213e-03  -4.035220e-02  7.656688e-02  -4.773256e-02  -1.019206e-01  -2.146858e-01  6.091773e-02  -1.361685e-01  5.271667e-02  1.041286e-01  -5.866706e-02  -2.085663e-01  1.185546e-01  9.162293e-02  4.384553e-03  2.171621e-02  -3.692997e-02  3.382828e-01  1.304210e-01  1.336914e-01  -2.164924e-01  5.122100e-03  9.595017e-02  6.881805e-02  3.187400e-01  -2.873924e-01  -9.252673e-02  -4.661779e-02  2.222779e-01  -2.240161e-01  -6.601555e-03  -1.331546e-01  2.085993e-01  -5.584441e-02  4.522665e-02  1.717403e-02  -1.689438e-01  2.094279e-01  1.170873e-01  3.179285e-01  -1.113560e-01  -1.800953e-01  -3.285591e-02  1.444319e-01  1.707505e-01  9.534612e-02  -7.342162e-02  -2.010453e-03  1.172682e-01  1.337699e-01  6.140267e-02  -1.162104e-01  1.030971e-02  -2.757994e-02  -2.576484e-01  1.712867e-02  -1.338849e-01  2.626755e-01  -1.943649e-01  7.299558e-02  -5.544578e-02  -6.994468e-02  5.774929e-04  -1.150957e-01  -4.845004e-02  -1.955764e-01  1.146579e-01  -4.162604e-02  1.227458e-01  2.413278e-03  5.706204e-02  7.066087e-02  -1.157162e-01  -7.201225e-02  -2.314259e-01  1.622306e-01  -4.519712e-02  8.532585e-02  -7.456020e-02  -1.000480e-02  2.660903e-02  1.913681e-01  1.738924e-01  -3.493308e-02  -1.970424e-01  8.091677e-02  -2.959056e-02  -1.232619e-01  -1.770614e-01  1.130231e-01  1.607797e-01  -1.225271e-01  1.204275e-01  -1.911005e-01  -1.852598e-01  -8.459369e-02  1.126391e-01  
      </Weights>
      <Biases Rows="50" Columns="1">
        -2.956391e-02  4.862158e-02  -3.057615e-02  -1.482973e-01  -5.827156e-02  7.320394e-02  3.009943e-02  -5.183938e-02  -1.051570e-02  5.961731e-02  4.302408e-02  1.385212e-01  1.404521e-02  7.246371e-02  -1.138523e-01  -2.323187e-02  3.640294e-03  5.516628e-02  2.933699e-02  4.926775e-03  2.111425e-02  5.886157e-02  -3.066039e-02  5.086158e-02  -6.053700e-02  8.886342e-02  7.661164e-02  1.742905e-02  -7.178356e-02  -4.683566e-03  -4.677610e-02  9.402169e-02  -3.996797e-02  1.467488e-01  -5.688684e-02  6.431912e-02  -6.796294e-02  -1.083635e-01  3.688976e-02  1.517303e-02  -5.587613e-03  -9.637377e-02  5.147274e-02  -6.330971e-02  3.298523e-02  -1.076664e-01  5.256857e-02  6.496830e-02  2.190079e-02  2.723580e-02  
      </Biases>
    </DenseLayer>
    <DenseLayer Width="10" ActivationFunction="3">
      <Weights Rows="10" Columns="50">
        -4.699209e-01  -1.348384e-01  -2.561758e-01  3.075206e-01  -6.449787e-03  -2.852496e-01  -3.230579e-01  -3.070966e-02  -1.028940e-01  3.181072e-01  -1.005860e-01  2.483805e-02  -2.472880e-01  -4.857942e-01  -1.616792e-01  -3.854429e-01  2.482091e-01  -2.164438e-01  1.888019e-01  1.403728e-01  9.098277e-02  -3.658045e-01  5.334430e-02  -2.110249e-01  3.435712e-01  -1.296244e-01  -5.733764e-01  -3.126282e-01  1.110327e-02  4.221532e-01  2.807225e-01  -2.696846e-01  -7.520960e-02  -2.835262e-01  2.657404e-01  -4.478587e-01  1.839414e-01  -3.872459e-01  -3.286463e-01  2.134866e-01  2.214722e-01  3.803911e-01  -2.051356e-01  2.905598e-01  -3.971699e-01  5.955121e-02  4.814385e-01  1.041963e-01  9.885596e-03  -1.912834e-01  -3.221478e-01  2.475327e-01  5.746250e-01  -4.282469e-01  -4.607818e-02  3.850198e-02  -2.919208e-01  -4.316346e-01  -2.216181e-01  -3.381854e-01  2.905456e-01  -3.123790e-01  1.810818e-01  5.073304e-01  -2.902087e-01  -4.045473e-01  3.564538e-01  -4.127834e-01  -1.913334e-01  2.656963e-01  -3.998132e-01  3.588648e-01  4.726185e-01  6.097278e-02  1.370464e-01  3.689045e-03  7.989059e-02  -6.198050e-02  -3.892184e-01  -2.369921e-01  -1.334246e-01  1.762178e-01  -2.444375e-01  -7.483791e-02  -8.149339e-02  2.706291e-01  3.305237e-02  -3.306521e-01  -4.825633e-02  4.777152e-02  -8.048497e-02  4.656500e-01  1.864817e-01  1.595742e-01  1.810068e-01  5.271083e-01  1.725885e-01  -6.726006e-02  -2.599533e-01  2.836986e-01  7.365892e-02  2.051882e-02  -2.622422e-01  2.929565e-01  2.617223e-01  -4.553520e-01  -1.065434e-01  3.048149e-01  3.832443e-01  5.603986e-01  1.012139e-01  2.483155e-01  5.031884e-02  -3.759029e-01  3.617735e-01  5.511718e-01  -5.789455e-01  7.485670e-01  3.757284e-01  -1.759271e-03  -7.424761e-02  -4.329243e-01  -4.717347e-01  4.634476e-02  2.750650e-01  1.068116e-02  -5.198342e-02  3.323830e-01  5.289090e-01  2.113891e-01  4.666148e-03  1.158214e-02  -2.683035e-01  -1.893388e-01  1.587813e-02  1.961549e-01  -9.459661e-02  3.123561e-01  2.163878e-01  -2.855717e-01  4.967402e-01  4.459446e-02  -3.248082e-01  1.693285e-01  2.080292e-01  -2.171686e-01  -4.657931e-01  1.332332e-01  6.012389e-02  -9.404212e-02  -3.200579e-01  -2.403900e-01  -3.166480e-01  -4.777209e-01  -1.546937e-01  5.039905e-01  -1.997881e-01  -4.332667e-01  2.443442e-01  4.470489e-01  6.038814e-02  -2.260523e-01  2.367769e-01  1.060458e-01  -4.922110e-01  2.611168e-01  -5.697018e-02  4.426956e-01  2.796812e-01  -9.244435e-02  4.069612e-02  4.465305e-01  -9.486969e-02  3.571084e-01  -5.750819e-02  2.121347e-01  3.028698e-01  1.989440e-01  -2.796373e-01  -1.811599e-01  -1.487518e-01  -1.791233e-01  2.478910e-02  -5.478393e-02  -1.902864e-01  4.838012e-01  2.502552e-01  -7.525551e-02  -4.118966e-01  -1.238805e-01  2.204490e-01  -7.933928e-02  2.646112e-01  -5.001124e-02  1.346146e-01  -2.866840e-01  4.500825e-01  3.148507e-01  3.709040e-01  8.050408e-02  1.460569e-01  4.409395e-01  3.600361e-01  1.847166e-01  -1.025819e-01  3.330006e-01  -6.534566e-03  1.889168e-01  4.633166e-03  -3.075303e-01  4.190128e-01  3.861510e-01  -2.202201e-01  1.976009e-01  -4.886729e-02  6.242282e-02  -2.653118e-01  -2.779121e-01  1.932188e-01  1.711936e-01  -6.848057e-02  3.305153e-01  1.281505e-01  3.197362e-01  -3.452443e-01  1.815902e-01  4.821769e-01  -1.529698e-01  -3.141854e-01  -3.558808e-01  -1.876667e-01  3.673260e-01  -1.507951e-02  2.324360e-01  -2.193432e-01  1.934011e-01  -4.094772e-01  -3.306134e-01  -9.887336e-02  -2.535783e-01  2.599667e-01  -3.696707e-01  1.907821e-01  -4.045419e-01  7.417014e-02  -3.953678e-01  -1.363226e-01  3.589590e-01  -8.823929e-02  -2.659629e-01  -6.911054e-02  -2.100752e-01  -4.507559e-01  2.689071e-01  -5.752603e-02  -2.873274e-01  3.890689e-02  1.358840e-01  -8.229680e-02  3.173091e-01  -1.478560e-01  4.981425e-01  -5.993991e-01  -3.513059e-01  4.345249e-01  3.530628e-02  -1.021561e-01  4.240902e-01  3.571258e-01  -2.734217e-01  4.939807e-01  -2.542024e-01  -6.257482e-01  4.869672e-01  -2.165428e-01  6.695986e-02  4.813266e-01  4.323862e-01  1.248588e-01  1.635747e-01  -3.234723e-01  1.240029e-01  -5.671284e-01  4.707466e-01  7.628580e-03  -2.847983e-01  -2.299625e-01  1.503430e-02  4.729779e-01  4.144599e-01  7.254703e-02  9.429162e-04  -4.506534e-01  -4.129980e-01  -4.659552e-01  2.405640e-02  3.132468e-02  1.851749e-01  -1.762570e-01  7.399678e-02  -2.142656e-01  3.443571e-01  -1.816789e-01  2.437333e-01  -4.573520e-01  8.843750e-02  -3.088336e-01  4.425777e-01  1.969213e-01  1.673498e-01  2.496333e-01  -2.568122e-01  1.811345e-01  -2.961432e-01  1.212948e-01  3.118961e-02  -5.732017e-03  6.433979e-02  2.927106e-01  4.501031e-01  7.130064e-02  -2.166454e-01  3.721967e-01  -2.327196e-01  1.601511e-01  2.458827e-01  -1.354583e-01  9.125931e-02  1.979164e-01  -1.603551e-02  4.238202e-02  2.578400e-01  -1.983618e-01  4.049011e-01  -1.390430e-01  -9.115621e-02  2.633038e-01  1.417629e-01  -3.108239e-01  -1.176312e-01  5.810420e-02  -3.053830e-01  -5.077736e-01  1.003454e-01  -1.098378e-03  1.782655e-01  3.407208e-01  -2.810746e-01  -3.736168e-01  -1.401292e-01  -2.119945e-01  6.695634e-03  2.944850e-01  -3.256789e-01  -1.980113e-01  4.383682e-02  -4.184444e-01  4.178087e-02  -1.088124e-01  -4.455418e-01  2.930528e-01  -4.470097e-01  1.806914e-01  5.320160e-01  -3.950513e-01  -2.578983e-01  4.953971e-01  -4.791244e-01  -1.487695e-01  3.323744e-01  -4.601137e-01  1.388212e-01  1.073055e-01  -2.248408e-01  4.047296e-01  2.768585e-02  9.223563e-02  -3.316460e-01  4.081790e-02  -3.026254e-01  1.779050e-01  2.015330e-02  2.732170e-01  1.181697e-02  -1.176594e-01  4.079739e-02  2.292025e-01  -1.883484e-01  -3.209022e-01  -1.670770e-01  8.638412e-02  9.759969e-02  -3.181339e-01  2.525108e-01  -3.177077e-01  4.087746e-01  3.194439e-01  -4.167333e-01  -3.364146e-01  3.610679e-01  2.961552e-01  3.245310e-01  -3.769254e-01  1.958597e-01  -1.357347e-01  -3.033944e-02  -4.014815e-01  1.885154e-01  3.958195e-03  4.067698e-03  2.668694e-01  -6.895892e-02  -1.200122e-01  1.394361e-01  4.334978e-01  2.315116e-01  -4.106449e-01  -4.089207e-03  1.670075e-01  2.050517e-01  3.277338e-01  3.277834e-01  -1.957593e-01  3.677683e-01  -7.961881e-02  -7.731903e-02  1.541452e-01  3.127112e-01  1.258553e-01  -5.446579e-02  -3.717386e-01  -3.919369e-02  -4.134719e-01  2.362446e-01  -3.548849e-01  -1.880837e-01  -7.179752e-03  2.242912e-02  2.741767e-01  3.296390e-01  2.120601e-01  8.865564e-03  8.763331e-02  -2.002455e-01  -8.526050e-02  2.789282e-02  -2.232684e-01  1.710254e-01  -1.531985e-01  -3.058349e-01  -5.253011e-01  1.543401e-02  -2.399971e-01  -3.399568e-01  4.042135e-01  2.263687e-01  1.511121e-01  -1.156750e-01  -2.242334e-01  2.736079e-01  -1.358140e-01  4.620358e-01  4.300762e-01  5.733903e-02  -3.086608e-01  -2.691904e-01  1.585262e-01  2.935689e-01  -1.391840e-01  -3.814763e-01  1.227997e-01  2.479152e-01  -1.670260e-01  -9.771397e-02  4.012517e-02  5.590872e-03  1.362577e-01  -5.096130e-02  -2.739480e-01  3.637183e-01  2.604907e-01  -7.188861e-02  -2.191305e-01  1.693666e-01  1.528208e-01  3.140811e-01  1.496156e-02  -2.839588e-01  7.624386e-02  -1.793195e-01  -3.034449e-01  1.630891e-01  2.728914e-01  1.524726e-02  4.814103e-01  -5.734217e-01  3.763231e-01  6.010231e-01  5.497003e-01  2.362760e-01  
      </Weights>
      <Biases Rows="10" Columns="1">
        -1.450874e-01  4.383053e-02  -6.556413e-02  5.669453e-02  6.476222e-02  8.660402e-02  7.832139e-02  -2.783383e-02  2.752615e-02  1.882931e-02  
      </Biases>
    </DenseLayer>
    <DenseLayer Width="4" ActivationFunction="0">
      <Weights Rows="4" Columns="10">
        4.175743e-01  2.446929e-01  -2.642491e-01  -6.273074e-01  -6.840515e-01  -8.672495e-01  -1.038557e-01  7.585032e-01  -8.987916e-01  6.569530e-01  5.963250e-01  2.218892e-01  -8.739015e-01  -7.368723e-01  -3.537013e-01  5.605294e-01  -9.302751e-01  -1.492774e-01  3.956682e-01  7.496993e-02  7.391599e-01  -9.099383e-01  6.558015e-01  2.055386e-01  -8.425521e-01  3.788318e-01  -5.699627e-01  -2.926815e-01  -2.623809e-01  5.663661e-01  -5.674106e-01  -6.969876e-01  4.581812e-01  -9.183709e-01  -5.115003e-01  8.036558e-02  1.073051e+00  8.298103e-01  -4.639871e-01  -1.210771e+00  
      </Weights>
      <Biases Rows="4" Columns="1">
        -2.200935e-01  -3.426932e-01  -2.363341e-01  -4.659828e-02  
      </Biases>
    </DenseLayer>
  </Weights>
</MethodSetup>
