<?xml version="1.0"?>
<MethodSetup Method="MLP::MLPBNN">
  <GeneralInfo>
    <Info name="TMVA Release" value="4.2.1 [262657]"/>
    <Info name="ROOT Release" value="6.33/01 [401665]"/>
    <Info name="Creator" value="nsonmez"/>
    <Info name="Date" value="Tue Sep 17 20:30:48 2024"/>
    <Info name="Host" value="Darwin MacAir-1879.local 23.6.0 Darwin Kernel Version 23.6.0: Mon Jul 29 21:16:46 PDT 2024; root:xnu-10063.141.2~1/RELEASE_ARM64_T8112 arm64"/>
    <Info name="Dir" value="/Users/nsonmez/root_install/tutorials/tmva"/>
    <Info name="Training events" value="2000"/>
    <Info name="TrainingTime" value="8.40015888e-01"/>
    <Info name="AnalysisType" value="Classification"/>
  </GeneralInfo>
  <Options>
    <Option name="NCycles" modified="Yes">60</Option>
    <Option name="HiddenLayers" modified="Yes">N+5</Option>
    <Option name="NeuronType" modified="Yes">tanh</Option>
    <Option name="RandomSeed" modified="No">1</Option>
    <Option name="EstimatorType" modified="No">CE</Option>
    <Option name="NeuronInputType" modified="No">sum</Option>
    <Option name="V" modified="Yes">False</Option>
    <Option name="VerbosityLevel" modified="No">Default</Option>
    <Option name="VarTransform" modified="Yes">N</Option>
    <Option name="H" modified="Yes">True</Option>
    <Option name="CreateMVAPdfs" modified="No">False</Option>
    <Option name="IgnoreNegWeightsInTraining" modified="No">False</Option>
    <Option name="TrainingMethod" modified="Yes">BFGS</Option>
    <Option name="LearningRate" modified="No">2.000000e-02</Option>
    <Option name="DecayRate" modified="No">1.000000e-02</Option>
    <Option name="TestRate" modified="Yes">5</Option>
    <Option name="EpochMonitoring" modified="No">False</Option>
    <Option name="Sampling" modified="No">1.000000e+00</Option>
    <Option name="SamplingEpoch" modified="No">1.000000e+00</Option>
    <Option name="SamplingImportance" modified="No">1.000000e+00</Option>
    <Option name="SamplingTraining" modified="No">True</Option>
    <Option name="SamplingTesting" modified="No">False</Option>
    <Option name="ResetStep" modified="No">50</Option>
    <Option name="Tau" modified="No">3.000000e+00</Option>
    <Option name="BPMode" modified="No">sequential</Option>
    <Option name="BatchSize" modified="No">-1</Option>
    <Option name="ConvergenceImprove" modified="No">1.000000e-30</Option>
    <Option name="ConvergenceTests" modified="No">-1</Option>
    <Option name="UseRegulator" modified="Yes">True</Option>
    <Option name="UpdateLimit" modified="No">10000</Option>
    <Option name="CalculateErrors" modified="No">False</Option>
    <Option name="WeightRange" modified="No">1.000000e+00</Option>
  </Options>
  <Variables NVar="4">
    <Variable VarIndex="0" Expression="var1+var2" Label="myvar1" Title="myvar1" Unit="" Internal="myvar1" Type="F" Min="-9.31873512e+00" Max="7.53042316e+00"/>
    <Variable VarIndex="1" Expression="var1-var2" Label="myvar2" Title="Expression 2" Unit="" Internal="myvar2" Type="F" Min="-3.70671988e+00" Max="4.02912045e+00"/>
    <Variable VarIndex="2" Expression="var3" Label="var3" Title="Variable 3" Unit="units" Internal="var3" Type="F" Min="-5.05078554e+00" Max="4.33005810e+00"/>
    <Variable VarIndex="3" Expression="var4" Label="var4" Title="Variable 4" Unit="units" Internal="var4" Type="F" Min="-5.82962179e+00" Max="5.03067923e+00"/>
  </Variables>
  <Spectators NSpec="2">
    <Spectator SpecIndex="0" Expression="var1*2" Label="spec1" Title="Spectator 1" Unit="units" Internal="spec1" Type="F" Min="-9.14904976e+00" Max="9.52782059e+00"/>
    <Spectator SpecIndex="1" Expression="var1*3" Label="spec2" Title="Spectator 2" Unit="units" Internal="spec2" Type="F" Min="-1.37235746e+01" Max="1.42917309e+01"/>
  </Spectators>
  <Classes NClass="2">
    <Class Name="Signal" Index="0"/>
    <Class Name="Background" Index="1"/>
  </Classes>
  <Transformations NTransformations="1">
    <Transform Name="Normalize">
      <Selection>
        <Input NInputs="4">
          <Input Type="Variable" Label="myvar1" Expression="var1+var2"/>
          <Input Type="Variable" Label="myvar2" Expression="var1-var2"/>
          <Input Type="Variable" Label="var3" Expression="var3"/>
          <Input Type="Variable" Label="var4" Expression="var4"/>
        </Input>
        <Output NOutputs="4">
          <Output Type="Variable" Label="myvar1" Expression="var1+var2"/>
          <Output Type="Variable" Label="myvar2" Expression="var1-var2"/>
          <Output Type="Variable" Label="var3" Expression="var3"/>
          <Output Type="Variable" Label="var4" Expression="var4"/>
        </Output>
      </Selection>
      <Class ClassIndex="0">
        <Ranges>
          <Range Index="0" Min="-5.1623420715332031e+00" Max="5.5480084419250488e+00"/>
          <Range Index="1" Min="-3.7067198753356934e+00" Max="4.0291204452514648e+00"/>
          <Range Index="2" Min="-2.6928036212921143e+00" Max="3.8698983192443848e+00"/>
          <Range Index="3" Min="-2.9492409229278564e+00" Max="4.2669730186462402e+00"/>
        </Ranges>
      </Class>
      <Class ClassIndex="1">
        <Ranges>
          <Range Index="0" Min="-9.3187351226806641e+00" Max="7.5304231643676758e+00"/>
          <Range Index="1" Min="-3.4552407264709473e+00" Max="3.9897418022155762e+00"/>
          <Range Index="2" Min="-5.0507855415344238e+00" Max="4.3300580978393555e+00"/>
          <Range Index="3" Min="-5.8296217918395996e+00" Max="5.0306792259216309e+00"/>
        </Ranges>
      </Class>
      <Class ClassIndex="2">
        <Ranges>
          <Range Index="0" Min="-9.3187351226806641e+00" Max="7.5304231643676758e+00"/>
          <Range Index="1" Min="-3.7067198753356934e+00" Max="4.0291204452514648e+00"/>
          <Range Index="2" Min="-5.0507855415344238e+00" Max="4.3300580978393555e+00"/>
          <Range Index="3" Min="-5.8296217918395996e+00" Max="5.0306792259216309e+00"/>
        </Ranges>
      </Class>
    </Transform>
  </Transformations>
  <MVAPdfs/>
  <Weights>
    <Layout NLayers="3">
      <Layer Index="0" NNeurons="5">
        <Neuron NSynapses="9">
          1.2411870832985676e+00 1.8902864201237848e+00 7.9367304079612366e-01 -4.2865953647117044e-01 -3.1372622778277286e+00 -9.6116134249068275e-01 -3.8016418163444093e-01 2.7589993262250956e+00 -1.8370239339254402e+00 
        </Neuron>
        <Neuron NSynapses="9">
          -7.0867530924262490e-01 -1.4614657762590364e+00 -5.3712446262701019e-01 -1.9941651680540378e+00 -4.0494450214641997e-01 -1.2891963846932233e+00 3.3025304984588572e-01 -4.1953602893176167e-01 1.2017327986578934e+00 
        </Neuron>
        <Neuron NSynapses="9">
          8.3409861427451404e-01 1.3837292790126685e+00 -2.5211142489408761e-01 -1.4225770933259856e+00 -7.3027568065083925e-01 1.1205460456192875e+00 -7.0863535600973471e-01 -2.1380574946348631e-02 1.7040743632665500e+00 
        </Neuron>
        <Neuron NSynapses="9">
          -2.5523521454119074e+00 -1.6562910348688293e+00 5.6871128627910250e-01 1.8070151398331482e+00 4.6454790606063368e+00 1.7076069066130759e+00 5.7420457608593345e-01 2.0426635228472911e-01 1.5066378660652560e+00 
        </Neuron>
        <Neuron NSynapses="9">
          -2.6705407742889664e-01 2.5274904295496223e+00 -9.7581147869694984e-01 -1.2739990267187462e-01 -5.9002104107164188e-01 1.3272233706847785e+00 2.5930673713853949e+00 4.8051692108097710e-01 -1.6982028691756235e-01 
        </Neuron>
      </Layer>
      <Layer Index="1" NNeurons="10">
        <Neuron NSynapses="1">
          -3.1119367361975758e+00 
        </Neuron>
        <Neuron NSynapses="1">
          7.0508391662480696e-01 
        </Neuron>
        <Neuron NSynapses="1">
          5.5534699871513049e-02 
        </Neuron>
        <Neuron NSynapses="1">
          1.7936864812007638e+00 
        </Neuron>
        <Neuron NSynapses="1">
          6.1352360002406723e+00 
        </Neuron>
        <Neuron NSynapses="1">
          1.7240311998546487e+00 
        </Neuron>
        <Neuron NSynapses="1">
          1.6308081854013114e+00 
        </Neuron>
        <Neuron NSynapses="1">
          -1.6240694478516613e+00 
        </Neuron>
        <Neuron NSynapses="1">
          5.1149723541068559e-01 
        </Neuron>
        <Neuron NSynapses="1">
          -9.6388320598946076e-01 
        </Neuron>
      </Layer>
      <Layer Index="2" NNeurons="1">
        <Neuron NSynapses="0"/>
      </Layer>
    </Layout>
    <InverseHessian NElements="3025" NRows="55" NCols="55">
      <Row Index="0">
        3.5385352255458379e+01 1.6495094503787488e+01 1.1540549075373103e+02 -8.0377181178121386e+00 7.2233996459362659e-01 1.3547181211894838e+01 2.9763541744096938e+02 3.7492346296459012e+00 1.7037482620108499e+01 1.3815151424826837e+00 -1.6866449988756031e+02 -3.8675968790679796e+01 -8.0717278006446751e+00 7.5438075699092944e-01 -1.0358878794632234e-01 9.2830401458670664e+01 -1.8825813646323302e+00 7.2739501745345558e+00 8.9504791697707713e+00 1.4378559831507104e+02 -4.4903620464404582e+01 -1.4034908332695775e+01 3.3659218142432645e-01 -3.0752991054193402e-01 1.4131186862478219e+02 1.0989680415319782e+00 2.2516643412501221e+01 -4.6049471036576911e+01 6.5524815204382577e+01 -1.5868321281048497e+02 2.4249741009293281e+01 3.0728844978574221e-01 -1.2721842154586845e+01 -3.5709771729662032e+02 2.7202433206285770e+00 -2.6765491151198461e+01 -1.9072044058294426e+00 -1.9570463760584801e+01 -2.3365012439393922e+01 -2.8594996139839957e-01 -1.4695818578966273e+00 -6.9737962652447543e+00 -7.4452260793672124e+01 6.7956772479534400e-01 -1.4643130318627766e+00 3.5020991618119773e+01 -2.9142916178288459e+02 1.0568717626168388e+01 -2.0585285998084967e+01 2.8438311926371842e+00 -7.0159527851058971e+00 1.8716998388491618e+02 8.2478908868329768e+00 -9.7963719310051793e+00 1.2898912966505844e+02 
      </Row>
      <Row Index="1">
        1.6495094532344140e+01 3.0023865698492522e+04 -1.0768413518357991e+04 1.0578175473449059e+02 -8.2320932940930920e+00 1.7963618104327707e+03 -5.6532846864282701e+03 7.6382935139462859e+01 1.4357011344459190e+02 -8.0311958125697032e+01 -1.1108952848467659e+04 4.3626178040326122e+03 3.3999220822424689e+01 -1.2927520466912954e+01 9.4168922615754397e+01 9.4483411795206018e+02 4.7933784786221656e-01 1.6853435175685806e+02 9.4342410624729112e+01 1.1679967215201954e+04 -5.2099552549592436e+03 -3.3347274556281612e+01 1.0555863854108384e+01 3.2023008476347236e+01 -2.2345905876276784e+03 -8.4043876739821570e+00 -7.6281223141990893e+01 -8.5675162603190955e+01 -2.8633578203641970e+04 1.7551822742010314e+04 -1.6873223637088313e+02 -3.5950126709705216e+01 -2.3686116141060384e+03 8.0215291072181171e+03 5.4279985471167137e+01 -1.4690047340605230e+02 -4.2482257800205900e+01 1.5032023834946027e+04 3.1842781740380451e+02 1.7832218510820827e+01 9.9841607614512338e+00 -7.5808051228918288e+01 4.1484811543218402e+03 1.3707926798563919e+01 4.9125933601402238e+01 4.2955976429180276e+02 -6.9284924462142426e+03 2.0084722913426322e+02 9.6444385851104073e+01 -9.0862888853966695e+01 2.1861845095768404e+03 1.6124940221068500e+03 1.6250010084806405e+02 1.1633143380506169e+02 2.9223452427885577e+03 
      </Row>
      <Row Index="2">
        1.1540549101508481e+02 -1.0768413510887929e+04 3.1230189561528055e+05 5.3215474809600437e+02 1.6816899677924255e+03 -2.5398523090524072e+03 -2.9036588947527154e+04 3.6765526684131436e+02 -8.1434645159729962e+02 -7.6759441637050259e+01 7.4496834683140323e+03 -1.8008422459398462e+04 3.7915082992228577e+02 -1.4306883792183928e+01 -3.5355120645947119e+02 9.5364069931999602e+03 -1.6667352689340444e+02 -1.1877314560520253e+02 2.6236061076025510e+02 -6.8431226912178063e+03 -4.0208310410718383e+04 4.0018108655085808e+02 1.2868669600855281e+02 5.7071937034001314e+02 -6.0121710346412015e+04 1.3525794553577221e+01 -9.7675420683674042e+02 -2.8501583634249249e+02 9.4541782359619137e+03 -1.7076633614050646e+05 -8.7583429602045180e+02 -1.7623980384118126e+03 2.4460326799381978e+03 7.4260649522648382e+04 7.4248743364931056e+02 1.1870790830977871e+03 -8.1644043304203251e+01 -6.8445532279213894e+03 -6.8180659513795355e+04 -4.1538220348559918e+01 3.0237823664752312e+00 3.9949720334893971e+02 7.8239896824349504e+04 1.1937995806084888e+02 2.0371581022218629e+02 6.0992257432324959e+02 6.2240596647449256e+03 -1.3506428661486905e+04 8.2257470475700723e+02 5.5869185104043518e+03 -2.1224502971499674e+03 -1.8234809020989876e+04 1.3376100583449702e+03 3.3299436023426659e+02 4.9163883766446515e+03 
      </Row>
      <Row Index="3">
        -8.0377181173540784e+00 1.0578175475105202e+02 5.3215474811877255e+02 4.0318849788483107e+01 3.8387508545191542e+00 1.3509600834790483e+00 3.7494460888283598e+01 3.8222932096922801e+00 1.9530333378797256e+01 -4.6224876481862909e+00 -3.3428667332736248e+00 3.6490434231968109e+01 1.7325440197616999e+01 5.6237977480457862e-02 3.6294294563147274e+00 -5.0793076516846405e+01 -7.6002738112041990e-01 8.6106713719548047e+00 -9.5298335032918100e+00 -5.5123101039116357e+01 -4.5962972808344261e+01 1.9099408552298868e+01 1.3159756360784582e+00 5.1975903896496689e+00 -2.7603436942940669e+02 4.3796519928936908e+00 -2.1982182983260515e+01 2.1755036819604250e+01 -9.7367488569595508e+01 -3.3470253836101710e+02 -6.6733533206747296e+01 -5.1987055484487215e+00 -6.5341147767604788e+00 1.3030230329915491e+02 -4.7664150468947728e+00 -3.3334732398938783e+01 2.8939425162949561e-02 2.7696252791273665e+01 -1.7756487116692244e+02 1.3996424369841569e+00 6.1121573740861990e-01 1.0937685908668433e+00 2.3092117673395120e+02 1.0718945247505585e+00 4.5524513586254542e+00 -2.6993323737100766e+01 4.9042750754696662e+01 -2.5789314538479235e+01 4.5277537276819579e+01 1.3106065075648360e+01 3.5157557821974055e+00 -5.8327558397212286e+01 2.0388367149835194e+00 2.2000973700282749e+01 -1.5633386123063797e+01 
      </Row>
      <Row Index="4">
        7.2233996566626968e-01 -8.2320932616944464e+00 1.6816899678555387e+03 3.8387508544982314e+00 3.3906120290065928e+01 9.5504897478824482e+00 1.3329562471687944e+02 1.8383652537079478e+00 -5.4503285372651957e+00 -5.0130011051055954e+00 1.5336218750223061e+01 4.9057408297424097e+01 -2.1627789761415648e+00 2.3030938635910818e+00 -3.8425470449374672e+00 4.9610768818802853e+01 -3.7156112288007986e-01 2.4462500397120324e-01 5.4010625268394188e+00 -2.0427730217201788e+01 5.8982237239365126e+01 -1.8817854267330025e+00 5.7002114062235032e+00 8.3464381647939732e+00 -3.8862167121337734e+01 -7.9674677161395846e-01 -1.2139471453503846e+01 -6.2668507341721025e+00 -7.8707127413520501e+00 -1.5788029333964892e+03 -3.6601905245587680e+00 -4.2436031449286730e+01 -7.0118698839539064e+00 -1.5773534334675310e+02 1.4969138307169818e+00 1.5767382962373368e+01 -2.6777901889764246e+00 7.1290214496203930e+01 -1.9740071592690992e+02 -5.6337453863924147e-01 8.0335803862617672e-01 7.5509657624870963e+00 1.0781298535939510e+02 4.5532306662462874e-01 1.7596513228780970e+00 3.5735182048095005e+01 8.2584609485415328e+01 -4.8281980945178333e+01 -3.3856164182310025e+00 9.7243429985031952e+01 -5.2736797407437219e+00 -5.1263939829235696e+01 2.5409670921638359e+00 4.6256217327930855e+00 -1.6507614352617413e+01 
      </Row>
      <Row Index="5">
        1.3547181216418274e+01 1.7963618104465465e+03 -2.5398523099324298e+03 1.3509600813346241e+00 9.5504897440856258e+00 3.9438477913092953e+02 -7.4374658955749965e+02 -8.1779389830822389e+00 6.4256094716868830e+01 -1.4784722809036159e+00 -1.2263291110590901e+03 1.3689684346537533e+01 8.3489808351931405e+00 3.9443593796859244e+00 4.3195098452232457e+01 1.2657105538222322e+02 -1.6814131574884239e-01 1.8686937006399997e+01 2.1515993404202023e+00 1.1526245882737414e+03 4.5485370680830260e+02 -7.7855176635450307e-01 -4.8070790134088677e+00 -2.0469503799009789e+00 -2.4633065300053323e+02 6.0534645042153690e+00 -4.0405091145528313e+00 -6.3211442478417208e+00 -1.7651125012285747e+03 1.7481470173970952e+03 -9.0701727248473958e+00 -8.8187688313191508e+00 -4.5483730772780433e+02 8.6207002866694302e+02 -1.3763326202547706e+01 -5.7602465302910133e+01 -5.7277401008740512e+00 1.4883550293702388e+03 3.9897531045972573e+02 2.5540066133558095e+00 -5.0874854042069462e-01 -2.8157712552707050e+01 6.1420709544188719e+02 1.4828362959688965e+00 4.7777854361258676e-01 -1.4067597739546173e+01 -7.6033944499645918e+02 6.3804243662692564e+01 1.8251535401822949e+01 -3.1614955497765628e+01 2.6975732157377655e+02 1.4536489195067043e+02 -2.1656344979438565e+01 8.7200975740324154e+00 3.5044523121434651e+02 
      </Row>
      <Row Index="6">
        2.9763541723425254e+02 -5.6532846898406287e+03 -2.9036588940621165e+04 3.7494460922610713e+01 1.3329562477230758e+02 -7.4374658998228836e+02 5.5593379725630468e+04 1.4494759598567182e+02 -4.0127657208829538e+02 8.9735866540994081e+01 3.5345200394426547e+02 -4.6990721903357571e+03 -9.4178227899816008e+01 -5.9209661009723554e+01 -2.3171177402439909e+02 -4.7841100285916582e+03 3.9464991716451301e+01 4.4444247102801438e+02 -1.0121826524093427e+02 -8.8429976633865931e+02 9.6284489026828705e+03 -1.8357635348957641e+02 2.6501189425669401e+02 -9.0549061508435827e+01 3.7051925490074369e+04 4.4720973440647072e-02 7.1450503433103086e+02 -3.4674587229180793e+02 7.0409514659015767e+03 2.8329028841975349e+04 1.7548749323056518e+02 -3.0550411135002048e+02 1.1727564160285378e+03 -8.8327235043001565e+04 -3.9839420805162746e+01 -1.7804272783245415e+02 -6.3754583786073340e+00 -2.0455334584269985e+03 -4.1020342006857391e+03 -6.1579392213616302e-02 -2.6139365053021820e+01 -9.0627359457757848e+00 -4.3643589111603033e+04 2.1253437103126238e+01 -9.2650041288960210e+01 -4.8860402271838597e+00 -5.3481904862989177e+02 1.1484074461859632e+03 -2.1984603409585810e+02 4.5875229171259434e+02 -6.8284313063766626e+02 1.2335549404367961e+04 1.7316944044481318e+02 -3.3859321183721511e+02 -8.2499196968411034e+03 
      </Row>
      <Row Index="7">
        3.7492346288297620e+00 7.6382935150623851e+01 3.6765526691942057e+02 3.8222932099070088e+00 1.8383652538027540e+00 -8.1779389815629191e+00 1.4494759589363335e+02 6.9251943609960293e+01 -3.8819590189413105e+01 -4.9311903630530791e+00 -1.4078952695744908e+01 -2.6825728854685593e+02 4.3374091941339703e+00 -1.0603715482060472e-01 -5.9370655178090914e-01 -4.6350312758720480e-01 -2.6841757200805327e+00 8.0742449196198258e+00 4.6198073126340562e+00 4.4257235039092222e+01 -2.5013871104666222e+02 4.4071431244332251e+00 1.6494824411309001e+00 1.7500959207083895e+00 1.5509497107799700e+02 3.9438804305620438e+00 1.4490654142516227e+01 -6.3651288233513528e+00 -1.1906103929588889e+02 1.4823269037446603e+03 -4.8631895483595784e+00 -3.0750168675228688e+00 5.9892268065190200e+00 -2.5720176357682953e+02 -3.5625823685744237e+01 3.1988493630177430e+01 -1.5059953273034017e+00 9.1991872617005896e+01 -1.2570275297780263e+03 -1.1100721685945554e+00 1.9218861125794340e-01 6.4124578460261876e+00 -1.8003136784262887e+02 4.4137156332520764e+00 -4.9995915848373040e-01 3.1531153349229118e+01 3.0061817418701196e+01 -5.9969232715844029e+01 8.3063130157293408e+00 6.0449020022422797e+00 1.0661491381171651e+01 4.1272903405268835e+00 4.6006501258092158e+01 -1.0788475485215573e+01 -6.3123829964627916e+01 
      </Row>
      <Row Index="8">
        1.7037482620820974e+01 1.4357011341763649e+02 -8.1434645179216841e+02 1.9530333378259947e+01 -5.4503285379949462e+00 6.4256094713234575e+01 -4.0127657192111280e+02 -3.8819590189065586e+01 5.8462110728216021e+02 -1.2419119700169805e+01 -2.4581567212253211e+02 2.4930908591353511e+02 2.6630722099574857e+01 3.0310350169352112e+00 1.5798223478390646e+01 1.5888147851616029e+02 4.9787025454395542e+00 -4.7616191153750087e+00 1.5416983565565246e+01 -8.9841710504474150e+01 -4.8334231133768816e+02 -1.0026302964526705e+01 -4.6982779258487373e+00 2.0184993321079507e+01 -3.8053749328001209e+02 1.4265211806726544e+01 -1.3531557614435644e+02 -2.7257516088345774e+01 2.9364064275485603e+01 -9.6847051989814599e+02 -4.9936548452541004e+01 1.1426568631598460e+01 -6.7868024533257511e+01 8.1121567321481223e+02 -3.5987590626780062e+00 -6.3578310768488950e+02 -6.8799438708896954e+00 1.2685873796927839e+02 1.7342464655559720e+03 1.0523066788677799e+01 3.3728077122329827e+00 1.2020259358347865e+00 3.4002776047228855e+02 -4.7183361055024298e+00 3.4399543662788624e+01 9.0883486675571817e+01 -1.5153907775718460e+02 8.2379477196761115e+01 8.9712890715146415e+01 2.2868377309981280e-01 2.5616055869192174e+00 5.2078419642889457e+01 -3.9865915027882757e+01 1.5439616116845326e+02 1.0448249727685671e+02 
      </Row>
      <Row Index="9">
        1.3815151438979447e+00 -8.0311958098195007e+01 -7.6759441693781483e+01 -4.6224876483930970e+00 -5.0130011055604307e+00 -1.4784722776851154e+00 8.9735866554168936e+01 -4.9311903635452170e+00 -1.2419119699199209e+01 9.2250316623087141e+00 1.9959286585980418e+00 -7.8669031722181998e+01 -1.2388919146815316e+00 -9.3188117729116671e-01 -1.0152943317443204e+00 9.2933614660184716e+01 -5.1359090015753728e-01 3.1150237826412490e+00 2.1664682418065824e+00 4.2779807128444958e+00 -1.6090442258557036e+02 -4.7306933764773573e+00 -7.7081234426686862e-01 2.8180795931229627e+00 -6.8627524680323646e+01 -1.0546913209047153e+00 5.5662306240837296e+00 -4.6099996354283110e+00 7.4035499844488925e+01 4.1133297313561684e+02 1.2343413588332922e+01 7.3917305983270953e+00 -3.5731976288008509e+00 -2.2836914857489847e+02 3.8233711730746816e+00 1.0054743145786610e+01 7.9293698769794796e-01 -4.1997572107438671e+01 -1.3892147605064275e+02 4.1224904695001297e-01 -1.2536320961426866e+00 -3.2542067561075814e+00 3.7156181801237972e+02 -1.4485669937807358e-01 -5.8569921754029730e-01 -2.6829362805189323e+01 -2.0120203758270076e+01 -1.9159451175146312e+01 -6.3603032053811255e+00 -1.9742303299722465e+01 -7.0980439434420131e+00 -7.2596280429829818e+01 -3.3755667912016336e+00 -4.9512876192731747e+00 6.5117136615059579e+01 
      </Row>
      <Row Index="10">
        -1.6866449993176849e+02 -1.1108952848172205e+04 7.4496834806962734e+03 -3.3428667085191210e+00 1.5336218804382655e+01 -1.2263291109867948e+03 3.5345199607364185e+02 -1.4078952702666093e+01 -2.4581567214493393e+02 1.9959287142801743e+00 9.9190189985779216e+03 -1.7366197030537405e+03 -4.7368642665878227e+01 2.9044705622587184e+01 -5.7438899283522282e+01 -1.3973511837864203e+03 7.1241423884180186e+00 -1.6354538650581014e+02 -3.5545816556613765e+01 -8.4967385842875537e+03 6.3329065076517263e+03 -1.5822674895526797e+01 -2.2601419910782095e+01 -6.1266339779018068e+01 3.3980099301862292e+03 -3.2836862421437715e+01 -7.9803165351811217e+01 1.7478766166019955e+02 8.0954062423575833e+03 -1.6273764910188911e+04 4.1317150255026036e+01 -2.4071320995246190e+01 1.5403525847975664e+03 -2.0965899989082918e+03 -1.9632086830589341e+01 3.1874011565394659e+02 2.0593827681006957e+01 -5.0265708484998759e+03 5.2312820265976188e+02 -1.2090889503971068e+01 2.2212307233750693e+01 2.3720537104882550e+02 -7.3676581450954227e+03 -1.0583058368389171e+01 -3.1539533350854470e+00 7.1938015120392691e+01 1.1916012145494564e+04 2.1965277689038231e+02 -1.1521869781158701e+02 2.9846236390682992e+02 -8.0025469514797578e+02 -4.0384262962713665e+03 -7.9012300937626947e+01 1.8765524183745836e+01 -6.4982626824355420e+03 
      </Row>
      <Row Index="11">
        -3.8675968810040636e+01 4.3626178028710920e+03 -1.8008422461000107e+04 3.6490434229688333e+01 4.9057408300832783e+01 1.3689684203835668e+01 -4.6990721878671402e+03 -2.6825728853436442e+02 2.4930908589493671e+02 -7.8669031738101069e+01 -1.7366197015306325e+03 2.0236687938967614e+04 1.8078267307668554e+01 1.0249185343042567e+01 -6.9935377689884021e+01 -3.4238457714268447e+03 -7.2301309297432582e+01 -4.7137744288847756e+01 3.7770426846802643e+01 1.4468786984278997e+03 1.8682358279180746e+04 3.6801472451261652e+01 -1.7889840350951197e+01 2.2020663018696075e+02 6.0271894624834131e+03 -1.3294264100133705e+02 -3.1904834775302845e+02 -2.2527895149988243e+01 -3.8435446314793949e+03 -3.2747867193621278e+04 -1.2190240917006463e+02 -6.2122210369081245e+01 -1.2394209390761010e+02 -1.7634625088040384e+03 2.3182131583818699e+02 -8.9566406658717995e+01 -5.7382368764537802e+01 1.5617984578575133e+03 1.4485820049707469e+04 7.7982814342794171e-01 1.5395296502335166e+01 6.9550586295085182e+01 -8.5296524954541965e+03 -3.6881210299330618e+01 -4.1675766442365024e+01 3.7425309028746341e+02 -1.5393775621368932e+03 2.5441667524312488e+03 7.4352506030203358e+01 2.3970725374010274e+02 -3.3725385022142596e+01 3.0542970184574569e+03 -2.5214092653110947e+02 1.8655017270886074e+02 4.5536175151660700e+02 
      </Row>
      <Row Index="12">
        -8.0717277995132299e+00 3.3999220844682007e+01 3.7915082985547946e+02 1.7325440197421788e+01 -2.1627789766072776e+00 8.3489808378184254e+00 -9.4178227884566567e+01 4.3374091937534498e+00 2.6630722100559602e+01 -1.2388919147774193e+00 -4.7368642707505103e+01 1.8078267323768436e+01 2.0489330307470450e+01 -1.6357786493315224e-01 2.2822371606932883e+00 1.5932259906619127e+01 -1.0667712152514526e+00 1.3086208079519150e+00 -8.7410555415133508e+00 1.1413106848379307e+01 -1.0730551295231069e+02 1.8584257648661147e+01 3.6145888765380607e-02 1.0770561704925559e+01 -2.8369936243763544e+02 2.0745253842212414e+00 -9.2540427321621195e+00 1.9739741440311807e+01 -2.1975141288258975e+01 5.4964577693017034e+01 -4.0328474123454541e+01 2.9711258387061950e+00 -1.8402897160873749e+01 2.4521843645939535e+02 -2.1196474544950421e+00 -3.7819317988954921e+01 7.0552253175858493e-01 2.9502501957365688e+01 -2.1217954177562308e+02 1.4243723779967281e+00 -1.7106630254260215e-02 -5.1873830240085561e-01 3.5704229167259399e+02 6.0699972105352584e-01 1.7602134993374026e+00 -3.5784353246039920e+01 -2.9507660160087404e+01 -3.3652587016866718e+01 4.3684769556017194e+01 -1.0953837281635394e+01 -1.6393509051523618e+00 -6.7216415968498652e+01 4.1769234689606938e+00 1.2708498193109335e+01 5.4022705666271122e+01 
      </Row>
      <Row Index="13">
        7.5438075714486796e-01 -1.2927520462069635e+01 -1.4306883760760797e+01 5.6237977507013870e-02 2.3030938636922911e+00 3.9443593804074699e+00 -5.9209661034238955e+01 -1.0603715495629083e-01 3.0310350170855482e+00 -9.3188117708987139e-01 2.9044705612024003e+01 1.0249185341248642e+01 -1.6357786477924988e-01 1.3549254765794945e+00 1.2678764598857990e+00 1.3143513661943298e+00 2.7844062767079725e-01 9.5160863920098371e-01 1.1626029901495689e+00 -3.1501677449717921e+01 4.0078585145891253e+01 -9.8984000463323951e-01 -5.6868204322133770e-02 1.8807737521002754e+00 -1.4603612021551246e+01 -4.4626809150362295e-02 -5.1337587178172583e-01 -2.0392121316584895e+00 1.6568036703482438e+00 -5.6599580721249858e+01 4.4248836816143466e-01 -3.3556981638457919e+00 -4.4852542788762211e+00 6.1585991219819405e+01 -5.0537673037316999e-01 -2.2849742689404584e+00 -9.1051486579005447e-01 -6.4044512995405469e+00 2.8748508602957315e+01 -1.6467927691743289e-01 3.7175086091434539e-01 1.6932935337024797e+00 2.7158485379684286e+01 7.4474791864654749e-03 4.0806593037991401e-01 7.5288238694936798e+00 4.0918657264268248e+01 4.6496393569564853e+00 -2.0940452589814740e-01 8.1952911338164913e+00 -2.5000991907636605e-03 -2.5589642101030272e+01 -6.8457022589167038e-01 8.5402263513522492e-01 -1.1312841052634193e+01 
      </Row>
      <Row Index="14">
        -1.0358879025592937e-01 9.4168922564488000e+01 -3.5355120652832869e+02 3.6294294563587766e+00 -3.8425470447885668e+00 4.3195098445634137e+01 -2.3171177394789996e+02 -5.9370655079695944e-01 1.5798223476448051e+01 -1.0152943325353148e+00 -5.7438899175289514e+01 -6.9935377698072458e+01 2.2822371598867961e+00 1.2678764601413601e+00 3.0442178102598582e+01 -1.4281717644173114e+02 1.7661155854128013e-01 1.9098121972490156e+00 7.3840273036169080e-01 4.9968283658654492e+01 4.3998764165869136e+02 -4.2010510551799136e+00 -3.0334353163757788e+00 -1.7913935099489716e+01 3.8370748559262461e+02 3.8097252436783364e+00 7.0650446845826143e-01 -1.7573633335470515e+00 -1.8203574943092354e+02 -1.8051971695902185e+02 -3.7985418115329423e+00 7.3357610856476629e+00 -4.9782847731037670e+01 9.7288728776300601e+01 -7.4957046922158188e+00 -2.0220662475969554e+01 -9.6417696340793846e-01 -4.8246958161017503e+01 1.3234564489805734e+01 1.0363233957690758e+00 -1.5872769361598538e-01 -7.8990853835986856e+00 -5.9096937154853083e+02 1.5970178805421004e-01 4.6354587970698446e-01 1.4458221208831644e+01 -1.3449999536625808e+02 3.1940126806609790e+01 4.2953238914112752e+00 -1.4899810101074587e+01 5.6992214628834027e+01 2.0256205732609453e+02 -6.4905024030463228e+00 7.3752096739117858e+00 -7.1198976556327196e+01 
      </Row>
      <Row Index="15">
        9.2830401625533369e+01 9.4483412081831500e+02 9.5364069869603209e+03 -5.0793076543388153e+01 4.9610768767040042e+01 1.2657105572673697e+02 -4.7841100276223906e+03 -4.6350318901326715e-01 1.5888147864250226e+02 9.2933614665114163e+01 -1.3973511901145810e+03 -3.4238457695579878e+03 1.5932259918135111e+01 1.3143513445041655e+00 -1.4281717636455625e+02 1.0007456171032534e+04 -1.9682836464182465e+01 8.4537288623685498e+01 1.5287724972420915e+02 1.0950030679369108e+03 -2.2021433830987226e+04 -7.4325781608127826e+01 9.3057086399499003e+00 2.8148749292506415e+02 -1.8736998365617364e+04 4.4300127871889956e+01 -2.2520319911945300e+01 -1.4827580094354101e+02 -8.9680836329794374e+01 1.6560062754376202e+04 1.2391589346276669e+02 -5.8008373789826436e+01 -2.5053742437861786e+02 1.4234265147939983e+04 -5.1718614278870234e+00 -5.8361204331579074e+01 1.3229175873884856e+01 1.1487022947963853e+03 -3.0117680284340604e+03 1.0305061752791234e+01 -6.9554866710438290e+00 3.6531836572941934e+01 3.4121720415085081e+04 8.4624619731965769e+00 8.7868142406798938e+01 -2.5462676394482096e+02 -1.3007022215258173e+03 -1.5692798752631061e+03 -9.9574122661565951e+00 8.9538798407681099e+01 -2.7777618596054413e+02 -8.5155968292826074e+03 1.8698218459385316e+01 1.4337627923088645e+01 7.5624752979970908e+03 
      </Row>
      <Row Index="16">
        -1.8825813647557155e+00 4.7933784602258822e-01 -1.6667352688319022e+02 -7.6002738109115286e-01 -3.7156112281666148e-01 -1.6814131595167137e-01 3.9464991712665061e+01 -2.6841757200319547e+00 4.9787025453387201e+00 -5.1359090013475295e-01 7.1241423924828480e+00 -7.2301309299492743e+01 -1.0667712152390845e+00 2.7844062768936817e-01 1.7661155844212295e-01 -1.9682836461402285e+01 2.5573673129851877e+00 2.2133267838060022e-01 -1.9860725602666879e-01 -1.9706183897345181e+01 -3.0859858159439693e+01 -1.2345491340296106e+00 3.3828325871666043e-01 -8.0327857709971218e-01 4.3765899840257838e+01 9.1670366695708860e-01 -5.5366453156718909e-01 1.5611203569684027e+00 1.6709141629416333e+01 1.7420519480117133e+02 1.2422148186284596e+00 1.7121903295818669e-01 1.8546875900350832e+00 -7.4591089198297368e+01 -2.2847118962469892e+00 -5.9312218915669082e+00 -2.9944644525220260e-01 -5.6204300434999066e+00 8.3387414855776470e+01 3.7295548255815554e-02 6.7155685955599009e-02 5.4762190906918551e-01 -7.0788349161328540e+01 -2.1818958408410277e-01 7.3284019385113641e-01 5.3423682440377496e-01 7.2706491207086330e+00 3.9955317148483922e+00 -1.4402001061295964e+00 -1.0190099897549696e+00 7.8979903994177991e-01 4.2841674172196456e+00 -3.6337064568129369e+00 1.4285455460848662e+00 -9.2470048802298663e+00 
      </Row>
      <Row Index="17">
        7.2739501757543827e+00 1.6853435176278231e+02 -1.1877314582244342e+02 8.6106713714865126e+00 2.4462500285612568e-01 1.8686937006374361e+01 4.4444247116267854e+02 8.0742449196307220e+00 -4.7616191148237270e+00 3.1150237817449673e+00 -1.6354538652678454e+02 -4.7137744260262089e+01 1.3086208073366399e+00 9.5160863893375980e-01 1.9098121993563173e+00 8.4537288516916135e+01 2.2133267843619678e-01 1.0009063081217535e+02 -1.4124098626613224e+01 1.3865305966264091e+02 1.8833106337900591e+02 -1.0230892644806472e+01 6.2067596406659868e+00 1.1060324917031487e+01 7.5644572818654865e+01 3.5979742584286417e-01 1.4267413238266491e+02 3.8122445659264752e+00 -5.7441650477407499e+01 5.1071188159309497e+02 -6.7447134095235057e+00 -3.7698554189594522e+00 -3.5142378732093690e+01 -7.2424723133961879e+02 -4.2941967692184768e-01 -9.7412003198592274e+01 4.8133150824058291e-01 8.8048409666658870e+01 -3.8836574638284128e+02 1.4262223113625816e-01 -2.9934377361562670e-01 -8.9561464121704564e+00 1.0581511336567144e+02 1.8663801476132678e+00 -2.4542424140186281e+00 -4.9718122744209097e+01 -1.9979131354372646e+02 -1.0986679301024356e+01 1.4768444894074669e+01 8.3383222029762809e+00 4.8312897230299967e+00 4.6236435863782503e+01 9.7814441543170663e+00 -4.4525201722573421e+01 1.3402313782347647e+02 
      </Row>
      <Row Index="18">
        8.9504791718506418e+00 9.4342410662522340e+01 2.6236061066260061e+02 -9.5298335036787023e+00 5.4010625260727005e+00 2.1515993447488100e+00 -1.0121826521892126e+02 4.6198073120127923e+00 1.5416983566937429e+01 2.1664682417897416e+00 -3.5545816634650024e+01 3.7770426870321394e+01 -8.7410555414382465e+00 1.1626029898688370e+00 7.3840273147606839e-01 1.5287724971598931e+02 -1.9860725605989832e-01 -1.4124098625304645e+01 2.7349218609622948e+01 1.7432129867912536e+01 -2.9739320588326979e+02 -1.3527642293847194e+01 -1.3489940218430168e+00 3.5099994865802078e+00 -5.0506624788166384e+01 -3.1826089140542630e+00 -4.8843904954627824e+01 -3.4858996080195197e+01 -7.8281880826775563e+01 3.3023565851641661e+02 2.4793292889329908e+01 -5.0477833271093075e+00 -2.3305587583147456e+00 -1.2319723308715646e+02 6.0566626726741646e-01 1.8355716767437002e+01 -5.3462706763212298e+00 2.5886053635205805e+01 -2.3647114221638094e+02 -1.3832170169185010e-01 1.7305540493606650e-01 4.1754715071330448e+00 6.0170803766486449e+02 4.5521820278766056e-01 6.6870315371777780e+00 5.6509266894333422e+01 -4.8897484494637354e+01 -2.2694100534676473e+01 -2.1502229330839349e+01 2.0391197980872910e+01 3.3020543032975684e+00 -6.9094987392920970e+01 4.0964583648781101e+00 1.9156392847896669e+01 8.4053304821765849e+01 
      </Row>
      <Row Index="19">
        1.4378559835062734e+02 1.1679967215003750e+04 -6.8431227012211748e+03 -5.5123101059359556e+01 -2.0427730261126264e+01 1.1526245882212481e+03 -8.8429976022851667e+02 4.4257235042214361e+01 -8.9841710484993669e+01 4.2779806690267987e+00 -8.4967385843363172e+03 1.4468786996929732e+03 1.1413106815330684e+01 -3.1501677457988297e+01 4.9968283743397855e+01 1.0950030629999810e+03 -1.9706183894177823e+01 1.3865305964670981e+02 1.7432129806493823e+01 9.8577438791817349e+03 -3.6804527313705003e+03 1.3941993707971708e+01 4.0702489342829846e+00 -1.4124396332599130e+02 -2.2306311346359485e+03 -2.9344293156591110e+00 2.0198738278140644e+02 -1.5435455012857182e+02 -1.1151806931684037e+04 1.4464403721900715e+04 3.8715096562961207e+01 3.8192261776744012e+01 -1.3335330448664170e+03 2.6225874642875224e+03 4.7810936344589216e+01 8.8033629598907424e+01 -5.7815735705829354e+00 5.8733622312164780e+03 -1.5143197955369687e+03 5.8146051357204236e+00 -2.0760716600074854e+01 -2.2370268493529926e+02 4.6561638778934794e+03 9.5278126154292000e+00 -2.9781675352103591e+01 -4.6535749797432288e+01 -9.6267964332934771e+03 -2.1109336959687633e+02 -1.7323701922652496e+01 -2.8389738869853716e+02 9.3332012839428307e+02 3.1893621912184180e+03 1.0791792937879434e+02 -1.5909179318731483e+02 5.0923983311385273e+03 
      </Row>
      <Row Index="20">
        -4.4903620754119508e+01 -5.2099552609570155e+03 -4.0208310396716304e+04 -4.5962972767279403e+01 5.8982237350563970e+01 4.5485370610751306e+02 9.6284489004315419e+03 -2.5013871094605932e+02 -4.8334231157449040e+02 -1.6090442257809153e+02 6.3329065190832362e+03 1.8682358275507035e+04 -1.0730551297273135e+02 4.0078585185601931e+01 4.3998764148602226e+02 -2.2021433829839611e+04 -3.0859858154834985e+01 1.8833106319691339e+02 -2.9739320588056768e+02 -3.6804527403971451e+03 1.2356551498031424e+05 -4.4262996620457699e+01 -1.1406360783979270e+02 -5.2245193804995415e+02 7.7612877197340684e+04 -4.9940197687992850e+02 1.4128656775275749e+03 1.3795178402089539e+02 8.1783388079898964e+02 -1.4086740284545519e+05 5.0962852780803587e+01 1.9907513577262534e+01 -1.7996614875103774e+02 -6.1068353639163906e+04 4.2415815053296302e+02 -4.1280539857535859e+02 2.5415752172816383e+01 -2.0556639036754873e+03 1.5821848989248188e+04 -2.0168700691097946e+01 1.8948040077545308e+01 -3.8701300762861479e+01 -1.1947616446141616e+05 -1.2087373060723181e+01 -2.3774356361960889e+02 4.6643873720216533e+02 8.0353806961335040e+03 9.0486582534763256e+03 -2.2943278974713542e+02 2.7696585187505889e+02 8.7677192697967735e+02 1.7091628024029040e+04 -4.2684389889049504e+02 -4.5311776043683159e+02 -1.4333017541217709e+04 
      </Row>
      <Row Index="21">
        -1.4034908332024173e+01 -3.3347274542682875e+01 4.0018108651781000e+02 1.9099408552227576e+01 -1.8817854269322525e+00 -7.7855176462561815e-01 -1.8357635348697431e+02 4.4071431241319274e+00 -1.0026302963694031e+01 -4.7306933765298185e+00 -1.5822674920919626e+01 3.6801472462064858e+01 1.8584257648694351e+01 -9.8984000471122713e-01 -4.2010510547441724e+00 -7.4325781611106322e+01 -1.2345491340369732e+00 -1.0230892644448549e+01 -1.3527642293841536e+01 1.3941993727962663e+01 -4.4262996609182728e+01 3.5532043742494459e+01 -2.0000075238545545e-01 3.9621828506777490e+00 -4.3996662747269340e+02 5.7933372714660680e-01 -2.2273502605791542e+01 3.3648333713936140e+01 3.4268507296680880e+01 -1.2402787661272453e+02 -5.4315188794234111e+01 2.1011296402271151e+00 -2.7520604432830607e+00 5.6320499026737320e+02 -1.3018796545710725e+00 2.4620253203074896e+01 2.8338622062790932e+00 7.2368830370180444e+00 -8.8962669573513836e+01 9.5822348046559203e-03 9.4759701367969462e-02 -2.1248223368607100e-01 3.4591389319389009e+02 1.5204937608667368e-01 -1.3006640854939797e+00 -5.3695460165518668e+01 -5.8030646854310213e+00 -3.4363465169959284e+01 4.0786616528654889e+01 -1.3002216788255984e+01 -7.2914998507734836e+00 -6.8654398959822672e+01 4.2941713441872835e+00 2.6934131067685816e+00 3.5315105205576117e+01 
      </Row>
      <Row Index="22">
        3.3659218092582011e-01 1.0555863845238779e+01 1.2868669601330251e+02 1.3159756361560626e+00 5.7002114062847600e+00 -4.8070790146301849e+00 2.6501189426960610e+02 1.6494824414921059e+00 -4.6982779262804808e+00 -7.7081234439467061e-01 -2.2601419889525609e+01 -1.7889840357210332e+01 3.6145888687008229e-02 -5.6868204276282329e-02 -3.0334353163920196e+00 9.3057086270323364e+00 3.3828325873178011e-01 6.2067596402779168e+00 -1.3489940220280996e+00 4.0702489178736130e+00 -1.1406360781908649e+02 -2.0000075241254975e-01 3.8384757466095718e+00 3.9674688880323572e+00 1.1894871686253181e+02 1.5904795581516091e+00 9.2815477694911817e+00 5.5537515625786349e-01 2.3530270371178915e+01 5.5207428001715300e+01 -1.7773029877886275e+00 -9.3781901308280080e+00 4.4982434874558175e+00 -3.7155377597679148e+02 -9.4084869894334611e-01 -9.5974266740045877e-01 3.1209958317037456e-01 1.4412319764070531e+01 -5.2208778786624748e+01 -7.9652290403986081e-02 2.6921553800438147e-02 7.0902728931935743e-01 -1.3026176046430871e+02 2.3189690043132860e-01 3.8735285915681317e-01 8.5967642032916880e-01 -2.2289407105577311e+01 -5.3809819217869377e+00 6.6209912356677869e-01 1.7081809906585519e+01 -5.8518447676763898e+00 4.7000618039219027e+01 2.6986500208249540e+00 -4.1319257168944539e+00 -9.5144115702275389e+00 
      </Row>
      <Row Index="23">
        -3.0752990643033051e-01 3.2023008549304677e+01 5.7071937026423757e+02 5.1975903891894983e+00 8.3464381638380978e+00 -2.0469503709547503e+00 -9.0549061514297193e+01 1.7500959192318319e+00 2.0184993324328016e+01 2.8180795935030534e+00 -6.1266339941384537e+01 2.2020663022356794e+02 1.0770561705497212e+01 1.8807737515762410e+00 -1.7913935097943032e+01 2.8148749295156648e+02 -8.0327857719256524e-01 1.1060324919907567e+01 3.5099994871465712e+00 -1.4124396319939714e+02 -5.2245193813651360e+02 3.9621828509249730e+00 3.9674688882972258e+00 5.7111573117069810e+01 -5.8338042798390200e+02 6.8840777912458684e-01 1.5685962352695328e+00 -3.2109503635092551e-01 1.7648078694998210e+02 9.3962414031636968e+01 -1.0767629896451439e+01 -1.4720888587976717e+01 -2.8418160228516076e+01 1.3042935418073466e+02 4.9815719682874997e+00 -3.2658471968135103e+01 -1.2498408480352765e+00 1.0064819323840111e+02 -1.7865681991702812e+02 1.1516776163232796e+00 8.6972573840170564e-01 1.0068269562903726e+01 1.2453260550843845e+03 5.4158626149848654e-01 2.4481834603400472e+00 -2.0752581882284016e+01 4.2693518124256542e+01 -3.6722785771608038e+01 2.4308213011814505e+01 2.5253325257207891e+01 -4.6976574142791812e+01 -2.5373528512603167e+02 7.5953821934049710e+00 7.1414068203799843e+00 1.7423630259390018e+02 
      </Row>
      <Row Index="24">
        1.4131186813504365e+02 -2.2345905966674395e+03 -6.0121710328561065e+04 -2.7603436935549973e+02 -3.8862166970333163e+01 -2.4633065408763991e+02 3.7051925488629880e+04 1.5509497126286527e+02 -3.8053749366598817e+02 -6.8627524697586452e+01 3.3980099491857673e+03 6.0271894568740536e+03 -2.8369936247725894e+02 -1.4603611959014930e+01 3.8370748536705912e+02 -1.8736998366399192e+04 4.3765899849073051e+01 7.5644572500855631e+01 -5.0506624822954336e+01 -2.2306311495180157e+03 7.7612877201575771e+04 -4.3996662748531855e+02 1.1894871682996644e+02 -5.8338042791781595e+02 9.4562259485659510e+04 -1.4044746821851402e+02 1.1001515771697918e+03 -3.9622043994057293e+02 2.4193768670318696e+02 -4.9004659631191913e+04 6.7926942916812550e+02 -5.9025664151299452e+01 5.6777794934396593e+02 -1.0443885298791692e+05 2.2687117997452269e+01 -4.1106269270183441e+02 1.1493278296662083e+01 -1.9693110126259812e+03 3.4256685376474925e+03 -8.4450898984471365e+00 5.6058735640999657e+00 -9.0882498361638994e+01 -1.2531430658930092e+05 1.2954767057623428e+01 -9.4884270726638078e+01 1.4571894516619220e+03 3.4313792248328582e+03 7.9191020381433282e+03 -7.0356242004653166e+02 8.3505953046960627e+01 7.9026328039713758e+02 2.8072363077388633e+04 4.6398399055160951e+01 -3.1511948269232687e+02 -2.1021659970267010e+04 
      </Row>
      <Row Index="25">
        1.0989680419720436e+00 -8.4043876654246894e+00 1.3525794510395755e+01 4.3796519927983875e+00 -7.9674677188691034e-01 6.0534645051646292e+00 4.4720988661180822e-02 3.9438804304434636e+00 1.4265211807092545e+01 -1.0546913210129172e+00 -3.2836862436409689e+01 -1.3294264099361791e+02 2.0745253841779667e+00 -4.4626809218671071e-02 3.8097252441173435e+00 4.4300127859406729e+01 9.1670366695716110e-01 3.5979742604471798e-01 -3.1826089141985956e+00 -2.9344293037401927e+00 -4.9940197685890337e+02 5.7933372711929743e-01 1.5904795582021272e+00 6.8840777871753711e-01 -1.4044746817998760e+02 1.1224924616695592e+01 -4.1395196626976603e+00 3.1932786786819882e+00 2.6968767091724693e+01 5.7160493473730980e+02 -6.9488673738293993e+00 1.4395174230652996e-01 -8.3016005079484891e+00 1.1530273652090929e+02 -1.3042930607641344e+01 -1.6639078953317153e+01 2.7207947117073239e-01 1.8099757334723847e+00 -6.3914628257401318e+01 4.3691215974378472e-01 -2.0468326100653383e-01 -2.4543440178758944e+00 1.7450428436697405e+02 3.8770400928416993e-01 2.2414937530434109e+00 -1.2561701234687428e+00 -3.6225473859598779e+01 -1.5951550260250476e+01 6.1073062189511038e+00 -4.3293824304613384e+00 4.1977369824707402e+00 -1.5807926520388738e+01 8.5275135121036638e-01 4.9921656320579419e+00 3.0954692008839334e+01 
      </Row>
      <Row Index="26">
        2.2516643405436088e+01 -7.6281223298443010e+01 -9.7675420680008324e+02 -2.1982182982488606e+01 -1.2139471452338501e+01 -4.0405091341623374e+00 7.1450503448364816e+02 1.4490654145461848e+01 -1.3531557615031630e+02 5.5662306226320926e+00 -7.9803165045788106e+01 -3.1904834781262849e+02 -9.2540427335699498e+00 -5.1337587105438698e-01 7.0650446714565651e-01 -2.2520320066850424e+01 -5.5366453133120930e-01 1.4267413237702465e+02 -4.8843904957076802e+01 2.0198738253976924e+02 1.4128656778285037e+03 -2.2273502606288531e+01 9.2815477694328301e+00 1.5685962327839875e+00 1.1001515775775490e+03 -4.1395196636330756e+00 4.5398386781166300e+02 8.0584833817821924e+00 1.3574514438667879e+02 -4.1947050396479642e+02 4.6296821567993376e+01 7.2877173391278873e+00 -9.1159058084597522e+00 -9.4106517759418978e+02 5.3482095516969670e+00 -1.3956703902009440e+02 1.7943698841441030e+01 -4.6507364310830283e+01 -1.5343564818179925e+02 -1.9665393803225635e+00 -1.7941362897860502e+00 -1.8041741235317154e+01 -2.1091201485604147e+03 2.3128706571684039e+00 -2.5804214145871320e+01 -1.0742859973592138e+02 -2.1735255628485751e+02 8.5433863383633479e+01 -2.6789434385495706e+01 -2.9492219030576315e+01 -5.9314728197433819e+00 4.8416467811702233e+02 1.7335258317488066e+01 -1.6509512882306765e+02 -1.1105037604978104e+02 
      </Row>
      <Row Index="27">
        -4.6049471037165517e+01 -8.5675162586571489e+01 -2.8501583604278619e+02 2.1755036820214855e+01 -6.2668507327671179e+00 -6.3211442444990373e+00 -3.4674587251357855e+02 -6.3651288241624364e+00 -2.7257516087749973e+01 -4.6099996339757237e+00 1.7478766163758289e+02 -2.2527895174019939e+01 1.9739741441456584e+01 -2.0392121314084628e+00 -1.7573633362762053e+00 -1.4827580076828755e+02 1.5611203568543446e+00 3.8122445667756417e+00 -3.4858996078040896e+01 -1.5435455011045096e+02 1.3795178372957133e+02 3.3648333714627931e+01 5.5537515568347007e-01 -3.2109503190516991e-01 -3.9622044045670236e+02 3.1932786790745324e+00 8.0584833736014811e+00 8.6229314351424435e+01 1.6022851670504444e+01 -6.0103442905087377e+01 -5.9482944659798221e+01 5.4079765963981705e+00 3.2670892837066550e+00 7.9768159685280284e+02 -6.3238421747354092e+00 1.7277604314646226e+01 7.0174990102772483e+00 3.5993159688362667e+01 2.4691551259737798e+02 3.9579648203942996e-01 1.3214842232010666e+00 3.0158404062173503e+00 -1.6415133045783016e+01 -9.2328512171365240e-01 -2.8922392333208085e+00 -1.0099551360814957e+02 3.2736812427172401e+02 -3.5877037324856653e+00 4.9946901515898688e+01 -2.6326770335908677e+01 7.1452193893380169e+00 -2.0624746332975201e+02 -1.2258373391598298e+01 -3.6229191243693801e+00 -1.5060982894702121e+02 
      </Row>
      <Row Index="28">
        6.5524815194888745e+01 -2.8633578203823756e+04 9.4541782382780711e+03 -9.7367488562811488e+01 -7.8707127314639607e+00 -1.7651125012536525e+03 7.0409514661562607e+03 -1.1906103927831904e+02 2.9364064255983628e+01 7.4035499847154753e+01 8.0954062427024710e+03 -3.8435446320590449e+03 -2.1975141283901152e+01 1.6568036702508602e+00 -1.8203574943309664e+02 -8.9680836363390924e+01 1.6709141629434590e+01 -5.7441650481319563e+01 -7.8281880824094756e+01 -1.1151806931945526e+04 8.1783387982168938e+02 3.4268507299369546e+01 2.3530270372462429e+01 1.7648078694864580e+02 2.4193768626001406e+02 2.6968767093915936e+01 1.3574514436627354e+02 1.6022851677316655e+01 3.0983736350927134e+04 -1.2169238486623999e+04 1.5689512199199726e+02 3.6475688258483046e+01 2.1759722700171519e+03 -9.1111440885049196e+03 -2.1266877979023658e+01 -1.3466814365353514e+02 3.1022413524863168e+01 -1.5431590957199340e+04 4.7625160860188771e+02 -1.8643253710557737e+01 -1.8981214473114470e+01 -2.6598449199211673e+00 6.2523118222592348e+02 -1.0042014656659392e+01 -2.4875867037099585e+01 -5.4904689980409159e+02 1.9281516017549302e+03 -2.7439874447945249e+02 -2.5665441841853283e+01 2.1554663155354703e+00 -2.4044247599031946e+03 1.5856358744645678e+02 -1.4055413032693698e+02 -1.1264456913060154e+02 1.6986196975412648e+02 
      </Row>
      <Row Index="29">
        -1.5868321260536399e+02 1.7551822745905483e+04 -1.7076633616066043e+05 -3.3470253840105795e+02 -1.5788029335229203e+03 1.7481470178427762e+03 2.8329028848182610e+04 1.4823269036601544e+03 -9.6847051971433063e+02 4.1133297309079558e+02 -1.6273764917591359e+04 -3.2747867189636061e+04 5.4964577680311386e+01 -5.6599580753343204e+01 -1.8051971677038711e+02 1.6560062749230477e+04 1.7420519480071945e+02 5.1071188169357225e+02 3.3023565844943084e+02 1.4464403727704823e+04 -1.4086740283689168e+05 -1.2402787661309516e+02 5.5207428024481800e+01 9.3962413870350588e+01 -4.9004659615350349e+04 5.7160493473826614e+02 -4.1947050355383226e+02 -6.0103443079443934e+01 -1.2169238487241635e+04 4.2142823496671399e+05 6.6678197215440559e+02 1.5312324356914094e+03 -2.3193907382886587e+03 -9.6540113834765016e+03 -1.4776474662033991e+03 1.5520908623443720e+03 -8.2208636163555866e+01 1.0497794257256257e+04 -2.8662473491662298e+04 1.2307924258573621e+01 -3.0156553413381943e+01 -3.6689135657245959e+02 9.5177821911643259e+04 6.9609276200808679e+01 3.6671671697507918e+01 -1.3827964402664347e+03 -1.7791148335085316e+04 -6.1967810978051293e+03 -7.7293186358869344e+00 -5.2893961481338947e+03 1.1672713339592822e+03 -9.8558140444343499e+03 1.0282268764285063e+03 -3.0819537336560393e+02 1.5140290933290700e+04 
      </Row>
      <Row Index="30">
        2.4249741008497637e+01 -1.6873223639317217e+02 -8.7583429602380966e+02 -6.6733533206710973e+01 -3.6601905245131623e+00 -9.0701727278237581e+00 1.7548749326472552e+02 -4.8631895479545824e+00 -4.9936548453677730e+01 1.2343413588183687e+01 4.1317150290677780e+01 -1.2190240917963763e+02 -4.0328474123636376e+01 4.4248836821250143e-01 -3.7985418117315182e+00 1.2391589343846992e+02 1.2422148186581237e+00 -6.7447134101272628e+00 2.4793292888937451e+01 3.8715096534207149e+01 5.0962852804532588e+01 -5.4315188794260862e+01 -1.7773029877091382e+00 -1.0767629896741244e+01 6.7926942923055572e+02 -6.9488673739136075e+00 4.6296821568569953e+01 -5.9482944658818823e+01 1.5689512199993919e+02 6.6678197213120382e+02 1.3513035770462488e+02 5.7231819112538345e+00 1.9411672377765669e+01 -7.2815084675212461e+02 6.8815094154569856e+00 6.1411104097446469e+01 -2.4134699424805781e+00 -8.3905650412009734e+01 1.0910721705935930e+02 -2.6697344901454496e+00 -1.3449649386622158e+00 -1.2390267493059766e+00 -4.7857620294831429e+02 -1.0228140698305301e+00 -6.5520227910331066e+00 7.3714826907108616e+01 -5.3294258358886722e+01 4.6015079377916081e+01 -9.9961013034361585e+01 -8.0342770587934087e+00 -4.8706131448649543e+00 1.1021023312502297e+02 -2.9012856895864410e+00 -3.7346969815409977e+01 1.7167021460497289e+00 
      </Row>
      <Row Index="31">
        3.0728844925390142e-01 -3.5950126735648688e+01 -1.7623980385368673e+03 -5.1987055485959255e+00 -4.2436031449584867e+01 -8.8187688344347102e+00 -3.0550411126665881e+02 -3.0750168676354770e+00 1.1426568631205752e+01 7.3917305976977179e+00 -2.4071320956417281e+01 -6.2122210354345953e+01 2.9711258380931769e+00 -3.3556981638290431e+00 7.3357610863566096e+00 -5.8008373862868332e+01 1.7121903303030434e-01 -3.7698554199180503e+00 -5.0477833281037281e+00 3.8192261744675314e+01 1.9907513727312708e+01 2.1011296399251584e+00 -9.3781901306699371e+00 -1.4720888589556228e+01 -5.9025663932923500e+01 1.4395174199965902e-01 7.2877173416444911e+00 5.4079765973048168e+00 3.6475688269036041e+01 1.5312324355477640e+03 5.7231819115221381e+00 5.6873784578097641e+01 8.0702580111953441e+00 3.9275721820575274e+02 -2.7278692902412223e+00 -2.0007159180089374e+01 2.6130118520377974e+00 -1.0730793487075843e+02 2.1919941980201929e+02 7.5835771479396330e-01 -1.5694161101254553e+00 -1.0895623527403327e+01 2.8808092247753173e+01 -6.8753052177218776e-01 -2.2972252679982486e+00 -4.6846045210130917e+01 -1.2177449191268096e+02 4.6087838561065844e+01 4.2307304008751281e+00 -1.2488217416874346e+02 1.0029592887179120e+01 3.3650941161702193e+01 -6.3994534055277015e+00 -2.2613396001325254e+00 5.0901442130520735e+01 
      </Row>
      <Row Index="32">
        -1.2721842161334903e+01 -2.3686116141389352e+03 2.4460326811462137e+03 -6.5341147738758814e+00 -7.0118698785780396e+00 -4.5483730772940720e+02 1.1727564154379420e+03 5.9892268086491427e+00 -6.7868024538626159e+01 -3.5731976243939472e+00 1.5403525849215050e+03 -1.2394209410434816e+02 -1.8402897157437433e+01 -4.4852542777748541e+00 -4.9782847740552192e+01 -2.5053742390148975e+02 1.8546875897699273e+00 -3.5142378732495459e+01 -2.3305587523530820e+00 -1.3335330449582541e+03 -1.7996614969776601e+02 -2.7520604410651677e+00 4.4982434857226217e+00 -2.8418160215955108e+01 5.6777794784937282e+02 -8.3016005067364169e+00 -9.1159058357459894e+00 3.2670892888055540e+00 2.1759722699866779e+03 -2.3193907377064288e+03 1.9411672373901496e+01 8.0702580066428347e+00 5.6555262160508744e+02 -1.3066727902556190e+03 9.1436199190807539e+00 7.4927658621076844e+01 5.5597675794399493e+00 -1.7660540232844255e+03 -4.8226555135099261e+01 -3.7862275434536006e+00 8.8404933129786190e-01 3.4497810217151773e+01 -1.4397591004159419e+03 -2.0466081098160180e+00 -1.4047392485838692e+00 5.0304674572006341e+01 1.0408090163334596e+03 -4.1972331853456566e+01 -3.9417746147216839e+01 4.9067117423393832e+01 -3.1181086686655152e+02 -1.3857374182029173e+02 1.2310691715894041e+01 -7.4046434819861888e+00 -5.3749794896748358e+02 
      </Row>
      <Row Index="33">
        -3.5709771689833786e+02 8.0215291144404764e+03 7.4260649508659379e+04 1.3030230323806987e+02 -1.5773534346241271e+02 8.6207002955085545e+02 -8.8327235043013003e+04 -2.5720176374643313e+02 8.1121567354470278e+02 -2.2836914855515354e+02 -2.0965900144021743e+03 -1.7634625040024428e+03 2.4521843649269599e+02 6.1585991171373117e+01 9.7288728941816544e+01 1.4234265149475645e+04 -7.4591089205709849e+01 -7.2424723107929810e+02 -1.2319723304911587e+02 2.6225874763879201e+03 -6.1068353643253526e+04 5.6320499027761184e+02 -3.7155377595362762e+02 1.3042935415282923e+02 -1.0443885299017261e+05 1.1530273655168320e+02 -9.4106517730029725e+02 7.9768159643035290e+02 -9.1111440886511882e+03 -9.6540113709729048e+03 -7.2815084669958742e+02 3.9275721837790979e+02 -1.3066727914721582e+03 1.8614732552976813e+05 2.7932065652695709e+01 -2.9718170318747070e+00 1.0161495539940393e+02 3.1073461926507698e+03 1.2617105586942111e+04 5.0159371888782118e+00 3.8586334234918496e+01 3.5757932321790463e+01 1.1331596456877206e+05 -4.5756849183965713e+01 1.0631795282212579e+02 -4.8827726463573794e+02 -1.4003335754912878e+03 -6.4457557564151875e+03 6.1638723291877716e+02 -5.9895359243408041e+02 4.6850549866864924e+02 -2.5476365672672699e+04 -1.9866089935060859e+02 4.0464851517897392e+02 1.6654168179525514e+04 
      </Row>
      <Row Index="34">
        2.7202433207494847e+00 5.4279985457034236e+01 7.4248743356585999e+02 -4.7664150470399180e+00 1.4969138304595824e+00 -1.3763326204658135e+01 -3.9839420718042099e+01 -3.5625823685401912e+01 -3.5987590628793882e+00 3.8233711725208592e+00 -1.9632086815564609e+01 2.3182131584398181e+02 -2.1196474549111768e+00 -5.0537673045018749e-01 -7.4957046913219090e+00 -5.1718614940081142e+00 -2.2847118961941892e+00 -4.2941967735829634e-01 6.0566626648372357e-01 4.7810936331887810e+01 4.2415815064202229e+02 -1.3018796548266862e+00 -9.4084869869083754e-01 4.9815719666630098e+00 2.2687118189529023e+01 -1.3042930607796238e+01 5.3482095543891059e+00 -6.3238421746880515e+00 -2.1266877970505167e+01 -1.4776474662880189e+03 6.8815094157343788e+00 -2.7278692902146027e+00 9.1436199221357608e+00 2.7932065490269508e+01 4.3964904669828172e+01 2.0882832792570731e+00 1.3600447410687373e+00 -4.5829399523331503e+01 2.2789259176782033e+02 7.9835501968174807e-02 3.9660247569865020e-01 -2.9006291193395630e+00 -4.0671579243049854e+00 -1.2522617011601114e+00 -1.7008851488931285e+00 -1.0720594796049419e+01 -8.1426315032517536e+01 1.1021187955231948e+01 -6.3189519090493587e+00 1.2402189324243839e+01 -2.1759367196766586e+01 5.7151897098001584e+01 -6.5499699545864845e+00 -3.7797247731346753e+00 5.4400953393323633e+01 
      </Row>
      <Row Index="35">
        -2.6765491146578082e+01 -1.4690047326573202e+02 1.1870790832324969e+03 -3.3334732399007756e+01 1.5767382962151091e+01 -5.7602465285108018e+01 -1.7804272809721832e+02 3.1988493627450307e+01 -6.3578310768026859e+02 1.0054743147703860e+01 3.1874011540266929e+02 -8.9566406625618171e+01 -3.7819317986982462e+01 -2.2849742693507591e+00 -2.0220662476857111e+01 -5.8361204101696373e+01 -5.9312218918316573e+00 -9.7412003193880111e+01 1.8355716770408495e+01 8.8033629798053923e+01 -4.1280539901404501e+02 2.4620253204308494e+01 -9.5974266771862560e-01 -3.2658471963184788e+01 -4.1106269335566640e+02 -1.6639078952292902e+01 -1.3956703902547179e+02 1.7277604309211725e+01 -1.3466814368300743e+02 1.5520908628151280e+03 6.1411104096700953e+01 -2.0007159178591365e+01 7.4927658595940756e+01 -2.9718165136214338e+00 2.0882832811882643e+00 9.3840764058496916e+02 -4.3101887368422620e+00 -6.6687593031573613e+01 -1.5945804664742250e+03 -1.3662263481211369e+01 -3.1627522642416794e+00 9.0915669109556063e+00 1.2881935121701956e+03 2.3241716149704579e+00 -3.1454464965864439e+01 -2.7812280087624728e+01 2.7468205476536707e+02 -1.4327211957911828e+02 -1.2394451574668317e+02 1.9410240753732161e+01 1.4503188337338516e+01 -4.0841630101938193e+02 3.0653412496150136e+01 -1.0275050624360587e+02 1.4636064045059411e+00 
      </Row>
      <Row Index="36">
        -1.9072044065441003e+00 -4.2482257812843521e+01 -8.1644043264859505e+01 2.8939425311220835e-02 -2.6777901886906781e+00 -5.7277401022993537e+00 -6.3754583887190259e+00 -1.5059953271190152e+00 -6.8799438713679395e+00 7.9293698772745314e-01 2.0593827706686316e+01 -5.7382368773221728e+01 7.0552253176139990e-01 -9.1051486569489826e-01 -9.6417696383021856e-01 1.3229175879067679e+01 -2.9944644524276981e-01 4.8133150781885303e-01 -5.3462706763023666e+00 -5.7815735908525285e+00 2.5415752166461854e+01 2.8338622063139658e+00 3.1209958310629332e-01 -1.2498408477668879e+00 1.1493278276141204e+01 2.7207947113263503e-01 1.7943698840511459e+01 7.0174990110253228e+00 3.1022413526047163e+01 -8.2208636181189263e+01 -2.4134699426564712e+00 2.6130118516791785e+00 5.5597675813741967e+00 1.0161495541954623e+02 1.3600447408125198e+00 -4.3101887357366309e+00 3.2105943034572668e+00 -2.2432710973038006e+01 7.0461696659669400e+01 2.7398907504539088e-01 -2.1290190069742188e-01 -1.4353260599935238e+00 -1.2579050572727917e+02 -2.0657387735328556e-01 -1.0610164395452637e+00 -1.6421048441187605e+01 1.6986929775519144e+01 6.0321000636104545e+00 8.9776789849685357e-01 -9.7218172848757298e+00 -3.3995810246285640e+00 1.8303829808788240e+01 -7.6644255471476175e-01 -7.0735028364306221e+00 -2.3721980333008769e+01 
      </Row>
      <Row Index="37">
        -1.9570463749256930e+01 1.5032023835709701e+04 -6.8445532246160474e+03 2.7696252794409574e+01 7.1290214507049640e+01 1.4883550294811887e+03 -2.0455334622839357e+03 9.1991872591746528e+01 1.2685873799372754e+02 -4.1997572082233496e+01 -5.0265708497422474e+03 1.5617984578473172e+03 2.9502501976133306e+01 -6.4044512976758510e+00 -4.8246958198693385e+01 1.1487022978606494e+03 -5.6204300459522170e+00 8.8048409696316725e+01 2.5886053672256150e+01 5.8733622322087513e+03 -2.0556639086191176e+03 7.2368830477083161e+00 1.4412319754677608e+01 1.0064819331296081e+02 -1.9693110213243269e+03 1.8099757409634434e+00 -4.6507364419908910e+01 3.5993159667272785e+01 -1.5431590957410244e+04 1.0497794261135145e+04 -8.3905650420174766e+01 -1.0730793487033304e+02 -1.7660540234455534e+03 3.1073461998065627e+03 -4.5829399514362215e+01 -6.6687592968844612e+01 -2.2432710985520671e+01 1.4319844408244026e+04 -3.0381073130456980e+02 9.2483441542177776e+00 8.6194033864260753e+00 1.0731925177118811e+01 2.7738949899445206e+03 9.5933104164298211e+00 1.5992103556496545e+01 1.0403080496327573e+02 3.9163897365638436e+03 1.3505508204339833e+01 6.8817581571823055e+01 7.0857980292892805e+01 1.3808700690782339e+03 -3.3048425494050398e+03 6.6850236655280014e+01 3.6529720361316386e+01 -2.2044313150184321e+03 
      </Row>
      <Row Index="38">
        -2.3365012526777619e+01 3.1842781477455884e+02 -6.8180659511239050e+04 -1.7756487115525687e+02 -1.9740071588902927e+02 3.9897531015395526e+02 -4.1020341990324077e+03 -1.2570275297485518e+03 1.7342464654908729e+03 -1.3892147606336394e+02 5.2312820680495520e+02 1.4485820048879636e+04 -2.1217954179312306e+02 2.8748508614813474e+01 1.3234564452695432e+01 -3.0117680297760708e+03 8.3387414859005716e+01 -3.8836574645156333e+02 -2.3647114223571987e+02 -1.5143197989031216e+03 1.5821848992501158e+04 -8.8962669584224727e+01 -5.2208778785055316e+01 -1.7865681992334942e+02 3.4256685414026574e+03 -6.3914628269604059e+01 -1.5343564821411408e+02 2.4691551268903487e+02 4.7625160953116097e+02 -2.8662473497924650e+04 1.0910721705570108e+02 2.1919941974375445e+02 -4.8226554719242145e+01 1.2617105583697063e+04 2.2789259173878170e+02 -1.5945804664010873e+03 7.0461696667445494e+01 -3.0381073019682930e+02 6.0222360120608399e+04 3.0173388607386904e+01 1.2280934563364809e+01 -6.0736323757606669e+00 -1.8576203402563424e+04 -1.5311705109205144e+02 -3.2981480442989209e+01 7.9472011983453825e+01 1.0379987401108190e+03 4.6389490727707262e+03 -3.5794080841360210e+02 -6.5133158950545908e+02 1.0427657697484931e+02 4.4793641473123571e+03 -1.3782250734019426e+03 2.8829399608581991e+02 -2.6229506744699606e+03 
      </Row>
      <Row Index="39">
        -2.8594996134528028e-01 1.7832218510850659e+01 -4.1538220357024166e+01 1.3996424369637144e+00 -5.6337453867386988e-01 2.5540066133492307e+00 -6.1579386845836588e-02 -1.1100721686050896e+00 1.0523066788708443e+01 4.1224904691452036e-01 -1.2090889504716291e+01 7.7982814470902406e-01 1.4243723779678192e+00 -1.6467927692671072e-01 1.0363233958531950e+00 1.0305061748555481e+01 3.7295548258336281e-02 1.4262223113653813e-01 -1.3832170174038078e-01 5.8146051362596447e+00 -2.0168700683242559e+01 9.5822347842755857e-03 -7.9652290388072020e-02 1.1516776162097275e+00 -8.4450898855676222e+00 4.3691215973353031e-01 -1.9665393800974498e+00 3.9579648199612893e-01 -1.8643253710203687e+01 1.2307924253109569e+01 -2.6697344901143483e+00 7.5835771482142988e-01 -3.7862275434253290e+00 5.0159371782322637e+00 7.9835501990317567e-02 -1.3662263481408658e+01 2.7398907506119835e-01 9.2483441529323898e+00 3.0173388610384606e+01 6.5704588796735375e-01 -1.9761199295674728e-02 -2.9529941439026197e-01 1.3954749985256026e+01 -7.2762840432087458e-02 4.2816698278247467e-01 -1.5698016546466707e+00 -6.5060173484565951e+00 1.4365705642370394e+00 3.4343425042657332e+00 -2.3535792673369507e+00 1.2554177896070500e+00 -4.0844509988968269e-01 -1.1102220588087310e+00 3.9412792459203931e+00 4.9374896019265666e+00 
      </Row>
      <Row Index="40">
        -1.4695818580661579e+00 9.9841607614190746e+00 3.0237824086782665e+00 6.1121573749018754e-01 8.0335803881345347e-01 -5.0874854026942207e-01 -2.6139365081611960e+01 1.9218861121019490e-01 3.3728077121824671e+00 -1.2536320959442728e+00 2.2212307234729757e+01 1.5395296497441240e+01 -1.7106630113326960e-02 3.7175086095716076e-01 -1.5872769402881551e-01 -6.9554866481738999e+00 6.7155685941846427e-02 -2.9934377355233560e-01 1.7305540520839560e-01 -2.0760716600790797e+01 1.8948040038681018e+01 9.4759701451831616e-02 2.6921553720262028e-02 8.6972573900325956e-01 5.6058734965193846e+00 -2.0468326095981026e-01 -1.7941362908715885e+00 1.3214842232978898e+00 -1.8981214473486201e+01 -3.0156553389730089e+01 -1.3449649387771361e+00 -1.5694161102604340e+00 8.8404933099478855e-01 3.8586334290019259e+01 3.9660247565168927e-01 -3.1627522633848999e+00 -2.1290190078584548e-01 8.6194033906250596e+00 1.2280934549730546e+01 -1.9761199293012757e-02 5.6185128600789103e-01 1.8361892674685798e+00 -3.8226784604541578e+01 2.9286304203529435e-02 3.9509692805081131e-01 5.8815872652028540e+00 4.0990392087808445e+01 3.3830973978765480e+00 6.6457396359948417e-01 4.5188083332690248e+00 2.9990063050738813e-01 -1.3859905039837727e+01 5.9079077039526107e-01 1.7405196701605083e+00 -2.3519995859987411e+01 
      </Row>
      <Row Index="41">
        -6.9737962650840490e+00 -7.5808051189935739e+01 3.9949720370465076e+02 1.0937685914251876e+00 7.5509657637810275e+00 -2.8157712546724046e+01 -9.0627362144307941e+00 6.4124578450969487e+00 1.2020259365032295e+00 -3.2542067541275026e+00 2.3720537098510317e+02 6.9550586263859387e+01 -5.1873830085298067e-01 1.6932935338648460e+00 -7.8990853866353881e+00 3.6531836795450232e+01 5.4762190889895634e-01 -8.9561464103583805e+00 4.1754715099319650e+00 -2.2370268488400586e+02 -3.8701301166586461e+01 -2.1248223279536269e-01 7.0902728868474052e-01 1.0068269568357472e+01 -9.0882499016969632e+01 -2.4543440172426978e+00 -1.8041741244373476e+01 3.0158404052279635e+00 -2.6598449311740731e+00 -3.6689135626657759e+02 -1.2390267502528012e+00 -1.0895623527943577e+01 3.4497810208046737e+01 3.5757932848526394e+01 -2.9006291191708820e+00 9.0915669171799482e+00 -1.4353260609381098e+00 1.0731925188966501e+01 -6.0736325023663085e+00 -2.9529941431921825e-01 1.8361892672113909e+00 1.7520720639252822e+01 9.2021079783667446e+01 -6.8871663291656088e-02 1.3910484287347846e+00 2.5272507263458039e+01 3.8795716764271214e+02 -7.6025061358015842e+00 -5.2405668546329265e-01 3.3368244661067379e+01 -1.4959823508310871e+01 -2.2167862767836525e+02 2.8205317105850392e+00 9.2023292526558311e+00 -1.5547119842154072e+02 
      </Row>
      <Row Index="42">
        -7.4452263483954226e+01 4.1484811134777483e+03 7.8239896915561127e+04 2.3092117723528770e+02 1.0781298616329913e+02 6.1420709039870928e+02 -4.3643589122117461e+04 -1.8003136684611562e+02 3.4002775858092014e+02 3.7156181781782834e+02 -7.3676580460640844e+03 -8.5296525231120831e+03 3.5704229151072241e+02 2.7158485714922648e+01 -5.9096937256499700e+02 3.4121720407519409e+04 -7.0788349114303742e+01 1.0581511163509929e+02 6.0170803741929012e+02 4.6561638010473253e+03 -1.1947616443206531e+05 3.4591389321572814e+02 -1.3026176065894307e+02 1.2453260552767654e+03 -1.2531430658483499e+05 1.7450428416106024e+02 -2.1091201509159760e+03 -1.6415130133111546e+01 6.2523117665758286e+02 9.5177821819929857e+04 -4.7857620353740276e+02 2.8808091094280144e+01 -1.4397590933108604e+03 1.1331596458424490e+05 -4.0671589883483845e+00 1.2881935156035190e+03 -1.2579050563351439e+02 2.7738950404316511e+03 -1.8576203419231286e+04 1.3954749919103755e+01 -3.8226784232520686e+01 9.2021083258582195e+01 2.4697825723977308e+05 6.0560275930706702e+00 2.7357936638510955e+02 -2.2774703583189494e+03 -9.2233227204596878e+03 -1.1358464585515940e+04 7.8726785579118609e+02 -6.8511030083126258e+01 -1.2634183965765872e+03 1.0867892612893702e+05 -1.5705355383243443e+01 5.7589627177500677e+02 -1.1513001605760264e+05 
      </Row>
      <Row Index="43">
        6.7956772489942519e-01 1.3707926801664138e+01 1.1937995805020601e+02 1.0718945247214733e+00 4.5532306653409721e-01 1.4828362962979365e+00 2.1253437104765037e+01 4.4137156332324912e+00 -4.7183361054355073e+00 -1.4485669939251444e-01 -1.0583058372692831e+01 -3.6881210297723918e+01 6.0699972105051836e-01 7.4474791683822308e-03 1.5970178815269598e-01 8.4624619714619573e+00 -2.1818958408631145e-01 1.8663801476710749e+00 4.5521820276342506e-01 9.5278126190016259e+00 -1.2087373058393418e+01 1.5204937608727637e-01 2.3189690043434774e-01 5.4158626141669974e-01 1.2954767063102119e+01 3.8770400928960908e-01 2.3128706573731344e+00 -9.2328512180348465e-01 -1.0042014658107753e+01 6.9609276205119500e+01 -1.0228140698058699e+00 -6.8753052166408746e-01 -2.0466081102461477e+00 -4.5756849187484356e+01 -1.2522617011295558e+00 2.3241716147781051e+00 -2.0657387734486568e-01 9.5933104151192072e+00 -1.5311705108977134e+02 -7.2762840429134751e-02 2.9286304191048870e-02 -6.8871663452499801e-02 6.0560276254653225e+00 7.2392586226278233e-01 2.7090727736466058e-01 1.3860227054175180e+00 -1.0461497744064001e+01 -7.1491872985968330e+00 1.3024126777919522e+00 1.8067825856148119e+00 9.8259578209304999e-01 1.2182760439258091e+00 4.0374969328142960e+00 -9.6459746899536392e-01 5.9069562509811009e+00 
      </Row>
      <Row Index="44">
        -1.4643130311855441e+00 4.9125933616478513e+01 2.0371581021793031e+02 4.5524513585492814e+00 1.7596513227435377e+00 4.7777854547039034e-01 -9.2650041301492223e+01 -4.9995915874323121e-01 3.4399543663326135e+01 -5.8569921741478725e-01 -3.1539533642810698e+00 -4.1675766437083318e+01 1.7602134994694694e+00 4.0806593030475252e-01 4.6354587987110868e-01 8.7868142419695644e+01 7.3284019382876131e-01 -2.4542424134804475e+00 6.6870315373810802e+00 -2.9781675328981066e+01 -2.3774356364709888e+02 -1.3006640854403677e+00 3.8735285916638029e-01 2.4481834605199548e+00 -9.4884270761385579e+01 2.2414937531312167e+00 -2.5804214145755605e+01 -2.8922392340887688e+00 -2.4875867039294874e+01 3.6671671736705321e+01 -6.5520227909824627e+00 -2.2972252677342242e+00 -1.4047392511726291e+00 1.0631795284751611e+02 -1.7008851486366749e+00 -3.1454464966422996e+01 -1.0610164396231376e+00 1.5992103545925040e+01 -3.2981480445867305e+01 4.2816698280340698e-01 3.9509692794728501e-01 1.3910484278515649e+00 2.7357936620241691e+02 2.7090727738413584e-01 8.8287407873416175e+00 1.4035051577495146e+01 1.2728597228047668e+01 -1.0093206906401429e+01 6.9024971071352086e+00 8.0238400971867669e+00 3.7539039916596750e-01 -4.5298780934150351e+01 -4.5558128023158279e-01 1.8292105947745835e+01 1.6998887219666095e+01 
      </Row>
      <Row Index="45">
        3.5020991610441499e+01 4.2955976416186991e+02 6.0992257469465733e+02 -2.6993323735968485e+01 3.5735182050484212e+01 -1.4067597755046318e+01 -4.8860403484478763e+00 3.1531153352175313e+01 9.0883486669357396e+01 -2.6829362804696391e+01 7.1938015403403512e+01 3.7425309018460911e+02 -3.5784353246211296e+01 7.5288238705649739e+00 1.4458221204033325e+01 -2.5462676387327647e+02 5.3423682447369858e-01 -4.9718122748513693e+01 5.6509266894792880e+01 -4.6535750017833529e+01 4.6643873712260898e+02 -5.3695460165560675e+01 8.5967641952695018e-01 -2.0752581879206502e+01 1.4571894514281996e+03 -1.2561701238320429e+00 -1.0742859974492914e+02 -1.0099551360039179e+02 -5.4904689980269063e+02 -1.3827964403636690e+03 7.3714826906242564e+01 -4.6846045213317240e+01 5.0304674592865410e+01 -4.8827726441359653e+02 -1.0720594799185108e+01 -2.7812280075028504e+01 -1.6421048441153335e+01 1.0403080510770513e+02 7.9472011874383497e+01 -1.5698016548309648e+00 5.8815872662138551e+00 2.5272507274019709e+01 -2.2774703597663720e+03 1.3860227054068355e+00 1.4035051578316040e+01 3.3371908863817873e+02 1.2839493499578543e+02 1.0215953899090195e+02 -7.6157268072209106e+01 1.4989865336092825e+02 3.6294586469990676e+01 4.7423349417549184e+02 2.8265318569675458e+01 5.9579361195327955e+01 -4.0436037363118533e+02 
      </Row>
      <Row Index="46">
        -2.9142916184459784e+02 -6.9284924450039625e+03 6.2240596884117040e+03 4.9042750798868951e+01 8.2584609585379084e+01 -7.6033944477276896e+02 -5.3481906516282390e+02 3.0061817385005369e+01 -1.5153907777210787e+02 -2.0120203642728665e+01 1.1916012144314294e+04 -1.5393775646979707e+03 -2.9507660073495789e+01 4.0918657283225237e+01 -1.3449999557906759e+02 -1.3007022082468529e+03 7.2706491117045919e+00 -1.9979131348103897e+02 -4.8897484331078424e+01 -9.6267964322691714e+03 8.0353806725860532e+03 -5.8030646334159526e+00 -2.2289407149140651e+01 4.2693518460834220e+01 3.4313791853835487e+03 -3.6225473827573552e+01 -2.1735255689156281e+02 3.2736812428832110e+02 1.9281516009845109e+03 -1.7791148319173648e+04 -5.3294258425762564e+01 -1.2177449197673961e+02 1.0408090159772048e+03 -1.4003335432879610e+03 -8.1426315049246327e+01 2.7468205523882978e+02 1.6986929721372292e+01 3.9163897386085705e+03 1.0379987321645604e+03 -6.5060173460266455e+00 4.0990392082116188e+01 3.8795716773581080e+02 -9.2233229300720177e+03 -1.0461497735580524e+01 1.2728597286130874e+01 1.2839493439443939e+02 2.3480829345880426e+04 3.4276485563592996e+02 -6.1722958796222493e+01 5.1435200304098339e+02 -2.7398959828767471e+02 -9.8018991035602412e+03 -1.0576378684558738e+02 1.2068374129827141e+02 -1.2695780702130029e+04 
      </Row>
      <Row Index="47">
        1.0568717594266596e+01 2.0084722835909452e+02 -1.3506428660457828e+04 -2.5789314534517025e+01 -4.8281980934239371e+01 6.3804243571706067e+01 1.1484074463761056e+03 -5.9969232704881641e+01 8.2379477171290930e+01 -1.9159451177187673e+01 2.1965277825726474e+02 2.5441667520890364e+03 -3.3652587021291609e+01 4.6496393611207756e+00 3.1940126791378017e+01 -1.5692798754766393e+03 3.9955317156508450e+00 -1.0986679323528092e+01 -2.2694100538957169e+01 -2.1109337068826531e+02 9.0486582541052667e+03 -3.4363465172305425e+01 -5.3809819228315749e+00 -3.6722785769146704e+01 7.9191020386842320e+03 -1.5951550263633170e+01 8.5433863364728936e+01 -3.5877036988894790e+00 -2.7439874428887941e+02 -6.1967810993216117e+03 4.6015079376142467e+01 4.6087838544494943e+01 -4.1972331729965994e+01 -6.4457557568090824e+03 1.1021187943828515e+01 -1.4327211954292511e+02 6.0321000658477715e+00 1.3505508688764063e+01 4.6389490726385593e+03 1.4365705632950514e+00 3.3830974024892928e+00 -7.6025060914541989e+00 -1.1358464583198011e+04 -7.1491872992027510e+00 -1.0093206904678613e+01 1.0215953901392555e+02 3.4276485835697474e+02 1.2843942707294457e+03 -6.5814601763709021e+01 -1.2945223603345337e+02 9.1670695908092071e+01 2.0326203654151527e+03 -8.9162792352898649e+01 -5.9863059454204359e+00 -1.1780528913685680e+03 
      </Row>
      <Row Index="48">
        -2.0585285995608661e+01 9.6444385896650104e+01 8.2257470460895024e+02 4.5277537276380762e+01 -3.3856164192315590e+00 1.8251535407206688e+01 -2.1984603405637489e+02 8.3063130149329290e+00 8.9712890717317634e+01 -6.3603032056240538e+00 -1.1521869789957694e+02 7.4352506065371500e+01 4.3684769555975933e+01 -2.0940452623179615e-01 4.2953238932069375e+00 -9.9574122955469289e+00 -1.4402001061518710e+00 1.4768444895372127e+01 -2.1502229331041285e+01 -1.7323701852998873e+01 -2.2943278969229408e+02 4.0786616528534353e+01 6.6209912375444180e-01 2.4308213010465700e+01 -7.0356241994613299e+02 6.1073062190271887e+00 -2.6789434382264982e+01 4.9946901513377412e+01 -2.5665441849343051e+01 -7.7293186200067465e+00 -9.9961013033912735e+01 4.2307304021774357e+00 -3.9417746154235260e+01 6.1638723283314664e+02 -6.3189519081432755e+00 -1.2394451575117270e+02 8.9776789850360750e-01 6.8817581529962936e+01 -3.5794080837437787e+02 3.4343425043266715e+00 6.6457396329892049e-01 -5.2405668879869960e-01 7.8726785618167753e+02 1.3024126777979348e+00 6.9024971068352583e+00 -7.6157268071530268e+01 -6.1722958981136358e+01 -6.5814601753189109e+01 1.0490583379235035e+02 -1.6245213569809000e+01 -5.2392982104854022e+00 -1.4560941410659143e+02 7.5961293640085241e+00 3.8338075070964081e+01 1.1929324097147871e+02 
      </Row>
      <Row Index="49">
        2.8438311939081777e+00 -9.0862888768876900e+01 5.5869185108967531e+03 1.3106065076262006e+01 9.7243429986420978e+01 -3.1614955487015628e+01 4.5875229136789432e+02 6.0449020021549575e+00 2.2868377400229756e-01 -1.9742303297122358e+01 2.9846236378189639e+02 2.3970725368495880e+02 -1.0953837279385120e+01 8.1952911338650374e+00 -1.4899810104384544e+01 8.9538798702819150e+01 -1.0190099900176210e+00 8.3383222061690692e+00 2.0391197984822352e+01 -2.8389738859512681e+02 2.7696585129564903e+02 -1.3002216787113440e+01 1.7081809905848857e+01 2.5253325263825968e+01 8.3505952171048165e+01 -4.3293824293811074e+00 -2.9492219041608035e+01 -2.6326770338587476e+01 2.1554662801118099e+00 -5.2893961476154182e+03 -8.0342770598187201e+00 -1.2488217416900707e+02 4.9067117407550654e+01 -5.9895359173837539e+02 1.2402189324301458e+01 1.9410240761253313e+01 -9.7218172862495891e+00 7.0857980304115216e+01 -6.5133158971810462e+02 -2.3535792672391045e+00 4.5188083328147712e+00 3.3368244659869021e+01 -6.8511034727962979e+01 1.8067825859696054e+00 8.0238400982987272e+00 1.4989865334773859e+02 5.1435200284442317e+02 -1.2945223609744531e+02 -1.6245213565045962e+01 3.1240577784762610e+02 -4.2612749867015751e+01 -1.8945171316355203e+02 1.6713239282988642e+01 1.7437939021304516e+01 -2.2534223308007620e+02 
      </Row>
      <Row Index="50">
        -7.0159527894293658e+00 2.1861845094980195e+03 -2.1224502973104313e+03 3.5157557820680680e+00 -5.2736797405004143e+00 2.6975732156422492e+02 -6.8284313062256444e+02 1.0661491381416926e+01 2.5616055846600370e+00 -7.0980439444637531e+00 -8.0025469496710343e+02 -3.3725385007525702e+01 -1.6393509065119187e+00 -2.5000985281916168e-03 5.6992214627501660e+01 -2.7777618601942248e+02 7.8979904007721802e-01 4.8312897195393196e+00 3.3020543019922428e+00 9.3332012825253037e+02 8.7677192724188819e+02 -7.2914998514907179e+00 -5.8518447680555754e+00 -4.6976574143382770e+01 7.9026328060791934e+02 4.1977369816264209e+00 -5.9314728198387137e+00 7.1452193944162312e+00 -2.4044247599049922e+03 1.1672713336358042e+03 -4.8706131443472076e+00 1.0029592886106744e+01 -3.1181086685252109e+02 4.6850549855305110e+02 -2.1759367197966647e+01 1.4503188339954846e+01 -3.3995810240755548e+00 1.3808700691517859e+03 1.0427657707208891e+02 1.2554177894849925e+00 2.9990063127189936e-01 -1.4959823502444854e+01 -1.2634183964614390e+03 9.8259578183018037e-01 3.7539039907742217e-01 3.6294586475583202e+01 -2.7398959792255596e+02 9.1670695935274637e+01 -5.2392982133662747e+00 -4.2612749861722868e+01 3.1659750154048572e+02 3.2030268387713380e+02 -6.8258829674677290e+00 5.7196250368736976e+00 -2.4961664535662717e+02 
      </Row>
      <Row Index="51">
        1.8716997273581455e+02 1.6124938445579867e+03 -1.8234808635754336e+04 -5.8327556411098321e+01 -5.1263936472874690e+01 1.4536487019763848e+02 1.2335549361304556e+04 4.1272944739588198e+00 5.2078411609775671e+01 -7.2596281131649590e+01 -4.0384258808783447e+03 3.0542969009671679e+03 -6.7216416688296974e+01 -2.5589640700657938e+01 2.0256205288329690e+02 -8.5155968561940535e+03 4.2841676129871233e+00 4.6236428678265135e+01 -6.9094988341597841e+01 3.1893618681602757e+03 1.7091628138694850e+04 -6.8654398956991955e+01 4.7000617239208950e+01 -2.5373528413720319e+02 2.8072363088124341e+04 -1.5807927377846484e+01 4.8416466839875358e+02 -2.0624745133891045e+02 1.5856357191912946e+02 -9.8558144194677643e+03 1.1021023092116779e+02 3.3650936344121810e+01 -1.3857371136021470e+02 -2.5476365608467841e+04 5.7151892696661101e+01 -4.0841628661363706e+02 1.8303830208577175e+01 -3.3048423425722353e+03 4.4793640743319993e+03 -4.0844537802705183e-01 -1.3859903499097912e+01 -2.2167861314946418e+02 1.0867892607501017e+05 1.2182759115195811e+00 -4.5298780164878309e+01 4.7423349997561166e+02 -9.8018982281159624e+03 2.0326203550794062e+03 -1.4560941586888640e+02 -1.8945169376124039e+02 3.2030268237337788e+02 4.8975502328380593e+05 4.7418879709647584e+01 -1.4526828746705758e+02 -4.7715767913537758e+05 
      </Row>
      <Row Index="52">
        8.2478908865759433e+00 1.6250010085902184e+02 1.3376100582872430e+03 2.0388367149541815e+00 2.5409670915935902e+00 -2.1656344978504048e+01 1.7316944044846588e+02 4.6006501258324626e+01 -3.9865915028041179e+01 -3.3755667913586413e+00 -7.9012300934009815e+01 -2.5214092652935580e+02 4.1769234689138690e+00 -6.8457022590735772e-01 -6.4905024026481035e+00 1.8698218444720837e+01 -3.6337064568147897e+00 9.7814441541045163e+00 4.0964583645783987e+00 1.0791792937814324e+02 -4.2684389886537173e+02 4.2941713442428515e+00 2.6986500207260566e+00 7.5953821928506509e+00 4.6398399092850468e+01 8.5275135118988421e-01 1.7335258318123124e+01 -1.2258373391094336e+01 -1.4055413034299866e+02 1.0282268764409880e+03 -2.9012856896645056e+00 -6.3994534049047846e+00 1.2310691714862216e+01 -1.9866089936331767e+02 -6.5499699548030099e+00 3.0653412495982231e+01 -7.6644255460748767e-01 6.6850236666305150e+01 -1.3782250733895642e+03 -1.1102220588057787e+00 5.9079077043988026e-01 2.8205317106454073e+00 -1.5705355152863103e+01 4.0374969327987635e+00 -4.5558128031872092e-01 2.8265318570013260e+01 -1.0576378683109779e+02 -8.9162792349106766e+01 7.5961293638905465e+00 1.6713239281449479e+01 -6.8258829651898525e+00 4.7418880658676414e+01 5.0565614082657795e+01 -1.2921939697435100e+01 2.2762820852310924e+01 
      </Row>
      <Row Index="53">
        -9.7963719292894318e+00 1.1633143384584896e+02 3.3299436027892318e+02 2.2000973700140257e+01 4.6256217327436717e+00 8.7200975793535402e+00 -3.3859321191004966e+02 -1.0788475485983808e+01 1.5439616116990791e+02 -4.9512876186444412e+00 1.8765524104974318e+01 1.8655017271744578e+02 1.2708498193605543e+01 8.5402263499806452e-01 7.3752096738146733e+00 1.4337627990733306e+01 1.4285455460063545e+00 -4.4525201720992392e+01 1.9156392848918021e+01 -1.5909179312483505e+02 -4.5311776055864215e+02 2.6934131069156346e+00 -4.1319257169738917e+00 7.1414068216788600e+00 -3.1511948287640985e+02 4.9921656323518784e+00 -1.6509512882427290e+02 -3.6229191265467393e+00 -1.1264456913663172e+02 -3.0819537323350494e+02 -3.7346969815268402e+01 -2.2613395996620675e+00 -7.4046434894653190e+00 4.0464851531738105e+02 -3.7797247724929108e+00 -1.0275050624401202e+02 -7.0735028367912216e+00 3.6529720337639731e+01 2.8829399605786062e+02 3.9412792459811019e+00 1.7405196698732894e+00 9.2023292505830874e+00 5.7589627068277787e+02 -9.6459746891797338e-01 1.8292105947900719e+01 5.9579361191983189e+01 1.2068374114633809e+02 -5.9863059558563165e+00 3.8338075072062040e+01 1.7437939019078755e+01 5.7196250360246870e+00 -1.4526829193680737e+02 -1.2921939697261163e+01 9.6766601671087258e+01 -1.0446923484939056e+01 
      </Row>
      <Row Index="54">
        1.2898914082752736e+02 2.9223454181564562e+03 4.9163879699803929e+03 -1.5633388145580597e+01 -1.6507617791504448e+01 3.5044525262652166e+02 -8.2499196374060666e+03 -6.3123834044092796e+01 1.0448250528506465e+02 6.5117137201047044e+01 -6.4982630947283569e+03 4.5536187092231313e+02 5.4022706296264971e+01 -1.1312842465678848e+01 -7.1198971926065326e+01 7.5624753116483580e+03 -9.2470050657761504e+00 1.3402314491604415e+02 8.4053305605064082e+01 5.0923986516556333e+03 -1.4333017632188645e+04 3.5315105149529394e+01 -9.5144107295248990e+00 1.7423630127828633e+02 -2.1021659941849946e+04 3.0954692830316208e+01 -1.1105036576950170e+02 -1.5060984090471928e+02 1.6986198618448978e+02 1.5140291290955873e+04 1.7167044108165390e+00 5.0901446987988223e+01 -5.3749797891287528e+02 1.6654168083476830e+04 5.4400957791270358e+01 1.4635915935558055e+00 -2.3721980677053264e+01 -2.2044315230700004e+03 -2.6229505940753816e+03 4.9374898763060884e+00 -2.3519997388517307e+01 -1.5547121297742035e+02 -1.1513001579539712e+05 5.9069563745783755e+00 1.6998886396384027e+01 -4.0436037881153993e+02 -1.2695781573635479e+04 -1.1780528784052169e+03 1.1929324254020104e+02 -2.2534225258470136e+02 -2.4961664352243460e+02 -4.7715767826546787e+05 2.2762821813744466e+01 -1.0446928087856469e+01 4.8784200941424514e+05 
      </Row>
    </InverseHessian>
  </Weights>
</MethodSetup>
