<?xml version="1.0"?>
<MethodSetup Method="DL::DNN_CPU">
  <GeneralInfo>
    <Info name="TMVA Release" value="4.2.1 [262657]"/>
    <Info name="ROOT Release" value="6.32/04 [401412]"/>
    <Info name="Creator" value="nsonmez"/>
    <Info name="Date" value="Tue Sep 17 21:48:48 2024"/>
    <Info name="Host" value="Darwin Sonoma-arm64.local 23.4.0 Darwin Kernel Version 23.4.0: Fri Mar 15 00:10:50 PDT 2024; root:xnu-10063.101.17~1/RELEASE_ARM64_VMAPPLE arm64"/>
    <Info name="Dir" value="/Users/nsonmez/root_install/tutorials/tmva"/>
    <Info name="Training events" value="2000"/>
    <Info name="TrainingTime" value="2.50019097e+00"/>
    <Info name="AnalysisType" value="Classification"/>
  </GeneralInfo>
  <Options>
    <Option name="V" modified="Yes">True</Option>
    <Option name="VerbosityLevel" modified="No">Verbose</Option>
    <Option name="VarTransform" modified="Yes">N</Option>
    <Option name="H" modified="Yes">False</Option>
    <Option name="CreateMVAPdfs" modified="No">False</Option>
    <Option name="IgnoreNegWeightsInTraining" modified="No">False</Option>
    <Option name="InputLayout" modified="No">0|0|0</Option>
    <Option name="BatchLayout" modified="No">0|0|0</Option>
    <Option name="Layout" modified="Yes">TANH|128,TANH|128,TANH|128,LINEAR</Option>
    <Option name="ErrorStrategy" modified="Yes">CROSSENTROPY</Option>
    <Option name="WeightInitialization" modified="Yes">XAVIERUNIFORM</Option>
    <Option name="RandomSeed" modified="No">0</Option>
    <Option name="ValidationSize" modified="No">20%</Option>
    <Option name="Architecture" modified="Yes">CPU</Option>
    <Option name="TrainingStrategy" modified="Yes">LearningRate=1e-2,Momentum=0.9,ConvergenceSteps=20,BatchSize=100,TestRepetitions=1,WeightDecay=1e-4,Regularization=None,DropConfig=0.0+0.5+0.5+0.5</Option>
  </Options>
  <Variables NVar="10">
    <Variable VarIndex="0" Expression="Pt_lepton" Label="Pt_lepton" Title="Pt_lepton" Unit="units" Internal="Pt_lepton" Type="F" Min="2.00186977e+01" Max="2.58227112e+02"/>
    <Variable VarIndex="1" Expression="MET" Label="MET" Title="MET" Unit="units" Internal="MET" Type="F" Min="2.05865622e+00" Max="3.25863586e+02"/>
    <Variable VarIndex="2" Expression="Mt_lv" Label="Mt_lv" Title="Mt_lv" Unit="units" Internal="Mt_lv" Type="F" Min="1.00068569e+01" Max="2.81166656e+02"/>
    <Variable VarIndex="3" Expression="Mi_lvb" Label="Mi_lvb" Title="Mi_lvb" Unit="units" Internal="Mi_lvb" Type="F" Min="1.00000000e+01" Max="3.94357861e+03"/>
    <Variable VarIndex="4" Expression="N_jets" Label="N_jets" Title="N_jets" Unit="units" Internal="N_jets" Type="F" Min="2.00000000e+00" Max="8.00000000e+00"/>
    <Variable VarIndex="5" Expression="R_lb" Label="R_lb" Title="R_lb" Unit="units" Internal="R_lb" Type="F" Min="1.10859215e-01" Max="7.29909754e+00"/>
    <Variable VarIndex="6" Expression="Eta_lb" Label="Eta_lb" Title="Eta_lb" Unit="units" Internal="Eta_lb" Type="F" Min="1.15545094e-03" Max="7.03606510e+00"/>
    <Variable VarIndex="7" Expression="alpha_t" Label="alpha_t" Title="alpha_t" Unit="units" Internal="alpha_t" Type="F" Min="1.65809561e-02" Max="8.07512283e+00"/>
    <Variable VarIndex="8" Expression="jet1Pt" Label="jet1Pt" Title="jet1Pt" Unit="units" Internal="jet1Pt" Type="F" Min="2.00935879e+01" Max="5.08524353e+02"/>
    <Variable VarIndex="9" Expression="jet1Phi" Label="jet1Phi" Title="jet1Phi" Unit="units" Internal="jet1Phi" Type="F" Min="-3.13423395e+00" Max="3.13860917e+00"/>
  </Variables>
  <Spectators NSpec="0"/>
  <Classes NClass="2">
    <Class Name="Signal" Index="0"/>
    <Class Name="Background" Index="1"/>
  </Classes>
  <Transformations NTransformations="1">
    <Transform Name="Normalize">
      <Selection>
        <Input NInputs="10">
          <Input Type="Variable" Label="Pt_lepton" Expression="Pt_lepton"/>
          <Input Type="Variable" Label="MET" Expression="MET"/>
          <Input Type="Variable" Label="Mt_lv" Expression="Mt_lv"/>
          <Input Type="Variable" Label="Mi_lvb" Expression="Mi_lvb"/>
          <Input Type="Variable" Label="N_jets" Expression="N_jets"/>
          <Input Type="Variable" Label="R_lb" Expression="R_lb"/>
          <Input Type="Variable" Label="Eta_lb" Expression="Eta_lb"/>
          <Input Type="Variable" Label="alpha_t" Expression="alpha_t"/>
          <Input Type="Variable" Label="jet1Pt" Expression="jet1Pt"/>
          <Input Type="Variable" Label="jet1Phi" Expression="jet1Phi"/>
        </Input>
        <Output NOutputs="10">
          <Output Type="Variable" Label="Pt_lepton" Expression="Pt_lepton"/>
          <Output Type="Variable" Label="MET" Expression="MET"/>
          <Output Type="Variable" Label="Mt_lv" Expression="Mt_lv"/>
          <Output Type="Variable" Label="Mi_lvb" Expression="Mi_lvb"/>
          <Output Type="Variable" Label="N_jets" Expression="N_jets"/>
          <Output Type="Variable" Label="R_lb" Expression="R_lb"/>
          <Output Type="Variable" Label="Eta_lb" Expression="Eta_lb"/>
          <Output Type="Variable" Label="alpha_t" Expression="alpha_t"/>
          <Output Type="Variable" Label="jet1Pt" Expression="jet1Pt"/>
          <Output Type="Variable" Label="jet1Phi" Expression="jet1Phi"/>
        </Output>
      </Selection>
      <Class ClassIndex="0">
        <Ranges>
          <Range Index="0" Min="2.0023767471313477e+01" Max="2.3442610168457031e+02"/>
          <Range Index="1" Min="2.0586562156677246e+00" Max="3.2586358642578125e+02"/>
          <Range Index="2" Min="1.0006856918334961e+01" Max="2.8116665649414062e+02"/>
          <Range Index="3" Min="1.0000000000000000e+01" Max="3.9435786132812500e+03"/>
          <Range Index="4" Min="2.0000000000000000e+00" Max="8.0000000000000000e+00"/>
          <Range Index="5" Min="1.1085921525955200e-01" Max="7.2990975379943848e+00"/>
          <Range Index="6" Min="1.1554509401321411e-03" Max="5.4659023284912109e+00"/>
          <Range Index="7" Min="1.6580956056714058e-02" Max="4.5929446220397949e+00"/>
          <Range Index="8" Min="2.0163341522216797e+01" Max="5.0852435302734375e+02"/>
          <Range Index="9" Min="-3.1342339515686035e+00" Max="3.1386091709136963e+00"/>
        </Ranges>
      </Class>
      <Class ClassIndex="1">
        <Ranges>
          <Range Index="0" Min="2.0018697738647461e+01" Max="2.5822711181640625e+02"/>
          <Range Index="1" Min="2.4954614639282227e+00" Max="2.1944052124023438e+02"/>
          <Range Index="2" Min="1.0316617965698242e+01" Max="2.3346481323242188e+02"/>
          <Range Index="3" Min="1.0000000000000000e+01" Max="2.9062050781250000e+03"/>
          <Range Index="4" Min="3.0000000000000000e+00" Max="8.0000000000000000e+00"/>
          <Range Index="5" Min="1.8359129130840302e-01" Max="7.0399141311645508e+00"/>
          <Range Index="6" Min="1.1929273605346680e-03" Max="7.0360651016235352e+00"/>
          <Range Index="7" Min="2.3622538894414902e-02" Max="8.0751228332519531e+00"/>
          <Range Index="8" Min="2.0093587875366211e+01" Max="4.3539941406250000e+02"/>
          <Range Index="9" Min="-3.1264460086822510e+00" Max="3.1302545070648193e+00"/>
        </Ranges>
      </Class>
      <Class ClassIndex="2">
        <Ranges>
          <Range Index="0" Min="2.0018697738647461e+01" Max="2.5822711181640625e+02"/>
          <Range Index="1" Min="2.0586562156677246e+00" Max="3.2586358642578125e+02"/>
          <Range Index="2" Min="1.0006856918334961e+01" Max="2.8116665649414062e+02"/>
          <Range Index="3" Min="1.0000000000000000e+01" Max="3.9435786132812500e+03"/>
          <Range Index="4" Min="2.0000000000000000e+00" Max="8.0000000000000000e+00"/>
          <Range Index="5" Min="1.1085921525955200e-01" Max="7.2990975379943848e+00"/>
          <Range Index="6" Min="1.1554509401321411e-03" Max="7.0360651016235352e+00"/>
          <Range Index="7" Min="1.6580956056714058e-02" Max="8.0751228332519531e+00"/>
          <Range Index="8" Min="2.0093587875366211e+01" Max="5.0852435302734375e+02"/>
          <Range Index="9" Min="-3.1342339515686035e+00" Max="3.1386091709136963e+00"/>
        </Ranges>
      </Class>
    </Transform>
  </Transformations>
  <MVAPdfs/>
  <Weights NetDepth="4" InputDepth="1" InputHeight="1" InputWidth="10" BatchSize="1" BatchDepth="1" BatchHeight="100" BatchWidth="10" LossFunction="C" Initialization="F" Regularization="0" OutputFunction="S" WeightDecay="9.9999997473787516e-05">
    <DenseLayer Width="128" ActivationFunction="3">
      <Weights Rows="128" Columns="10">
        1.732937e-01  -8.153159e-02  1.768669e-01  -6.248878e-02  3.609662e-01  1.644502e-02  -1.677834e-01  1.571281e-01  -1.880899e-01  -1.019831e-01  -5.915632e-02  2.378777e-01  3.803529e-02  4.994239e-02  4.816207e-01  -1.931306e-01  -2.794494e-01  4.708504e-02  1.281212e-01  -2.067797e-01  2.054230e-01  -2.000986e-01  5.197738e-01  -1.970823e-01  -6.694874e-01  8.152565e-02  -3.018564e-02  -1.509689e-01  -1.311265e-01  2.061523e-01  1.005235e-02  -1.013591e-01  1.827126e-01  6.338192e-02  -2.264035e-01  -4.655898e-02  8.824090e-02  -2.587583e-01  1.004603e-01  1.567862e-01  3.027274e-01  -2.508942e-01  1.284508e-01  -6.880507e-02  -8.865701e-02  3.551559e-01  -4.994064e-02  -1.027163e-01  2.877306e-01  -1.095592e-01  1.480130e-02  2.172989e-01  3.476752e-02  -2.431408e-01  2.762051e-01  -1.603500e-01  -2.453564e-01  6.243487e-02  -2.204425e-01  4.204687e-02  -4.357125e-01  6.234429e-02  -4.891264e-01  2.813206e-01  4.887011e-01  1.087819e-01  1.845846e-01  2.135966e-01  8.830869e-02  -2.253185e-02  2.984755e-02  -3.458646e-01  -1.466307e-01  1.876492e-01  -2.791637e-01  4.095324e-01  2.406505e-01  -2.272650e-01  3.549035e-02  3.942972e-03  -1.761880e-01  4.178764e-02  -1.831117e-01  1.534975e-01  2.530083e-01  1.453383e-02  -9.545440e-02  1.313705e-01  -1.097848e-01  -3.052639e-02  4.222528e-01  -2.855769e-01  5.189582e-01  -4.839776e-03  3.383465e-01  2.859841e-01  3.393335e-01  -3.574800e-01  2.715857e-01  1.842958e-01  -3.308063e-02  -1.255798e-01  7.249177e-02  2.282417e-01  7.200551e-01  6.352266e-02  -8.447395e-02  7.945556e-02  -2.333556e-02  -2.513228e-02  -7.902202e-02  -2.202719e-01  -3.057358e-01  1.925329e-01  1.947409e-01  1.748417e-01  2.844622e-01  5.180480e-02  1.826879e-01  5.261687e-02  3.929936e-01  -1.823511e-01  4.173147e-01  -1.027080e-01  -5.404173e-01  -1.596321e-01  -2.573722e-01  -8.984818e-02  -1.587656e-01  -1.585889e-02  4.114152e-02  -7.144385e-02  1.509036e-01  -4.364792e-02  2.986692e-01  -3.915038e-01  -3.916363e-02  -1.390196e-01  -3.237472e-01  -1.409020e-01  -2.411595e-01  2.255805e-01  -2.369722e-01  -5.460000e-02  5.951465e-01  -3.830941e-02  -1.360926e-01  2.771788e-01  1.497182e-01  6.709415e-02  -4.882158e-01  4.694597e-02  -3.761082e-01  2.034036e-01  -4.939464e-01  -2.375495e-01  1.185942e-01  -3.931786e-02  7.448307e-03  -4.898788e-02  -1.273266e-01  -1.537334e-01  -4.450453e-01  3.513544e-01  5.926362e-01  6.397867e-02  -1.317299e-01  3.505138e-01  -1.477934e-01  -1.479982e-01  5.042147e-02  -1.108107e-01  4.633287e-02  -2.797934e-03  -5.953563e-01  -2.728389e-02  1.148295e-01  -5.891765e-02  -4.870603e-02  -9.809576e-02  -2.466659e-01  -9.699189e-02  -2.734878e-01  1.538802e-01  2.419043e-01  -6.406920e-02  7.291079e-02  5.320890e-02  -2.864465e-01  4.048003e-02  -1.429754e-01  -1.526428e-01  6.268729e-02  1.363491e-01  -1.769280e-01  1.510632e-01  2.756356e-01  -2.354731e-01  -1.879661e-01  1.235992e-01  -1.513536e-01  2.211817e-01  6.328586e-02  1.219119e-01  1.992870e-01  3.261210e-02  -2.467735e-01  2.511473e-01  -2.412041e-01  7.598189e-02  2.386629e-01  -2.079244e-01  3.472707e-01  -2.889855e-02  -3.702337e-01  5.429844e-02  3.380516e-02  -3.205428e-01  -3.994521e-02  1.757525e-01  -5.473277e-02  -2.329364e-01  3.684688e-01  -1.498736e-01  -1.378761e-01  2.522871e-01  1.219245e-01  6.516031e-02  1.498469e-01  -7.683954e-02  1.033690e-01  3.381740e-02  2.886991e-02  -7.531596e-02  2.898277e-01  -4.134405e-01  -2.699488e-01  6.132532e-02  1.285592e-01  -8.915238e-02  -3.572468e-01  1.478340e-01  -5.634985e-01  1.676310e-02  3.458043e-02  -3.603882e-01  1.081198e-01  2.119640e-01  -1.748721e-02  1.895792e-01  -1.455990e-01  -6.607313e-02  -4.594604e-01  2.107005e-01  -7.694535e-02  -3.431797e-01  4.050803e-02  5.255271e-02  -3.514351e-01  -1.548170e-01  -2.597845e-01  2.747550e-01  -1.134770e-01  -6.822810e-02  7.054162e-01  -2.061080e-01  1.511298e-01  1.159547e-01  2.454129e-02  6.245597e-02  -1.051181e-01  -1.486604e-01  -1.180717e-02  -1.756248e-01  -7.558007e-02  2.403638e-01  2.310931e-01  -2.041523e-01  -1.561333e-02  -9.218501e-03  -2.693293e-01  -1.573599e-01  9.332354e-02  1.479854e-02  -9.416144e-02  3.299179e-01  1.998782e-01  -6.243026e-02  2.534424e-01  2.510738e-01  -1.544997e-01  1.896785e-01  -2.297477e-01  3.938607e-02  4.702093e-01  -3.341783e-02  2.804481e-02  1.302223e-01  -6.529415e-02  2.131864e-01  -1.176918e-01  1.501656e-01  1.665251e-02  -3.131611e-01  -1.936513e-01  -3.996178e-01  -5.772577e-02  1.342109e-01  2.379969e-01  -1.951234e-01  -1.797429e-01  1.180031e-01  -5.780093e-02  1.420237e-02  5.929022e-01  3.256630e-01  2.811064e-01  -9.297793e-02  2.163060e-02  9.080346e-02  7.861925e-02  -2.044325e-01  4.776486e-01  -2.832293e-01  -6.592447e-01  -2.700489e-01  -9.795511e-02  -2.600589e-02  1.411120e-01  -1.221830e-01  1.319670e-01  1.894173e-01  6.226597e-02  -1.092388e-01  1.367095e-01  2.100514e-01  2.936066e-01  -1.431132e-01  3.480168e-01  5.011968e-02  -1.373381e-01  2.239276e-01  -4.140067e-01  -5.691421e-02  6.370009e-01  7.369314e-04  -6.385003e-02  2.623559e-01  4.334913e-02  3.385540e-02  4.558152e-01  2.621451e-02  5.239931e-01  -1.441803e-01  -2.560191e-01  1.272311e-01  5.803425e-02  -3.606046e-01  2.735720e-02  9.842031e-04  5.327699e-01  -6.256032e-02  5.635470e-01  -1.515116e-01  9.934109e-02  1.545138e-01  1.824952e-02  -2.757670e-01  -1.524844e-01  -1.393874e-02  -1.074024e-02  1.378261e-01  4.060170e-01  -2.317006e-01  -4.445534e-01  7.583364e-02  2.148445e-01  -1.255498e-01  -1.432775e-01  1.605907e-02  1.376972e-01  8.660115e-02  2.098436e-01  -2.835487e-01  -4.774832e-01  6.384297e-02  2.641397e-01  -1.702163e-01  -9.228983e-03  1.829704e-01  1.312537e-01  2.528708e-01  2.235433e-01  2.174930e-01  2.463900e-02  -6.068261e-02  1.204090e-02  3.302566e-01  9.644787e-02  -2.264553e-02  -5.658451e-02  2.663046e-02  -1.227515e-01  9.779236e-02  -5.396940e-01  -4.348912e-01  -3.698775e-02  1.175146e-01  -3.902111e-01  3.758927e-02  5.107315e-02  -1.030184e-01  -3.974288e-02  8.804681e-02  -6.523849e-01  1.052745e-01  -5.647872e-02  -3.075949e-02  -3.527837e-02  3.798510e-02  1.162971e-01  1.246889e-02  2.864899e-01  -1.512858e-01  -2.500319e-01  -2.424413e-01  4.443703e-02  -2.075873e-01  1.014769e-01  -8.466885e-02  1.118640e-01  -1.451392e-01  1.979573e-01  -1.641808e-01  -8.069772e-02  2.232444e-01  -6.274363e-02  1.633453e-01  1.888842e-01  1.683000e-01  -2.147626e-02  1.786308e-01  5.000426e-01  -1.086926e-01  -3.320317e-01  2.058537e-01  -5.470589e-02  -2.507802e-01  1.937925e-01  8.337827e-02  2.283414e-01  -1.959325e-01  4.296778e-01  -9.003152e-02  -4.486058e-01  2.060177e-01  -1.309810e-01  -3.057797e-01  7.575797e-02  -1.525487e-01  5.577921e-03  -1.883845e-01  4.012644e-03  -9.692431e-02  2.392294e-01  -1.425435e-03  1.287160e-01  1.407862e-02  -6.688578e-02  1.433019e-01  4.554521e-02  1.174935e-03  -6.778985e-02  -2.667133e-02  -1.185854e-01  -1.208303e-01  -6.493908e-02  1.538177e-01  -2.819610e-01  -1.155112e-01  -9.148405e-02  1.878695e-01  2.628031e-01  -2.193729e-01  -2.403020e-01  -3.479115e-01  -8.131469e-02  6.381035e-02  -2.499843e-01  -2.847292e-01  -7.583997e-02  -9.420121e-02  -6.253188e-02  -1.521453e-01  -1.827766e-01  1.581752e-01  -5.179185e-02  -1.035422e-01  -2.017751e-02  1.725765e-01  -1.122988e-03  -3.106722e-02  -2.459351e-01  -7.489844e-02  -3.942809e-01  -1.557757e-01  -5.534322e-02  2.084120e-02  1.753855e-01  1.131416e-01  -9.783606e-02  -1.767597e-01  -2.419582e-02  -1.870429e-02  -6.237333e-01  -7.454010e-02  2.062843e-01  -1.734791e-01  1.311649e-01  -1.343740e-01  1.281839e-01  1.378043e-01  4.442084e-01  -2.243693e-01  -4.592103e-01  6.902682e-03  2.521575e-02  -4.307138e-02  -1.748501e-01  8.999252e-02  -1.156649e-01  1.833562e-01  -3.126526e-01  -1.796131e-01  3.225345e-02  -1.211816e-01  -4.440138e-03  1.081541e-01  -1.157998e-01  3.611582e-02  7.978727e-02  6.410325e-02  2.303935e-01  -1.622010e-01  -4.679178e-01  1.438440e-01  -9.375131e-03  -1.521070e-01  3.898983e-03  1.258143e-01  -2.097915e-01  1.774390e-01  1.114255e-01  1.646129e-01  7.557383e-01  -1.021384e-01  3.382190e-02  -8.520253e-02  1.595516e-01  1.893595e-01  1.570433e-01  9.445370e-02  3.027374e-01  -2.348453e-01  -4.850061e-01  3.337503e-02  -1.158694e-01  -2.269497e-01  5.491566e-03  1.801483e-01  2.860546e-01  1.548861e-01  1.472219e-01  -6.531016e-02  6.811028e-01  -3.399448e-02  7.720274e-02  -1.406225e-01  3.916013e-01  3.885194e-02  3.798598e-01  1.643084e-01  3.551506e-01  -1.072871e-01  -1.275420e-01  1.749991e-01  -1.717788e-01  -3.113015e-01  -4.904808e-02  2.012617e-01  -8.852258e-03  -1.721442e-01  -5.681337e-02  -9.722205e-02  -1.475343e-02  1.257951e-01  -1.372168e-01  -3.249288e-01  -1.996203e-01  -1.816282e-01  -1.696201e-02  3.214716e-02  2.762948e-01  -7.927530e-02  -6.532721e-01  1.086299e-01  -1.063493e-01  -9.147300e-02  -7.726939e-02  -3.085112e-02  3.663526e-01  8.571474e-02  3.134041e-01  -5.442217e-02  2.260360e-01  -1.912651e-01  -1.965529e-02  -1.728519e-01  -1.465689e-01  -9.114736e-02  -1.099059e-01  1.542408e-02  -5.067783e-03  2.225644e-01  -9.399661e-01  -7.057186e-03  7.681125e-03  -2.154488e-01  -2.793121e-01  1.673977e-01  -7.876492e-02  -5.130675e-02  -7.875134e-02  -7.587357e-02  1.737381e-01  -6.910417e-02  3.141814e-02  -2.259128e-01  -2.216977e-01  -1.198302e-01  -8.309325e-02  -1.403434e-01  2.794000e-01  -4.647599e-02  1.678072e-01  6.862953e-02  3.348675e-01  5.093192e-03  -1.736384e-01  1.610000e-01  -1.259988e-01  -1.136035e-01  -6.102940e-02  -1.521040e-01  2.759867e-01  -3.773366e-01  -3.367712e-01  -8.812504e-02  -3.451304e-01  -2.540920e-01  1.170531e-01  2.764696e-02  -2.660607e-01  1.833313e-02  5.801113e-02  -3.184303e-01  -1.954135e-01  2.024961e-01  7.558719e-02  -1.886858e-01  -8.641957e-02  1.118446e-01  1.794046e-01  -2.314668e-01  -1.325361e-01  -1.003414e-01  1.065491e-01  4.419681e-02  1.701092e-01  -1.490816e-01  -2.015316e-01  -1.927385e-01  -1.439542e-01  -1.113444e-02  1.087504e-01  3.215700e-01  1.924125e-01  -1.117151e-01  2.435082e-01  -1.993804e-01  -5.620416e-01  1.202562e-01  -7.550140e-01  1.886155e-01  -7.051083e-01  -4.403324e-01  1.070495e-01  2.809074e-01  -6.104764e-01  -5.484739e-02  9.709960e-02  2.639920e-02  1.423904e-02  -8.214984e-02  -9.804625e-02  2.403608e-01  1.768962e-01  -2.522779e-01  1.716264e-01  -1.205610e-01  1.716118e-01  -2.667654e-01  1.904562e-01  -2.200715e-01  -3.677427e-01  1.340092e-01  1.935793e-01  -5.312555e-02  1.906714e-01  1.998416e-01  1.414288e-01  -3.871328e-01  2.757643e-01  8.592497e-02  -2.933214e-01  1.792435e-01  3.156677e-01  -2.032103e-02  6.251588e-02  2.093474e-02  -1.246905e-01  -8.940734e-02  -3.130868e-01  1.668694e-01  2.467078e-01  -1.240162e-01  -4.512737e-02  1.000372e-01  -2.181669e-01  1.246272e-01  -1.666096e-01  7.098322e-02  -3.387617e-02  1.444747e-01  3.723368e-01  4.722449e-02  1.528053e-01  6.406190e-02  3.228431e-02  -9.337910e-02  3.889961e-02  -2.857621e-01  -2.966680e-02  -2.037172e-03  3.006338e-01  3.958686e-02  1.072360e-02  -2.591569e-01  1.011200e-01  -2.035696e-03  7.999298e-02  4.869099e-02  8.648708e-02  7.035682e-02  -3.156473e-01  2.142942e-02  1.338626e-01  -6.423170e-02  1.861020e-01  -5.177864e-02  4.495633e-02  7.543221e-02  -6.455974e-02  -1.387836e-01  -6.766798e-01  -1.187969e-02  -2.984670e-01  6.901587e-02  9.636494e-02  -1.910086e-01  -9.620651e-02  9.222697e-02  -9.015475e-02  1.860180e-01  1.169655e-01  -2.529324e-01  -1.049753e-01  -1.945214e-01  -2.887621e-01  -6.696860e-02  1.360070e-01  1.179035e-01  3.249313e-01  -2.134397e-01  -6.504604e-01  -7.213682e-02  1.126034e-01  -2.813386e-01  -2.517874e-02  7.122620e-02  3.219904e-01  1.967506e-01  5.040198e-01  -1.768965e-01  9.674492e-02  7.952204e-02  2.297223e-03  -6.696919e-02  6.537329e-02  1.614756e-01  1.246040e-01  5.043470e-02  -2.319850e-01  -1.545373e-01  1.806501e-01  -2.961634e-01  -2.015076e-01  -1.320128e-01  -3.508443e-01  -2.454860e-01  7.837921e-02  2.995293e-01  2.442083e-02  -7.904430e-02  5.695797e-01  -3.944622e-01  2.234647e-02  -6.175159e-02  1.520605e-02  -3.811802e-02  2.668727e-01  -1.377028e-01  -1.537063e-02  5.430716e-02  -3.717263e-01  1.157539e-01  -9.648694e-02  -8.885625e-02  1.502658e-01  1.233551e-01  3.612532e-01  -2.016993e-01  2.670497e-01  -2.019134e-01  -5.122887e-01  5.891992e-02  -2.041160e-01  -2.010874e-01  1.449901e-01  -1.474208e-01  1.553245e-01  -6.727586e-02  1.712606e-01  -3.303671e-01  -3.543121e-01  1.733531e-01  1.704650e-01  -2.766589e-02  2.469389e-01  1.412974e-01  -1.912623e-01  1.113368e-02  2.973047e-02  1.858116e-01  4.327373e-01  -2.062068e-02  2.520729e-02  3.269643e-02  -2.253352e-01  -1.549191e-02  1.666919e-01  2.993818e-01  1.969365e-01  1.023930e-01  2.019749e-01  -1.783653e-02  9.696005e-02  1.457275e-01  1.750717e-02  1.257443e-01  -5.631151e-02  5.971203e-02  -6.614234e-02  1.747102e-01  5.983676e-01  1.508924e-01  -7.287834e-02  2.522152e-01  -2.222071e-01  8.185893e-02  1.642651e-01  -2.182597e-01  -1.245682e-01  -5.365490e-02  9.709112e-02  -1.578186e-01  2.440297e-02  1.516982e-02  -5.484041e-01  -1.871322e-01  -1.390030e-01  -1.120760e-01  5.716613e-02  2.151086e-01  -3.771902e-01  2.031949e-01  -1.289490e-01  1.508926e-01  -3.175519e-01  -1.830409e-02  2.882824e-01  -1.392476e-01  2.640997e-01  1.157876e-01  -3.876010e-01  -1.859371e-01  -4.504330e-02  -2.696931e-01  -1.946927e-02  -4.250241e-02  -4.285492e-01  -1.307814e-01  -4.189852e-01  1.672191e-01  3.238645e-02  1.354082e-01  2.968761e-01  3.953318e-02  4.595993e-02  1.152491e-01  9.666793e-02  3.320280e-02  3.993104e-01  -1.053150e-01  -4.456233e-01  -1.607744e-01  -5.050204e-02  -2.142078e-01  8.355881e-02  -1.571409e-01  3.698848e-01  -1.843517e-01  6.652701e-01  -1.751930e-01  -2.531512e-01  -1.572068e-01  -3.942830e-02  -2.379632e-01  1.289667e-01  -1.623302e-03  1.142329e-01  2.672840e-01  -3.266293e-01  1.309125e-02  5.062600e-01  -3.809218e-02  -9.460658e-02  -4.396072e-02  -1.164806e-01  -8.324114e-02  -5.047315e-02  -9.483870e-02  3.522318e-01  1.422945e-01  4.913592e-02  5.313855e-02  -1.320811e-02  -1.224023e-01  3.162891e-01  1.751915e-01  -1.367839e-01  2.709678e-01  -3.923186e-01  1.371918e-01  5.175739e-01  3.518937e-02  -4.664885e-02  2.457283e-01  -2.535709e-01  4.135187e-02  2.364378e-01  3.778497e-01  1.955789e-01  3.214439e-01  -3.173690e-01  -2.354847e-02  3.193313e-01  4.518541e-01  -1.087358e-01  8.481314e-02  -7.109181e-03  -5.182802e-02  -9.778854e-02  1.461669e-01  -4.116983e-01  7.815532e-02  -2.301762e-01  1.401561e-01  -3.775953e-01  1.733137e-01  -2.631434e-02  -5.767107e-02  -8.872037e-03  4.253730e-02  4.722557e-01  -1.346943e-03  2.354073e-01  -3.939231e-02  3.265575e-01  1.153076e-01  6.228944e-01  -1.253799e-02  8.658579e-01  -4.160758e-01  6.870378e-01  2.977844e-01  2.180557e-01  -2.302901e-01  2.153863e-01  1.885150e-01  1.615189e-02  1.870230e-01  1.496742e-01  -8.251286e-02  3.200835e-01  -1.756927e-01  -1.186653e-01  -1.925659e-01  2.924134e-01  -1.076477e-01  -8.352055e-02  -1.061055e-01  3.028498e-03  -1.690934e-01  7.280750e-02  -2.716317e-01  -2.164509e-01  -2.711286e-01  -6.359226e-02  -1.850890e-01  2.130337e-01  -3.282027e-01  -8.185426e-02  1.174706e-01  2.123990e-02  4.457181e-01  2.041045e-01  9.746769e-03  -3.062225e-01  -5.366793e-03  -4.094468e-02  6.787695e-02  3.462646e-01  -6.609759e-02  -2.563391e-01  -3.287903e-01  7.960605e-02  -1.976209e-01  6.879089e-02  -1.699032e-01  -6.360934e-02  -1.298412e-01  2.149616e-01  -1.307592e-01  -4.047433e-02  2.255390e-01  2.800229e-01  7.594491e-02  2.235192e-01  -6.846242e-02  -5.183623e-02  -1.646847e-02  -2.673972e-01  -6.615785e-02  6.065205e-01  -2.925577e-01  1.045591e-01  2.399959e-02  3.980998e-01  5.950601e-02  4.943278e-03  1.123348e-01  -3.196597e-01  -1.594808e-01  9.172550e-02  -1.400008e-01  8.727560e-03  8.507147e-02  1.338143e-03  -1.763393e-01  4.167252e-02  -1.539231e-01  7.682758e-02  -2.734051e-01  -1.694103e-01  -1.233059e-01  -1.450032e-02  -2.536210e-01  -5.192474e-02  2.243608e-01  -1.220811e-01  -9.636023e-02  -3.752469e-02  6.904580e-03  -3.684076e-01  1.528647e-01  -9.663022e-02  -1.245763e-01  3.156338e-02  -1.118971e-01  2.234564e-01  -8.840302e-02  1.039749e-01  1.797987e-01  -3.504360e-01  4.624676e-01  1.581686e-01  3.854540e-01  5.966956e-01  7.625255e-02  7.406649e-02  9.905057e-03  -1.082251e-01  6.345326e-02  1.270057e-01  -4.017561e-01  -1.102623e-01  -1.219180e-01  -3.851199e-01  -2.552548e-02  6.792966e-02  1.637990e-01  -3.197558e-01  2.704474e-01  5.339143e-01  -1.187386e-02  4.160503e-02  -5.295580e-02  -1.809427e-01  -7.224141e-02  -6.162807e-02  3.538042e-02  -2.536574e-01  -1.067981e-01  -4.658640e-02  2.516003e-02  3.443987e-02  -2.000773e-01  1.985129e-01  2.038657e-01  -2.245992e-01  7.640912e-02  -2.463953e-01  -1.038795e-01  3.032106e-01  1.705573e-01  -9.218217e-02  8.002198e-02  4.239074e-01  4.650500e-03  2.550556e-02  7.572225e-02  1.095006e-02  -2.264304e-01  2.946414e-02  -1.179465e-01  -2.265578e-01  -1.706550e-01  -2.670884e-01  7.390182e-02  2.747255e-02  6.353551e-02  -3.450921e-01  -3.178337e-01  6.051409e-01  -1.615308e-01  1.673205e-01  9.158427e-02  3.601552e-01  6.836992e-02  -2.970369e-01  -1.451646e-01  -2.670458e-01  1.446529e-01  -4.072078e-01  -1.624011e-01  1.734312e-02  1.040519e-01  -2.529266e-01  7.998617e-02  1.692763e-01  1.725599e-01  -3.689793e-01  -1.608407e-01  1.358588e-01  -4.495135e-01  -3.533675e-01  1.894745e-01  -4.316822e-02  -1.577265e-02  -1.828759e-01  1.356001e-01  4.884110e-02  -1.291062e-01  -7.244904e-02  2.195019e-01  7.692056e-02  1.425268e-01  2.030915e-01  1.065711e-02  -3.419793e-01  -2.516225e-02  -3.812330e-01  2.555346e-01  2.496870e-01  -2.746867e-01  -2.447514e-02  2.493687e-01  -9.455395e-02  -1.686328e-01  -6.880071e-01  -1.075871e-01  -9.984205e-01  2.152563e-01  -8.723584e-01  3.206863e-01  2.039797e-01  1.630911e-01  -5.624018e-03  1.472467e-01  -2.558621e-01  1.482996e-01  -3.066946e-01  -9.174966e-02  -2.666578e-01  -3.593142e-01  4.333121e-02  2.005979e-01  5.021417e-03  -1.182849e-01  6.290916e-02  1.212255e-01  -1.087085e-01  8.772889e-02  1.995484e-02  1.055818e-02  -2.914500e-01  -4.878893e-02  -3.815539e-01  -1.633722e-01  -3.142625e-02  2.309664e-02  1.904492e-01  -1.045197e-01  -5.974163e-01  2.972963e-01  1.986183e-02  -2.069327e-01  4.649708e-02  -1.612334e-01  -1.646490e-01  -2.968825e-04  -1.293116e-01  -3.020909e-02  5.335236e-01  -1.409776e-02  1.483657e-01  9.656421e-02  2.540582e-01  2.164156e-01  1.283610e-01  1.807015e-01  -1.400241e-01  -2.101334e-01  -3.500696e-01  -3.581568e-01  -4.931369e-01  1.275642e-01  -1.335933e-01  -2.655624e-01  
      </Weights>
      <Biases Rows="128" Columns="1">
        -1.168106e-01  -2.554460e-01  4.482570e-01  2.537942e-01  3.345599e-01  -7.881373e-02  -4.444006e-01  9.209231e-02  -2.646212e-01  4.650858e-01  -3.177331e-01  -2.395990e-01  5.068076e-01  2.590120e-02  -3.352874e-01  -1.643845e-01  -4.182922e-01  3.359266e-01  -5.837067e-01  3.240687e-02  -2.336352e-01  3.461418e-01  2.848481e-01  -1.293532e-01  -4.692793e-01  -3.156243e-01  -4.558139e-01  1.296288e-01  4.841880e-02  -3.878899e-01  6.881484e-02  -2.939426e-01  5.278760e-01  9.368615e-02  -4.728193e-01  5.631091e-01  3.634535e-01  3.773072e-01  3.793642e-01  -1.956848e-01  -4.065887e-02  3.388418e-01  2.927130e-01  5.320821e-02  2.521096e-01  4.496590e-01  6.318580e-04  -1.766848e-01  1.624394e-01  2.597820e-01  1.322706e-01  2.445130e-01  4.500795e-01  -1.295728e-01  3.027972e-01  -3.071022e-01  3.666334e-01  4.871346e-02  3.899979e-01  1.636157e-01  3.871433e-01  1.246611e-01  3.103606e-01  2.178265e-02  1.433709e-02  -6.052802e-02  -6.999767e-02  7.033342e-02  1.896074e-02  -4.946552e-01  2.293730e-01  2.556087e-01  4.924283e-01  -8.518326e-02  -2.278948e-01  1.762133e-01  -3.401209e-02  2.964177e-01  -6.986322e-02  5.091640e-01  3.075440e-01  -1.081534e-01  -1.931245e-01  3.030779e-01  4.203205e-01  2.851799e-01  -3.412448e-01  1.551622e-02  -3.171043e-01  -1.603351e-01  3.879144e-02  3.504893e-01  -2.432046e-01  4.517300e-01  5.107562e-01  -3.719994e-01  2.503251e-01  -4.424139e-01  -3.485148e-01  -7.860904e-02  -4.596919e-02  4.942433e-01  4.453054e-02  8.951117e-02  1.793950e-03  2.769660e-01  1.976417e-01  -3.187251e-01  -1.467370e-01  2.282696e-01  1.795570e-01  -2.063402e-01  -7.083915e-02  -3.343208e-01  4.796479e-02  -1.029908e-01  6.760278e-02  -1.938537e-01  -1.379649e-01  -1.536564e-01  1.438180e-01  -4.467262e-01  -2.477718e-01  -2.587467e-01  -1.105441e-01  4.266750e-01  -3.832219e-01  9.587182e-03  
      </Biases>
    </DenseLayer>
    <DenseLayer Width="128" ActivationFunction="3">
      <Weights Rows="128" Columns="128">
        -4.230191e-02  -2.974436e-02  1.806703e-01  3.499868e-02  -7.406414e-02  9.392553e-03  9.899845e-02  2.566882e-01  1.811270e-02  -4.336475e-02  -2.872968e-01  -1.096558e-01  -2.028683e-01  -1.159850e-01  -1.692788e-01  -1.574843e-02  -1.098395e-01  2.322543e-01  4.039959e-03  1.225517e-01  1.883789e-01  -7.423587e-02  2.888590e-02  8.110534e-02  -7.600022e-03  -1.612275e-01  -2.458100e-01  -4.070901e-02  5.444440e-02  -1.842017e-01  -8.349758e-02  1.109803e-01  2.856362e-01  5.187277e-02  -2.794012e-01  1.474542e-01  2.040493e-03  2.204998e-01  2.551720e-02  -4.411414e-02  -7.943433e-03  2.214438e-01  -5.896002e-02  -1.207029e-01  7.352075e-02  -1.517983e-01  -2.683151e-02  -4.519287e-03  1.890137e-01  -7.941284e-02  1.094849e-01  9.633920e-02  1.446359e-01  5.382007e-02  -9.552499e-02  -2.018223e-01  1.742339e-02  -3.915929e-02  -1.329315e-01  1.495757e-02  1.948234e-01  -1.113700e-01  1.914762e-01  -7.747170e-02  1.146499e-01  2.517017e-02  -1.726146e-01  -5.543675e-02  6.865194e-02  -2.485228e-01  3.271340e-02  -4.860057e-03  1.857377e-01  -6.125880e-02  -4.533417e-02  4.105147e-02  9.111378e-02  3.394926e-04  -5.232771e-02  3.058010e-01  1.328078e-01  -8.160168e-02  -2.687248e-01  -1.498314e-01  1.060654e-01  2.207751e-01  -8.970445e-02  7.297780e-02  4.981350e-02  -1.632246e-01  1.699839e-01  -3.760448e-03  1.150316e-01  -1.339719e-01  -2.688778e-03  -1.870647e-01  1.360648e-01  6.887482e-02  -5.248380e-03  2.192117e-01  -1.184660e-01  -2.546996e-01  -4.810491e-02  -4.407354e-02  -2.331293e-02  1.570533e-01  3.257667e-02  -1.921037e-01  -1.635466e-01  -1.530937e-01  1.180291e-01  1.989041e-01  -1.033000e-01  1.088108e-02  -6.572885e-02  1.379491e-02  -1.527428e-01  -3.259034e-01  1.042019e-02  2.520156e-02  1.264891e-01  -1.507679e-01  4.175904e-01  1.507925e-01  5.459105e-02  2.509139e-01  -7.399474e-03  7.058216e-02  -4.948227e-02  1.252386e-01  2.207967e-01  1.591007e-01  1.828004e-01  -1.940132e-02  -2.297732e-01  2.116043e-02  1.826055e-02  1.921305e-02  -8.623910e-02  -8.082154e-02  1.731310e-01  -6.291397e-02  -8.048857e-02  9.162645e-02  -1.108135e-01  -1.919642e-02  -8.412645e-03  7.665333e-02  1.884310e-01  1.210363e-01  2.135828e-01  8.169167e-02  -2.118080e-01  -1.787999e-01  -3.002841e-01  -2.854815e-03  1.438073e-01  -9.736309e-02  3.666491e-02  -5.298097e-02  3.350967e-01  -1.800021e-01  -2.325391e-01  2.104733e-01  2.113209e-02  2.065004e-01  5.070724e-02  2.438778e-01  -9.461954e-04  9.747862e-02  1.377078e-01  -1.040995e-01  -5.572002e-03  -9.200142e-04  1.129459e-01  1.070762e-02  2.060149e-01  6.271217e-02  1.267600e-01  1.665694e-01  1.939978e-01  -6.399364e-02  -2.178596e-02  -1.528581e-01  6.961845e-03  6.459834e-02  8.352928e-02  -6.858493e-02  2.944798e-01  -4.500604e-02  -7.485878e-02  5.794114e-03  2.403848e-02  1.288577e-01  1.093152e-01  -5.891041e-03  -1.051101e-01  -2.589305e-02  -1.356837e-01  -1.560864e-02  -2.605819e-02  9.694682e-02  -1.414588e-01  -1.442136e-01  -1.516702e-01  3.114846e-01  1.425866e-01  3.686535e-01  1.044198e-01  1.433210e-01  -2.358730e-01  -4.026014e-03  3.288133e-01  -4.641879e-03  -1.090787e-01  2.439017e-02  -2.216948e-01  -2.078536e-01  -9.410214e-02  5.905497e-02  -9.101743e-02  2.753037e-01  1.076250e-01  -4.332144e-02  6.374229e-02  -3.715543e-01  -3.633044e-02  -5.318263e-02  -1.422439e-01  1.265185e-01  -5.992318e-02  -2.773347e-02  -9.971919e-02  3.169934e-02  1.745312e-01  -5.241356e-02  1.003995e-01  -5.284964e-02  -7.811970e-02  4.755742e-02  -1.350105e-01  -2.403879e-03  1.028355e-01  -1.640180e-01  1.034665e-01  -9.250257e-03  6.022932e-02  2.448180e-01  1.409169e-01  -9.158389e-02  2.698946e-01  -9.147269e-02  4.029810e-02  1.196186e-01  -1.354754e-01  1.567331e-01  -3.443175e-02  -5.610502e-02  -9.282503e-02  -1.975357e-01  -1.316679e-01  -4.757958e-02  5.647020e-01  3.940956e-01  -2.450567e-02  -2.440785e-01  7.564789e-03  4.234882e-02  -8.006549e-01  -4.818309e-02  8.955451e-02  1.787565e-02  1.197664e-01  -6.189371e-02  2.437233e-01  8.165152e-02  1.540221e-01  -2.151309e-01  6.979325e-02  1.311458e-01  7.660916e-02  4.638412e-03  2.526078e-01  1.213152e-01  2.096047e-01  1.857484e-01  -4.549050e-01  1.073930e-01  -3.135714e-02  -2.177363e-02  1.617690e-01  -3.254080e-01  -3.191505e-01  -2.159031e-02  -3.934934e-02  7.364955e-02  -2.428472e-02  -2.616785e-02  -1.899017e-01  7.750311e-02  4.329465e-02  -2.185147e-01  -7.521532e-02  -3.851359e-02  -1.922151e-02  -9.582930e-02  -4.910063e-02  4.121609e-02  -3.056531e-01  -1.424145e-02  -1.943250e-01  2.567150e-01  -8.120069e-02  -2.046836e-02  -1.579129e-01  -9.689277e-02  -5.543419e-02  -4.462816e-02  1.080727e-02  -8.617642e-02  9.370271e-03  -5.873269e-02  -2.212812e-01  -9.665646e-04  -4.259919e-02  2.634827e-01  4.018746e-02  -6.229896e-02  -1.141800e-01  6.749128e-02  1.090144e-01  1.582725e-01  8.611768e-02  -1.295221e-01  4.159960e-02  -1.574661e-01  -2.683395e-01  -1.619783e-01  -2.530718e-01  -5.536279e-02  -6.135739e-01  2.318380e-02  1.849817e-01  -8.577231e-02  3.380018e-01  1.770775e-01  1.137025e-01  -3.955561e-01  3.320109e-01  -7.643971e-01  -4.761401e-01  1.210743e-01  1.550523e-01  3.265899e-01  1.030738e-01  6.187122e-02  -8.740781e-02  -1.110221e-02  -2.490854e-01  -4.620313e-02  4.482979e-01  -4.398527e-01  -2.026677e-02  1.459852e-01  -1.646280e-01  -9.903409e-02  -5.325732e-02  -1.976399e-02  -1.381141e-01  1.656025e-01  -5.969221e-02  -7.763287e-02  -1.011645e-01  3.445645e-02  -4.649423e-02  -9.211551e-02  -1.668832e-01  1.377675e-01  1.758462e-01  -6.740474e-02  1.689766e-01  -1.950174e-01  4.209516e-01  -3.016449e-02  -2.271714e-02  1.421976e-01  -1.737100e-01  8.323390e-02  -1.775614e-02  3.331911e-01  -2.517232e-02  2.349243e-02  -9.928522e-02  6.515833e-02  1.683815e-01  -2.711827e-01  5.444766e-01  1.384983e-01  -7.557959e-02  -1.085782e-01  2.204052e-02  -1.010457e-02  4.061757e-02  8.413208e-02  -2.185987e-02  1.254094e-01  -1.787813e-01  2.275781e-01  1.747653e-02  1.527911e-01  -2.385239e-02  -3.971952e-02  -9.882282e-02  4.269631e-02  7.664029e-02  -7.361069e-02  6.611650e-02  -3.084118e-01  1.151789e-02  -1.943598e-01  2.061168e-01  -8.605740e-02  6.823254e-02  -4.502618e-02  1.911794e-01  -1.089091e-01  -5.757605e-02  -3.132500e-01  -3.318573e-01  4.168274e-02  -3.226809e-02  -6.099069e-03  5.805900e-02  2.312005e-01  -2.105836e-03  -1.173434e-03  -1.450770e-02  9.940457e-03  -4.573629e-02  -6.236563e-02  -2.354584e-02  -1.005771e-01  2.518050e-01  1.179314e-01  -1.732121e-01  -6.643587e-02  6.626542e-02  5.322912e-02  -2.063116e-02  1.958143e-01  4.124594e-02  -1.194645e-01  1.567714e-02  4.265927e-03  4.267908e-02  -1.713265e-01  -9.857362e-02  7.770357e-02  -5.508506e-02  1.455356e-01  -6.856923e-03  6.507365e-02  1.843875e-02  1.113301e-01  -3.788906e-02  2.104556e-01  -1.175273e-02  -8.521418e-02  -1.515520e-01  -1.892949e-01  2.120184e-01  -2.190414e-01  1.631409e-01  2.823886e-02  -1.006971e-01  -5.065279e-02  -9.746905e-02  -1.297475e-01  -3.371029e-02  1.005265e-02  8.697685e-03  2.207023e-01  -8.533328e-02  -6.842736e-02  -1.004975e-01  -2.907119e-02  -5.233960e-02  6.876438e-02  3.349135e-02  -1.440707e-01  -2.228613e-01  -2.592646e-02  1.008027e-01  8.236726e-02  1.008074e-01  -1.465328e-01  3.030479e-01  1.233753e-01  6.315315e-02  -1.749969e-01  1.531909e-01  2.251308e-01  2.775781e-02  2.878276e-01  -2.017196e-01  -7.075990e-02  7.754043e-02  -5.892612e-02  2.115127e-01  -8.348705e-03  -8.186020e-02  3.287057e-01  -4.336713e-02  -1.686460e-01  6.002774e-02  -5.352378e-02  1.124159e-01  -1.804983e-01  -4.572405e-01  -3.537514e-02  -1.244345e-01  1.144712e-01  1.815655e-02  -6.849323e-02  1.622090e-01  1.151608e-01  -2.009758e-01  4.536052e-02  -2.137117e-01  5.410296e-02  1.650236e-02  -8.654529e-02  1.291698e-01  -3.023046e-02  -1.379232e-01  7.028201e-02  -4.851951e-02  -2.133795e-01  -1.734279e-01  -8.206661e-02  -1.895674e-01  -1.591056e-01  1.762213e-02  -1.205480e-01  1.742360e-01  1.282210e-01  -1.483687e-01  2.515813e-01  3.145553e-01  5.609043e-02  6.781682e-02  2.640938e-02  -7.935759e-02  -1.390388e-01  7.812116e-02  4.329259e-02  7.722201e-02  1.972495e-01  1.186583e-02  -1.444077e-02  -1.240996e-01  3.901882e-02  -8.105680e-02  -9.513748e-02  1.869197e-01  -1.284374e-01  2.240939e-01  1.204809e-01  5.528845e-02  1.299666e-01  4.572947e-02  3.509919e-02  -5.408561e-02  5.619331e-02  -3.923694e-02  2.770852e-02  -1.490071e-01  5.022958e-02  1.200520e-01  2.053401e-01  -1.573413e-02  -1.372519e-01  8.017861e-02  1.899179e-01  1.917341e-02  1.151379e-01  4.475822e-02  -5.132689e-02  -9.827469e-02  -4.573841e-02  6.459566e-02  5.242412e-02  8.731523e-02  -1.230520e-01  7.704529e-02  1.808566e-01  8.768208e-02  1.576115e-01  -1.405100e-01  9.422320e-02  -1.055545e-01  1.820669e-02  1.185231e-01  9.410241e-02  -2.237394e-01  4.845583e-02  2.828571e-01  -5.534942e-02  1.429801e-01  -3.174731e-01  -1.116220e-01  -5.938143e-02  -3.498111e-02  2.846636e-01  9.651060e-02  -8.611947e-02  -5.115513e-02  7.488783e-03  5.053889e-02  -1.987701e-01  -1.690461e-01  5.983051e-02  6.633347e-02  -1.813042e-03  2.733779e-02  -9.974164e-02  -2.514523e-01  1.178611e-01  8.008172e-02  -4.538677e-02  -2.057147e-01  -1.042103e-01  -1.096535e-01  -7.706811e-02  -3.405496e-01  -7.987627e-02  -1.940402e-01  -2.459484e-02  -6.041172e-02  -1.746632e-01  -1.052150e-01  -6.120674e-02  1.632661e-01  -1.788301e-01  -2.981894e-02  -6.186828e-02  -3.248166e-01  8.033029e-02  -1.694094e-01  -1.567747e-01  -5.465694e-02  -6.056754e-02  1.704453e-01  4.403637e-02  7.952948e-03  3.839123e-02  -2.446699e-01  1.950424e-01  4.492674e-02  -2.276803e-02  -1.262823e-02  1.900706e-01  2.633664e-02  3.785761e-02  -1.389230e-01  2.143298e-02  -1.696454e-01  1.314081e-01  -1.407674e-02  -1.017763e-01  1.163874e-01  -6.698573e-02  1.000817e-02  -1.406618e-02  -4.719111e-01  1.333615e-01  9.267485e-02  1.815751e-01  3.830957e-01  3.928892e-02  -8.318161e-02  2.026943e-01  5.896024e-02  3.758912e-02  1.149161e-01  2.205190e-01  -7.870622e-03  -1.413681e-01  3.172516e-02  -3.724405e-02  9.138869e-02  1.267036e-01  7.125081e-02  -1.443426e-01  2.440793e-01  3.688081e-02  -1.437598e-02  -8.434965e-02  2.729993e-02  -3.228241e-02  -1.116249e-01  -5.668663e-02  2.337349e-01  1.010083e-01  4.744844e-02  -1.244228e-01  -4.196774e-02  1.566441e-01  6.294641e-02  -6.590295e-02  2.489968e-03  1.663796e-01  -8.602180e-02  3.098953e-02  -8.288654e-02  -1.425921e-01  1.386890e-01  8.903508e-03  8.025344e-03  1.171703e-01  3.861003e-02  -1.174412e-01  -1.086319e-01  -4.108386e-02  2.573597e-01  1.529063e-01  -2.790628e-02  9.312348e-02  2.589521e-02  -7.642746e-02  -5.176117e-02  2.107401e-01  -1.489488e-01  1.991583e-01  2.327080e-01  -1.064048e-01  8.408592e-02  -3.394951e-01  -6.360826e-02  -1.259646e-01  -1.551331e-01  1.522279e-01  -2.696871e-02  7.188177e-02  -1.329343e-01  -6.556406e-02  3.703616e-02  -5.308816e-02  -3.391865e-02  1.696089e-01  -5.432528e-02  4.314540e-02  8.305515e-02  -2.794809e-01  -1.404120e-01  1.708149e-01  -2.294743e-02  -1.678492e-01  8.109730e-02  -1.365531e-01  6.657078e-02  -2.296122e-01  -1.375962e-02  -1.245554e-01  6.805017e-02  1.686896e-01  -4.507409e-02  -1.375199e-01  -2.181282e-01  -4.622936e-02  -1.828597e-02  1.660179e-01  5.054397e-03  -7.817437e-02  -6.081328e-02  2.120726e-01  -1.508738e-01  7.980455e-02  -3.382022e-01  -1.190019e-01  -2.303233e-01  -3.668078e-02  1.098570e-01  2.842208e-01  -2.557831e-01  1.814450e-01  4.810159e-02  1.040682e-01  -5.423459e-03  -9.141103e-03  1.186936e-01  -8.046513e-02  -1.395746e-01  3.226727e-02  -1.933635e-01  1.330130e-01  2.285360e-01  -7.137489e-02  -4.153379e-03  -1.234361e-01  7.993245e-02  1.127776e-01  -3.126114e-01  4.862747e-02  -9.961151e-02  4.839519e-03  4.939903e-02  -1.541525e-01  -1.277690e-01  1.983569e-01  -6.001261e-02  1.678586e-01  9.823889e-02  2.066039e-01  5.661526e-02  -1.125064e-01  4.932875e-02  4.486651e-02  1.344803e-01  1.805928e-01  2.289619e-02  -1.608301e-01  2.488915e-01  -1.485856e-01  1.075579e-01  -1.836070e-01  5.662014e-02  7.659072e-02  1.166868e-01  -4.009676e-02  1.994230e-01  9.885954e-03  -1.496253e-02  -1.101059e-01  8.626904e-02  1.770183e-01  1.052864e-01  4.603958e-01  -9.124976e-02  2.387341e-02  1.297934e-01  5.250379e-02  2.762969e-02  1.149598e-01  -1.228534e-02  1.740270e-02  2.931521e-03  2.700977e-01  -1.670706e-01  -2.844949e-02  -6.414077e-01  1.655968e-01  4.466615e-02  2.063126e-01  -1.957580e-01  -1.226648e-01  -1.873530e-01  -1.670985e-01  1.881906e-01  9.823389e-02  3.501481e-01  -1.400767e-01  7.032236e-02  -1.984162e-01  -1.649371e-01  -2.953296e-01  1.780277e-02  5.376685e-02  -2.362181e-01  -5.289196e-01  -1.103984e-01  -6.107273e-02  1.047417e-01  -1.178571e-04  4.241011e-02  -1.534910e-01  7.305837e-02  1.143757e-01  2.949722e-01  8.575756e-02  -1.808548e-01  -1.188851e-01  -3.841676e-02  1.659835e-01  -1.965507e-02  -1.132722e-01  9.144225e-02  -1.403550e-01  1.572996e-02  -1.915266e-01  5.905776e-01  3.227321e-02  -1.261190e-01  3.294544e-01  -9.434023e-02  1.801799e-03  -3.821569e-02  1.223886e-01  -2.098637e-01  1.655089e-02  1.738648e-01  2.429845e-01  2.803505e-01  1.222470e-01  8.392691e-02  -1.992738e-01  -1.202401e-02  1.258459e-01  -8.193705e-02  -9.632327e-02  5.463897e-02  -6.086659e-02  2.739312e-01  3.401579e-02  3.135639e-02  -1.029362e-01  -7.661264e-02  -1.932992e-01  -2.850713e-03  6.369296e-02  -5.090094e-02  4.506509e-01  -1.294868e-01  -1.254032e-01  -6.283250e-02  -9.732796e-02  -4.810929e-02  1.779955e-01  -1.398665e-01  -4.458798e-02  3.730650e-02  -3.362269e-01  -1.111422e-01  -6.356217e-02  -2.293477e-01  1.070100e-01  1.276332e-01  -9.599146e-02  -1.799830e-01  -1.786587e-01  -3.142436e-01  -1.192367e-01  -1.877786e-02  2.419977e-02  1.143758e-01  -3.500670e-03  1.072859e-01  9.761687e-02  -7.924311e-02  1.887234e-01  -1.978533e-01  -2.001497e-01  -1.408346e-01  -4.925945e-02  -1.482133e-01  1.366243e-04  -1.978754e-03  -1.877214e-01  7.813865e-02  1.733646e-01  -1.145094e-01  1.438422e-01  -1.150113e-01  -1.279016e-01  2.332767e-01  1.927591e-01  -3.040556e-02  -1.707792e-01  -5.829190e-03  2.337903e-01  -1.791847e-02  1.012302e-01  5.183737e-02  -9.166999e-02  1.664887e-01  -2.174915e-01  -2.489229e-01  1.348471e-01  -7.563299e-03  -5.388191e-02  -1.617465e-01  -2.318072e-01  9.694102e-02  -3.384847e-01  7.781734e-02  6.092698e-02  3.513243e-02  -1.358712e-01  5.772849e-02  -1.235842e-01  -1.147564e-01  8.035433e-02  -1.821302e-01  5.305039e-02  -1.118166e-01  1.064892e-01  -9.202821e-02  -3.564914e-01  -1.324683e-01  5.276728e-03  1.299777e-01  7.627594e-03  -1.155666e-02  4.422098e-02  8.016931e-02  -7.019313e-02  1.526085e-01  -1.602149e-01  -1.649336e-02  1.282801e-01  1.532169e-01  1.653986e-01  4.253106e-02  7.640186e-02  1.093530e-01  -5.420263e-02  -1.802204e-01  1.889834e-01  3.469776e-01  -4.743571e-03  1.899890e-01  5.894827e-02  3.902426e-02  2.516334e-01  -5.124587e-02  2.290982e-02  -5.854489e-02  -3.641861e-02  -5.515580e-01  -2.137686e-02  -3.984438e-02  -1.657613e-01  1.610105e-02  -4.377577e-01  -3.502884e-01  -1.310779e-01  1.008603e-01  7.452449e-02  -1.426825e-01  1.265157e-01  -3.455388e-02  1.931881e-01  2.795851e-02  -1.998143e-01  1.912656e-01  -2.236442e-01  -1.045207e-01  7.741327e-02  1.237733e-01  4.956528e-01  7.186200e-02  -2.278945e-01  -2.172553e-01  -2.095458e-01  2.974963e-01  -2.727882e-01  1.912485e-01  1.386432e-01  -3.405150e-02  2.204136e-02  -2.963266e-01  2.232409e-02  2.553744e-02  1.580673e-02  1.099996e-02  2.215690e-01  1.756044e-02  -2.347897e-01  2.881433e-02  -8.090136e-03  -3.202344e-01  2.279773e-01  1.085303e-01  -2.090488e-01  1.345822e-01  5.801517e-02  2.179111e-01  -1.325832e-01  -1.108754e-02  3.583222e-02  1.423734e-02  -1.309559e-01  -1.018384e-01  -1.005123e-01  -5.212537e-02  -1.836626e-01  7.661617e-02  -2.049110e-01  -1.087595e-01  7.742439e-02  2.347597e-01  1.402040e-01  -9.301687e-02  6.739212e-01  -1.512201e-01  2.217686e-02  -4.136441e-03  -1.820528e-01  -1.047187e-01  -4.167190e-01  1.985117e-01  3.100000e-01  7.899947e-02  1.438246e-01  -7.966795e-02  -8.769649e-02  9.729583e-02  -1.109197e-01  -1.021483e-01  1.740790e-03  -7.836225e-02  -6.638043e-02  -1.782030e-01  -3.689305e-03  -2.533279e-02  6.356672e-02  -7.795445e-02  2.597912e-01  -1.819882e-01  2.616985e-02  -1.135758e-02  1.047922e-01  6.180849e-02  1.062732e-01  -2.951167e-02  -6.302586e-01  -8.426052e-02  -1.049225e-01  8.638395e-02  3.622090e-02  -1.097896e-01  -2.515294e-02  3.847584e-02  1.137221e-02  1.088369e-01  1.102775e-01  -2.375838e-02  -3.395209e-02  -1.050530e-01  1.970411e-02  -1.527637e-01  -2.982715e-01  -4.275798e-02  2.067209e-01  6.620311e-03  5.573382e-02  2.953166e-02  -5.684413e-02  -5.490423e-02  -1.709418e-01  -2.273449e-01  1.786958e-01  -1.820810e-01  -1.083241e-01  -1.296719e-01  -1.280893e-01  3.007452e-01  -1.040548e-01  -7.498602e-03  -2.415554e-01  -7.983922e-02  4.182226e-01  8.759904e-02  8.223864e-02  -1.475972e-01  -1.298671e-01  9.682745e-02  -7.638629e-02  -2.396633e-02  1.321850e-01  -1.275457e-01  -5.693935e-03  -1.195890e-01  1.437047e-01  1.086682e-01  -1.174960e-01  -1.290155e-01  -1.905293e-01  -1.556568e-01  3.068529e-02  9.813465e-03  -7.015532e-02  9.285388e-02  1.188710e-01  -1.883138e-01  3.265069e-02  4.205939e-02  2.111508e-01  1.169691e-01  -9.950019e-02  1.209227e-01  -2.020156e-01  -3.374796e-02  -1.602075e-01  8.729691e-02  -2.068711e-02  -2.447797e-02  -9.721234e-02  1.548854e-02  -2.566783e-02  3.280141e-03  1.061666e-01  -4.982246e-02  -3.435654e-02  7.385795e-02  2.077157e-02  -1.693399e-02  2.276399e-01  -1.267236e-02  5.657468e-02  -8.831821e-02  6.286149e-02  9.290196e-03  -4.672823e-02  -2.659398e-01  9.091186e-02  8.878323e-02  -2.017262e-02  -7.832699e-02  -1.615027e-02  -1.870291e-02  -7.496791e-01  2.264990e-01  -4.999157e-02  3.436895e-02  -3.835940e-02  1.506871e-01  -2.236718e-01  1.874914e-02  3.997171e-02  -2.102404e-01  -3.323761e-02  1.320159e-02  -3.223001e-02  3.115230e-02  -2.371450e-03  -7.090647e-02  5.843218e-03  5.302287e-02  9.348805e-02  1.274559e-02  -1.946303e-01  -2.250633e-02  1.088424e-01  -1.727011e-01  2.109078e-01  5.581519e-02  1.479301e-01  2.509232e-01  -1.685773e-01  -6.619092e-02  -1.733344e-01  2.627389e-01  7.808028e-01  1.301727e-01  -8.367169e-02  3.905209e-02  1.265478e-01  6.091322e-02  1.271225e-01  -1.281218e-02  -1.952986e-02  -9.229437e-02  -4.252194e-02  4.107097e-02  5.174424e-04  3.667847e-02  8.023552e-02  1.678626e-01  2.722433e-01  -2.738225e-01  6.316028e-03  2.567826e-02  -1.224794e-01  -2.492501e-01  -1.837936e-01  -1.831327e-01  1.303803e-01  1.746767e-01  -1.255671e-01  -3.423288e-02  4.144808e-02  9.069705e-02  2.490062e-03  -6.334689e-02  -5.073465e-02  -4.948854e-01  -4.492479e-01  -1.180856e-01  3.295246e-03  -6.829754e-02  -2.255440e-01  6.344816e-01  8.012423e-02  -1.140379e-01  8.819125e-02  -4.456017e-02  1.887971e-01  -1.697381e-01  -1.956266e-01  1.324598e-01  -2.843373e-02  -1.538664e-02  2.481544e-03  1.815781e-01  1.323999e-01  1.534545e-02  -1.167598e-01  9.706628e-02  -3.486661e-02  1.106146e-01  5.811485e-02  1.570324e-01  -4.750906e-02  3.001447e-02  3.554894e-01  1.147437e-01  3.391652e-01  1.555911e-01  2.423183e-01  1.498882e-01  -1.981405e-01  1.266385e-01  -1.780502e-01  -1.625078e-01  9.899569e-02  8.542719e-02  1.491735e-02  2.219758e-01  -2.980282e-02  -9.277717e-02  3.332644e-02  2.237352e-01  -1.001705e-01  -7.039739e-02  -6.803861e-02  -3.296047e-02  -7.483646e-02  2.040660e-01  -1.498251e-01  1.321320e-01  5.085207e-01  8.340488e-02  1.205310e-01  9.488189e-02  1.687498e-01  9.741415e-02  1.033435e-01  -7.189828e-02  -2.188170e-01  -7.853666e-02  -2.164429e-01  -1.230428e-01  8.391389e-02  1.000840e-01  -1.002657e-01  -1.545752e-01  1.070254e-01  -6.738505e-02  2.575823e-01  1.495867e-01  9.925804e-02  1.413651e-01  -3.532594e-02  2.668655e-01  -4.047887e-02  1.996594e-02  8.506641e-02  -3.464106e-01  -5.939870e-02  -1.671776e-01  2.710203e-02  -4.381092e-02  2.757704e-01  1.083683e-01  -3.466040e-02  5.465035e-02  -1.196519e-01  3.315005e-02  -6.719034e-02  -5.696057e-02  1.466520e-01  1.235485e-01  1.965876e-02  -1.505989e-01  2.476022e-01  9.316413e-02  3.680323e-02  2.816127e-01  -4.167574e-02  -1.398368e-01  -3.475760e-03  1.749293e-02  9.607764e-03  6.308670e-02  -1.910254e-01  -2.713232e-02  6.209194e-02  1.335356e-02  1.668332e-01  -4.490545e-02  1.507309e-01  -1.567846e-01  6.025464e-02  -8.254473e-02  -1.768344e-01  -1.088416e-01  1.794222e-01  8.502289e-02  -1.430648e-01  -1.599286e-01  1.314912e-02  -1.803114e-01  1.206606e-01  7.213635e-01  6.690634e-02  3.694497e-02  -2.059110e-01  -1.593389e-01  -7.717048e-02  -5.566501e-01  -3.119333e-02  -1.593120e-02  1.479471e-01  1.742348e-01  -3.163768e-02  3.324940e-01  1.556992e-01  6.006121e-02  -2.654087e-01  -1.778629e-01  -8.119097e-02  3.889674e-02  1.929315e-01  2.398994e-01  1.195788e-01  -5.720328e-03  1.493535e-01  -1.961119e-01  1.509435e-01  -2.577072e-01  1.147438e-01  1.665527e-01  -4.629061e-01  -2.830819e-01  4.304819e-02  -2.167392e-01  -6.711957e-02  1.454581e-01  -1.537048e-01  -2.843960e-01  -1.709562e-01  -1.392663e-01  -1.450441e-01  1.163750e-01  4.729920e-02  3.752907e-02  -1.811385e-01  3.904880e-03  -1.024623e-01  -2.635972e-01  1.420684e-01  -1.970052e-01  -1.531653e-01  -3.180649e-01  -3.510969e-02  -2.643332e-01  1.579241e-02  -4.359449e-02  -4.334903e-01  1.087958e-01  -2.490059e-01  9.324729e-02  -8.957770e-02  -1.788666e-01  -2.858528e-01  -9.105644e-03  3.385614e-01  1.923170e-02  -1.797458e-01  -1.767506e-01  -4.805844e-02  5.655149e-02  9.535886e-02  7.522975e-02  -6.978377e-02  9.259805e-02  -1.322132e-01  -1.385704e-01  -2.100911e-03  1.189602e-01  -2.689433e-01  -4.211076e-01  -8.944037e-03  2.166997e-01  -1.395590e-01  7.763304e-02  -3.360452e-02  -1.089711e-02  -9.916387e-02  2.188123e-01  -7.820032e-01  -4.200111e-01  8.181587e-02  1.590595e-01  4.270297e-01  1.599504e-01  2.824052e-01  2.652642e-02  -2.338392e-01  -1.802307e-01  -1.542287e-01  1.210290e-01  9.933323e-02  2.408222e-01  2.534555e-01  1.382159e-01  -2.182095e-01  9.387356e-02  5.077075e-02  7.136401e-02  1.310213e-01  -9.384388e-02  3.139659e-02  -6.161559e-02  1.430711e-01  8.371550e-02  8.958852e-02  -2.548263e-02  2.316768e-01  1.795935e-01  3.028084e-01  -2.452289e-02  -2.059035e-01  1.550172e-01  -9.053242e-02  8.282540e-02  -7.709403e-04  1.417087e-01  -1.785911e-01  -2.444037e-01  2.539920e-01  -1.414380e-01  -1.233166e-01  1.122068e-01  -1.651465e-01  -1.016840e-01  -3.945704e-01  5.503713e-01  2.462069e-01  -1.067194e-01  5.247034e-02  1.667132e-01  -8.625200e-03  4.450373e-02  -6.739701e-02  2.190482e-01  -6.553521e-02  -4.586319e-02  5.219505e-02  -6.803235e-02  3.911972e-01  2.558796e-02  -3.784547e-02  -1.077537e-02  -1.392011e-01  -1.241026e-01  -5.976380e-02  2.518897e-01  -3.548608e-01  -3.314705e-01  -7.025776e-02  -1.520521e-01  2.417172e-01  4.588209e-02  2.394688e-02  5.098578e-02  -9.780800e-02  2.216707e-02  -2.401333e-01  -5.358674e-03  8.729819e-02  -8.792564e-02  2.287931e-01  2.471869e-01  -4.477035e-02  -1.009668e-01  -9.461534e-02  3.095212e-01  -4.689365e-02  -1.199221e-01  -2.599089e-01  -1.997579e-02  -3.015427e-02  8.716339e-03  -3.997822e-02  1.866249e-01  6.066207e-03  1.948503e-01  -1.584308e-01  -1.759344e-01  2.971805e-01  8.098194e-02  -2.264988e-01  -6.606097e-02  2.938416e-01  -1.101244e-01  -5.029331e-02  -1.331831e-01  1.573622e-01  -1.690128e-01  -1.293717e-01  -7.544699e-02  7.673106e-02  4.781958e-02  1.104321e-01  5.476686e-02  1.051696e-01  1.348255e-01  -2.418859e-01  1.784935e-01  -2.764634e-01  9.598737e-02  -6.943898e-02  -1.444020e-01  1.466204e-01  2.595282e-01  1.103144e-01  5.124950e-03  1.566087e-01  2.912994e-02  -2.378670e-02  -2.079596e-01  -1.647895e-02  -1.402901e-01  1.709073e-01  -4.222755e-01  -7.678442e-02  3.480978e-02  4.937112e-02  -1.262753e-01  1.407930e-01  -1.665964e-01  -1.169057e-01  1.373018e-01  1.595807e-01  -1.085871e-01  -1.389561e-01  2.496633e-01  4.631410e-02  -7.938701e-02  -4.071911e-02  1.071861e-01  -1.483217e-01  2.560436e-01  7.633618e-02  -2.311312e-02  1.268047e-01  -1.111573e-02  8.580590e-02  2.725616e-01  -7.062914e-02  -3.385233e-01  2.086869e-01  -5.336517e-02  -6.548969e-02  -2.518637e-02  -2.567608e-02  -2.148310e-01  2.521609e-02  -1.575360e-01  3.756600e-02  -5.255275e-02  -4.496240e-01  -2.073793e-01  -1.053234e-01  -9.668579e-02  -5.315052e-02  -8.946832e-02  8.156568e-02  1.250840e-01  -7.256113e-02  1.498148e-01  -1.798297e-01  6.918838e-02  4.507593e-02  -1.729992e-01  1.902691e-01  -2.466430e-03  2.830984e-01  6.199551e-02  5.099963e-02  1.038907e-01  -1.117949e-01  -1.629196e-03  -7.443030e-03  8.812144e-02  -1.166056e-01  1.704597e-01  -8.422872e-02  -1.665257e-02  1.000281e-01  1.104480e-01  1.565657e-01  2.600191e-01  9.106936e-02  9.496146e-02  -1.207278e-01  -6.469145e-02  -6.633384e-02  -2.491296e-02  1.014418e-01  5.702787e-02  -1.667675e-01  4.303318e-02  1.378933e-01  1.457945e-01  -2.985962e-02  1.653543e-01  -3.470786e-02  8.343419e-02  -1.555377e-02  -2.042545e-01  -1.842866e-01  2.391467e-01  1.567988e-02  1.487861e-02  -5.760041e-02  -2.326891e-01  1.417109e-02  1.483515e-01  9.025389e-02  -2.474404e-01  3.551151e-01  -1.967259e-01  -2.165278e-02  4.451028e-02  8.250349e-02  -3.080106e-02  1.168314e-01  6.550054e-02  3.015358e-01  -1.083305e-02  9.388240e-02  1.639267e-03  -1.843661e-02  9.319917e-02  -1.449327e-01  -2.888436e-02  -1.967876e-03  6.600329e-02  5.759974e-02  -4.985570e-02  1.312324e-01  8.617388e-02  3.536306e-02  -1.239015e-01  7.586339e-03  -7.998475e-02  -2.780842e-02  -5.924703e-02  -1.677858e-01  1.824850e-01  2.335632e-01  -1.555169e-01  -3.415119e-01  -7.921715e-02  3.926010e-02  -9.022764e-03  8.976351e-02  -6.055614e-02  -7.570624e-03  2.363127e-01  -5.579049e-02  -1.822937e-02  -4.591229e-02  -6.239235e-02  1.179604e-01  -6.602255e-02  -1.336355e-01  -8.284063e-02  -2.344085e-01  1.349936e-01  -8.368868e-02  7.726920e-02  9.996876e-03  2.929853e-01  1.323171e-01  1.668476e-01  -7.144626e-02  3.281913e-02  9.703238e-02  1.429095e-01  1.203673e-01  4.328100e-01  7.576660e-02  1.076151e-01  -2.373085e-02  -1.987373e-01  8.740308e-02  -8.873738e-02  1.699666e-01  -3.524659e-01  -1.755369e-01  5.502615e-01  1.078777e-01  -1.304509e-01  1.034818e-01  -2.674715e-01  2.621551e-01  -9.437799e-02  -2.696197e-02  -4.430198e-02  1.881323e-01  1.557002e-01  8.930149e-02  -1.483246e-01  -4.790523e-02  -2.973921e-01  8.505026e-03  1.155697e-01  -2.591608e-01  -4.807580e-02  1.277541e-01  2.168417e-01  -1.764927e-01  -8.352789e-01  5.000861e-01  1.880110e-01  3.252149e-01  2.998677e-02  1.160311e-01  1.152760e-01  1.580909e-02  -1.358811e-01  -1.410761e-01  8.910907e-02  2.126585e-01  -2.670059e-02  -7.494611e-02  -4.179937e-02  -6.485508e-02  7.516257e-02  2.548715e-01  2.404798e-01  2.734546e-02  9.489530e-02  -1.610322e-01  -8.467952e-02  -1.050623e-01  2.059015e-01  -3.126913e-02  1.403525e-01  4.034916e-03  2.678486e-01  1.750709e-02  1.249844e-01  2.130782e-01  -1.223678e-01  -1.472318e-02  -1.856809e-01  -1.523206e-04  -5.756282e-02  -7.641440e-02  2.861440e-01  4.512201e-02  -1.516245e-01  1.121688e-01  -8.797116e-02  1.918862e-01  -4.534601e-02  4.326073e-01  -1.246700e-02  -5.838498e-02  -1.275895e-01  1.161905e-02  3.331159e-01  -6.231907e-02  -2.011303e-01  1.566840e-01  -1.330392e-01  -4.152409e-02  7.182898e-02  -1.544234e-01  1.487986e-01  3.897923e-01  3.076137e-01  -1.533073e-01  1.076158e-01  -2.501191e-01  1.681578e-01  3.540831e-02  8.214422e-02  2.062707e-01  -5.393270e-02  1.773590e-01  -1.623621e-01  3.522061e-01  1.044308e-01  -1.418905e-01  -1.497406e-01  -1.952018e-01  -9.878175e-02  2.195238e-02  1.047737e-01  -1.172487e-01  9.863692e-02  -6.424628e-02  8.105022e-02  -2.703595e-01  3.568286e-02  -1.529394e-02  1.732333e-01  -3.755822e-02  1.215361e-01  7.357549e-02  1.287791e-01  6.962202e-02  -3.240347e-01  -2.297420e-02  -1.685552e-01  -1.134417e-01  1.121368e-01  -5.130898e-02  1.223914e-01  -1.420945e-01  -3.547567e-01  -1.925303e-01  -9.074133e-02  1.018303e-01  -9.341550e-02  4.499776e-02  6.946228e-01  1.460133e-01  3.946935e-03  -3.303505e-02  -1.592708e-01  -6.404911e-03  -2.796120e-01  -6.622417e-02  -5.294503e-02  1.113171e-01  -9.550358e-02  -1.810072e-01  -2.911701e-01  -1.756636e-01  -1.353371e-01  1.533832e-02  -2.265890e-01  -1.691948e-01  2.097126e-02  -3.073912e-02  1.259692e-01  4.243838e-02  -1.440499e-01  3.102952e-01  2.806638e-01  1.179627e-01  -1.073304e-01  -1.846154e-01  -9.723824e-02  1.947448e-01  2.630182e-03  -8.832731e-02  -5.775077e-02  1.178339e-01  -6.070269e-02  -1.426440e-01  -9.922698e-02  1.186261e-01  2.663119e-01  3.654704e-02  2.531017e-01  -3.545449e-02  1.531649e-02  -2.023690e-01  -3.121889e-02  4.280413e-02  1.202045e-01  2.679906e-01  -1.220029e-02  6.001295e-03  1.413193e-02  2.776642e-01  -1.733972e-01  2.519396e-01  1.044269e-01  1.478000e-01  1.257624e-01  -3.482847e-01  2.088691e-01  1.414120e-01  1.934791e-01  3.336396e-02  -1.574369e-01  5.523038e-02  4.970471e-02  2.030943e-02  5.017516e-02  -1.148369e-01  1.172205e-01  6.733157e-02  5.043407e-02  -2.969936e-02  4.320054e-01  -7.172624e-02  -2.500894e-01  -1.069890e-01  -2.054587e-01  -1.079145e-03  -4.147630e-01  3.537587e-02  -2.845110e-01  4.834628e-01  1.489485e-01  -5.387248e-02  1.316063e-01  -1.733428e-01  -8.439104e-02  -1.136776e-01  -1.250302e-01  1.212510e-01  2.844683e-01  1.433895e-01  -1.907647e-01  1.760206e-01  -2.999217e-01  -1.607189e-01  1.841795e-01  1.525280e-01  1.684619e-01  -7.781855e-02  -7.698356e-02  -1.108212e-01  8.847401e-02  1.115598e-01  6.473475e-02  2.098294e-01  -2.464090e-01  6.146892e-02  1.381174e-01  -8.797011e-02  -1.387736e-01  -1.190178e-01  3.364153e-02  4.970695e-02  -2.701650e-01  3.312761e-02  1.505720e-01  1.599034e-01  -5.703399e-02  -4.696415e-02  -1.049304e-01  2.122916e-01  1.161619e-01  -4.792241e-01  -5.082066e-02  -1.665874e-01  1.511264e-01  2.588481e-02  2.187060e-01  9.424076e-02  2.742183e-02  -3.393157e-01  7.177312e-02  -4.054652e-02  1.117838e-01  -1.852911e-01  1.030888e-01  -1.187619e-01  -1.839551e-02  1.536357e-01  5.577563e-02  -1.870990e-01  2.596292e-01  -1.444450e-01  9.692620e-02  -1.242055e-01  2.719225e-01  -8.732997e-02  -6.934077e-02  1.579922e-01  1.869971e-01  9.286106e-02  1.861022e-01  -8.017150e-02  -9.856859e-02  -5.915119e-02  1.679377e-01  -1.077088e-01  -1.577348e-01  6.892709e-02  -5.480892e-02  -1.099633e-01  -1.279175e-01  2.535113e-02  1.006957e-01  -9.280931e-02  -2.815619e-01  -1.602899e-01  2.817239e-02  1.059632e-01  -1.174867e-01  5.498945e-02  -1.547614e-01  1.064715e-01  1.267765e-01  -1.492162e-01  8.881859e-02  2.775378e-01  -3.542089e-01  6.786330e-02  1.274837e-01  -9.030887e-02  8.036694e-02  -1.676645e-02  -1.971545e-01  -4.925738e-01  -1.193361e-01  -1.946923e-01  -1.449856e-01  -5.252494e-02  1.529771e-03  -1.511277e-01  -1.269654e-01  2.605818e-02  -1.778740e-02  -1.561400e-01  2.368664e-02  6.283772e-02  1.835346e-01  6.253626e-02  -1.550257e-01  -1.925617e-01  3.155437e-01  1.552952e-01  -3.819818e-02  -1.526796e-01  -1.932353e-01  8.714825e-02  -2.473099e-01  1.939264e-01  -9.146428e-02  2.321932e-01  5.291501e-02  6.559765e-02  9.050714e-02  -3.562732e-02  2.359982e-01  3.841950e-01  7.683890e-02  6.192878e-02  -4.928815e-04  2.795266e-01  2.587893e-02  1.321481e-01  1.950029e-01  1.521178e-01  -2.925617e-01  -2.229725e-02  -1.634998e-01  1.487968e-01  2.022528e-01  -8.335559e-02  2.703565e-01  -1.331259e-01  -3.815731e-02  4.827104e-02  4.940679e-03  1.278148e-01  -7.753583e-01  2.054576e-02  -6.582083e-02  -2.160781e-01  1.886579e-01  -3.222072e-02  1.769046e-01  1.612130e-01  -1.720107e-03  -1.645912e-01  -1.018108e-01  1.260045e-01  1.035930e-01  -2.612499e-01  -8.315323e-02  -8.716100e-02  -2.070341e-01  -1.911792e-01  1.234043e-01  1.565029e-01  1.877534e-01  -1.295910e-01  -2.012885e-01  1.004653e-01  3.416290e-02  -8.071832e-02  7.450164e-02  -1.890733e-01  -4.701062e-02  1.562751e-01  2.552445e-01  1.304188e-01  1.031955e-01  1.344398e-01  -3.697152e-02  3.494303e-03  8.685477e-04  1.401578e-01  9.709650e-02  -1.812073e-01  2.748014e-01  -1.474463e-02  1.583820e-02  1.641618e-02  1.344198e-01  -3.512580e-02  6.757653e-02  5.139254e-02  8.064706e-02  2.059325e-02  -1.160337e-01  -1.000331e-02  1.100194e-01  1.191423e-01  7.292556e-02  3.489809e-02  3.854927e-02  9.075759e-03  9.943157e-02  1.523380e-01  -1.830527e-01  1.085075e-01  3.926729e-03  7.296585e-02  1.421816e-01  -1.302755e-02  -6.632638e-02  1.779801e-02  -1.443449e-01  -6.690726e-02  1.231676e-01  -2.827570e-02  -8.531416e-02  -4.488149e-02  -9.271539e-02  1.074330e-01  9.052800e-04  3.495383e-03  -1.768687e-01  2.472425e-02  -4.988699e-02  1.720854e-01  -1.677090e-01  -4.873485e-02  2.199537e-01  5.986054e-02  -4.111061e-02  2.216566e-01  3.136355e-01  -7.553952e-02  -1.611902e-01  -2.787774e-02  -7.134768e-02  -3.262885e-02  -2.908841e-02  -1.670423e-02  -1.177166e-01  -1.602489e-01  7.503413e-02  6.245226e-02  -1.612447e-01  2.031181e-01  2.603948e-02  2.805878e-01  1.365156e-04  -6.354533e-02  -2.127007e-01  8.545356e-02  1.160308e-01  -3.361812e-02  -2.672909e-01  2.037885e-03  -1.418552e-01  1.913724e-01  2.914152e-01  1.513530e-01  3.246044e-02  -1.576513e-01  1.371443e-01  -1.036311e-02  2.083573e-01  -1.937201e-02  5.339496e-02  1.978801e-01  8.398482e-02  1.985369e-01  -3.434132e-02  4.270805e-02  -7.215702e-02  -6.259559e-02  8.789583e-02  9.834661e-02  1.375395e-01  9.704885e-02  -1.002137e-01  1.783852e-01  -2.381649e-01  5.741306e-02  -1.952106e-01  -1.067338e-01  3.914325e-01  6.261213e-02  2.165780e-01  1.398736e-01  -2.465787e-03  6.971703e-02  -7.167075e-01  7.913411e-02  3.265880e-02  5.401519e-02  1.154436e-01  -2.492075e-01  1.156501e-01  6.681581e-02  1.943478e-01  -9.619095e-03  -1.486956e-01  -8.185334e-02  -6.470012e-02  -9.117089e-02  8.819047e-02  -3.220977e-02  3.368846e-02  1.483364e-01  8.205042e-02  7.246417e-02  -3.427746e-01  -7.722348e-02  2.981071e-01  -5.944972e-02  -1.792972e-01  -2.009988e-01  -1.508477e-01  5.342762e-03  -8.545651e-02  -6.124476e-02  -2.813242e-01  -6.609029e-02  6.434925e-02  -3.703596e-01  -1.311345e-01  -3.093820e-02  -1.605109e-01  -1.287859e-01  -1.994369e-01  -2.537524e-01  -2.133429e-01  1.185612e-02  -2.743943e-01  1.242013e-01  -3.164076e-01  5.979943e-02  -2.232395e-02  7.786437e-02  -1.233101e-02  -1.063554e-01  -3.269496e-02  1.848981e-02  -6.131677e-02  -1.664834e-01  -1.267968e-01  4.875332e-02  1.000720e-01  6.737822e-02  -7.651888e-02  -1.629705e-01  -4.933768e-02  -3.712441e-02  1.939324e-01  1.104549e-02  2.028982e-01  -8.413761e-02  9.866736e-02  -3.703039e-01  -1.360653e-01  1.032134e-03  2.298165e-02  -3.511663e-02  -4.211903e-01  -8.870103e-02  2.617013e-01  -1.092279e-01  3.632680e-02  -5.755521e-02  2.729844e-02  -2.701690e-01  1.663654e-01  -4.031501e-01  -2.515785e-01  4.583708e-02  1.887127e-02  4.907191e-01  5.115536e-02  8.647414e-02  1.343867e-01  1.397129e-01  -1.396224e-01  -2.971075e-02  1.439104e-02  3.133637e-02  7.082034e-02  3.532299e-02  1.949190e-01  -2.863875e-02  -1.108125e-01  1.608669e-01  -2.929962e-02  8.260191e-02  5.079997e-02  1.505547e-02  2.815067e-02  -2.717945e-02  8.122341e-02  3.932818e-02  1.067683e-01  2.762775e-01  7.434535e-03  1.678652e-01  -8.850473e-03  -2.208014e-01  3.491621e-01  -8.498338e-02  1.011923e-01  7.384118e-02  -1.655536e-02  -3.269035e-02  -2.150100e-01  1.987652e-01  5.833862e-02  2.989761e-01  2.106953e-01  1.301224e-01  1.227150e-01  -3.715703e-01  1.110505e-01  4.202614e-01  1.067224e-01  -1.080783e-01  5.462308e-03  -7.407355e-02  2.743925e-01  2.799864e-02  -4.286940e-02  8.068013e-02  -3.128893e-01  2.539877e-01  1.485628e-02  2.714573e-01  2.779903e-02  -8.328758e-04  -1.949135e-01  1.110826e-01  2.183145e-02  1.268714e-01  4.981332e-02  -1.611333e-01  -1.073586e-01  8.329079e-02  2.283010e-01  -6.862566e-03  -2.035458e-01  -1.438290e-02  -1.156493e-01  -9.879764e-02  4.586507e-02  -3.498511e-01  -8.476516e-02  7.294834e-02  2.561407e-01  4.436101e-02  2.021366e-01  -6.464228e-02  2.326515e-01  -2.129580e-01  2.596658e-01  2.883952e-01  -1.299910e-01  -1.123300e-01  1.004847e-01  1.594929e-02  7.435691e-02  1.248816e-01  -1.564752e-01  6.282844e-02  -1.726168e-01  3.528633e-01  6.756196e-02  4.148624e-01  1.031031e-01  -2.209335e-01  -4.622784e-02  -9.557757e-02  -9.196815e-02  -2.077371e-01  -1.185739e-01  3.027395e-01  -1.896835e-01  6.642752e-02  -2.301734e-01  -9.447940e-02  1.789556e-01  1.030347e-01  -1.942576e-01  4.392234e-01  2.092480e-01  -1.314043e-01  7.394509e-03  -1.276841e-01  6.493422e-02  -2.650395e-02  4.513338e-02  3.102748e-01  -1.584576e-01  1.419983e-01  -4.913717e-02  1.546909e-02  1.310854e-01  3.002493e-01  -2.137441e-01  1.227378e-01  -1.024198e-01  1.661949e-01  -1.601039e-01  1.658605e-01  2.009573e-01  2.016197e-01  -8.453736e-02  -3.818735e-03  -3.833985e-01  -7.425936e-02  5.262411e-01  -2.307970e-02  3.886437e-02  -5.199606e-01  1.169644e-01  2.430615e-01  3.211718e-02  -9.160604e-02  3.741082e-01  -8.226758e-02  9.311800e-02  4.456539e-01  5.368083e-02  3.299071e-02  -2.032492e-01  -9.966215e-02  2.390226e-01  -5.803008e-02  -1.088144e-01  9.673400e-02  6.708764e-02  -3.109125e-02  9.490481e-03  -6.381693e-02  -2.215976e-01  1.082068e-01  1.077192e-01  -1.911115e-02  -4.250240e-02  -4.151641e-01  -2.177615e-01  -5.381163e-02  4.655330e-03  1.371241e-01  -1.757223e-01  1.918770e-01  -2.475721e-02  1.264704e-01  2.750510e-01  5.872283e-02  -4.647988e-02  -2.413023e-01  -2.188789e-01  3.744066e-02  6.986342e-02  4.370014e-01  1.974173e-01  -4.459818e-02  -2.902861e-02  1.180608e-01  3.213388e-01  -1.782903e-01  -1.305528e-03  1.767707e-02  -1.961763e-01  -3.197777e-01  -4.105679e-01  1.201306e-01  -8.570910e-02  1.374539e-01  1.370336e-01  -1.544430e-02  7.761817e-02  1.261253e-02  -1.824947e-01  -1.551356e-01  -1.787659e-01  1.965414e-01  1.256062e-01  -1.768655e-01  1.069624e-01  1.675970e-01  8.244283e-03  -2.905144e-02  2.463312e-02  -1.055646e-01  2.360214e-02  -6.629995e-02  5.911821e-02  -2.213360e-02  -3.286144e-02  -1.974794e-01  1.985774e-01  5.144006e-02  -1.567900e-01  1.281994e-01  2.411361e-01  -7.048482e-02  6.114830e-03  1.060213e+00  5.771247e-03  -1.651761e-01  -1.709403e-01  1.094061e-01  -1.502171e-01  4.173485e-02  8.031704e-02  3.600494e-02  5.823358e-02  -3.921107e-02  -2.334663e-01  -3.193167e-02  2.094411e-01  7.649970e-03  -9.874045e-02  -1.138047e-01  7.569425e-02  4.660777e-02  -1.553075e-03  2.053126e-01  1.535708e-01  -1.514633e-01  8.662431e-02  -3.531069e-02  -2.440890e-01  -5.806864e-02  -3.426192e-01  1.507752e-01  9.508952e-02  2.415306e-02  -7.848912e-02  -1.055099e+00  1.390370e-02  -8.711829e-02  -5.617705e-02  -2.307756e-03  -1.078489e-01  1.052611e-01  1.682649e-01  -2.229014e-01  1.668337e-01  2.187241e-01  1.072795e-01  2.118214e-01  -1.411662e-01  -4.903875e-02  2.158699e-02  -1.941062e-01  1.096880e-01  1.757112e-01  -1.813181e-01  1.846429e-01  3.970126e-01  2.743327e-01  1.436012e-02  -3.401244e-02  -1.583685e-01  2.426536e-01  -1.634952e-01  -1.704550e-01  6.885306e-02  4.070139e-03  1.129689e-01  -1.087447e-01  -1.709979e-01  1.285241e-01  -4.913700e-02  -1.074837e-02  -3.995321e-02  8.754022e-02  1.254340e-01  -8.136781e-02  -1.196195e-01  -5.593676e-02  2.864591e-03  -5.597223e-02  -2.808845e-02  -2.391890e-02  -1.661098e-01  2.409220e-01  -8.404890e-02  -3.416140e-02  -3.366229e-02  -4.682587e-02  -2.719114e-01  1.556552e-02  -1.390074e-03  6.967427e-02  -1.287857e-01  -4.635256e-02  -1.205043e-01  1.367257e-01  -3.182024e-01  1.532807e-01  2.206802e-01  1.021356e-01  -1.492041e-01  7.840637e-02  -1.355547e-01  1.066033e-01  1.706200e-02  4.196349e-03  1.105046e-01  1.095588e-01  -1.625403e-01  1.150168e-01  -9.987250e-02  2.069661e-02  -1.175351e-01  6.724678e-02  1.666406e-01  4.087369e-02  1.206180e-01  1.495438e-01  -2.278465e-02  5.887283e-03  1.020518e-01  1.233260e-02  -1.916624e-01  7.497880e-02  1.324563e-01  -2.608177e-02  -9.172978e-02  -1.345242e-01  3.791007e-02  1.341341e-01  4.390846e-02  -2.321264e-01  5.962901e-02  1.650236e-01  5.087581e-02  1.915239e-02  -2.164221e-02  -3.269433e-02  -6.449233e-02  -7.792550e-02  -5.442075e-02  -8.604710e-02  -5.268191e-02  -1.313100e-01  4.111696e-04  -5.115039e-02  2.271844e-01  1.290895e-01  2.013760e-02  3.492496e-02  4.263524e-03  1.637225e-02  2.058011e-01  1.685885e-01  -2.124798e-02  2.657421e-01  2.411922e-02  -2.121306e-01  5.060681e-02  -4.530523e-02  7.628774e-02  -9.667750e-02  7.098045e-02  1.593488e-01  -5.183725e-02  -8.955503e-02  1.736007e-02  6.177045e-02  1.131683e-02  -1.644068e-01  -1.392819e-01  -3.716878e-02  1.496396e-01  3.184706e-02  -8.273643e-02  -2.045723e-01  -1.470751e-01  6.299352e-02  -1.301285e-01  -4.636698e-03  4.200497e-02  -1.897778e-01  -5.414964e-02  -1.044082e-01  -3.156843e-01  -2.505459e-02  -3.664244e-02  7.728945e-02  -2.016408e-01  4.726157e-02  1.065315e-01  2.205991e-01  -2.140214e-01  1.054873e-01  -9.535741e-03  -1.726013e-02  3.423150e-01  8.241155e-02  1.198393e-02  1.870566e-01  2.177148e-01  4.997694e-02  -2.650777e-01  3.571653e-02  5.217985e-02  -3.788804e-02  2.441178e-01  -6.072137e-02  5.418394e-02  -1.197136e-01  3.855126e-02  -1.851666e-01  -2.489203e-02  -3.129278e-02  1.014471e-01  -1.124820e-02  3.125651e-01  -1.823646e-01  -6.902331e-02  3.289614e-02  -1.108242e-01  4.178366e-02  4.915737e-02  -5.110411e-02  4.084294e-01  -2.418606e-01  -4.290900e-02  -9.277920e-02  -3.905343e-01  -1.200805e-01  -1.665523e-02  -1.270899e-01  -6.718402e-02  -8.686661e-03  -1.150406e-01  -1.843999e-02  8.288773e-02  -5.436753e-03  1.345111e-01  -6.627358e-03  -1.774137e-01  -1.137529e-01  -2.873584e-01  1.316004e-01  -2.133514e-01  1.644585e-01  -2.772438e-01  1.160065e-01  -8.616373e-02  -7.952414e-02  7.646191e-02  1.521557e-01  -5.005192e-02  -1.370050e-01  7.056098e-02  -7.310576e-02  -1.060082e-01  -1.683593e-01  -1.006293e-01  -3.267772e-01  -1.928713e-01  -6.738020e-02  -8.669817e-02  1.155480e-01  5.638430e-02  5.385860e-02  7.421963e-02  1.040168e-01  1.851572e-01  -2.996929e-01  -1.231363e-01  -2.881882e-02  2.415418e-02  -4.601812e-02  -9.251282e-02  -9.409681e-02  2.662428e-01  6.481721e-02  -2.878736e-02  5.206270e-04  7.935941e-02  -5.181374e-02  -1.209684e-01  -2.885026e-01  -3.876122e-02  2.542868e-01  8.211718e-02  9.708617e-02  8.384225e-02  -1.021126e-01  -2.007375e-02  -1.311699e-01  -8.952722e-02  1.031947e-01  1.234651e-02  -3.022195e-02  -1.979785e-01  2.345221e-01  4.072463e-02  3.328213e-02  -1.197731e-01  -5.394607e-03  -2.433050e-02  1.026236e-01  -3.432831e-02  -1.587468e-02  9.610912e-02  -4.729824e-02  -1.227663e-01  -9.964558e-03  -1.669892e-01  2.176674e-02  -5.633654e-03  -5.770698e-02  1.373446e-01  -2.523398e-01  1.074775e-01  6.295774e-02  -4.217264e-02  8.619615e-02  2.828172e-01  -1.110884e-01  6.792837e-02  1.893002e-02  -5.384620e-01  -2.340173e-01  -9.249322e-02  5.510842e-02  -2.651046e-01  -6.492735e-03  5.934627e-01  8.950234e-02  -5.905495e-02  -1.769015e-01  -2.609087e-01  1.876400e-01  -2.199955e-01  -2.553510e-01  -1.240465e-01  3.523729e-02  -3.308030e-02  5.486336e-02  -1.319016e-01  -2.946530e-02  -5.400253e-02  -6.169466e-04  -1.828984e-01  -1.314772e-01  3.123901e-02  -2.770960e-01  8.998594e-02  -7.211202e-02  -1.668983e-01  2.960695e-01  4.381006e-02  -2.285787e-03  -1.665432e-02  -8.873986e-02  4.051889e-03  1.414317e-01  1.654019e-01  1.152299e-01  1.192029e-01  1.121911e-01  -1.170394e-01  3.777133e-02  6.302097e-02  4.420471e-04  6.890718e-02  6.305879e-03  3.685212e-01  8.388297e-02  1.668093e-01  -4.024679e-02  1.693341e-01  1.479430e-01  2.703314e-02  1.142254e-01  -4.492526e-02  1.095186e-01  5.113120e-02  -6.384803e-02  6.774020e-02  -8.807615e-02  -3.305293e-02  1.849464e-01  1.261602e-01  -1.137002e-01  1.544225e-01  1.191106e-01  -1.209847e-02  1.356804e-01  8.598113e-02  -8.402599e-02  -1.199195e-01  9.272963e-02  -1.286639e-01  1.749815e-01  1.674539e-02  1.554829e-02  -8.287732e-02  1.740413e-01  2.071190e-01  5.843237e-02  -2.072168e-01  -1.045348e-01  -2.723574e-01  1.681348e-01  1.011627e-01  2.663436e-01  -2.923611e-01  4.537064e-01  2.954475e-01  -1.565337e-01  1.009677e-01  -1.599543e-01  -3.523919e-02  3.700240e-02  6.827079e-02  3.394481e-02  9.672670e-02  1.280659e-01  -1.715730e-01  1.294199e-01  -3.032432e-02  -3.033909e-03  -6.770924e-02  -8.507904e-02  1.559964e-01  -3.031708e-02  -1.757855e-02  -1.727576e-01  2.108358e-02  -3.932635e-02  7.233698e-02  1.327311e-01  4.499638e-02  1.965714e-02  7.600514e-02  2.283108e-02  -1.371248e-01  5.073529e-02  -9.457949e-02  2.381644e-01  -1.075090e-01  9.735039e-02  3.035624e-01  4.030355e-02  -8.582900e-02  1.966867e-01  6.053276e-02  3.263790e-01  -1.593589e-02  1.452472e-03  -1.818544e-01  9.685405e-03  2.912455e-01  -2.464475e-01  -2.041872e-01  8.404709e-02  3.274326e-01  -2.843973e-01  1.391837e-01  -2.474914e-01  6.224062e-02  5.961914e-02  1.909012e-02  4.589055e-02  -6.522579e-02  -4.479975e-02  -1.444321e-01  8.608261e-02  6.695965e-02  -6.283369e-02  -2.213706e-01  3.385031e-01  3.382482e-02  -9.825657e-02  -2.363981e-01  -2.833768e-01  8.323756e-02  -1.847824e-01  3.400044e-01  -1.770105e-01  -2.552232e-01  -9.576140e-02  -6.972718e-02  -1.097804e-01  1.456944e-01  -6.141145e-03  -1.309222e-01  -7.455054e-02  2.088940e-01  -6.695505e-03  -1.514951e-02  1.559540e-01  -2.429055e-01  -4.049069e-01  6.103983e-02  -3.761775e-03  9.971841e-02  1.157443e-01  8.970834e-02  7.841790e-02  -1.261322e-01  1.189440e-01  -1.600131e-01  9.504712e-02  -2.620233e-01  1.296118e-01  1.392271e-01  6.939842e-02  -9.855487e-02  -2.181671e-01  -4.654570e-03  -1.753640e-01  5.703696e-02  -1.454881e-01  5.240262e-04  1.479479e-01  3.812867e-02  3.730070e-02  -1.151869e-01  -2.155795e-01  2.385047e-01  -2.678897e-01  -8.883795e-02  2.163258e-01  4.266520e-01  -4.904817e-03  1.000203e-01  -2.264599e-01  2.911654e-01  3.992689e-02  -4.569355e-02  3.101488e-01  6.393067e-02  5.645608e-02  -1.948703e-01  -3.846887e-01  1.836490e-01  1.093796e-01  7.312451e-02  8.114381e-02  5.183198e-02  -1.378364e-01  1.794551e-03  2.182608e-01  3.379679e-02  6.427643e-02  -1.890818e-01  1.470458e-01  -5.168020e-02  -1.256220e-01  -1.267926e-02  -1.130997e-02  -6.061923e-02  -3.016758e-01  2.372315e-01  1.010293e-01  3.512057e-02  1.776779e-01  1.686731e-01  -7.674590e-02  2.478744e-01  1.061614e-01  -2.292337e-01  1.019754e-01  -3.286018e-01  -1.106293e-01  1.645415e-01  -1.949100e-01  -9.661693e-02  -5.504584e-02  1.084666e-01  3.470101e-02  -1.563550e-01  1.553321e-01  -2.062883e-01  1.129014e-02  9.324297e-03  -1.015115e-01  1.840741e-01  1.216306e-01  1.510937e-02  -2.858450e-01  3.401220e-01  2.894142e-01  1.527798e-01  2.327961e-02  -8.811487e-04  8.574753e-02  2.126189e-01  2.013311e-02  9.695876e-02  -1.813885e-01  -1.009820e-01  -5.674835e-02  -1.102952e-01  1.833836e-02  1.803432e-01  1.299562e-01  -4.037916e-01  1.770356e-02  1.409357e-01  -1.646085e-01  1.217576e-01  -2.262272e-01  6.478284e-03  1.094117e-01  -1.606658e-02  -4.760173e-02  2.067679e-01  -9.224148e-02  1.385986e-01  -1.544441e-01  1.102582e-02  -7.491715e-02  -5.934093e-02  -1.188301e-01  1.879094e-01  1.145096e-01  5.852431e-02  8.178470e-04  -2.249974e-02  4.773454e-02  1.235413e-01  9.849194e-02  -1.360611e-01  -1.245456e-02  9.571546e-02  -1.861411e-02  2.033288e-01  2.822534e-01  -1.186031e-01  -4.107323e-02  -3.839068e-02  3.143186e-02  1.113108e-01  2.403858e-01  -1.006006e-01  2.256304e-02  -1.017856e-01  1.873153e-01  -1.964737e-01  -3.053583e-02  -2.372920e-03  7.494149e-02  2.969197e-02  2.075942e-01  -2.792749e-01  4.362473e-02  1.305541e-01  1.477501e-01  -1.552860e-01  2.283194e-01  1.068482e-01  -6.518169e-02  -1.232002e-01  -7.395104e-02  4.690361e-02  -1.521405e-01  1.055961e-01  1.250743e-01  8.752573e-02  -9.123910e-02  -9.251101e-03  1.365647e-01  -1.294611e-01  2.894024e-02  -4.224099e-02  2.694103e-01  -5.577813e-02  8.700550e-02  -2.039876e-01  3.460158e-01  1.601816e-01  2.596430e-01  -1.072122e-01  -2.198343e-02  -2.622001e-01  5.158229e-02  7.020482e-02  1.149030e-01  -1.318767e-01  -2.670877e-01  2.575258e-01  2.557194e-01  1.036301e-01  -1.006390e-01  7.019205e-02  3.957421e-02  -1.055411e-02  2.093136e-01  2.512612e-02  -1.085008e-01  -2.051143e-01  -8.504763e-02  6.489803e-02  4.720471e-02  -1.704332e-01  2.687047e-01  5.629677e-02  9.502997e-02  3.473105e-02  1.093665e-01  9.905258e-04  2.416746e-01  1.147910e-02  -9.415845e-02  2.097246e-01  1.846602e-01  1.201391e-01  -1.081705e-01  -2.113050e-01  8.774978e-03  1.610588e-01  7.585759e-02  1.142510e-02  -2.008452e-01  -2.535019e-03  7.690264e-02  1.578730e-01  -1.765184e-01  -3.537807e-02  1.316859e-01  1.011498e-01  9.097693e-02  3.233914e-01  1.036197e-01  1.169664e-01  8.772628e-02  6.413139e-02  1.635530e-01  3.590869e-02  -5.738709e-02  2.751355e-01  -1.991448e-01  1.048291e-01  3.002916e-02  2.752756e-02  7.766873e-02  -3.464805e-02  -4.103974e-02  -2.911965e-02  -1.214105e-01  -2.312611e-01  -2.284777e-01  1.793773e-01  -9.730498e-03  1.372354e-01  -3.442647e-02  -6.848076e-02  -1.055348e-01  -3.435619e-02  1.761820e-01  -2.190153e-01  1.160196e-01  -1.968620e-01  -1.280837e-01  1.493790e-01  -1.465423e-01  2.182666e-02  1.606890e-01  -1.750554e-02  1.409873e-01  -8.543660e-03  8.168704e-02  -2.127312e-01  9.442047e-02  -5.061011e-02  -2.600649e-01  -1.661632e-01  -6.834239e-02  9.264535e-02  1.449657e-01  -5.716898e-02  -8.971289e-02  -1.739507e-01  -1.701702e-01  1.076339e-02  -1.803784e-02  -5.825850e-02  1.746103e-03  2.681665e-01  -9.002662e-02  -1.539748e-01  2.181447e-02  8.425441e-02  2.748089e-02  6.493032e-02  1.042528e-01  -1.587680e-01  -1.175799e-01  -1.653003e-02  1.191775e-03  1.716977e-02  2.147215e-01  -1.091558e-01  2.554624e-01  7.384748e-02  -6.892907e-02  -5.567665e-04  3.352176e-01  1.189340e-02  1.916537e-01  -6.674635e-02  1.298909e-01  -5.681747e-02  -2.201737e-02  -1.103663e-01  -1.128761e-01  -3.671119e-02  -2.898906e-02  7.605281e-02  6.021962e-03  7.847932e-03  1.903910e-02  -2.566410e-02  1.607305e-01  1.366277e-02  1.680462e-02  -4.950887e-02  -8.813812e-02  -3.350778e-04  4.450131e-03  9.408329e-02  -3.156498e-01  1.843288e-01  1.216345e-01  -1.716473e-02  -9.091244e-02  6.948431e-02  1.900356e-01  1.071752e-01  1.490990e-01  -5.497447e-02  1.831642e-01  -5.670344e-02  2.225279e-01  2.017536e-01  8.621465e-02  8.069098e-02  3.814490e-02  4.140842e-03  -1.570370e-01  -6.854504e-02  -8.209525e-03  -3.332852e-02  1.433935e-01  -1.179340e-01  2.236656e-01  7.743553e-02  -2.016076e-01  -1.706416e-01  -5.436562e-01  -9.033971e-02  7.685299e-03  -5.598884e-02  4.695391e-02  -5.127795e-02  2.417710e-01  -2.139033e-01  1.594645e-01  -2.100165e-01  2.467213e-01  7.795372e-02  -1.126444e-02  1.375667e-01  -1.221684e-01  -1.312888e-01  -1.959885e-01  -3.072766e-02  2.968156e-02  1.943444e-01  1.292305e-01  1.594768e-01  -2.192257e-01  -1.816036e-01  1.402002e-01  -1.037201e-01  4.555479e-02  5.202746e-02  -5.982720e-02  -1.115802e-01  2.210086e-01  -7.481794e-02  -2.705579e-02  2.341561e-01  -2.941116e-02  -1.169297e-01  -8.772019e-02  6.434858e-02  2.790260e-02  1.534735e-01  -1.445304e-02  1.564860e-02  -1.582949e-01  6.858747e-02  -4.502219e-01  1.140186e-01  2.224895e-01  -2.179474e-03  5.523271e-02  -2.913853e-02  1.996308e-01  8.189198e-02  -2.034569e-01  -2.309594e-02  -5.378516e-02  2.091036e-02  -1.226613e-02  4.788890e-02  -6.189056e-04  -8.589461e-02  5.272965e-02  2.039743e-01  -1.279772e-01  1.326455e-01  -1.213603e-01  -1.159072e-01  -4.836477e-02  1.198993e-01  -1.497607e-02  1.055368e-01  3.285694e-02  2.285550e-01  4.199829e-02  -8.178454e-02  -7.265680e-02  2.277489e-01  6.129279e-01  2.314859e-02  -3.441545e-03  -4.917872e-02  2.648584e-02  -6.025775e-02  8.429091e-02  -4.873734e-02  9.328198e-02  -1.168197e-02  -4.810568e-03  -5.917557e-02  3.216816e-02  2.219763e-01  2.255836e-01  1.607207e-01  2.770842e-01  7.416189e-02  -1.716332e-01  -6.970558e-02  -2.716614e-01  -2.729658e-01  -2.962205e-02  -3.953653e-02  -2.119621e-02  5.371308e-02  -2.865710e-01  6.237785e-02  1.664850e-01  -2.445120e-02  -5.058596e-02  -3.345246e-01  -4.875617e-02  4.013981e-01  -9.245047e-04  1.288645e-01  -3.093435e-01  -6.526914e-02  -8.776241e-02  -1.892441e-01  1.717106e-02  1.000520e-01  2.349568e-01  2.929267e-01  2.269021e-02  2.454021e-01  -4.528966e-02  4.466859e-03  -5.994800e-02  -3.447345e-01  3.743866e-02  2.202259e-01  2.784043e-01  1.215409e-01  -1.404081e-01  3.845933e-03  -6.974809e-02  2.044869e-01  -1.084510e-01  -7.456927e-02  -1.452687e-01  2.475620e-01  -4.137967e-01  -1.267579e-01  -4.762377e-02  -4.597412e-02  3.972209e-02  1.526937e-01  1.106283e-01  7.861367e-02  -2.987737e-02  2.759525e-02  -2.137815e-01  -6.246876e-02  8.386729e-02  2.074843e-01  -1.479166e-01  -1.034122e-01  4.552321e-01  -3.409341e-01  7.063181e-02  -7.339364e-02  -2.310726e-01  7.264892e-02  -2.486095e-01  -2.658602e-01  9.391325e-02  -5.163318e-02  -3.105565e-01  1.767841e-01  1.988154e-01  -2.105260e-01  2.410033e-01  1.056159e-01  3.019328e-02  -9.541844e-02  8.843711e-01  -2.440631e-01  -2.564950e-01  1.462042e-02  1.965022e-01  -8.822987e-02  3.194948e-02  1.457255e-01  1.609991e-01  1.140478e-01  9.248289e-02  -7.350634e-02  -9.116884e-02  5.173471e-02  -8.118533e-02  8.827699e-02  -1.862902e-01  -2.782370e-02  1.111660e-01  8.687214e-03  4.806225e-02  2.201633e-01  -1.051759e-01  1.331048e-01  -7.398242e-02  -2.608664e-01  4.860866e-02  -2.032765e-01  2.754228e-01  1.413084e-01  7.457715e-02  -2.421912e-01  -8.793472e-01  4.835844e-03  -3.579493e-02  -2.536626e-01  2.164035e-01  -6.722888e-02  -2.845569e-02  3.363043e-01  -8.648346e-02  9.428088e-02  1.794170e-01  1.032327e-01  2.320077e-01  1.052007e-01  1.105089e-02  1.783851e-01  6.195946e-02  2.477600e-01  1.191671e-01  -5.462566e-02  2.855501e-02  4.506607e-01  1.647383e-01  1.755270e-01  -1.229407e-01  2.977233e-02  1.324565e-01  1.224467e-01  1.910455e-01  -1.367211e-01  1.415920e-03  -3.993110e-01  -9.157821e-02  1.450813e-01  7.065539e-03  6.421321e-02  -4.503059e-01  -8.507327e-02  -1.988720e-01  8.207640e-02  7.781415e-04  -1.061886e-01  2.855021e-01  1.032151e-01  -3.951514e-02  9.138617e-02  -1.298325e-01  -5.828741e-02  -1.148439e-01  -3.650655e-01  1.202633e-01  2.254537e-01  4.565629e-01  2.992348e-01  1.191635e-01  -1.064115e-01  5.412905e-02  3.290480e-01  -1.203878e-01  3.177967e-02  4.046510e-02  -1.343599e-01  -2.822220e-01  -3.823430e-01  3.336544e-02  -2.950445e-02  8.308833e-02  3.038871e-01  -5.653084e-02  -1.074436e-01  -1.006616e-01  5.880903e-02  -8.538026e-02  -3.910410e-02  1.234727e-01  1.662110e-01  -8.172859e-03  -5.053749e-02  -4.891858e-03  -3.253261e-01  2.349958e-01  -1.096487e-01  -3.056064e-02  -1.265652e-01  -1.331461e-01  -2.187046e-01  -1.202180e-01  1.526960e-01  -3.113001e-01  2.723858e-01  9.304874e-02  -1.585435e-01  1.394820e-01  1.779268e-01  -7.858742e-02  -9.456000e-02  1.052479e+00  -6.475628e-02  -1.470378e-01  -2.122530e-01  1.942843e-01  -6.218419e-02  -3.731361e-02  9.367453e-02  5.761826e-02  2.675758e-02  -1.729407e-02  -1.922332e-01  7.484017e-02  -7.651186e-02  -1.660671e-01  -1.394582e-01  2.053551e-02  5.290245e-02  -1.455654e-01  3.049246e-03  6.265207e-02  1.666856e-01  -2.366220e-01  7.322005e-02  4.217470e-02  -1.475706e-01  -5.662401e-02  -1.919954e-01  1.365427e-01  1.986836e-01  3.933626e-02  -3.617697e-01  -1.365582e+00  -7.781550e-02  2.950706e-02  -1.726532e-01  -9.593178e-02  -7.260243e-02  -6.108169e-02  1.786013e-01  -7.742281e-02  2.134372e-01  -2.089492e-02  1.429087e-01  -2.126177e-03  4.881832e-02  -5.681600e-02  -1.854751e-02  -5.569268e-02  -7.777105e-03  1.435014e-01  2.712491e-02  1.958927e-01  4.445052e-01  2.649971e-01  4.704067e-03  -4.934711e-02  -2.438913e-01  2.010773e-01  -1.544679e-01  -1.484446e-01  -1.393669e-01  8.048353e-02  1.081559e-01  -1.418349e-01  -2.305421e-01  -1.097767e-01  -1.074428e-01  8.818981e-02  -9.114618e-03  5.788526e-03  -8.375518e-02  1.193702e-01  -8.853673e-02  -2.364513e-01  -7.053684e-02  -7.629966e-02  1.685685e-02  7.101610e-02  1.695072e-02  8.523323e-04  1.484707e-01  -8.129992e-02  -3.056104e-01  -1.749229e-01  -1.697057e-01  9.590448e-02  1.379819e-01  -2.538694e-01  -9.501380e-02  -1.547518e-02  -2.045991e-01  -1.134245e-01  3.104495e-02  3.468764e-02  2.498824e-01  -1.283683e-01  1.814629e-02  -2.030976e-01  -1.428048e-01  1.572726e-01  -4.936402e-03  -8.526735e-02  -1.238969e-02  7.092465e-02  1.142593e-01  -2.098906e-01  -8.505920e-02  1.897758e-01  1.148546e-01  -1.319244e-01  2.256772e-02  1.994907e-02  -1.011551e-01  7.967842e-02  2.418688e-02  -9.040564e-02  7.807305e-02  -1.894872e-03  -8.001543e-02  -2.770405e-02  -2.281456e-02  2.105924e-02  5.822778e-02  1.209908e-02  -6.758822e-04  -1.211293e-01  6.773423e-03  -4.291959e-01  -6.658265e-02  7.197296e-03  1.183712e-01  -3.086113e-02  -7.438059e-02  3.222753e-02  9.937930e-02  -4.947592e-02  1.076443e-01  2.233292e-02  -2.314344e-02  1.456807e-01  6.752098e-02  8.570083e-02  2.033979e-01  4.630182e-02  -1.141807e-01  -2.104568e-01  1.227116e-01  3.699038e-02  -1.762296e-01  5.576444e-02  -8.940588e-02  -3.041914e-02  1.729229e-01  7.833311e-02  2.051824e-01  1.003462e-02  -1.862777e-01  -1.225429e-01  1.614258e-01  5.121109e-01  -6.488959e-02  8.603168e-02  -1.149093e-01  5.091980e-02  -7.171424e-02  3.070748e-02  7.752655e-02  1.275023e-01  1.960939e-01  -2.790670e-01  5.405803e-02  2.663801e-02  1.362441e-01  6.564816e-02  -8.848223e-02  1.657148e-01  2.279059e-02  -1.655604e-02  6.929234e-02  -1.627105e-01  -1.684362e-02  -4.007288e-02  -9.189256e-02  2.169534e-01  7.814864e-02  -1.888093e-02  1.750042e-02  -7.917888e-03  1.172325e-01  -1.825456e-01  4.233238e-02  -2.093634e-01  1.133780e-01  -8.934428e-02  -1.705632e-01  -2.022430e-02  -1.050597e-01  2.941271e-01  -2.245159e-01  -2.342602e-01  6.092742e-02  2.165815e-01  3.807621e-02  -9.682653e-03  -1.483223e-01  -1.487485e-01  -1.948260e-02  7.392919e-02  -2.194804e-02  -1.414322e-01  5.920017e-02  -2.281722e-01  -1.140273e-01  1.013361e-01  -5.608427e-02  -8.569346e-02  -1.731556e-01  6.533089e-02  -3.704274e-02  1.114313e-01  1.479683e-01  9.595715e-02  -2.025821e-01  -8.927277e-02  -1.928722e-01  -5.298311e-02  9.771200e-02  1.209255e-01  -1.362348e-02  1.313898e-01  1.260960e-01  -7.482120e-02  4.930703e-02  -6.213958e-02  -6.782830e-02  5.895792e-02  -1.489644e-01  6.142427e-02  1.670694e-03  -2.838019e-01  -1.689550e-02  2.030457e-01  5.986239e-02  1.930866e-01  -2.046723e-02  -9.555527e-02  9.878395e-02  9.051919e-04  -1.644541e-01  -1.880019e-01  -8.604215e-02  -2.534492e-01  9.883523e-02  4.298022e-02  8.770300e-02  -1.194179e-01  2.157436e-02  2.101050e-01  2.813841e-03  -2.480021e-01  2.165028e-01  -2.179255e-01  1.424534e-01  -1.004667e-01  -1.985218e-01  -1.548568e-01  -1.832838e-02  -2.310113e-01  -5.441411e-02  1.518509e-01  -4.453898e-02  5.189469e-02  -1.782537e-01  3.917268e-04  1.442894e-01  -2.469327e-01  -2.757964e-02  1.081780e-01  9.351101e-02  -1.855764e-01  5.627747e-02  -1.636151e-01  1.969882e-01  -1.437462e-01  -1.034626e-02  6.051085e-03  1.845084e-01  -2.456539e-01  -2.097690e-02  -2.193751e-01  1.695731e-02  -1.562161e-01  2.048379e-01  1.014183e-01  -1.726553e-01  1.022518e-01  4.486386e-03  3.462707e-01  -9.173802e-02  -5.540744e-02  -2.099431e-01  -5.262321e-04  -8.174114e-02  -6.595617e-02  -5.938391e-02  -2.421428e-01  1.839784e-01  1.046265e-02  -2.330612e-02  1.135603e-01  -1.491576e-01  -1.011131e-01  -1.585172e-02  -3.288089e-01  1.789051e-01  1.785140e-01  -1.006982e-01  -7.269856e-02  -1.084856e-01  -9.321533e-02  1.953710e-01  -1.670455e-01  -2.403833e-02  -2.360677e-01  -1.354180e-03  -3.731987e-03  -3.255023e-01  -1.053933e-01  3.251682e-02  1.480765e-01  -8.682585e-02  -7.167912e-02  6.168934e-02  -1.211565e-01  2.267664e-01  -2.342113e-01  1.210676e-01  2.688144e-01  5.042237e-02  7.222215e-02  8.104608e-02  -4.710115e-02  3.560548e-02  2.034619e-01  -6.616741e-02  -1.307224e-01  -7.588126e-02  -5.901690e-02  -1.000847e-01  -1.624080e-02  -1.094189e-01  2.884364e-01  -2.988221e-02  5.819115e-02  1.521843e-01  7.791903e-02  -1.184255e-01  -5.050118e-02  -2.047730e-02  -1.691042e-01  -9.095308e-02  4.626129e-02  1.192607e-01  -1.711703e-01  -9.476010e-02  -5.469250e-02  -1.029308e-02  1.084638e-01  -4.989294e-02  -9.096067e-02  -7.160272e-02  -9.550259e-02  -1.350505e-01  -5.137805e-02  6.742653e-02  -1.198399e-01  1.539548e-01  -1.555833e-01  -8.752422e-02  -1.088909e-01  -3.831362e-02  1.478740e-01  -9.791618e-02  1.933685e-01  -2.106580e-01  -1.800172e-02  -2.248648e-02  -1.653671e-01  2.893810e-02  -1.040819e-01  1.072431e-01  -3.643958e-02  -1.929992e-01  1.484849e-01  3.308449e-02  -2.968047e-01  -2.106538e-01  5.230615e-02  -9.145404e-02  -2.172194e-01  2.099683e-01  2.784943e-01  3.435414e-02  1.367129e-01  1.176501e-01  1.698592e-04  4.314049e-02  -1.633562e-01  -1.291904e-01  -9.379760e-02  -1.910318e-01  1.923921e-01  1.512691e-01  2.010762e-01  -3.256683e-02  -2.000394e-01  4.858008e-02  -1.954894e-01  3.015941e-01  9.554686e-02  -2.016564e-01  -6.379540e-02  -2.332488e-01  -1.130891e-01  -1.547826e-01  1.058426e-01  -3.555570e-02  1.389528e-01  -3.042755e-01  -8.551116e-02  1.174062e-02  -2.145957e-01  -6.040208e-02  6.499120e-02  -4.877143e-02  -3.332969e-02  -3.762468e-02  5.332660e-02  3.090226e-02  -1.250081e-01  -1.068763e-01  -4.310759e-02  3.322701e-01  1.833042e-01  3.122112e-01  -3.573642e-02  -1.030865e-01  4.777775e-02  -6.332407e-01  6.124076e-02  5.497826e-02  3.853117e-01  -5.166239e-02  -8.208660e-02  5.624407e-01  -1.183616e-01  -2.362990e-01  -4.137648e-01  1.318027e-01  -5.329268e-02  -1.214248e-01  -1.343126e-01  2.229443e-01  1.623903e-01  -1.566426e-02  8.440044e-02  -3.001645e-01  -2.890746e-01  -1.382770e-01  -1.617815e-01  -5.553856e-02  1.294819e-01  -8.966976e-02  5.581287e-02  -2.183213e-02  1.538780e-02  6.069086e-02  5.076220e-01  3.401708e-01  2.901037e-01  4.944138e-02  1.773415e-01  1.936840e-03  -3.412682e-01  2.256406e-02  8.247556e-02  -4.795225e-02  1.788978e-01  3.767362e-02  2.546560e-01  2.632063e-01  -1.647517e-01  -5.091099e-01  -2.722228e-01  2.373189e-01  -2.490522e-01  8.869603e-02  1.390844e-01  9.334563e-02  2.049287e-01  4.085778e-01  8.754566e-03  2.500402e-01  6.159360e-01  -1.016653e-01  1.437048e-01  9.836596e-02  -7.975497e-02  -9.161445e-02  -1.528301e-01  -9.005675e-02  -3.883759e-01  6.377403e-02  -3.143348e-01  4.634715e-02  1.235772e-01  -4.906177e-02  4.198310e-02  -3.739538e-02  1.251638e-01  1.418806e-02  2.430872e-01  1.651581e-01  6.308288e-02  -8.863354e-02  -6.956301e-02  1.181566e-01  1.098772e-02  2.423663e-01  1.318996e-01  1.392078e-01  2.935593e-01  2.240060e-01  -8.476050e-02  -2.987846e-01  1.342314e-01  2.012584e-01  -5.119872e-02  1.039470e-01  -9.553223e-02  9.145628e-02  1.176658e-01  -5.756871e-02  5.244947e-01  3.995637e-02  1.048605e-01  1.722272e-01  -1.808401e-01  4.911560e-02  -1.258350e-01  -1.291018e-01  -1.467062e-01  -2.191285e-01  -1.060612e-01  1.909868e-01  1.482672e-01  3.632536e-02  -2.771736e-01  7.566584e-02  -2.209319e-01  -1.603097e-01  -3.797149e-02  -8.616182e-02  -3.332654e-01  -2.852028e-01  -3.897525e-01  2.399704e-02  -5.958211e-02  -1.767552e-01  -2.250214e-01  4.132542e-02  8.886176e-02  -2.271776e-01  -2.165927e-01  -1.900495e-01  -7.532305e-02  5.403113e-01  2.553165e-01  1.340685e-01  -4.435890e-02  2.831309e-01  4.456969e-01  -1.100468e+00  -1.256306e-01  2.267858e-01  -1.238626e-01  2.635160e-01  -1.599758e-01  3.033378e-01  -1.324940e-01  1.975451e-01  8.545171e-02  -5.761958e-02  -1.470243e-01  -8.401332e-02  6.488615e-02  1.487939e-01  -1.416974e-02  3.350686e-01  1.970195e-01  -8.841700e-01  3.716411e-01  -6.651559e-01  1.145185e-01  3.670562e-01  -2.906681e-01  -8.978710e-02  -1.044194e-01  -1.598668e-01  -9.681801e-02  1.218635e-01  -1.207388e-01  -1.856555e-01  4.319877e-01  -1.161161e-01  -2.070345e-02  -1.567380e-01  -1.229228e-01  -7.574438e-01  -4.076888e-03  -2.017702e-01  -1.524924e-01  -3.045642e-03  -1.694149e-01  -4.129464e-02  2.316611e-01  -2.394319e-01  -1.389621e-01  -3.161350e-01  -1.265726e-01  -3.788089e-01  -1.079806e-01  -4.090868e-02  2.227420e-01  2.127874e-01  1.195224e-03  3.047419e-03  -5.250932e-02  2.604072e-02  1.060626e-01  -4.353219e-02  -2.015648e-01  -3.508338e-02  -1.675304e-01  5.828037e-02  1.604379e-01  1.295790e-01  -2.326026e-01  -2.703368e-02  -7.210971e-01  -1.572749e-01  -2.701166e-01  -1.876750e-01  -7.513191e-02  -3.506348e-01  -5.613919e-02  -1.545997e-02  -1.006958e-03  2.038136e-01  -6.916320e-02  1.085573e-01  -1.566621e-01  4.594595e-02  -9.457106e-01  -1.082702e+00  1.432934e-01  -6.285815e-02  2.334148e-01  6.651494e-02  7.312196e-02  -2.203418e-02  -2.078167e-01  -3.934203e-01  7.996827e-02  2.854139e-01  -2.836414e-01  1.656824e-02  8.492178e-03  -1.107100e-01  8.957966e-02  -9.361403e-02  -2.713073e-02  -1.979000e-01  2.407972e-02  -1.484382e-01  2.989365e-02  -1.375503e-01  -1.370596e-01  2.112859e-02  -3.044472e-01  -6.480736e-02  2.355076e-01  -8.204854e-04  -2.122440e-01  8.512545e-02  -9.738334e-02  1.677465e-01  -9.540503e-02  7.430973e-02  -8.857169e-02  1.316605e-01  -4.400472e-02  8.763919e-02  1.723943e-01  -1.284952e-01  2.429532e-01  1.378568e-01  -1.487797e-01  -1.478183e-01  -6.928810e-02  -1.528644e-01  6.256984e-02  -2.285158e-01  1.529077e-01  -9.092101e-02  1.928275e-01  -1.326775e-01  1.603431e-01  -5.071897e-02  -8.400083e-02  1.400021e-01  -2.509602e-02  1.765995e-01  -6.106197e-03  -2.575336e-01  1.785820e-02  -3.469532e-02  -6.634869e-02  -1.205015e-01  -1.295005e-01  1.828521e-01  -1.584026e-01  -4.028322e-01  1.693005e-01  -4.837715e-02  5.626152e-02  1.409028e-01  5.089380e-02  4.417722e-03  2.934865e-02  -9.072980e-02  -9.414235e-02  4.853006e-02  4.310747e-02  -9.162327e-02  6.386540e-02  9.111393e-02  -4.183241e-02  -7.575544e-03  4.524325e-02  1.183195e-01  -3.102192e-02  -8.261357e-02  -1.956108e-01  -1.368591e-01  -2.124877e-01  -3.857384e-02  -3.237402e-02  2.561393e-02  6.963778e-02  5.389673e-01  -7.027876e-02  1.117467e-01  -2.911585e-02  1.129591e-02  7.276382e-02  -2.158485e-01  2.358691e-01  1.190931e-02  1.117565e-02  -5.853967e-02  -2.153822e-02  8.036878e-03  -1.029048e-01  -1.231239e-01  2.943843e-01  1.578489e-01  3.811526e-01  4.966713e-02  5.768215e-02  -4.868780e-01  -9.102259e-02  6.527518e-02  1.170882e-01  -5.928609e-02  1.216067e-01  -2.788064e-01  -1.225899e-01  1.730579e-01  7.629593e-02  -6.690114e-02  -4.449883e-02  -8.623617e-02  1.146947e-02  8.516323e-02  9.615720e-03  -2.518939e-02  1.203512e-01  -1.392766e-01  -2.058665e-01  -8.088579e-02  -2.283727e-02  -2.936805e-02  1.287308e-01  1.726004e-01  -3.248029e-01  1.277784e-01  3.002234e-02  -6.700467e-02  8.682613e-03  -1.266606e-02  6.043713e-02  -2.120096e-02  -4.202168e-02  -6.871574e-02  -2.850530e-01  -2.644500e-02  -4.744782e-03  1.178285e-01  -5.705254e-03  4.128861e-01  -1.016030e-02  9.534038e-03  1.554851e-01  -2.096017e-01  4.602882e-02  -9.191875e-02  -2.145480e-01  8.453220e-02  -1.924221e-02  1.839873e-01  -1.002966e-01  -3.671922e-01  -1.672267e-01  -1.245738e-01  -5.703474e-02  -3.312027e-02  -1.257812e-01  4.646986e-01  -1.158160e-01  -2.555530e-02  -1.455360e-02  -1.520494e-01  3.615091e-03  -2.288985e-03  -8.982681e-02  1.478036e-02  1.352794e-01  5.383414e-02  7.011017e-03  -2.508739e-01  -8.974113e-02  -1.551891e-02  -3.147832e-02  -9.959452e-02  -2.637096e-01  1.445987e-01  -2.338969e-01  1.225898e-01  2.259251e-02  -4.601894e-01  4.201790e-02  1.215132e-02  1.805715e-01  7.379758e-02  -6.391093e-02  -1.280794e-01  -1.232390e-02  2.311981e-01  4.278432e-03  2.935045e-02  1.869023e-01  1.337419e-01  8.010348e-02  -4.299221e-02  -1.950037e-02  2.121481e-01  6.851195e-02  2.456644e-01  1.640765e-02  1.891932e-01  -2.021834e-01  5.912817e-02  4.507483e-02  7.538553e-02  1.319046e-01  -4.516364e-02  -6.538959e-02  -4.096222e-02  -3.887566e-03  -3.588373e-02  1.097440e-02  6.892113e-02  1.541867e-01  3.756187e-02  8.792338e-02  -9.052928e-04  -5.080361e-03  4.513898e-02  -7.916500e-02  -1.539646e-01  2.967955e-02  3.965797e-02  7.234789e-02  6.580000e-02  1.201398e-01  4.167659e-03  -4.410790e-02  5.236730e-02  2.295065e-01  2.950512e-01  4.518497e-02  -1.804073e-01  -1.246015e-01  -1.885828e-01  2.486539e-02  3.832659e-02  2.415181e-01  -6.457441e-02  4.031463e-01  8.882508e-02  -1.646672e-01  6.948600e-02  -2.730696e-01  -3.158280e-02  -1.504444e-01  -1.282530e-01  6.754077e-02  1.068335e-01  2.958623e-02  -3.611367e-02  1.079045e-01  4.981121e-03  -9.779255e-02  -1.541755e-02  1.935930e-01  3.193110e-02  -1.344625e-01  1.146061e-01  -2.668767e-02  -1.707576e-01  -3.165720e-02  -1.484812e-01  -1.736355e-01  6.709006e-02  -2.665851e-02  -4.393374e-02  -1.561543e-01  -3.490204e-01  -9.576082e-02  -1.141476e-01  1.884019e-01  -3.083876e-01  1.656538e-02  1.662253e-01  1.211680e-01  1.324092e-01  2.283174e-01  -1.026377e-01  3.209513e-02  -3.722278e-01  -1.985133e-01  1.064484e-01  -5.715811e-02  -2.674640e-01  -1.371432e-01  1.596212e-01  1.328367e-01  -2.478849e-02  5.667039e-02  -1.030421e-01  1.349913e-01  -8.108125e-02  -1.101973e-01  -3.997620e-02  1.673417e-03  -2.556027e-02  7.745031e-02  -2.758029e-02  -6.212468e-02  8.993023e-02  -5.471906e-02  -3.079292e-02  1.255154e-01  2.208880e-01  -2.877757e-02  2.539317e-01  1.280270e-01  6.508301e-02  3.064361e-01  -1.549620e-01  1.992419e-02  2.241131e-01  1.404187e-01  5.204842e-03  -1.108837e-01  -2.110680e-02  6.526284e-02  -1.435000e-01  -4.063066e-02  5.392184e-02  1.088866e-01  1.029523e-02  -1.480974e-01  2.023292e-01  -7.472894e-02  1.842388e-01  1.711542e-01  -6.690283e-02  -4.347498e-02  7.110925e-02  -1.440637e-01  2.153820e-01  -1.679342e-01  2.280765e-01  1.153459e-01  2.831623e-02  -7.422976e-02  8.309150e-02  3.975266e-02  7.872156e-02  4.917736e-02  -1.717384e-01  1.334389e-01  -1.574793e-01  -8.802771e-02  -7.683266e-02  7.267901e-02  7.872442e-03  8.131770e-02  4.581609e-02  2.329977e-01  2.219048e-02  3.194050e-01  -1.779741e-02  5.212323e-02  7.835845e-02  4.452321e-02  1.604444e-01  -6.502578e-02  -4.550791e-02  2.385583e-01  -1.042922e-01  -3.220726e-01  8.475414e-03  -1.549115e-01  1.023308e-01  2.361629e-01  1.221604e-01  2.379917e-02  6.190729e-02  -1.345513e-01  -8.113214e-02  9.137263e-02  -1.231734e-02  1.399816e-01  2.403869e-01  -7.184470e-02  -1.566976e-01  2.312249e-01  -9.028874e-02  2.121542e-01  1.046644e-01  8.916643e-02  -2.408349e-02  1.836164e-01  -1.592266e-01  1.114260e-01  -2.260037e-04  -6.886263e-02  1.028585e-01  -8.727388e-02  -1.403207e-01  -3.210057e-02  4.205774e-02  -8.439904e-02  -1.014917e-01  1.086395e-01  -2.970953e-03  8.496778e-02  3.732901e-02  1.217404e-01  -2.301379e-01  -1.000541e-01  -5.926948e-02  -1.061466e-04  -4.804073e-03  -2.559191e-01  -1.034916e-01  -6.893071e-02  -1.241494e-01  -2.413537e-01  -3.317113e-01  8.183898e-02  -3.832765e-01  -6.864586e-02  -1.067253e-02  8.002727e-02  3.044066e-02  -7.327199e-02  -8.647691e-02  -1.686691e-02  -1.355039e-01  2.570870e-01  -4.546164e-02  6.741556e-02  1.006312e-01  1.499158e-01  