<?xml version="1.0"?>
<MethodSetup Method="DL::DNN_GPU">
  <GeneralInfo>
    <Info name="TMVA Release" value="4.2.1 [262657]"/>
    <Info name="ROOT Release" value="6.32/04 [401412]"/>
    <Info name="Creator" value="nsonmez"/>
    <Info name="Date" value="Wed Sep 18 12:28:05 2024"/>
    <Info name="Host" value="Darwin Sonoma-arm64.local 23.4.0 Darwin Kernel Version 23.4.0: Fri Mar 15 00:10:50 PDT 2024; root:xnu-10063.101.17~1/RELEASE_ARM64_VMAPPLE arm64"/>
    <Info name="Dir" value="/Users/nsonmez/Desktop/tmva_classification"/>
    <Info name="Training events" value="2000"/>
    <Info name="TrainingTime" value="2.69317102e+00"/>
    <Info name="AnalysisType" value="Classification"/>
  </GeneralInfo>
  <Options>
    <Option name="V" modified="Yes">True</Option>
    <Option name="VerbosityLevel" modified="No">Verbose</Option>
    <Option name="VarTransform" modified="Yes">N</Option>
    <Option name="H" modified="Yes">False</Option>
    <Option name="CreateMVAPdfs" modified="No">False</Option>
    <Option name="IgnoreNegWeightsInTraining" modified="No">False</Option>
    <Option name="InputLayout" modified="No">0|0|0</Option>
    <Option name="BatchLayout" modified="No">0|0|0</Option>
    <Option name="Layout" modified="Yes">TANH|128,TANH|128,TANH|128,LINEAR</Option>
    <Option name="ErrorStrategy" modified="Yes">CROSSENTROPY</Option>
    <Option name="WeightInitialization" modified="Yes">XAVIERUNIFORM</Option>
    <Option name="RandomSeed" modified="No">0</Option>
    <Option name="ValidationSize" modified="No">20%</Option>
    <Option name="Architecture" modified="Yes">CPU</Option>
    <Option name="TrainingStrategy" modified="Yes">LearningRate=1e-2,Momentum=0.9,ConvergenceSteps=20,BatchSize=100,TestRepetitions=1,WeightDecay=1e-4,Regularization=None,DropConfig=0.0+0.5+0.5+0.5</Option>
  </Options>
  <Variables NVar="19">
    <Variable VarIndex="0" Expression="lepton_pt" Label="lepton_pt" Title="lepton_pt" Unit="units" Internal="lepton_pt" Type="F" Min="2.00042801e+01" Max="3.58288849e+02"/>
    <Variable VarIndex="1" Expression="lepton_eta" Label="lepton_eta" Title="lepton_eta" Unit="units" Internal="lepton_eta" Type="F" Min="-2.40773964e+00" Max="2.46027517e+00"/>
    <Variable VarIndex="2" Expression="MET" Label="MET" Title="MET" Unit="units" Internal="MET" Type="F" Min="1.17903793e+00" Max="4.20774445e+02"/>
    <Variable VarIndex="3" Expression="METEta" Label="METEta" Title="METEta" Unit="units" Internal="METEta" Type="F" Min="-7.19895649e+00" Max="6.63172865e+00"/>
    <Variable VarIndex="4" Expression="Mjj" Label="Mjj" Title="Mjj" Unit="units" Internal="Mjj" Type="F" Min="0.00000000e+00" Max="2.32791479e+03"/>
    <Variable VarIndex="5" Expression="Mjjj" Label="Mjjj" Title="Mjjj" Unit="units" Internal="Mjjj" Type="F" Min="0.00000000e+00" Max="2.44956396e+03"/>
    <Variable VarIndex="6" Expression="Mt_lv" Label="Mt_lv" Title="Mt_lv" Unit="units" Internal="Mt_lv" Type="F" Min="1.00027971e+01" Max="3.52967377e+02"/>
    <Variable VarIndex="7" Expression="Mi_lvb" Label="Mi_lvb" Title="Mi_lvb" Unit="units" Internal="Mi_lvb" Type="F" Min="1.00000000e+01" Max="2.91448853e+03"/>
    <Variable VarIndex="8" Expression="N_jets" Label="N_jets" Title="N_jets" Unit="units" Internal="N_jets" Type="F" Min="1.00000000e+00" Max="4.00000000e+00"/>
    <Variable VarIndex="9" Expression="N_Bjets" Label="N_Bjets" Title="N_Bjets" Unit="units" Internal="N_Bjets" Type="F" Min="1.00000000e+00" Max="4.00000000e+00"/>
    <Variable VarIndex="10" Expression="R_lb" Label="R_lb" Title="R_lb" Unit="units" Internal="R_lb" Type="F" Min="5.65630078e-01" Max="6.30232000e+00"/>
    <Variable VarIndex="11" Expression="Eta_lb" Label="Eta_lb" Title="Eta_lb" Unit="units" Internal="Eta_lb" Type="F" Min="1.25133991e-03" Max="4.37817335e+00"/>
    <Variable VarIndex="12" Expression="alpha_t" Label="alpha_t" Title="alpha_t" Unit="units" Internal="alpha_t" Type="F" Min="0.00000000e+00" Max="1.76277626e+00"/>
    <Variable VarIndex="13" Expression="jet1Pt" Label="jet1Pt" Title="jet1Pt" Unit="units" Internal="jet1Pt" Type="F" Min="3.00228844e+01" Max="6.52585022e+02"/>
    <Variable VarIndex="14" Expression="jet1Phi" Label="jet1Phi" Title="jet1Phi" Unit="units" Internal="jet1Phi" Type="F" Min="-3.14052701e+00" Max="3.13799095e+00"/>
    <Variable VarIndex="15" Expression="jet1Eta" Label="jet1Eta" Title="jet1Eta" Unit="units" Internal="jet1Eta" Type="F" Min="-4.75914955e+00" Max="4.80533791e+00"/>
    <Variable VarIndex="16" Expression="jet2Pt" Label="jet2Pt" Title="jet2Pt" Unit="units" Internal="jet2Pt" Type="F" Min="0.00000000e+00" Max="2.87660858e+02"/>
    <Variable VarIndex="17" Expression="jet2Phi" Label="jet2Phi" Title="jet2Phi" Unit="units" Internal="jet2Phi" Type="F" Min="-3.14026093e+00" Max="3.13651514e+00"/>
    <Variable VarIndex="18" Expression="jet2Eta" Label="jet2Eta" Title="jet2Eta" Unit="units" Internal="jet2Eta" Type="F" Min="-4.70931959e+00" Max="4.86999607e+00"/>
  </Variables>
  <Spectators NSpec="0"/>
  <Classes NClass="2">
    <Class Name="Signal" Index="0"/>
    <Class Name="Background" Index="1"/>
  </Classes>
  <Transformations NTransformations="1">
    <Transform Name="Normalize">
      <Selection>
        <Input NInputs="19">
          <Input Type="Variable" Label="lepton_pt" Expression="lepton_pt"/>
          <Input Type="Variable" Label="lepton_eta" Expression="lepton_eta"/>
          <Input Type="Variable" Label="MET" Expression="MET"/>
          <Input Type="Variable" Label="METEta" Expression="METEta"/>
          <Input Type="Variable" Label="Mjj" Expression="Mjj"/>
          <Input Type="Variable" Label="Mjjj" Expression="Mjjj"/>
          <Input Type="Variable" Label="Mt_lv" Expression="Mt_lv"/>
          <Input Type="Variable" Label="Mi_lvb" Expression="Mi_lvb"/>
          <Input Type="Variable" Label="N_jets" Expression="N_jets"/>
          <Input Type="Variable" Label="N_Bjets" Expression="N_Bjets"/>
          <Input Type="Variable" Label="R_lb" Expression="R_lb"/>
          <Input Type="Variable" Label="Eta_lb" Expression="Eta_lb"/>
          <Input Type="Variable" Label="alpha_t" Expression="alpha_t"/>
          <Input Type="Variable" Label="jet1Pt" Expression="jet1Pt"/>
          <Input Type="Variable" Label="jet1Phi" Expression="jet1Phi"/>
          <Input Type="Variable" Label="jet1Eta" Expression="jet1Eta"/>
          <Input Type="Variable" Label="jet2Pt" Expression="jet2Pt"/>
          <Input Type="Variable" Label="jet2Phi" Expression="jet2Phi"/>
          <Input Type="Variable" Label="jet2Eta" Expression="jet2Eta"/>
        </Input>
        <Output NOutputs="19">
          <Output Type="Variable" Label="lepton_pt" Expression="lepton_pt"/>
          <Output Type="Variable" Label="lepton_eta" Expression="lepton_eta"/>
          <Output Type="Variable" Label="MET" Expression="MET"/>
          <Output Type="Variable" Label="METEta" Expression="METEta"/>
          <Output Type="Variable" Label="Mjj" Expression="Mjj"/>
          <Output Type="Variable" Label="Mjjj" Expression="Mjjj"/>
          <Output Type="Variable" Label="Mt_lv" Expression="Mt_lv"/>
          <Output Type="Variable" Label="Mi_lvb" Expression="Mi_lvb"/>
          <Output Type="Variable" Label="N_jets" Expression="N_jets"/>
          <Output Type="Variable" Label="N_Bjets" Expression="N_Bjets"/>
          <Output Type="Variable" Label="R_lb" Expression="R_lb"/>
          <Output Type="Variable" Label="Eta_lb" Expression="Eta_lb"/>
          <Output Type="Variable" Label="alpha_t" Expression="alpha_t"/>
          <Output Type="Variable" Label="jet1Pt" Expression="jet1Pt"/>
          <Output Type="Variable" Label="jet1Phi" Expression="jet1Phi"/>
          <Output Type="Variable" Label="jet1Eta" Expression="jet1Eta"/>
          <Output Type="Variable" Label="jet2Pt" Expression="jet2Pt"/>
          <Output Type="Variable" Label="jet2Phi" Expression="jet2Phi"/>
          <Output Type="Variable" Label="jet2Eta" Expression="jet2Eta"/>
        </Output>
      </Selection>
      <Class ClassIndex="0">
        <Ranges>
          <Range Index="0" Min="2.0004280090332031e+01" Max="2.5520199584960938e+02"/>
          <Range Index="1" Min="-2.4077396392822266e+00" Max="2.3941490650177002e+00"/>
          <Range Index="2" Min="1.1790379285812378e+00" Max="4.2077444458007812e+02"/>
          <Range Index="3" Min="-7.1989564895629883e+00" Max="6.6317286491394043e+00"/>
          <Range Index="4" Min="0.0000000000000000e+00" Max="2.3279147949218750e+03"/>
          <Range Index="5" Min="0.0000000000000000e+00" Max="2.4495639648437500e+03"/>
          <Range Index="6" Min="1.0002797126770020e+01" Max="3.5296737670898438e+02"/>
          <Range Index="7" Min="1.0000000000000000e+01" Max="2.9144885253906250e+03"/>
          <Range Index="8" Min="1.0000000000000000e+00" Max="4.0000000000000000e+00"/>
          <Range Index="9" Min="1.0000000000000000e+00" Max="4.0000000000000000e+00"/>
          <Range Index="10" Min="5.6563007831573486e-01" Max="6.3023200035095215e+00"/>
          <Range Index="11" Min="1.2513399124145508e-03" Max="4.3108148574829102e+00"/>
          <Range Index="12" Min="0.0000000000000000e+00" Max="1.6483803987503052e+00"/>
          <Range Index="13" Min="3.0084058761596680e+01" Max="6.5258502197265625e+02"/>
          <Range Index="14" Min="-3.1390850543975830e+00" Max="3.1357657909393311e+00"/>
          <Range Index="15" Min="-4.1170606613159180e+00" Max="4.8053379058837891e+00"/>
          <Range Index="16" Min="0.0000000000000000e+00" Max="2.4144270324707031e+02"/>
          <Range Index="17" Min="-3.1402609348297119e+00" Max="3.1365151405334473e+00"/>
          <Range Index="18" Min="-4.7093195915222168e+00" Max="4.8699960708618164e+00"/>
        </Ranges>
      </Class>
      <Class ClassIndex="1">
        <Ranges>
          <Range Index="0" Min="2.0045764923095703e+01" Max="3.5828884887695312e+02"/>
          <Range Index="1" Min="-2.3933339118957520e+00" Max="2.4602751731872559e+00"/>
          <Range Index="2" Min="1.7531331777572632e+00" Max="2.8337185668945312e+02"/>
          <Range Index="3" Min="-5.7212944030761719e+00" Max="5.3268523216247559e+00"/>
          <Range Index="4" Min="0.0000000000000000e+00" Max="6.5894073486328125e+02"/>
          <Range Index="5" Min="0.0000000000000000e+00" Max="1.1905906982421875e+03"/>
          <Range Index="6" Min="1.0124729156494141e+01" Max="2.3005450439453125e+02"/>
          <Range Index="7" Min="1.0000000000000000e+01" Max="2.4151247558593750e+03"/>
          <Range Index="8" Min="1.0000000000000000e+00" Max="4.0000000000000000e+00"/>
          <Range Index="9" Min="1.0000000000000000e+00" Max="4.0000000000000000e+00"/>
          <Range Index="10" Min="5.9324800968170166e-01" Max="6.0861439704895020e+00"/>
          <Range Index="11" Min="1.2654662132263184e-03" Max="4.3781733512878418e+00"/>
          <Range Index="12" Min="0.0000000000000000e+00" Max="1.7627762556076050e+00"/>
          <Range Index="13" Min="3.0022884368896484e+01" Max="4.3825540161132812e+02"/>
          <Range Index="14" Min="-3.1405270099639893e+00" Max="3.1379909515380859e+00"/>
          <Range Index="15" Min="-4.7591495513916016e+00" Max="4.4790749549865723e+00"/>
          <Range Index="16" Min="0.0000000000000000e+00" Max="2.8766085815429688e+02"/>
          <Range Index="17" Min="-3.1197924613952637e+00" Max="3.1316390037536621e+00"/>
          <Range Index="18" Min="-4.6597204208374023e+00" Max="4.6348013877868652e+00"/>
        </Ranges>
      </Class>
      <Class ClassIndex="2">
        <Ranges>
          <Range Index="0" Min="2.0004280090332031e+01" Max="3.5828884887695312e+02"/>
          <Range Index="1" Min="-2.4077396392822266e+00" Max="2.4602751731872559e+00"/>
          <Range Index="2" Min="1.1790379285812378e+00" Max="4.2077444458007812e+02"/>
          <Range Index="3" Min="-7.1989564895629883e+00" Max="6.6317286491394043e+00"/>
          <Range Index="4" Min="0.0000000000000000e+00" Max="2.3279147949218750e+03"/>
          <Range Index="5" Min="0.0000000000000000e+00" Max="2.4495639648437500e+03"/>
          <Range Index="6" Min="1.0002797126770020e+01" Max="3.5296737670898438e+02"/>
          <Range Index="7" Min="1.0000000000000000e+01" Max="2.9144885253906250e+03"/>
          <Range Index="8" Min="1.0000000000000000e+00" Max="4.0000000000000000e+00"/>
          <Range Index="9" Min="1.0000000000000000e+00" Max="4.0000000000000000e+00"/>
          <Range Index="10" Min="5.6563007831573486e-01" Max="6.3023200035095215e+00"/>
          <Range Index="11" Min="1.2513399124145508e-03" Max="4.3781733512878418e+00"/>
          <Range Index="12" Min="0.0000000000000000e+00" Max="1.7627762556076050e+00"/>
          <Range Index="13" Min="3.0022884368896484e+01" Max="6.5258502197265625e+02"/>
          <Range Index="14" Min="-3.1405270099639893e+00" Max="3.1379909515380859e+00"/>
          <Range Index="15" Min="-4.7591495513916016e+00" Max="4.8053379058837891e+00"/>
          <Range Index="16" Min="0.0000000000000000e+00" Max="2.8766085815429688e+02"/>
          <Range Index="17" Min="-3.1402609348297119e+00" Max="3.1365151405334473e+00"/>
          <Range Index="18" Min="-4.7093195915222168e+00" Max="4.8699960708618164e+00"/>
        </Ranges>
      </Class>
    </Transform>
  </Transformations>
  <MVAPdfs/>
  <Weights NetDepth="4" InputDepth="1" InputHeight="1" InputWidth="19" BatchSize="1" BatchDepth="1" BatchHeight="100" BatchWidth="19" LossFunction="C" Initialization="F" Regularization="0" OutputFunction="S" WeightDecay="9.9999997473787516e-05">
    <DenseLayer Width="128" ActivationFunction="3">
      <Weights Rows="128" Columns="19">
        4.643710e-01  -9.581673e-02  -1.646291e-01  5.175630e-02  -3.050138e-01  4.365825e-02  6.750671e-01  -5.697706e-02  -2.837841e-01  -1.342181e-02  -5.780233e-03  -1.973023e-01  9.976089e-02  1.357548e-02  -3.154175e-02  2.316051e-01  -4.878412e-01  6.763905e-02  -7.520735e-02  2.123938e-01  -2.297505e-01  2.256331e-01  -1.950400e-01  -2.981267e-01  -2.477620e-02  9.134524e-01  -4.803199e-01  -8.810340e-02  1.949037e-01  3.682502e-02  5.013163e-02  1.379579e-01  1.270199e-02  1.671851e-01  -3.736716e-01  6.895204e-02  -2.365198e-01  2.345158e-02  -1.695495e-01  3.210595e-02  -2.532224e-01  -7.187521e-02  1.660653e-01  4.235906e-02  -2.261315e-02  2.751275e-01  4.826036e-02  -9.644681e-02  6.347711e-02  4.320653e-02  -1.843661e-02  -1.171584e-01  -2.966563e-01  1.135055e-01  -7.753245e-03  -8.077835e-02  4.291307e-01  -2.059577e-01  3.831964e-01  -2.458129e-01  3.980417e-01  -1.821317e-01  2.885763e-01  -9.382052e-02  6.653257e-02  -4.297588e-01  2.444799e-01  2.251395e-01  2.597099e-01  3.711687e-01  7.221453e-02  3.176428e-01  -1.871330e-01  -4.128990e-01  -2.993039e-01  -4.021416e-01  -2.138216e-01  2.082640e-01  3.467153e-02  1.714584e-01  2.044628e-01  2.290757e-01  -6.844153e-01  1.118066e-01  -7.018582e-01  -2.376801e-01  -7.446467e-02  3.565971e-01  2.293915e-01  1.392544e-01  -6.236819e-02  8.451756e-02  -2.259248e-01  -3.093492e-01  2.609953e-01  -1.821905e-01  -8.952086e-02  -6.464205e-02  -7.590199e-02  2.661829e-01  -9.140094e-02  -2.264781e-01  5.050956e-02  4.945632e-01  -2.117068e-01  6.762160e-02  -5.165103e-02  7.421031e-02  2.520624e-02  -4.356587e-02  1.127642e-01  2.315517e-01  8.031033e-02  7.053386e-02  1.525610e-01  -5.260476e-01  3.568033e-02  -2.577913e-01  8.549344e-02  1.057206e-01  5.312506e-01  -1.593443e-01  3.528189e-01  -1.824678e-02  1.861626e-01  -3.234410e-01  -1.347185e-01  -1.587732e-01  -2.377876e-01  5.833651e-03  2.085049e-01  3.898683e-01  -1.424019e-01  -4.202789e-02  2.208034e-02  1.712453e-01  2.265318e-01  1.421845e-01  8.592379e-02  -3.302482e-01  -1.658828e-01  -3.300162e-01  9.041619e-02  -1.716404e-01  4.958637e-02  -6.103391e-02  9.625959e-02  3.764101e-01  -3.304069e-01  1.453146e-02  1.845500e-01  3.965873e-01  5.232826e-02  -2.408962e-01  9.106944e-02  7.583705e-02  -1.748299e-01  8.366033e-02  3.630610e-01  6.336781e-02  -2.483629e-01  8.408408e-02  -1.058309e-01  -1.209203e-01  1.613857e-01  9.498396e-03  -9.453405e-02  5.598564e-02  -1.226476e-01  7.321618e-02  4.511683e-01  7.353959e-02  -3.559373e-01  -7.513733e-03  1.570219e-01  7.239337e-03  5.941474e-02  9.275743e-01  1.623082e-02  1.060217e-02  -1.938106e-01  -4.055718e-02  3.132182e-01  -1.060347e-01  -3.119757e-01  -1.379499e-01  1.988517e-01  -3.931214e-01  -1.978414e-02  3.120792e-01  4.607385e-01  1.072811e-01  -1.567183e-01  -1.267815e-01  -3.235133e-01  -6.871240e-02  9.489229e-01  -1.627527e-01  4.148434e-02  -2.639919e-02  1.196512e-01  1.406432e-01  -4.682416e-04  -2.338242e-01  -1.554161e-01  -1.131102e-01  -2.494116e-01  1.307909e-02  1.297827e-02  -2.261640e-01  -9.174521e-02  1.943676e-01  -3.501363e-01  6.155225e-02  -7.648853e-02  -5.514613e-01  2.471439e-01  3.607817e-01  -3.927771e-01  -2.960358e-01  -7.784607e-02  -1.395149e-02  7.021289e-02  -3.839871e-01  1.253769e-01  3.764243e-01  -1.783523e-02  1.205232e-01  -2.907377e-02  7.593234e-02  2.361553e-01  2.316760e-01  1.921445e-01  -1.315853e-01  -9.584127e-01  2.971954e-01  -1.140680e-01  -1.829390e-01  -2.204952e-01  -2.834543e-02  -1.669103e-01  1.079664e-01  1.170464e-01  -1.527062e-01  2.091223e-01  8.308741e-02  7.791059e-02  3.916018e-01  -3.487189e-01  -8.531839e-02  -1.081405e-01  -4.884426e-02  -1.530578e-01  9.719011e-01  -2.076356e-01  4.062721e-01  -1.637252e-01  8.599097e-02  -9.213741e-02  1.498481e-01  -3.920483e-02  -6.101819e-02  2.030070e-02  -2.720643e-01  1.504766e-01  -1.531660e-01  -1.161910e-01  3.253987e-02  -1.573727e-01  3.990730e-01  -2.511236e-02  2.152212e-01  -7.654689e-01  4.811974e-01  -3.029481e-01  -2.224535e-01  3.393044e-03  -3.808748e-02  2.078527e-01  3.808790e-02  -3.806551e-01  4.587445e-01  -2.424892e-01  -2.877488e-03  2.884174e-01  8.441186e-02  3.239349e-01  -2.717842e-01  -3.705208e-01  -3.025520e-01  -1.772420e-01  8.364029e-01  5.822610e-02  2.211536e-01  9.782626e-02  3.932442e-01  -1.109413e-01  -1.437806e-01  -6.369862e-02  3.001795e-01  4.440514e-01  -3.219666e-01  -3.142083e-01  2.335816e-01  -1.912944e-02  5.620314e-02  1.654354e-01  5.322204e-01  1.393109e-01  1.957330e-01  -5.567320e-01  -1.221234e-01  1.412757e-01  -4.900266e-01  -2.755872e-01  1.478091e-01  -1.021509e-01  -6.847772e-02  2.553113e-01  1.481239e-01  3.101748e-01  5.548366e-01  4.924420e-01  -2.067913e-01  2.413038e-01  2.607658e-01  -6.852060e-02  2.652351e-01  -1.505190e-01  -7.057839e-01  -1.207961e-01  3.343342e-01  1.123991e-01  -2.164722e-02  3.342690e-02  -1.731907e-01  7.565801e-02  2.194118e-01  -2.716189e-01  4.030727e-01  -4.515069e-02  -1.511751e-01  -6.807674e-02  -1.767813e-01  1.765291e-01  -7.509116e-02  2.008121e-01  -7.433102e-02  2.968874e-01  -3.757570e-01  2.833792e-02  2.898464e-01  5.653783e-02  4.416719e-01  4.618318e-02  2.095478e-01  4.134957e-01  -3.684463e-01  -6.482740e-02  -2.231472e-01  -4.224924e-01  -4.644181e-02  3.863562e-02  -2.182256e-01  -4.025318e-01  -8.688395e-02  -1.262767e-01  -6.112919e-01  1.610174e-01  2.563483e-01  6.692927e-02  -4.373774e-02  5.600641e-02  -6.907482e-02  -1.027269e-01  -3.601939e-02  -1.599294e-01  3.225526e-01  1.181551e-01  1.922940e-02  3.974381e-01  -1.596031e-01  1.659061e-03  -2.680685e-01  -2.010130e-01  -9.811204e-02  8.128616e-01  -3.424254e-01  1.532229e-01  2.417227e-01  1.591914e-03  1.256755e-01  -1.701850e-01  -2.039053e-01  -1.731078e-01  1.249796e-01  -3.016870e-02  2.363121e-02  -7.129610e-02  2.745252e-02  1.939309e-01  -9.201355e-02  4.031044e-01  -3.376504e-02  5.969036e-03  -3.783517e-01  6.070971e-01  -7.303018e-01  1.309031e-02  7.970943e-02  2.230746e-01  1.108894e-01  -1.668776e-01  2.272602e-01  1.215655e-01  -4.380113e-01  -2.486320e-01  7.017712e-02  1.922099e-01  -5.489475e-02  -1.641061e-01  1.514136e-01  -1.287364e-01  1.115573e-01  7.412468e-01  -3.015901e-02  1.039942e-01  -1.646809e-01  4.441151e-02  -3.492808e-02  1.934838e-01  -1.477106e-02  -4.944078e-02  1.389880e-01  -4.278986e-01  1.438267e-01  3.219983e-01  1.308905e-01  2.464799e-02  -9.076015e-02  -1.247769e-02  -2.008881e-01  -5.894136e-02  8.102968e-01  -1.108280e-03  -1.063538e-01  2.182276e-01  -5.539857e-02  1.291712e-01  1.657803e-02  -1.992785e-01  1.636830e-01  4.409301e-02  -4.280834e-01  -3.982679e-02  -2.523096e-01  -3.574398e-01  6.436110e-02  3.299589e-01  2.866909e-01  1.861292e-01  -8.170384e-02  -3.350239e-01  2.276877e-01  2.892733e-01  -4.515699e-01  -2.304263e-01  7.185147e-03  1.779620e-01  -7.005369e-03  2.353317e-02  1.317342e-02  3.084241e-01  2.338963e-01  4.106840e-01  1.442413e-01  -2.889243e-01  1.551146e-01  7.203272e-02  5.567673e-03  -1.101488e-01  5.641032e-01  -4.010003e-01  1.705128e-01  -2.787530e-01  -1.613581e-01  -1.450430e-01  -7.210822e-02  -1.063119e-02  -2.240921e-01  -3.168777e-01  3.852101e-01  1.188429e-01  6.728314e-01  -1.038004e-01  -1.651241e-01  3.595132e-01  1.988579e-01  2.976690e-01  1.869421e-01  2.464711e-01  -3.706392e-02  1.593943e-01  2.021547e-02  -1.973691e-01  2.258005e-01  2.214047e-01  1.338149e-01  -1.638032e-01  -3.837269e-01  -1.299737e-02  1.613072e-01  -7.729395e-02  -1.193918e-01  -2.049619e-01  -2.382668e-02  -2.738665e-01  2.798079e-01  -1.549563e-01  -8.036560e-01  3.673632e-01  2.254907e-01  -1.691716e-01  -1.340043e-01  -3.015695e-01  -1.744128e-01  2.133312e-01  -2.427006e-01  -4.281602e-02  2.003930e-01  8.828212e-02  2.860974e-01  -3.759270e-01  -1.346507e-01  2.480418e-01  3.762167e-01  2.335842e-01  5.069722e-02  -9.053689e-01  1.072703e-01  -2.300718e-01  -1.524317e-01  2.271688e-01  -1.435241e-01  1.577080e-01  2.455771e-01  -7.969078e-02  -4.429200e-02  1.350691e-01  1.326095e-01  -8.858582e-02  -1.533047e-01  -2.823823e-01  7.028829e-02  7.745720e-02  -1.722501e-03  1.112775e-01  -3.477047e-01  4.011597e-01  -1.894438e-01  -1.646258e-01  3.695405e-02  -6.318191e-02  1.971740e-02  1.774673e-03  2.660927e-01  3.029892e-01  -4.423381e-02  -1.549276e-01  8.848503e-03  3.748616e-01  -5.412377e-02  -2.464672e-01  4.796383e-01  -1.219135e-01  2.095172e-01  3.210869e-01  -6.690720e-02  -3.139571e-01  -6.445117e-02  1.430115e-02  1.985593e-01  1.028376e-01  -9.872743e-02  -3.550982e-02  2.584883e-01  -4.626717e-01  6.569250e-02  1.956297e-01  -1.390340e-01  -1.619879e-01  3.743346e-01  -2.629537e-01  2.357175e-01  -8.678278e-02  -2.061148e-01  -3.941849e-01  2.251860e-01  1.294905e-01  -1.027824e-01  -2.582793e-01  -3.115388e-01  3.278700e-01  -4.577827e-02  -5.107315e-01  3.067673e-01  1.736737e-01  -2.590752e-01  1.401193e-01  -1.193503e-02  -3.032489e-01  -1.498893e-02  -2.206499e-01  -2.198356e-01  9.062291e-01  1.023725e-01  8.886340e-02  2.844522e-01  -1.962453e-02  -2.078626e-01  -2.433112e-01  -8.682111e-02  1.707079e-02  -2.530119e-01  -2.028603e-01  1.045860e-01  -4.183792e-01  3.015467e-01  7.588096e-02  -2.815648e-01  -1.542711e-01  -3.563088e-01  -6.963054e-02  8.500702e-01  -2.363048e-01  2.259318e-01  2.755972e-01  4.084670e-02  -1.967023e-01  6.670557e-02  4.583552e-02  2.008419e-01  2.282717e-03  -4.466977e-01  3.095948e-02  -6.944232e-02  -2.437973e-01  -5.684845e-02  2.961219e-01  -2.236023e-01  4.694154e-02  -1.320071e-02  -9.564572e-01  -1.698654e-02  1.280800e-01  -7.563135e-02  -4.877838e-02  -1.339750e-01  -8.722896e-03  2.975328e-01  1.203599e-01  -9.914060e-03  4.586847e-01  -1.025415e-01  -2.909169e-01  1.238228e-01  3.138220e-01  -3.093822e-01  -6.276446e-02  -1.490936e-02  -1.246858e-01  2.315663e-01  -6.261195e-02  -1.599716e-01  2.247833e-01  1.896793e-01  9.128754e-02  2.093147e-01  -7.664707e-03  1.528352e-01  -1.148997e-01  -3.279610e-01  1.319883e-01  -2.862594e-01  -2.847065e-01  -2.747265e-01  3.678598e-02  1.876989e-01  2.206285e-01  -1.276731e-01  -4.242094e-01  3.606998e-01  -1.167539e-01  -9.493766e-02  -6.639911e-02  3.472284e-02  1.911230e-01  -1.620186e-01  -1.274583e-01  5.072355e-01  2.228018e-01  1.878840e-02  8.094956e-01  -5.840400e-02  -1.225136e-01  2.445419e-01  -4.018939e-01  2.585785e-03  -2.093279e-02  -5.423788e-01  -2.090313e-01  4.588638e-01  6.842932e-02  7.353533e-02  -2.536158e-01  -3.042278e-01  -1.650862e-02  -1.884305e-01  -2.308335e-01  5.139979e-01  -7.170141e-02  3.386641e-02  1.649186e-01  -2.601450e-01  -2.458117e-01  -4.515689e-02  -2.020306e-01  1.953584e-01  8.880743e-01  2.787741e-02  -2.580193e-01  2.308875e-01  -1.639430e-02  -1.058766e-01  -1.256675e-02  -2.539584e-01  -2.347402e-01  2.124397e-01  -3.590103e-01  1.319129e-01  -4.716955e-02  -4.728007e-01  1.842245e-01  2.876881e-01  -1.193430e-01  2.505250e-02  9.540930e-02  -5.774800e-01  1.157394e-01  1.983618e-01  4.670514e-02  1.168110e-01  7.595870e-02  -7.659237e-02  9.575650e-02  7.427611e-02  -4.900061e-01  3.243444e-01  -1.108293e-01  -3.215726e-01  -2.943406e-01  -1.947153e-01  -2.069472e-01  3.152299e-01  1.041695e-01  1.193667e-02  -8.706616e-01  5.825057e-01  -2.848513e-01  -1.792013e-01  8.144421e-02  -7.866222e-02  4.098297e-02  5.141201e-02  7.772179e-02  1.338810e-01  5.200033e-02  2.101160e-01  2.962535e-01  3.134055e-01  2.320076e-01  -3.322320e-01  -9.202470e-02  -2.015560e-01  3.173121e-03  2.532801e-01  3.304114e-01  -1.576556e-01  2.342852e-01  1.364928e-01  -7.691228e-02  2.034015e-02  -2.670877e-01  2.108094e-01  3.334250e-01  -4.956456e-01  -1.935854e-01  1.278386e-01  4.417781e-01  -5.821811e-02  -2.209279e-01  1.566830e-01  -4.189217e-01  6.343227e-02  7.999839e-01  -4.127291e-02  -8.211976e-03  8.221056e-02  8.111794e-02  1.084327e-01  1.897335e-01  -7.965582e-02  -8.482113e-02  2.688525e-01  -6.164767e-01  -6.610805e-02  8.752341e-02  3.603428e-01  1.952727e-01  -3.792605e-01  4.553220e-02  -9.970294e-02  -2.944003e-02  5.393259e-01  -2.374910e-01  -3.436450e-02  1.756451e-02  -1.735841e-01  -7.418843e-02  1.076584e-01  -9.962117e-02  -1.809882e-01  -2.972746e-01  -6.872173e-02  1.969795e-01  -2.401189e-01  1.096342e-01  4.271691e-01  1.907914e-01  2.496696e-01  -1.474381e-01  -6.650132e-02  3.574255e-01  -3.334054e-01  1.488058e-02  -9.952737e-02  8.302016e-03  9.379432e-02  1.097958e-01  5.979438e-03  1.164615e-01  -1.098038e-01  6.690498e-02  1.992266e-02  -9.184690e-02  -3.627922e-01  6.894989e-02  3.065461e-01  1.398491e-01  2.014136e-01  1.339174e-01  -8.444344e-01  1.330989e-01  4.912646e-02  -2.654338e-01  -5.424192e-02  -2.203598e-01  1.054365e-01  6.315246e-02  1.497024e-01  -8.068568e-02  4.431627e-01  9.754319e-02  8.810662e-02  -4.333098e-01  -5.115209e-02  2.240676e-01  1.202705e-01  3.072315e-01  -1.186654e-02  -8.134697e-01  3.119912e-01  1.069352e-01  -3.586703e-01  -5.606225e-02  3.557448e-02  -9.407815e-02  1.348865e-01  -7.436355e-02  -2.947411e-02  4.646610e-01  -7.357985e-02  3.425468e-01  -5.497409e-02  8.969954e-03  -1.145208e-01  5.893393e-01  1.210071e-01  2.660373e-01  -2.786260e-01  2.944785e-01  -5.507446e-01  -4.718989e-02  -1.740011e-01  2.726786e-01  1.231552e-01  -5.270376e-02  3.188044e-01  3.009604e-01  -2.394725e-01  -6.537299e-02  1.693566e-01  -1.836206e-03  -1.481033e-01  -1.536963e-01  -2.602765e-01  3.445997e-02  -9.037138e-02  -4.555644e-01  2.430156e-01  -1.582612e-01  -1.975984e-01  -2.820214e-01  -1.088036e-02  1.388870e-01  8.881962e-02  -5.044042e-01  4.055104e-01  1.920105e-01  -3.498009e-02  2.659624e-01  -1.927941e-01  9.728976e-02  1.773864e-01  -6.105382e-02  -1.551947e-01  3.131935e-02  -1.856826e-01  5.244179e-02  -1.547338e-01  7.894535e-02  6.528115e-02  2.523139e-01  9.582941e-02  -1.395279e-01  3.031956e-01  -1.943512e-01  -7.731112e-03  -2.197670e-01  -1.863133e-01  3.713384e-01  -2.036356e-02  -6.459851e-02  -1.439174e-02  -1.655483e-01  -1.354169e-01  9.149234e-01  -1.896537e-01  -8.549798e-02  2.267856e-02  6.428035e-02  2.529047e-01  1.313935e-01  -1.581567e-01  8.517849e-02  -1.124536e-01  -3.827291e-01  8.858949e-02  -2.992140e-02  -3.691442e-01  2.845614e-02  -9.426875e-02  -1.980518e-02  2.583288e-01  1.672657e-01  -8.433018e-01  3.804502e-01  1.334291e-01  -1.929132e-01  -7.505903e-02  -1.644886e-01  5.220435e-02  -1.352052e-02  -8.824974e-02  -1.769776e-02  1.234842e-01  6.642638e-03  5.403531e-02  -1.799313e-01  -6.638736e-02  8.528469e-02  -2.716280e-01  1.788001e-01  -7.102630e-02  -6.792392e-01  1.320975e-01  2.902997e-01  -5.117004e-02  1.065301e-01  -2.750839e-01  -2.352468e-01  1.887530e-01  -1.391011e-01  -7.553733e-02  3.222252e-01  9.503937e-02  -6.047593e-02  -3.784704e-01  2.442967e-01  2.440373e-02  8.675234e-03  1.329874e-02  4.052811e-02  -5.226979e-01  1.506291e-01  2.163496e-01  -1.357142e-01  5.805621e-02  7.564782e-02  -1.340759e-01  2.534396e-01  2.402564e-02  -2.013777e-01  1.708658e-01  -1.223223e-01  1.859299e-02  2.349641e-02  -4.070812e-01  1.037488e-01  -1.466846e-01  -5.531493e-02  -7.648885e-02  6.618494e-01  -4.241199e-01  5.968249e-01  -3.451891e-02  -6.184981e-03  -1.852462e-01  -2.163358e-01  2.965177e-01  -4.659855e-02  -2.058749e-01  1.677146e-01  3.295628e-01  -1.603175e-01  5.340119e-01  2.883795e-02  -1.381740e-01  2.923299e-01  -2.903098e-01  -1.579890e-01  6.945988e-01  -9.832047e-02  -2.007087e-01  2.364724e-02  2.010907e-02  2.195949e-02  1.982635e-01  -3.000987e-01  7.132956e-02  9.695365e-02  -3.234861e-01  1.972892e-01  1.762446e-01  7.365569e-03  7.425982e-02  1.313193e-01  -4.583799e-02  -9.245186e-02  7.942595e-02  5.417838e-01  -4.785358e-01  -6.746218e-02  1.837480e-01  7.638973e-02  7.887308e-02  -4.704433e-02  2.200264e-01  1.151449e-01  -1.197463e-01  3.316865e-02  -4.462360e-01  -4.243897e-02  2.922232e-01  1.296563e-01  -1.566040e-01  9.763588e-02  4.308724e-02  -2.325670e-01  5.819616e-01  -9.729199e-03  5.970874e-02  6.490538e-03  -2.592328e-01  -1.931886e-01  -6.536093e-02  1.644847e-02  -2.884229e-01  -2.799436e-01  3.137280e-02  3.417880e-01  2.552490e-01  7.961032e-02  1.138709e-01  -2.281678e-01  -2.726615e-02  -1.714976e-01  -1.036531e-02  5.691936e-02  4.984237e-02  1.646491e-01  6.686102e-02  1.699145e-01  2.060224e-01  -6.365837e-02  9.938351e-02  6.325792e-02  2.645908e-01  -2.144507e-01  -2.751286e-01  -1.862804e-01  -4.675396e-01  -2.132959e-02  2.874809e-01  2.457423e-01  9.188097e-02  1.256453e-01  -9.172312e-01  1.211397e-01  -2.437687e-01  -9.948110e-02  4.243340e-01  -2.108712e-02  2.430356e-05  1.581835e-01  -3.452157e-01  6.604593e-02  4.119086e-01  2.343707e-01  -3.252899e-01  1.145839e-01  1.266170e-01  -8.531356e-02  8.322079e-02  -2.535283e-01  2.211521e-01  4.262858e-01  -1.146189e-01  -2.378272e-01  -6.816789e-02  2.347708e-01  2.182697e-01  5.007942e-02  -1.704034e-01  3.435813e-02  -7.360289e-05  -4.564195e-02  8.632917e-03  1.460142e-01  2.939615e-01  -3.290179e-02  -8.042861e-03  8.639514e-02  -2.049923e-02  7.418173e-02  5.726068e-01  -1.660443e-01  -1.668536e-01  -3.330962e-02  5.863138e-03  -9.267966e-02  9.400477e-02  2.933134e-04  -2.554033e-01  2.705969e-02  -1.192517e-01  -6.422336e-03  2.294955e-01  4.402159e-01  6.385548e-02  -2.921947e-01  1.625032e-01  -3.244466e-02  -1.272413e-01  9.598840e-01  -1.399293e-01  -9.738819e-02  -9.244774e-02  -1.017693e-02  2.360974e-01  1.644412e-02  -2.015205e-01  -1.649919e-03  -3.027025e-03  -4.546988e-01  3.656422e-02  1.091416e-01  -1.683660e-02  3.456537e-02  -1.165091e-01  -3.402262e-01  -3.869487e-02  -2.246972e-01  -9.871601e-02  -1.415341e-01  4.144582e-01  1.431168e-01  -1.341687e-01  -1.653031e-01  -3.282662e-01  -3.536297e-02  1.074029e-01  7.836524e-02  -2.350991e-01  1.860897e-01  -3.626675e-01  -1.921870e-01  1.805616e-01  2.500817e-01  1.127820e-01  2.886378e-01  8.173908e-02  -8.254178e-01  -1.110564e-01  3.168215e-01  -2.050238e-01  2.450364e-02  -2.009812e-01  4.978997e-02  -5.562321e-02  -8.212698e-03  9.286258e-02  4.714113e-01  -9.500333e-02  -9.985083e-03  -1.628673e-02  -4.593945e-02  -2.235793e-01  -2.352433e-01  2.880604e-02  -1.678144e-01  5.259365e-01  -1.767836e-01  4.050573e-01  1.597284e-01  7.921876e-02  -3.049790e-01  -1.570661e-01  4.450905e-02  -1.644421e-02  9.506138e-02  -2.423002e-01  1.078698e-03  -3.056915e-01  1.210732e-01  3.048193e-02  -2.355611e-01  2.095210e-01  -2.275440e-01  9.452788e-02  6.605881e-01  2.401813e-02  -3.174062e-01  1.472625e-01  -3.119124e-02  2.116391e-01  7.764633e-02  -1.761986e-01  5.108039e-02  9.447467e-02  -3.289759e-01  -1.825228e-02  1.856685e-01  6.763724e-02  -1.641122e-01  -1.089159e-01  2.959297e-01  -9.170268e-02  5.884501e-02  -2.647304e-01  2.362063e-01  7.584511e-02  -2.639453e-01  -2.862395e-01  4.789628e-02  1.906337e-01  -8.081336e-02  -2.569180e-01  1.809277e-01  8.828849e-03  4.729783e-01  -2.107365e-01  6.367812e-02  -1.336068e-01  -1.482085e-01  5.392471e-02  -1.503363e-01  6.900182e-02  -7.104315e-01  4.111682e-01  -2.131567e-01  2.012519e-01  -1.882493e-01  1.884631e-01  1.314602e-01  -1.807595e-01  3.229411e-01  4.987034e-01  -2.246341e-01  -3.351723e-01  -1.443009e-01  -6.513176e-02  6.152905e-01  -4.957408e-02  3.842376e-01  3.742895e-02  -1.765749e-01  -7.152640e-01  2.859936e-01  -4.355118e-01  4.887779e-02  2.989564e-02  1.202843e-01  1.246655e-01  -1.299644e-02  1.457246e-01  -8.902000e-02  7.929295e-02  -6.742515e-02  -4.339423e-02  -1.564741e-01  7.741220e-02  1.157790e-01  -4.528132e-02  2.552456e-01  1.289335e-01  -1.099942e+00  7.006716e-02  -2.567533e-01  -3.318931e-01  6.236763e-02  -9.608946e-02  9.003560e-02  3.139955e-01  1.106815e-01  -4.265448e-02  4.528156e-01  -2.252026e-01  1.849237e-02  2.037136e-02  -1.084535e-01  1.316946e-02  -1.998854e-01  7.958245e-02  1.507529e-01  9.291970e-02  3.941260e-02  9.642877e-02  2.086930e-01  -9.172704e-02  -2.398785e-01  8.681348e-02  -1.533712e-01  -7.452537e-04  -4.845714e-02  -1.923618e-01  1.851209e-02  -3.712760e-01  -3.105922e-01  -2.539761e-01  7.965410e-02  -1.357041e-01  2.495593e-01  -2.307162e-02  -6.886290e-01  -5.732126e-02  -6.530143e-02  -2.799794e-02  2.182784e-01  -2.202280e-01  8.403380e-03  2.543859e-01  -5.716965e-02  -1.007164e-01  2.955092e-01  6.068265e-02  1.579600e-01  2.447490e-02  -6.306461e-02  -1.104617e-01  3.406444e-01  -3.242636e-02  1.250815e-01  -6.691066e-01  6.029150e-01  1.171141e-01  -2.230884e-01  -9.597659e-03  -3.474251e-01  -8.220421e-02  -1.796643e-01  -6.047944e-01  5.021349e-01  -1.664028e-01  3.108283e-01  4.486073e-01  1.518675e-01  1.073927e-03  6.113887e-02  -3.728395e-01  -3.010437e-01  -2.564082e-01  4.708396e-01  -2.354101e-01  2.586415e-01  2.320418e-01  2.219492e-01  -1.011131e-01  -8.565937e-02  1.751921e-01  -3.231815e-01  -4.530667e-01  1.536034e-01  7.629041e-02  -2.488072e-01  -1.989086e-01  1.431576e-01  1.146572e-02  1.549013e-01  2.008754e-01  -1.169995e-01  -9.876356e-01  2.883299e-01  8.063680e-02  -2.670173e-01  1.019436e-01  -2.066384e-02  4.599318e-02  2.065985e-01  6.898018e-02  1.013760e-01  2.042333e-01  1.243529e-01  -2.686127e-01  1.602464e-01  -1.500128e-01  -1.169395e-01  1.213270e-01  -1.720301e-01  1.372671e-01  4.178871e-01  9.540480e-02  -1.996558e-01  -3.421404e-02  -9.949958e-02  6.599739e-02  5.336360e-02  9.755314e-02  -1.485627e-01  -1.816939e-01  -2.532710e-01  3.629818e-01  1.899610e-01  3.088265e-01  1.105409e-01  -2.472380e-01  7.837715e-02  -2.969989e-01  -1.098077e-01  8.803254e-01  8.593593e-02  -2.864555e-01  3.581456e-01  6.755980e-03  2.208111e-02  1.432286e-03  -2.296220e-01  1.370514e-01  -2.097782e-01  -4.971420e-01  -8.033019e-02  1.301945e-01  2.107766e-01  2.034908e-01  2.470174e-01  1.697209e-01  -1.255857e-01  -2.397211e-02  6.729521e-01  -1.784343e-01  -3.164172e-01  -8.930802e-02  1.401113e-01  1.096890e-01  -1.806898e-02  -1.443441e-01  -2.323736e-01  -5.472871e-02  4.856088e-02  9.976644e-02  3.714615e-01  1.473687e-01  -1.417828e-02  -3.156666e-01  2.288646e-01  -2.854924e-02  1.730625e-01  6.905696e-01  3.755958e-02  -3.837774e-01  5.901841e-02  -7.138017e-02  2.280375e-01  1.484748e-01  -2.983388e-01  -5.395337e-02  1.869855e-01  -5.002767e-01  6.761765e-02  1.737254e-01  -3.350034e-01  -1.237008e-01  1.594456e-01  -9.440625e-03  3.036151e-01  1.557253e-01  -9.135517e-01  -8.696951e-02  3.035245e-03  -3.131568e-01  8.153593e-02  -3.685719e-02  4.286157e-02  2.748982e-01  -1.617110e-01  -5.407262e-02  4.762617e-01  -1.021283e-02  8.526241e-02  -6.028112e-02  3.471653e-01  1.825625e-01  4.755439e-01  1.721349e-01  7.103743e-02  3.752933e-01  1.122290e-02  -3.841670e-01  -1.927775e-01  7.310655e-03  -1.769644e-01  3.084801e-01  -3.418250e-02  -7.118656e-02  -1.722345e-01  -2.159723e-01  -3.020170e-01  -3.395997e-01  -1.126825e-01  -9.448436e-02  8.929859e-02  -3.832000e-01  -9.170496e-02  -3.253564e-02  -4.283369e-01  -1.811544e-01  3.744456e-01  1.612782e-01  -1.009503e-03  8.233012e-02  -1.862747e-01  1.327637e-02  1.913689e-01  -2.039679e-01  4.002094e-01  2.405921e-01  -3.228372e-03  -2.567018e-01  3.128186e-01  -2.591679e-01  2.273643e-01  2.112840e-01  1.781637e-01  -1.142491e+00  2.915285e-01  -1.031113e-01  1.218328e-02  -2.994193e-02  3.606970e-02  -2.076986e-02  7.944678e-02  2.597409e-01  1.074430e-01  -1.651524e-02  -6.625358e-02  -8.480348e-02  -5.721513e-02  -5.008541e-02  9.785857e-02  4.632297e-01  2.568298e-02  -6.427258e-02  4.216966e-02  -3.468253e-02  -9.344086e-02  -9.330754e-02  -1.037660e-01  1.027680e-01  1.210508e-02  2.546583e-01  -9.624688e-02  -4.079052e-01  9.856825e-03  2.832908e-01  -3.449506e-01  3.707726e-02  1.284973e-01  -1.451215e-01  1.729336e-01  -1.142991e-01  1.242926e-01  -9.858512e-02  8.355457e-02  -5.278053e-01  2.055868e-01  2.967214e-01  2.632709e-01  -1.634586e-02  1.067391e-02  3.171315e-01  -2.547315e-01  -1.749228e-01  -3.242459e-01  -2.179661e-01  8.580703e-02  8.813027e-02  -3.249044e-01  3.911046e-01  2.249399e-01  -5.344767e-02  -7.708523e-01  2.313799e-01  -1.839976e-01  -1.840722e-01  1.905296e-01  -1.493440e-01  9.249482e-02  1.409122e-01  -3.464402e-02  2.121709e-01  -2.123116e-01  2.223699e-01  2.357758e-01  -2.325507e-01  -1.140603e-01  9.489410e-03  -2.724498e-01  1.527525e-01  -4.059172e-02  -3.959888e-01  2.015357e-03  1.949920e-01  -7.705121e-03  7.913029e-02  -2.099806e-01  -1.415891e-01  1.257830e-01  9.389353e-02  -1.350116e-01  3.346810e-01  -1.758483e-01  -4.548100e-02  -2.795718e-01  -1.865239e-01  2.190023e-01  -6.377378e-01  3.080186e-03  -1.444266e-01  -1.750672e-01  -1.506121e-01  3.593344e-01  9.852704e-02  4.996660e-03  -4.625369e-02  -8.326875e-02  1.407958e-01  -1.470163e-01  -2.265293e-02  1.081823e-01  4.748601e-02  1.834950e-02  3.166735e-01  1.431419e-01  -3.144903e-02  4.996608e-02  1.081406e-01  4.140604e-02  5.046464e-01  -2.935553e-01  2.266859e-01  -2.388314e-02  -9.213851e-02  -8.562560e-02  -1.589112e-01  3.222050e-02  -9.945107e-02  -1.288395e-01  -1.731951e-01  -1.203106e-01  -3.207606e-02  -3.974491e-01  3.058314e-02  1.819468e-01  -1.289040e-01  2.739936e-01  4.147685e-02  -8.160608e-01  -2.114169e-01  3.403907e-01  -1.909035e-01  3.900465e-02  -1.161591e-02  4.077168e-02  3.474222e-01  -5.810773e-02  -1.547249e-01  4.657196e-01  9.576688e-04  5.837052e-03  -2.294370e-01  4.064651e-02  7.438971e-02  2.586200e-01  -4.377240e-02  2.136503e-01  -4.609292e-01  3.485121e-01  -3.283363e-01  -2.024652e-02  3.030069e-01  1.887503e-01  3.392101e-02  -2.947836e-02  3.172280e-01  1.255068e-01  7.958566e-02  -2.712192e-01  1.883039e-01  3.430490e-01  4.857105e-02  1.331970e-01  -1.080894e-01  -1.867968e-01  1.550112e-01  7.127092e-01  -2.885003e-01  2.970416e-01  -1.180254e-01  -5.084859e-02  -1.158836e-01  1.465673e-01  -1.852012e-01  -3.892834e-01  -6.204981e-02  -2.564499e-01  6.833486e-02  3.789486e-02  -2.206573e-01  1.864613e-01  1.223846e-01  3.809759e-02  2.540496e-01  1.753022e-01  -5.101936e-01  -1.777660e-01  3.010079e-01  -2.655907e-01  1.323702e-01  -1.785763e-01  -2.395410e-01  2.841733e-01  2.814194e-04  1.825868e-02  3.547247e-01  -1.409154e-02  -1.392079e-01  7.351311e-02  1.047256e-01  -3.622029e-01  -4.212704e-02  -2.084564e-01  1.405276e-01  9.290885e-01  -2.137360e-02  -1.708332e-02  -9.172513e-02  -2.563677e-01  1.776395e-01  1.373090e-01  -1.846273e-01  2.366865e-01  1.011372e-01  -2.641510e-01  -7.779549e-02  2.680888e-01  -8.523844e-02  7.464295e-02  -1.139173e-01  -3.061767e-01  3.952549e-02  1.147981e-01  7.464483e-02  -2.326362e-01  -6.897451e-02  3.397296e-01  1.432017e-01  -1.343891e-01  -5.058167e-02  -3.471084e-02  1.398151e-01  -6.082476e-01  6.509794e-02  -5.057400e-02  -2.791986e-01  9.846640e-02  8.868882e-03  -1.281633e-01  1.968326e-01  -8.533701e-02  1.697455e-01  9.752806e-01  -2.050020e-01  -5.055379e-02  5.455566e-02  -2.434951e-03  8.123983e-02  -8.732589e-03  -3.114806e-01  1.100955e-01  1.351499e-01  -1.516135e-01  -5.596596e-03  1.399871e-01  -2.596193e-01  1.161285e-01  4.793914e-02  -1.419679e-01  2.848806e-01  1.191652e-01  -8.923198e-01  5.010387e-02  2.132517e-01  3.416669e-02  3.625274e-03  -1.836454e-02  -1.744185e-01  7.857161e-02  -2.802202e-02  -1.632539e-01  3.303103e-01  -2.008980e-01  2.506651e-02  1.139304e-01  1.697273e-01  2.018270e-01  2.387864e-01  1.312957e-01  3.466564e-01  3.872248e-01  -6.999796e-02  -4.515972e-01  -1.389702e-01  4.768533e-02  -3.034418e-02  -2.241743e-02  1.558250e-01  1.437846e-01  -1.853908e-01  -1.239570e-01  8.034564e-03  1.945192e-01  9.357388e-02  3.965348e-02  -2.536671e-01  -4.784777e-01  -2.323319e-01  -2.243737e-01  -1.424188e-01  -3.012499e-02  1.041263e-01  3.297650e-01  -1.570556e-01  -1.099104e-01  8.467415e-02  -1.180019e-01  -1.639758e-01  2.019539e-01  -4.600693e-02  3.730474e-01  1.355357e-01  6.039738e-02  4.015217e-03  -3.371042e-02  -2.166502e-01  7.314486e-02  -1.085824e-01  4.422243e-01  -3.085247e-01  3.673784e-01  -2.846760e-02  1.475691e-02  -2.489910e-01  1.597682e-01  -1.220277e-01  -1.028608e-01  -7.358117e-02  1.201087e-01  3.211778e-02  1.780799e-01  -2.691557e-01  1.744532e-01  3.965194e-01  2.824074e-02  3.190567e-01  -2.247519e-01  -2.431100e-01  -3.030223e-01  2.373799e-01  -7.351829e-02  4.801662e-02  -7.441899e-02  -1.376577e-01  -4.071555e-02  -9.558585e-02  8.234993e-02  3.954460e-01  -1.971499e-01  9.507746e-02  3.517538e-01  -7.186405e-02  -3.284984e-01  1.291454e-01  -2.312191e-01  9.298030e-02  8.998654e-01  -1.315369e-02  -1.515735e-01  -7.136675e-02  -3.131838e-02  -2.660624e-03  2.225564e-01  -2.064274e-01  2.990652e-02  2.775806e-01  -4.799402e-01  1.183051e-01  1.736726e-01  3.153976e-01  -1.455956e-01  -3.430947e-01  -7.012345e-02  -2.711119e-01  1.259083e-01  8.128598e-01  -1.864151e-02  1.463278e-01  -2.935667e-02  -2.375598e-02  9.703802e-02  8.258940e-03  -1.814045e-01  -1.409120e-01  4.446850e-01  -1.672930e-01  -2.647066e-01  4.488290e-02  1.454238e-01  5.207521e-02  -2.856514e-01  1.408855e-01  -3.416027e-01  -7.241608e-02  1.018106e+00  -1.023266e-03  -8.221100e-02  2.141719e-01  2.059557e-01  -9.196729e-02  1.353556e-01  -2.536109e-01  9.613661e-04  5.985424e-02  -1.219491e-01  -1.313864e-03  2.317671e-01  -2.362566e-01  -1.974963e-01  -8.549316e-02  9.702878e-02  3.317865e-01  -8.768427e-02  -6.801257e-01  2.998131e-01  -1.966964e-01  -1.388094e-01  2.484618e-01  -8.663609e-02  -2.229386e-02  1.848461e-01  3.331974e-01  2.219492e-01  8.123329e-02  -1.812196e-02  2.633114e-01  7.071614e-02  -1.137669e-01  -5.218634e-02  -5.751237e-02  6.542618e-02  -1.063042e-01  -1.076884e-01  -1.091669e-01  4.102482e-01  5.211535e-02  -2.309746e-01  8.607128e-02  -1.826769e-01  1.301751e-01  -1.432858e-01  -1.456258e-01  -1.129373e-01  1.831871e-01  -7.658528e-02  2.495438e-01  4.633485e-02  8.399813e-02  2.382706e-01  2.065365e-01  3.060535e-01  7.740647e-02  -6.556024e-02  9.640761e-02  -1.765182e-01  2.463911e-03  2.823875e-01  3.142057e-01  2.761068e-01  -7.372106e-03  -4.463842e-01  1.964338e-01  2.346220e-01  1.712276e-01  2.689608e-01  -4.516325e-01  2.618141e-01  -5.202122e-01  2.487516e-02  -6.143764e-02  8.130587e-01  -4.281274e-01  5.297056e-01  -2.577766e-01  -1.035053e-01  -9.415876e-02  -3.064875e-01  -1.114556e-02  -1.249581e-01  7.201028e-02  1.980289e-01  1.006778e-01  3.880362e-01  -3.945862e-01  -1.380394e-01  1.636848e-01  -3.740338e-02  1.689953e-01  2.662145e-02  -7.275879e-01  -9.064894e-02  2.130506e-01  7.581476e-02  -2.435521e-02  -1.582502e-01  -1.541576e-01  2.631007e-01  -6.214867e-02  9.360618e-02  5.284054e-01  -1.004167e-01  3.261309e-02  1.670833e-01  5.034119e-02  -1.126958e-01  7.654642e-02  -3.275431e-01  4.315173e-02  1.037627e+00  5.735167e-04  6.721543e-02  7.395589e-02  -3.091853e-02  9.384689e-02  5.670798e-02  -1.335962e-01  -1.573008e-01  2.207030e-01  -4.058682e-01  1.312889e-02  7.498241e-02  -3.694276e-01  2.371813e-01  -4.666692e-02  3.553177e-01  7.849725e-02  1.257167e-01  -6.411600e-01  3.261235e-01  -3.334306e-01  -2.112657e-01  1.344701e-01  4.288721e-01  1.200577e-01  -3.266241e-01  -1.135421e-01  2.819372e-01  -2.995039e-02  2.558542e-01  1.165772e+00  -1.806929e-01  7.651789e-02  1.138425e-01  -4.640230e-02  1.700561e-01  1.306809e-01  -3.149965e-01  -3.235353e-01  4.798543e-01  9.915099e-02  1.639741e-01  -1.683453e-02  -2.999975e-02  -3.423630e-02  2.655917e-01  -2.181558e-01  5.008993e-01  -4.609133e-02  7.884434e-02  -9.267257e-02  1.053765e-01  -1.154981e-01  -1.586595e-01  -4.792140e-02  -3.997414e-01  1.066396e-02  -5.493551e-02  3.219153e-01  -2.013108e-01  -3.407250e-01  -2.152690e-01  -2.100238e-01  -1.861215e-01  -8.808146e-02  3.005825e-01  1.352331e-01  6.908844e-02  -1.180851e-01  1.969886e-01  -3.734855e-01  -2.020451e-01  4.353130e-02  -9.745903e-02  1.324359e-01  7.753045e-01  1.695600e-01  -3.177734e-01  1.820823e-02  2.215761e-02  1.511727e-01  -3.178596e-02  -2.862947e-02  -1.747831e-01  1.676062e-01  -5.409967e-01  1.666078e-01  1.928244e-01  2.263712e-02  -2.095218e-01  2.722459e-01  -2.447928e-01  1.857276e-01  -1.035507e-01  9.542274e-01  -5.484551e-01  1.618864e-01  6.026486e-02  -1.247769e-01  1.537195e-01  -3.737387e-01  1.227031e-01  3.338984e-01  -5.100304e-01  3.304551e-01  -1.062959e-01  -2.240942e-01  3.686030e-01  1.216403e-01  -3.218384e-01  4.488661e-02  -2.537258e-01  3.451650e-02  9.065754e-01  -1.763063e-01  -2.604253e-02  1.978282e-01  -1.521754e-01  1.549557e-01  -5.617271e-02  -2.162714e-01  -1.714067e-02  -7.612552e-03  -3.366433e-01  -4.576061e-02  3.001168e-01  1.102878e-01  -4.892719e-01  -3.056414e-01  -3.805901e-01  3.728393e-02  -1.412480e-01  -5.158145e-01  4.382808e-01  2.882615e-01  5.636981e-02  -6.788637e-02  -1.251498e-01  4.987092e-02  -1.368044e-01  -1.648394e-01  5.849347e-01  1.035866e-01  2.979217e-02  5.574585e-01  -6.364577e-02  7.033497e-02  -1.685121e-02  6.845191e-02  -1.539423e-01  -8.312836e-03  5.710768e-01  6.980757e-02  -1.608691e-01  -9.032432e-02  5.004256e-03  1.505109e-01  1.994638e-01  -2.150079e-01  1.364948e-01  5.497830e-02  -1.564105e-01  -4.531106e-04  1.824235e-01  -2.411846e-01  5.339684e-01  -1.734643e-01  1.623496e-01  9.845552e-02  6.070009e-02  -1.005761e+00  2.833381e-01  1.116310e-01  1.038776e-01  -5.340216e-02  1.621317e-01  -2.190291e-01  9.638099e-02  5.817740e-02  -1.861565e-01  2.052436e-01  -1.076435e-01  -1.977564e-01  -6.134132e-02  1.334145e-01  3.377025e-01  -3.483227e-02  -7.765178e-02  1.072866e-01  -2.777919e-02  -1.652619e-01  2.712150e-01  2.895486e-02  3.162000e-02  1.314769e-01  -1.551503e-01  2.767532e-02  2.620064e-01  -4.621403e-01  1.654195e-01  -1.893851e-01  -1.775441e-01  4.129807e-01  6.585982e-02  -2.118643e-01  4.502115e-01  -1.807947e-01  -1.247478e-02  7.331479e-01  -8.151765e-02  -2.202073e-01  -1.825919e-01  -1.279241e-01  8.544256e-02  1.041236e-01  -1.483156e-01  -5.337209e-02  3.963958e-02  -2.307848e-01  1.645047e-02  6.000436e-02  2.191306e-01  -6.248999e-02  -4.494454e-01  -1.912413e-01  -2.549210e-01  6.138285e-02  -2.965903e-01  3.429260e-01  -2.488339e-01  3.751818e-01  9.311763e-02  -1.151809e-01  2.367792e-01  1.107823e-01  -9.810844e-03  2.509362e-01  -3.811896e-01  -1.281511e-01  -1.458014e-01  -1.225072e-01  -8.957030e-02  -1.072398e-01  -1.549248e-01  2.517103e-01  -2.974160e-03  -6.903192e-01  2.892291e-01  1.211738e-01  -1.188064e-01  -7.636997e-02  -2.667636e-01  -2.250229e-01  2.007661e-01  1.170506e-01  4.001654e-02  1.942780e-01  -1.471299e-01  -2.838280e-01  1.180273e-01  -1.245420e-01  -2.543107e-01  1.827801e-01  -2.501874e-02  1.714415e-01  8.469601e-01  -7.757635e-02  -1.875962e-01  -1.851540e-01  8.116297e-02  -5.973879e-02  2.735665e-01  -9.758630e-03  -7.772275e-02  1.599243e-01  -5.086411e-01  1.349645e-01  2.115606e-01  4.643651e-02  5.393109e-01  1.720461e-01  -3.556463e-02  2.436879e-01  -2.260897e-01  5.536979e-02  -4.122048e-01  4.189245e-01  7.827733e-02  -4.632135e-02  -3.774196e-02  -2.378647e-01  1.604231e-02  8.182565e-02  -2.616271e-01  1.687184e-01  -1.541995e-01  -2.559535e-01  -2.431447e-01  -1.673004e-01  3.996539e-01  -9.742553e-02  1.607536e-01  -1.132818e-01  -8.168603e-01  2.597160e-01  8.080766e-02  -2.560576e-01  -1.317430e-01  -1.227612e-01  -1.831341e-01  1.617694e-01  -7.251187e-02  3.201017e-01  5.751018e-01  -1.433037e-01  2.916629e-01  -2.010887e-01  -1.642682e-01  3.639576e-01  -4.723503e-02  3.024959e-01  5.634666e-02  -1.274442e-01  -2.218066e-01  1.292594e-01  5.094019e-02  -8.660103e-02  -9.260719e-02  -1.024039e-01  2.331463e-01  9.457170e-02  -1.976811e-01  2.719679e-01  1.319564e-01  4.873238e-02  
      </Weights>
      <Biases Rows="128" Columns="1">
        9.498680e-02  1.887201e-01  -5.151966e-02  -1.503161e-01  -2.494237e-01  3.535096e-02  1.631818e-01  -1.446368e-01  -4.240723e-03  9.037486e-02  1.158261e-01  4.025309e-02  -1.820150e-01  1.361005e-01  -1.752730e-01  1.135896e-01  -1.716000e-01  -3.509564e-02  -2.417097e-02  7.687721e-02  2.132422e-01  -2.584052e-01  9.674904e-02  1.023009e-01  -1.340599e-01  9.977628e-02  -1.923502e-01  -9.003852e-02  -2.003496e-01  -1.148495e-01  -7.408378e-03  8.997457e-02  1.988137e-01  1.711017e-01  -7.101808e-02  2.467715e-02  -1.120818e-01  5.052574e-02  4.466217e-02  -6.309934e-02  -3.158694e-01  7.369880e-02  1.671965e-01  2.322150e-01  6.460280e-02  -1.315636e-01  -1.186423e-01  -2.642740e-01  -4.744342e-02  1.505846e-02  1.430412e-01  -1.352225e-01  -8.258160e-02  -7.856347e-02  1.527831e-01  2.951816e-02  1.175741e-01  2.006682e-01  -3.367332e-03  -1.698366e-01  -2.206605e-02  8.035356e-02  6.151168e-02  4.017094e-01  -4.418201e-02  2.991278e-01  4.785654e-02  -7.924929e-02  -1.204364e-01  -7.870640e-02  -1.468635e-01  5.535496e-02  -8.284162e-02  -9.315327e-02  2.139502e-01  -1.182673e-01  1.428921e-02  4.097169e-02  -4.989146e-02  6.268675e-03  -1.321312e-01  -1.011488e-01  1.005152e-01  -1.427190e-01  -1.692772e-01  -8.915500e-02  -2.125712e-01  -2.798894e-02  1.436865e-01  6.208061e-02  -7.560458e-02  -2.920921e-01  1.368399e-01  -7.908487e-02  1.164269e-01  -8.923299e-03  1.207795e-01  -3.228022e-02  -2.000027e-01  1.709170e-01  1.069700e-01  5.122797e-02  7.690468e-02  1.952672e-01  1.186583e-01  -2.629049e-01  1.799090e-01  -3.120397e-01  2.331624e-01  -2.968910e-02  1.215396e-01  -2.140197e-01  -6.768940e-02  3.315488e-01  9.197640e-02  1.804134e-01  5.393868e-02  -1.392517e-01  5.719541e-03  -7.185605e-02  2.037382e-02  6.512737e-02  -3.744398e-02  -5.079075e-02  3.797542e-02  1.243831e-01  -1.573114e-01  -1.733011e-01  
      </Biases>
    </DenseLayer>
    <DenseLayer Width="128" ActivationFunction="3">
      <Weights Rows="128" Columns="128">
        8.072360e-02  -5.292774e-02  1.063751e-01  -8.592230e-02  1.400098e-01  -1.132512e-01  -1.198317e-01  3.738800e-02  5.169519e-03  -1.419341e-01  -2.281895e-01  -4.628868e-02  -1.001310e-01  -3.002261e-02  -3.753478e-02  -6.850202e-02  -2.928257e-01  2.782634e-01  6.190146e-02  9.854317e-02  -1.664689e-01  2.087956e-01  -2.693655e-01  -1.868922e-01  7.935418e-03  -7.642463e-02  1.071625e-01  1.340641e-01  2.166183e-01  9.465443e-02  -1.560478e-01  1.229166e-01  2.345922e-02  -1.472904e-01  1.472477e-01  2.107189e-03  5.517424e-02  2.643122e-01  4.784362e-02  -7.049647e-02  1.189128e-01  1.713583e-01  -3.017475e-01  7.789916e-02  -1.075429e-01  -5.814183e-03  1.672562e-01  -1.041164e-02  1.985861e-01  6.124767e-02  -1.307248e-01  8.506627e-02  1.106906e-01  6.733530e-02  -2.878100e-02  -5.835987e-02  2.085565e-02  9.784489e-02  -1.523572e-02  2.131467e-01  -1.373844e-01  -1.697367e-01  -3.190977e-01  -4.769572e-02  1.802242e-01  1.759789e-01  -2.409752e-01  -1.535120e-01  7.163946e-02  -6.324682e-02  1.459375e-01  7.574560e-02  5.958487e-02  -4.723643e-02  8.274575e-02  3.146646e-01  -1.408790e-01  -2.740790e-01  -1.323048e-01  -3.175041e-01  2.555347e-01  -6.935308e-02  9.459512e-02  -8.169029e-03  5.987331e-02  -1.382407e-01  -7.186811e-02  7.661399e-02  1.569239e-01  -9.092659e-02  1.707619e-01  -4.914308e-02  1.801437e-02  1.454228e-01  -3.739192e-01  -4.456181e-02  -1.136181e-01  8.833271e-02  -1.942725e-01  -5.339448e-02  -1.335904e-01  1.257089e-02  -2.736303e-01  2.838018e-02  -5.957085e-02  1.041503e-01  1.258781e-01  -1.156556e-01  -2.043347e-01  2.375696e-01  -1.876754e-01  8.736385e-04  -3.838090e-02  -1.428888e-01  3.114880e-02  -1.658344e-02  -8.768814e-02  1.992247e-02  -1.346825e-01  1.200823e-01  9.349146e-02  -2.243175e-01  -9.539429e-04  2.311903e-01  -3.438163e-01  5.677515e-03  1.647155e-01  -1.279035e-01  1.071048e-01  1.059986e-01  1.453530e-01  -9.581412e-02  -2.130639e-01  1.187517e-01  -9.277764e-02  -1.340106e-01  -3.259851e-02  -1.951200e-01  -1.135314e-01  2.323439e-01  -2.430999e-01  5.613291e-02  -1.588966e-02  -6.792422e-02  2.707046e-01  1.501090e-01  1.253738e-01  1.937287e-01  8.768477e-02  -1.205255e-02  5.039329e-02  -4.896780e-02  -2.527350e-01  1.014335e-01  -2.809094e-01  -2.295194e-01  -1.762908e-01  -2.677320e-01  -1.046605e-01  1.183637e-01  -1.209228e-02  3.014895e-02  -5.588625e-02  1.766717e-01  2.102330e-01  1.202188e-01  -1.792423e-01  1.789017e-01  5.405289e-03  9.447373e-02  -2.448949e-01  2.406116e-01  -2.225340e-01  -1.079466e-02  2.529201e-01  -1.203344e-01  4.802838e-02  4.030511e-02  1.156456e-01  -1.774647e-01  5.187820e-02  1.021252e-01  3.453440e-01  -1.235127e-01  -6.520943e-02  1.642301e-01  1.190130e-01  -2.250963e-01  -2.717970e-02  -1.306851e-01  -6.093265e-02  4.137712e-01  -2.452702e-02  2.489411e-01  -4.604523e-03  -2.078400e-01  -9.549221e-02  -1.496902e-01  1.241314e-01  -5.337634e-01  -6.523010e-03  7.159387e-02  2.047457e-01  3.847966e-02  -6.105678e-02  -7.993159e-02  2.059171e-01  -3.031207e-01  5.537567e-02  -3.471969e-01  3.015596e-01  -1.404760e-03  -1.675414e-01  -7.035087e-02  -1.497805e-01  2.014035e-01  2.319349e-01  -2.599471e-01  2.720042e-01  1.825617e-02  3.239062e-01  6.792933e-02  -1.120080e-01  -1.739786e-01  1.511270e-01  -6.743940e-02  -2.493033e-02  2.480444e-01  1.946310e-01  1.834681e-01  -1.615334e-01  -5.344212e-02  -2.849213e-01  -2.607589e-02  2.691224e-01  -2.796257e-01  3.414084e-02  -6.292380e-02  -6.967129e-02  7.099379e-03  1.298827e-01  1.108883e-01  -1.894144e-01  2.835117e-01  -4.822953e-02  6.717306e-02  1.401080e-02  1.309761e-01  -1.544935e-01  -2.810524e-01  -9.171135e-03  3.615395e-02  -4.965214e-02  6.462272e-02  1.873349e-02  -2.518199e-01  -4.496869e-01  -2.700151e-03  3.422177e-04  1.358353e-01  3.710545e-01  -6.057778e-02  -3.582841e-01  3.534417e-01  -2.836637e-01  -6.978666e-01  -6.696480e-01  -4.128925e-02  5.341609e-01  -7.640215e-01  -2.373902e-01  -2.480467e-01  2.572999e-02  4.729164e-01  -1.292292e-01  2.112956e-01  -2.678090e-01  1.493196e-01  -5.772920e-01  -3.595118e-01  -2.785490e-01  -1.104240e-01  5.953015e-04  8.118628e-02  3.039804e-01  -1.897790e-01  -2.305215e-01  1.565102e-01  -3.862311e-01  -1.313529e-01  3.279363e-01  1.720784e-01  1.595976e-01  1.142189e-01  -3.752824e-01  4.113994e-01  9.815467e-02  8.493046e-02  -5.854254e-01  8.113191e-02  3.949014e-02  4.133419e-01  4.724304e-01  2.730077e-01  8.443823e-04  1.651393e-01  -2.606897e-01  1.765221e-01  2.659590e-01  3.716554e-01  -2.085825e-01  -2.675710e-01  8.564102e-02  7.514510e-02  -1.882641e-01  5.981935e-01  1.613662e-01  -2.190836e-01  -5.606991e-01  1.766638e-02  2.814557e-01  -2.353409e-01  -7.650803e-02  -1.590506e-01  -5.126838e-02  3.064808e-01  4.013648e-01  -1.231256e-01  3.581142e-01  1.199717e-01  -3.415439e-05  3.081220e-01  -3.016373e-02  -4.980324e-02  -6.527557e-02  -1.573037e-01  2.114568e-01  -1.181590e-01  1.958843e-01  2.890731e-01  -6.680490e-02  2.918470e-01  1.128402e-02  6.014674e-02  1.226154e-01  -3.981265e-02  4.031085e-01  -9.070816e-03  -4.025264e-01  9.501225e-02  -4.581549e-01  2.070211e-01  -5.803301e-01  4.478837e-01  -9.410547e-03  2.218251e-01  -2.541333e-01  1.300905e-01  -1.076673e+00  -4.097921e-01  -8.029790e-01  -3.744421e-02  1.916246e-01  -1.301880e-01  -1.513843e-01  4.374078e-01  -7.351356e-01  5.626850e-01  1.214420e-01  -3.490984e-02  -1.896613e-01  6.482969e-02  -1.931817e-01  -1.045248e-01  -1.891015e-01  4.255831e-01  4.064091e-02  -2.331053e-01  2.168964e-02  1.714595e-01  -6.382816e-01  9.533918e-02  2.470153e-01  -1.444321e-01  2.705367e-03  8.155478e-01  -1.096906e-01  -1.274519e-01  -5.465171e-02  -4.865697e-02  1.337712e-01  2.003734e-01  5.206618e-01  4.221341e-01  3.776352e-01  -9.720790e-02  -6.627060e-02  5.846127e-01  -5.021297e-01  -7.860696e-02  9.260453e-02  1.257239e-01  3.540885e-01  -4.447832e-01  4.389228e-01  -2.627848e-01  4.586421e-02  2.132767e-01  2.362659e-01  6.527651e-02  2.067588e-01  -4.382878e-01  -3.084811e-01  -1.650278e-01  5.523114e-02  3.774636e-01  -2.240927e-01  -8.885533e-02  -1.758390e-01  -1.091270e-01  -1.511027e-01  -1.978852e-01  2.750738e-01  -1.435402e-01  -3.502784e-01  -4.236150e-01  8.678453e-03  -1.122718e-01  1.306938e-01  -2.643588e-01  -3.412746e-01  3.580331e-02  -1.287248e-02  1.163174e-01  3.544282e-01  -6.850934e-01  -1.527966e-01  -1.676529e-01  1.666467e-01  -1.018480e-02  3.642283e-01  8.257663e-02  -2.257286e-01  -3.793966e-01  2.028602e-01  2.357240e-01  4.299815e-01  -1.410245e-01  -3.705837e-01  -1.659272e-01  3.103322e-01  -1.929134e-01  -9.545568e-02  -2.920564e-01  -1.698222e-01  5.943667e-02  -5.709591e-02  -5.698086e-01  6.501245e-02  -6.780615e-01  2.173640e-01  2.221534e-01  4.229597e-01  1.189591e-01  -2.535913e-01  1.699215e-01  -1.354683e-01  -8.123048e-01  -9.027925e-02  8.602080e-02  -4.343095e-01  2.025885e-02  -2.121995e-02  1.844806e-01  -1.298320e-01  1.813717e-01  4.368286e-01  6.086465e-02  1.251927e-01  -4.858708e-02  3.341105e-01  -4.522057e-01  3.020359e-01  -1.711543e-01  2.254122e-02  -2.467225e-02  2.001898e-01  1.612924e-01  1.317980e-01  -4.229453e-02  -4.810810e-02  3.283600e-02  6.390883e-01  -3.113884e-01  4.910347e-01  -8.353739e-02  7.711795e-02  -7.553738e-02  3.156860e-01  6.696831e-01  2.159853e-01  -1.976976e-01  2.495311e-01  -8.304168e-01  2.371584e-01  2.265210e-02  -4.004841e-01  -3.380111e-01  3.000603e-01  4.510041e-02  2.323954e-01  4.044089e-01  6.352612e-02  -1.603000e-01  1.501788e-01  -6.150850e-02  -2.089349e-01  1.244887e-01  -5.129499e-02  -9.657533e-02  -6.419186e-02  -3.532389e-01  -2.469091e-01  2.163488e-01  1.109263e-01  -1.703820e-01  1.495864e-01  -6.979407e-03  -8.261079e-02  3.406513e-02  -4.002247e-01  3.448114e-01  -3.742470e-01  1.951574e-02  1.682014e-01  -1.099437e-01  -3.169929e-02  -2.511787e-01  -1.436686e-01  3.542531e-01  8.185577e-02  -2.242540e-02  -2.024064e-01  -5.788199e-02  2.085828e-01  -7.408386e-02  1.074780e-01  9.697008e-02  1.934578e-01  1.137826e-01  -5.282108e-02  -7.806990e-02  3.604165e-02  3.491529e-01  2.731935e-03  -1.561299e-02  -1.683876e-01  1.963159e-01  1.591264e-01  1.700256e-01  2.132692e-01  -7.580041e-02  -2.380788e-01  3.378082e-01  2.328740e-01  7.762787e-02  -3.208155e-01  7.758337e-02  -3.072536e-01  -3.997603e-02  1.200582e-01  1.816054e-01  4.263848e-02  -1.420918e-01  -1.077978e-01  -7.436084e-02  3.842621e-01  1.719264e-01  -2.921866e-01  -8.368274e-02  2.099971e-01  1.726427e-01  1.345626e-01  5.152709e-02  -1.410150e-01  2.573506e-01  -2.859261e-02  3.870159e-01  -7.765352e-02  -1.667198e-01  -3.963311e-01  -1.850277e-01  1.279983e-01  -1.826934e-01  -2.836598e-02  5.501982e-01  2.979081e-02  9.761622e-02  1.127982e-01  5.541693e-02  8.371115e-02  -6.396827e-02  5.784124e-02  -8.930574e-02  -1.217638e-01  -4.991340e-02  4.268907e-02  4.204967e-02  -2.753560e-01  9.168321e-02  -2.061995e-01  1.687955e-01  -5.080628e-04  1.069421e-01  -1.225803e-01  -1.770196e-01  -1.111216e-01  5.451751e-02  1.271834e-01  -8.429272e-02  -4.271758e-01  1.427919e-01  -2.605952e-01  7.368118e-02  3.216970e-02  1.272465e-01  -8.060863e-02  -4.697380e-01  -1.562863e-01  2.358340e-01  -4.728171e-02  4.225336e-01  -1.388135e-01  -2.778397e-01  4.913743e-01  4.836783e-01  -4.487216e-01  -5.963783e-02  -1.283954e-01  -9.704573e-02  9.746863e-02  3.511405e-01  -9.845239e-02  -1.494120e-01  5.051857e-02  -5.822153e-02  2.811057e-02  8.154402e-02  2.085637e-01  3.033773e-01  2.627062e-01  -1.174813e-01  -4.622841e-02  2.912303e-01  -4.368464e-01  7.899838e-03  -9.655365e-02  -4.759586e-02  2.576184e-01  -3.579923e-01  3.450026e-01  -1.713312e-01  1.251881e-01  1.063212e-01  1.323795e-01  3.148045e-01  2.159635e-01  -4.112757e-01  5.937495e-02  -1.175780e-01  1.814236e-01  -2.979306e-02  -6.369904e-02  1.474296e-01  -1.458210e-01  -8.079436e-02  1.418848e-01  -4.919358e-02  1.864519e-01  9.357264e-02  -2.004436e-01  -3.570432e-01  -6.317121e-02  -8.817296e-02  1.381596e-02  -6.927822e-02  -1.185122e-01  -1.096810e-01  1.001774e-01  -1.238382e-01  3.137630e-01  -5.444744e-01  -3.253935e-01  -1.143559e-01  2.472215e-01  -1.221198e-01  3.857669e-01  4.192982e-02  -4.529411e-02  -2.689229e-02  1.233365e-01  6.969324e-02  2.300103e-01  4.431479e-02  -2.004294e-01  -1.394199e-01  2.574016e-01  -2.225890e-01  -3.631308e-01  -2.120432e-01  -1.246285e-01  -8.278856e-02  -2.008962e-02  -5.199246e-01  9.148067e-02  -5.565656e-01  2.021155e-01  1.575975e-01  3.793357e-01  1.904279e-01  -2.774953e-01  1.281817e-01  -6.847713e-02  -5.724058e-01  -1.159283e-01  -1.336740e-01  -1.473514e-01  3.054015e-02  -3.786332e-02  5.149247e-02  -1.354925e-01  -4.830887e-02  2.439889e-01  -5.394573e-02  1.033484e-01  1.091319e-01  3.282612e-01  -2.184722e-01  3.150803e-01  -7.376804e-03  -1.270537e-01  1.240515e-01  2.000928e-01  7.564031e-02  1.371057e-01  -1.263306e-01  4.780025e-02  1.883659e-01  4.431426e-01  -2.235074e-01  1.700923e-01  -1.071222e-01  -1.185968e-01  3.542721e-02  1.557409e-01  6.335378e-01  1.074430e-01  -1.519635e-01  2.562391e-01  -5.212130e-01  1.255927e-01  4.723561e-01  -3.610667e-01  -5.136088e-01  3.773576e-01  -1.187355e-01  8.704677e-02  2.516746e-01  -2.394578e-01  -1.093442e-02  8.419059e-02  -5.420487e-03  3.050528e-01  1.641546e-01  -1.866612e-02  1.208380e-01  -1.416459e-01  -2.058576e-01  -4.379523e-01  2.176208e-01  2.062274e-01  -1.807825e-01  3.358518e-02  -2.348446e-02  1.551579e-01  2.759309e-01  -1.344513e-01  1.973531e-01  -2.615056e-01  -1.192956e-01  -5.145627e-01  -1.173576e-01  -1.852458e-02  -1.344828e-02  8.927277e-02  1.599340e-01  2.747595e-01  2.456575e-01  -3.600639e-01  8.173747e-02  -1.530618e-01  6.693879e-02  6.999424e-01  1.191779e-01  5.211316e-02  4.143992e-01  -3.347516e-01  4.000492e-01  -5.645323e-03  9.893763e-02  -3.546228e-01  -9.766928e-02  -4.922538e-02  2.370630e-01  3.580627e-01  -2.557220e-02  4.289708e-02  2.394052e-01  -4.043744e-01  -1.177877e-02  1.436824e-01  2.328945e-01  -2.114633e-01  -3.479584e-01  1.269691e-01  -2.597623e-01  -1.571747e-01  4.074084e-01  -3.870816e-01  -2.004171e-02  -5.672082e-01  -8.315052e-02  1.793282e-01  -8.860898e-02  -3.829398e-01  -4.213568e-02  -9.105598e-02  3.607564e-02  4.092399e-01  -1.278278e-02  9.357180e-02  -4.725451e-03  5.620827e-02  1.477753e-02  -2.952244e-01  -4.258653e-01  -3.805923e-01  -2.375933e-01  2.932606e-01  5.970689e-02  9.912460e-02  1.578932e-01  -1.904644e-01  -3.581809e-02  -6.953900e-02  2.384877e-01  1.470506e-01  -5.586437e-02  6.697173e-01  1.378830e-01  -2.561633e-01  -1.499314e-02  -1.370003e-01  8.124433e-02  -3.475925e-01  2.816525e-01  -1.437753e-01  2.360037e-01  -2.689484e-02  5.775920e-02  -4.174407e-01  -2.213937e-01  -6.851284e-01  1.149363e-02  5.981522e-02  -5.780629e-02  3.165233e-02  3.164096e-01  -1.551872e-01  -4.577959e-02  -4.885459e-02  -5.534232e-02  -4.129390e-01  2.045351e-01  -3.899806e-01  -8.411783e-02  2.984123e-02  1.693827e-01  -4.977761e-03  -3.453187e-01  4.439170e-03  1.565336e-01  -2.922189e-01  -6.735115e-02  3.164115e-01  4.013375e-03  -1.222304e-01  -3.449250e-01  2.947190e-02  -1.702104e-01  -3.763627e-02  5.395798e-02  -3.294791e-03  -4.377489e-03  -7.785795e-03  -2.621451e-01  -4.582424e-01  1.863709e-01  4.794022e-01  -4.162935e-02  2.954410e-01  -1.565225e-01  5.255098e-02  1.994616e-02  6.637690e-02  5.907899e-03  -2.372400e-01  -3.057728e-02  -2.604814e-01  -2.424794e-01  1.280792e-02  -1.383039e-01  1.046529e-01  4.918651e-01  3.394963e-01  -1.927153e-01  -2.206642e-02  1.327002e-01  -5.226831e-02  -1.532581e-01  5.382591e-01  -3.264873e-01  1.919641e-01  1.852387e-01  -2.039637e-01  -2.350875e-02  2.224263e-01  5.754776e-02  -2.427658e-01  -1.510174e-01  -2.876378e-01  2.695653e-01  4.897988e-01  9.143113e-02  2.329523e-01  -1.857080e-01  -4.557553e-01  3.847200e-01  4.609148e-01  -2.046654e-02  -2.462355e-02  -1.205724e-02  -1.423315e-01  -2.389383e-02  -6.844076e-02  3.013915e-01  3.815834e-03  -1.753237e-01  -5.085297e-01  1.190914e-04  1.178047e-02  8.407257e-02  -3.541351e-01  1.258284e-01  -2.184092e-02  1.314247e-01  2.006738e-01  1.250180e-02  2.475572e-01  1.046482e-01  -9.197187e-03  2.387883e-01  8.172289e-02  -3.966723e-01  -5.009479e-02  -2.875078e-01  4.161152e-01  9.981075e-03  1.348667e-01  4.500063e-02  6.575545e-02  -1.918913e-01  2.377533e-01  1.443277e-01  8.492617e-02  -1.246560e-01  -8.779938e-02  1.286572e-02  -3.264504e-02  2.206751e-01  -5.885401e-01  -1.309288e-01  -3.585241e-01  -6.333810e-02  -8.902255e-02  -7.453182e-02  -3.521584e-01  1.100492e-01  -2.142677e-01  -1.079504e-01  -5.031127e-01  1.552528e-01  -6.918533e-02  -6.643904e-03  6.799557e-03  3.942890e-01  -3.285682e-01  1.167850e-01  -7.287081e-02  -2.814955e-02  6.153797e-02  -4.111551e-03  -1.675661e-01  1.496988e-01  -1.087168e-01  1.064391e-01  -9.624935e-02  -2.799073e-01  1.307800e-02  4.370352e-01  -1.762664e-02  -4.683575e-02  5.336084e-01  -1.743434e-01  1.310039e-01  1.350749e-01  7.291421e-02  -1.480381e-01  2.035922e-01  -1.458457e-01  -2.395824e-01  -2.620270e-01  -3.187915e-02  1.530956e-01  2.678835e-01  1.165540e-01  2.042969e-01  -3.312197e-01  3.623765e-01  3.749160e-01  -5.307059e-01  -2.776229e-01  -1.168557e-01  5.816643e-02  2.390511e-01  1.008576e-01  -1.217819e-01  2.107374e-01  -4.548886e-01  -1.774885e-01  -4.799215e-01  -1.782138e-01  -1.519253e-01  1.308909e-01  -6.255858e-02  -7.281391e-02  2.137499e-01  5.281325e-02  1.882009e-02  -2.555485e-02  1.125397e-01  9.244206e-03  4.251846e-02  7.751999e-02  -1.349489e-01  4.863781e-01  4.158725e-01  -4.974611e-02  -5.790293e-02  -5.543800e-01  -6.854409e-02  -2.300462e-01  3.227411e-01  1.051309e-01  8.402960e-02  -3.870222e-02  1.064303e-01  -2.400092e-02  -3.036547e-01  -1.759201e-01  2.898241e-01  -1.364212e-01  2.271462e-01  -2.061059e-01  -1.060694e-01  9.399079e-02  2.029433e-01  1.582125e-01  -3.682148e-02  -1.040958e-01  3.700976e-01  -3.629343e-01  4.161244e-01  9.595911e-02  1.283873e-01  -2.765881e-01  1.152675e-02  1.879959e-02  2.298153e-01  -1.027003e-01  -2.729776e-01  1.110424e-01  -3.758520e-02  -6.015800e-02  -4.538624e-02  -1.428107e-01  -3.307908e-01  -6.813648e-02  -1.325851e-01  1.257060e-01  -1.546619e-01  1.543895e-01  -1.868641e-01  -4.908833e-02  -3.248996e-01  -1.221696e-02  -3.215382e-02  6.073856e-02  6.484145e-02  5.243771e-02  -8.749271e-02  -8.481085e-02  -1.000410e-01  2.209140e-01  -2.903016e-01  4.537520e-02  -5.132306e-02  3.726521e-01  3.493676e-01  1.145233e-01  -1.198624e-01  -3.891049e-01  -5.333981e-02  3.125475e-01  7.443548e-02  -5.860757e-02  -6.456721e-01  1.727735e-01  5.354031e-02  -1.573639e-02  9.373221e-02  1.558806e-02  2.278269e-03  -6.928983e-02  -1.643037e-01  -1.669656e-03  3.143833e-01  -3.175315e-02  1.204246e-01  -8.065717e-02  2.732712e-01  -1.570529e-01  4.460960e-01  -2.525003e-02  8.683837e-02  2.230353e-01  -2.001726e-01  -2.846489e-01  -8.047317e-02  1.398228e-02  1.096886e-01  -2.178817e-01  2.275247e-01  -1.908561e-01  9.533399e-02  -1.052191e-01  -8.952025e-02  1.885955e-01  -6.734268e-02  -1.416601e-01  -1.746162e-01  9.624906e-02  1.596772e-01  7.929950e-02  6.211435e-02  1.884152e-01  -7.666394e-02  -9.643588e-02  -1.009375e-02  -3.002116e-01  -1.219422e-01  1.050629e-02  -2.308833e-02  1.206576e-01  1.908316e-01  3.290173e-01  -1.294063e-01  2.293383e-01  -2.537555e-01  1.810437e-02  2.497924e-01  -1.819751e-01  3.996663e-03  2.457893e-01  2.777531e-01  8.351100e-02  -5.085615e-02  -5.000557e-02  -6.346936e-01  -5.838251e-02  -4.020921e-01  7.115689e-02  3.209422e-01  -1.583576e-01  -3.386612e-01  -7.396920e-02  -7.019106e-02  2.686794e-01  -1.619892e-01  2.044784e-01  8.505850e-02  -3.645856e-01  2.782458e-02  -2.284427e-01  2.791999e-01  -3.230797e-02  -1.511753e-01  2.189384e-01  4.812244e-01  -2.058425e-01  -1.951949e-02  1.684427e-01  -1.441286e-01  -2.406907e-02  -2.386033e-01  -1.847693e-01  -1.282339e-01  -8.953274e-03  -6.883914e-03  2.658189e-01  -5.857568e-03  1.201538e-01  -1.150917e+00  -4.555666e-02  3.358503e-01  -4.342750e-02  -1.395281e-01  2.004366e-01  -1.841644e-02  -7.841819e-02  1.693815e-02  1.334563e-01  -4.674584e-01  -8.727755e-02  1.385763e-02  6.511624e-02  1.495908e-01  2.032422e-01  5.228365e-01  -1.532808e-01  2.467599e-02  1.631100e-01  -8.851351e-02  -6.053536e-02  4.745632e-01  -4.050260e-02  1.541473e-01  -7.945836e-02  -7.221381e-02  -8.274407e-02  1.118198e-01  -2.237559e-01  -3.181981e-02  -1.182673e-01  -2.025262e-01  1.286404e-01  2.611223e-02  3.075180e-01  2.900935e-01  -1.225185e-01  3.129776e-02  -1.530032e-01  6.051453e-02  2.185078e-01  2.346260e-01  -1.091745e-01  -7.483861e-02  3.572933e-02  -5.263072e-01  -5.823506e-02  6.272572e-02  7.956544e-02  1.741020e-01  -2.735855e-01  -2.917486e-01  2.879096e-02  1.357071e-01  -4.031612e-02  4.168857e-02  1.143132e-01  1.344537e-02  2.139191e-01  -9.301069e-02  1.504538e-01  -1.289841e-01  1.638322e-01  4.414054e-02  -1.180107e-01  -2.372679e-01  -2.109122e-02  7.585450e-02  -1.599280e-01  4.080962e-02  -1.249666e-01  -7.822131e-02  1.809285e-01  -2.182671e-01  8.759216e-02  -1.155145e-01  -1.830984e-02  -7.308731e-02  4.191098e-02  6.658643e-02  5.022488e-02  -4.886843e-03  -1.825155e-01  1.745157e-01  9.812269e-02  5.319870e-02  -2.191921e-01  -1.456508e-01  -2.664574e-03  -8.803234e-02  -1.085442e-02  -2.023876e-02  6.158591e-02  6.354100e-02  -2.709176e-01  -1.658272e-02  -2.953361e-02  -4.657628e-02  4.387695e-02  6.708976e-02  6.303605e-02  2.500644e-01  -3.735631e-04  -1.195409e-01  2.170470e-02  8.792947e-02  -2.241748e-02  2.172399e-01  9.931355e-02  -1.289058e-01  -3.402225e-02  1.158864e-01  2.328386e-01  -3.491735e-01  -2.023561e-03  -1.354211e-01  -1.801137e-01  7.856756e-02  -5.294366e-02  4.686521e-02  6.660805e-02  1.799213e-01  -5.429172e-02  -8.530512e-02  -2.372494e-01  1.400671e-01  -8.034906e-02  7.119931e-02  -1.531236e-01  3.061608e-01  -1.704614e-01  -2.602831e-02  -2.826120e-01  -1.649799e-01  5.789628e-02  2.065515e-01  -1.321696e-01  2.311899e-01  -2.022656e-01  1.115196e-01  -6.766296e-02  -3.647116e-02  -6.914864e-02  3.472940e-02  -6.688814e-02  -3.452589e-02  1.784288e-01  1.587904e-01  -6.646150e-02  1.711891e-02  4.414772e-02  -1.452241e-01  -6.425470e-03  1.188325e-01  2.366291e-02  3.918152e-01  8.831248e-02  1.159385e-01  1.611688e-03  -8.392806e-02  1.862948e-01  -5.100406e-02  2.339819e-01  4.251390e-02  4.220822e-03  -4.553627e-02  -1.928052e-01  7.030456e-02  -2.559063e-01  -8.194613e-02  -1.607386e-01  -5.896231e-02  8.990204e-02  9.255700e-02  1.782828e-01  -1.792109e-01  -5.632407e-01  1.395299e-01  5.998305e-02  3.203590e-03  1.212247e-01  -1.322997e-01  -2.356819e-01  -3.063693e-01  -3.083664e-01  -2.772149e-01  5.673284e-02  1.861546e-01  -2.852990e-01  3.707148e-01  -2.024671e-01  -1.270534e-01  -1.222110e-02  -2.782456e-01  3.598432e-01  -2.806149e-01  2.155631e-01  -7.852515e-02  -2.290771e-01  2.099681e-01  -2.488992e-01  -1.429451e-01  2.689007e-01  1.092312e-01  -3.325236e-02  5.959670e-02  -2.878776e-01  6.285474e-02  2.097864e-01  4.393221e-02  -1.344364e-01  1.280657e-01  3.035207e-01  2.524318e-02  2.310570e-01  2.235012e-01  4.589051e-01  -4.208691e-02  -1.914456e-02  -2.779088e-01  1.351557e-01  2.278359e-01  1.107853e-01  1.488670e-01  8.436898e-02  -3.370932e-01  5.641692e-01  -2.634189e-02  9.669253e-02  -2.058107e-01  8.566306e-02  -2.107447e-01  -9.066906e-02  -8.582796e-02  -3.219977e-02  -1.687518e-01  -3.259573e-01  -2.138865e-01  1.319405e-01  4.714608e-01  2.289638e-01  -1.720859e-01  1.624426e-01  1.465891e-01  1.336284e-01  -5.994897e-02  9.309228e-02  1.391051e-01  4.479961e-01  2.009071e-02  4.153184e-01  -1.312291e-02  -2.069435e-01  -4.498001e-01  -9.775122e-02  2.358406e-01  -2.433810e-01  2.744549e-01  5.730659e-01  -2.107846e-01  -2.150130e-01  3.083808e-01  6.579968e-02  1.536078e-01  -1.519399e-01  -1.618271e-02  7.825569e-02  -3.186154e-01  -1.972615e-01  -5.596038e-02  -1.559104e-01  -3.902907e-01  1.902035e-01  -4.841109e-01  1.895715e-01  4.664522e-02  -5.502857e-02  -2.739386e-01  -1.504718e-01  1.086792e-01  2.279006e-01  3.787163e-01  -8.358637e-02  -5.523689e-01  4.559097e-01  -2.305270e-01  4.183004e-02  6.845569e-02  6.192152e-02  -5.896788e-02  -4.979005e-01  3.394364e-02  2.364454e-01  -3.247987e-01  3.938519e-01  2.452759e-02  -3.520889e-01  1.458050e-01  1.107892e-01  -3.590284e-01  2.126660e-02  -1.071094e-01  -5.928459e-02  8.435835e-02  4.051880e-02  1.905843e-01  -8.554829e-02  -8.149730e-02  -1.607889e-01  4.221202e-02  5.228014e-02  6.772543e-03  -1.562057e-02  1.463118e-01  -1.553927e-01  -7.938241e-02  4.089805e-01  -4.221639e-02  -2.247616e-01  3.033191e-01  5.748447e-02  3.315617e-01  -5.420105e-02  2.427303e-01  -2.753486e-01  1.722989e-01  3.899941e-03  1.002232e-01  2.029607e-01  5.335929e-02  -2.762878e-01  -5.950486e-02  -1.981028e-01  7.228015e-02  2.779711e-01  4.052530e-02  4.101384e-02  -4.104186e-02  -5.102464e-02  -1.619557e-01  5.283053e-02  1.004331e-01  5.439311e-02  7.721814e-03  4.831403e-03  1.250862e-01  6.818172e-02  1.969277e-01  -3.417266e-01  7.672190e-02  -3.523215e-01  2.981945e-01  -3.256893e-01  3.195131e-01  -3.564174e-01  1.695910e-01  -1.692620e-01  2.431710e-01  1.929723e-02  1.070358e-01  2.653227e-01  -4.051940e-01  -4.621737e-02  -1.221949e-01  1.474652e-01  7.906174e-02  -1.088325e-02  -1.449897e-02  1.657749e-01  -1.673676e-01  3.511769e-01  -5.700890e-01  -7.018789e-02  -2.728392e-01  -5.633269e-02  1.774380e-01  -4.379669e-03  1.134153e-01  -3.254183e-01  4.772514e-01  -5.384807e-02  4.205267e-01  -2.313619e-01  -3.446029e-01  1.910044e-01  6.692448e-02  -6.072149e-01  2.283142e-01  -3.394423e-01  -4.306507e-02  -7.270421e-02  6.867708e-02  2.833923e-01  6.236940e-02  -1.787755e-01  4.305620e-01  7.688861e-02  -1.528250e-01  -2.634176e-01  1.977846e-01  1.310973e-02  1.875789e-01  -6.726654e-02  -1.974150e-01  2.096846e-02  -1.284858e-01  -1.170556e-01  1.918340e-02  -3.833002e-01  -1.736075e-01  1.541514e-01  1.846820e-01  -9.331688e-02  1.995169e-01  -1.083232e-01  -2.480415e-01  -1.670105e-01  7.873236e-03  5.049652e-02  1.719059e-01  -2.548134e-01  -2.184615e-01  -1.907844e-01  9.043621e-02  6.724332e-02  -7.023101e-02  -2.866507e-01  1.199018e-01  4.561417e-02  -3.574907e-01  -7.033938e-02  1.938330e-01  7.230034e-02  -2.421348e-02  2.063004e-01  -7.591537e-02  -1.537128e-01  -4.111429e-02  5.930243e-03  7.101667e-02  -1.940586e-01  1.542173e-02  -1.092682e-01  -1.666237e-01  -1.087032e-01  -1.105166e-02  1.159080e-01  -2.853426e-01  -2.451041e-01  -3.247275e-02  8.027877e-02  3.295583e-01  8.560521e-02  -1.324446e-01  1.526481e-01  -4.417603e-01  -1.728659e-01  -2.127827e-01  -2.502225e-01  -1.770491e-01  2.596926e-02  8.626575e-02  2.067577e-01  2.797080e-01  1.869334e-01  3.833751e-02  2.288122e-02  -8.118749e-03  7.702167e-02  5.044488e-01  5.257624e-02  -2.923566e-01  8.623224e-02  5.027525e-01  1.473259e-01  -6.876662e-02  -7.501757e-01  -6.736262e-01  -5.018831e-02  8.842073e-02  1.533966e-01  1.851899e-01  -2.732669e-01  -3.826390e-01  -3.790218e-01  -1.335498e-01  5.337512e-02  1.279137e-01  1.084110e-02  3.861541e-02  -1.727121e-01  -2.324311e-01  7.532599e-02  2.748197e-01  1.550091e-01  -3.136980e-01  -5.781641e-02  5.274829e-01  4.835062e-02  2.912961e-01  -4.973512e-02  -3.840077e-01  -2.316005e-02  -1.941886e-01  -2.209527e-01  3.536969e-01  -1.985878e-01  1.344891e-01  1.517786e-01  1.808491e-01  1.798382e-01  -5.919588e-01  -1.136044e-01  3.392226e-02  3.575975e-02  3.826068e-02  3.084373e-01  -9.324109e-03  -1.637433e-01  1.906596e-02  -1.483676e-01  -5.937773e-01  -1.515651e-01  -2.094924e-01  -3.860973e-01  -1.043067e-01  1.027231e-01  -2.621465e-01  -2.324757e-01  1.992121e-01  2.099575e-01  -8.088609e-02  -4.248980e-01  3.286873e-01  2.522329e-01  1.010317e-01  -2.060058e-01  2.774234e-01  -1.027842e-01  -1.468973e-01  -1.621869e-01  -3.218981e-02  -3.882240e-01  -3.093294e-01  -1.200002e-01  2.972869e-01  5.127387e-02  2.034131e-01  -1.857199e-01  -1.809598e-01  -1.640709e-01  -2.175172e-02  1.126127e-01  4.220254e-01  9.301317e-02  2.083756e-01  -2.560366e-01  -3.335257e-01  -1.091577e-03  -3.989614e-01  8.720542e-02  2.474571e-01  -2.119057e-01  9.944610e-02  1.325236e-01  1.345933e-01  -1.684066e-02  1.286806e-02  3.102735e-02  -6.572424e-02  2.366350e-01  -5.860412e-02  -4.112242e-02  5.423121e-02  -2.084155e-01  2.993378e-02  -1.971939e-02  6.221008e-02  -7.114995e-02  1.179254e-02  -1.665848e-01  1.582250e-02  -1.941298e-01  -7.218013e-02  6.946775e-02  -1.004395e-01  3.446707e-01  -6.878437e-02  2.262574e-02  -2.401876e-01  -5.138297e-02  -9.133637e-02  9.294774e-06  1.220759e-01  -8.311989e-02  1.062391e-01  3.358017e-01  2.005363e-01  1.759034e-01  1.197179e-01  1.130491e-01  -6.548447e-02  -6.617059e-03  -2.201326e-01  2.407863e-02  2.576609e-01  -1.941343e-01  1.992851e-01  3.115821e-02  -2.689035e-01  2.246927e-01  2.988368e-01  -3.635336e-02  2.428475e-01  -1.607140e-01  3.112344e-02  8.634537e-02  1.786813e-02  -5.650777e-02  -2.943594e-01  4.140886e-03  -3.301097e-01  9.741141e-03  2.689544e-01  -1.750733e-01  -5.799396e-01  -8.017660e-02  -2.522122e-01  -1.022940e-01  -1.063742e-01  2.195787e-01  4.690453e-01  -4.485803e-02  -8.705355e-02  6.209753e-02  2.779289e-01  -4.773788e-01  -1.411972e-01  -4.721443e-01  2.790470e-01  -2.108539e-01  4.024548e-01  1.750631e-02  -1.712032e-01  -8.001646e-02  1.794291e-02  1.087242e-01  1.048846e-01  6.762054e-02  5.014522e-01  -1.392107e-01  1.612433e-01  2.166231e-01  -2.715940e-01  3.976615e-03  -3.974545e-01  7.507144e-02  -1.695978e-02  1.186136e-01  -7.704455e-02  -7.908587e-02  -1.068488e-01  -1.805752e-01  -3.339458e-01  1.906394e-01  1.518930e-01  2.807477e-01  3.845196e-01  2.021297e-01  -1.638515e-01  -2.497104e-01  3.164596e-02  -7.469060e-02  -1.214547e-01  -1.214580e-01  1.214429e-02  2.226336e-01  -2.437557e-01  8.447599e-02  -1.164514e-01  -7.113685e-01  -9.790028e-02  -7.277735e-02  -3.979360e-01  -9.812585e-02  1.766531e-01  3.306301e-02  8.797916e-02  -3.213863e-01  2.571909e-01  -2.163121e-01  1.062017e-01  -1.049573e-01  1.940938e-02  8.106738e-02  9.039816e-03  3.514448e-01  7.433219e-03  -1.771202e-01  2.763779e-01  -9.494081e-02  1.702816e-01  -2.329473e-02  2.246108e-01  -2.313845e-01  3.043911e-01  -9.543444e-02  5.544335e-03  -7.044175e-02  7.463502e-02  -1.070719e-02  2.786089e-02  4.138829e-02  4.844419e-02  1.372202e-02  1.151884e-01  3.484897e-01  1.178072e-01  6.857111e-02  -5.012446e-02  2.520531e-02  -1.436525e-01  -8.074645e-02  -3.543316e-02  -2.854140e-01  -1.390267e-01  -3.095812e-02  2.761470e-01  -2.504726e-03  8.588579e-03  8.748047e-03  -3.938009e-01  1.737652e-01  -3.235481e-02  1.121706e-01  -1.734048e-01  1.007869e-01  6.725634e-02  2.029342e-01  6.895827e-02  -1.039239e-01  9.613307e-02  1.307460e-01  -2.587096e-01  -1.509129e-01  -1.610361e-01  -6.875797e-04  3.988702e-02  -1.211464e-01  -6.716410e-02  3.747625e-02  -2.393062e-01  -1.755224e-01  9.674203e-02  -4.812533e-02  -1.197747e-01  -2.141174e-01  -1.647623e-01  -5.947967e-02  5.202098e-01  1.739758e-01  5.117011e-03  1.706389e-01  1.782253e-01  4.581491e-03  1.669342e-02  2.453697e-01  1.720107e-01  -2.876725e-01  2.664941e-03  2.944582e-01  -9.614526e-02  1.170062e-01  1.192041e-01  -6.100909e-02  -4.490293e-02  -1.291415e-01  -2.445061e-01  -1.021190e-02  -1.282177e-01  -4.397369e-02  -5.801828e-02  -5.978425e-03  -9.842377e-02  3.092307e-02  -3.989521e-02  -7.611208e-02  -1.974344e-01  -1.684323e-01  1.760902e-01  -2.602535e-01  -1.023095e-01  2.053649e-01  9.843766e-02  2.135386e-01  3.164350e-02  -2.085277e-01  8.856238e-02  3.364523e-01  -5.484243e-02  -2.808970e-01  3.356096e-01  -4.161165e-02  -1.051437e-02  1.061526e-01  4.019560e-02  1.441112e-02  -9.416428e-02  4.101814e-03  3.953280e-01  4.749952e-02  8.982074e-02  -1.843502e-01  -1.900012e-01  1.373156e-01  1.215454e-01  5.435636e-01  -3.767971e-01  1.891540e-01  -2.347497e-02  -9.524188e-02  1.783340e-01  -4.520694e-02  1.692011e-01  -2.916150e-01  1.330380e-01  -8.744043e-02  -3.534019e-01  1.104959e-01  -5.029067e-01  8.435968e-02  -2.512411e-01  -3.767043e-02  2.582189e-01  -1.969715e-01  2.672449e-01  -4.800352e-01  -1.837032e-01  3.862793e-01  -3.394624e-01  -1.145352e-01  3.678100e-02  -5.611784e-01  -2.770980e-01  -1.609535e-05  -1.197781e-01  3.376285e-01  9.287445e-02  1.782574e-01  -1.125203e-02  4.283754e-01  -2.920452e-01  1.056410e-01  4.695715e-02  1.173841e-01  -1.346019e-01  7.361494e-02  1.753988e-01  5.823600e-02  -7.100511e-03  -9.354407e-02  -6.561685e-01  -2.020991e-01  -1.664595e-01  -6.276546e-02  3.282588e-01  -5.613201e-01  3.222801e-02  -1.254494e-01  1.472861e-01  -1.850325e-01  5.307024e-01  -1.182767e-01  1.104759e-02  -2.948258e-01  -1.163613e-01  -1.147440e-01  -8.256856e-02  2.020064e-01  -4.085624e-01  5.063812e-02  2.411432e-01  -1.886711e-01  -1.045130e-01  -1.086799e-01  -4.869336e-02  4.030329e-01  -2.706768e-02  -6.466772e-01  3.119693e-01  -3.360721e-01  -2.856946e-01  3.077771e-01  1.348575e-01  -1.547402e-01  -3.430911e-01  1.593097e-01  1.262555e-02  -3.153045e-01  -1.540957e-01  1.520744e-01  -1.931159e-01  1.804567e-01  5.054947e-02  2.387450e-01  -4.373062e-03  -6.525634e-02  2.285140e-01  -3.240273e-01  -3.988349e-02  2.253884e-01  1.502844e-02  -1.258646e-01  2.087363e-01  1.733405e-01  1.684732e-01  1.112023e-01  1.218236e-01  -5.796030e-02  2.156499e-01  1.789222e-02  -8.962914e-02  2.059626e-01  -4.890140e-02  9.013961e-02  1.600171e-01  -5.729926e-01  9.896405e-02  -5.914230e-02  -8.514854e-02  5.753703e-01  1.806932e-01  -7.441337e-02  1.839011e-01  -2.920827e-02  2.569526e-02  -4.610201e-02  4.830861e-01  5.077056e-02  -5.512546e-02  4.005628e-02  -6.858335e-02  4.690199e-02  -8.810168e-02  2.067434e-01  1.847119e-01  9.193890e-02  7.113221e-02  -1.637029e-01  2.598912e-02  6.265958e-02  -2.664413e-02  3.553391e-03  4.658152e-01  -7.140619e-02  -6.298485e-02  2.369583e-02  -2.019009e-01  9.364600e-02  1.642567e-01  -2.615586e-01  2.135306e-01  -7.126929e-02  8.331332e-02  -3.980228e-02  5.134924e-01  1.126131e-01  -7.377694e-02  9.107868e-02  -1.353779e-02  -5.588710e-02  -1.932968e-01  -1.574310e-01  -1.062853e-01  1.775825e-01  1.217582e-01  2.847340e-01  -4.776876e-01  1.083697e-01  -5.254108e-02  -6.060483e-03  1.279604e-01  4.007655e-02  -1.164230e-01  7.074729e-02  4.373951e-01  2.270142e-01  2.259938e-01  -3.393982e-01  -7.382790e-01  -1.090193e-02  -2.187269e-01  1.879646e-01  4.256728e-01  -3.305045e-01  -1.750066e-01  -2.738949e-01  -1.642778e-02  2.506944e-01  -1.627429e-01  -2.970541e-02  1.880912e-01  -1.713063e-01  1.098450e-01  1.077212e-01  5.088553e-01  -6.416595e-02  -3.192992e-01  1.307801e-01  3.321900e-01  -1.710030e-02  -7.099062e-02  1.827727e-01  -2.398676e-01  -3.991063e-02  -4.504681e-01  -1.145888e-01  1.895547e-01  -2.152922e-01  7.093482e-02  5.877239e-01  1.654460e-02  3.305837e-01  -5.608956e-01  1.077906e-01  2.275619e-02  -1.607881e-02  -1.139855e-01  2.268377e-01  4.624695e-02  -2.495304e-01  -3.115166e-01  1.708930e-01  -1.478491e-01  4.142511e-03  1.700308e-01  -7.424694e-02  3.555966e-01  6.270396e-02  4.942701e-01  -1.090758e-01  1.508721e-01  -9.647512e-02  1.870696e-01  -1.553148e-01  3.362599e-01  2.223809e-02  4.586738e-01  -1.058393e-01  4.224443e-02  3.261091e-02  5.121615e-03  -3.425675e-01  4.378444e-01  1.157191e-01  -4.925877e-02  5.272839e-02  -1.275043e-01  9.921170e-02  2.892274e-01  -2.671833e-01  2.565909e-01  -2.324042e-01  -6.785428e-03  8.450180e-02  -2.722375e-01  -1.591200e-01  -7.335966e-02  2.838309e-01  -2.645651e-01  -1.651214e-01  -1.128591e-01  -1.775149e-01  -5.396349e-02  -1.735394e-02  1.771950e-01  -6.803039e-02  1.124591e-01  -3.137355e-02  -1.318420e-01  -1.671366e-01  -1.251484e-01  1.463815e-01  1.624720e-01  4.155734e-02  6.838367e-02  1.401892e-02  -6.701317e-02  1.026895e-01  -3.223931e-02  5.341945e-02  6.703993e-02  -5.098527e-02  -5.135767e-02  -1.452100e-01  -8.985642e-02  -1.328600e-02  -8.154941e-02  1.124644e-01  1.198057e-01  1.456514e-01  -9.823837e-02  6.285271e-02  -2.275776e-01  -1.342042e-02  1.457966e-01  -1.889382e-02  -3.544971e-02  1.736381e-02  -2.038680e-01  1.900167e-01  -1.319187e-02  -2.053605e-01  -1.116502e-01  -3.831719e-02  -1.622018e-01  1.721086e-01  2.447939e-01  -5.324921e-02  9.423171e-02  3.353290e-02  6.564683e-02  1.338003e-01  2.061937e-01  4.709338e-02  -1.250907e-01  3.493584e-03  2.029755e-01  -1.411711e-01  -1.037917e-01  1.001050e-01  -5.934006e-02  -1.618340e-01  -2.280973e-02  -5.149926e-02  2.567218e-01  -1.960798e-02  -5.180069e-01  3.420425e-02  4.441373e-02  7.821554e-03  2.563673e-01  4.125759e-02  9.479690e-02  -1.515546e-02  -6.147989e-02  9.253000e-02  -7.534443e-02  -5.331141e-02  -2.085512e-01  -2.449721e-01  4.231062e-01  1.528355e-01  -2.676216e-01  1.293110e-01  1.141408e-01  8.125754e-02  1.685420e-01  1.909044e-01  8.578508e-02  -1.045161e-01  1.402425e-01  2.507869e-02  -1.738074e-01  2.961679e-01  -3.180020e-01  5.832051e-02  -1.725359e-01  -4.243697e-03  -8.660027e-02  1.139963e-03  -3.459925e-02  1.199613e-01  -2.770110e-01  -1.575444e-01  -8.676938e-02  5.088172e-02  1.101872e-01  1.112675e-01  -1.561205e-01  7.723621e-02  -1.573021e-01  2.763881e-02  1.261356e-01  -2.639003e-01  -1.502238e-01  -7.336400e-02  -2.365556e-01  -1.063008e-01  7.189367e-02  -2.554109e-02  -1.353406e-01  -2.311691e-01  -2.053588e-01  1.804981e-01  -9.692570e-02  -6.108088e-02  3.537079e-01  9.798545e-02  -3.114084e-01  -4.608133e-03  1.130461e-01  -8.163590e-02  -1.989794e-01  2.339647e-01  1.028725e-01  2.025342e-01  -3.308756e-02  -6.983919e-02  -4.343089e-01  1.025231e-02  3.453153e-02  -1.885550e-01  -1.971216e-01  -7.805423e-03  -9.130763e-03  3.194333e-01  1.955935e-01  5.818420e-02  4.603936e-02  1.645329e-01  -6.561660e-02  -1.886030e-01  8.337055e-02  3.985253e-02  1.283025e-01  1.275545e-01  1.382815e-01  8.740644e-02  -2.619156e-01  -1.138988e-02  -2.334438e-01  -2.258268e-01  2.903117e-01  -6.928304e-03  5.823081e-02  -1.195142e-01  -3.987817e-01  2.471806e-01  6.108296e-02  -7.876108e-02  -4.472593e-01  -3.051118e-01  7.894136e-02  3.675768e-01  5.559927e-01  2.546923e-01  -3.584520e-01  9.896948e-02  -2.629254e-01  1.817725e-01  1.448077e-01  1.464621e-01  -1.700759e-02  -2.789314e-01  2.577797e-01  -1.383091e-01  1.449582e-01  5.346267e-02  -2.297138e-02  -1.831324e-01  -4.336528e-01  -1.998008e-01  2.979798e-01  -1.160186e-01  -1.167454e-01  -2.008809e-01  5.028120e-02  8.550460e-02  1.078627e-01  -5.425769e-02  6.139832e-02  1.565963e-01  -9.900558e-02  1.726810e-01  -2.391280e-01  -9.066332e-02  -2.747381e-02  -2.308254e-01  3.231780e-01  -3.616901e-02  1.123436e-01  1.569088e-01  -1.378857e-01  4.822133e-02  -1.467003e-01  9.701544e-02  -5.818110e-02  -1.395725e-01  2.027699e-01  2.135840e-01  -2.329534e-02  8.671146e-02  -2.016696e-01  1.270650e-01  -3.645165e-02  2.232456e-01  6.599262e-02  -1.282097e-01  3.785395e-02  8.467145e-02  -5.215513e-01  -1.889838e-01  -4.728869e-01  1.703724e-01  -4.683444e-02  1.290034e-02  -3.221337e-01  2.961737e-01  -1.221220e-01  3.374033e-02  2.675967e-01  9.506404e-02  -2.780673e-01  5.002626e-02  -2.041863e-01  7.256687e-03  2.543438e-02  2.141651e-02  1.485657e-01  -1.098071e-01  -5.377614e-02  4.014279e-02  -4.161559e-01  2.002932e-01  1.463573e-01  5.431823e-02  -1.833840e-01  -1.231566e-01  2.027329e-01  2.142368e-01  -8.847699e-02  -3.282463e-02  -2.874155e-01  1.329748e-01  -5.033709e-02  2.551526e-01  7.122392e-04  -7.582887e-02  4.495156e-01  -2.481783e-01  1.509560e-01  -9.351343e-02  3.911398e-01  -4.191475e-02  -2.944695e-01  -4.197537e-02  -4.485066e-01  2.814535e-01  2.025743e-01  -3.306459e-02  2.140043e-01  3.855202e-01  -1.703167e-01  2.623444e-01  1.268333e-01  5.669231e-02  -2.900174e-02  -8.271113e-02  2.655501e-02  1.757764e-02  -1.874947e-01  -5.766395e-02  1.328290e-01  1.337538e-04  -3.748084e-01  -4.420380e-02  2.542754e-01  1.158506e-02  -9.840877e-02  1.098336e-01  -3.352968e-03  2.917129e-01  2.220341e-01  1.683840e-01  -3.618973e-01  -1.470154e-02  -2.041334e-01  2.559554e-01  -4.239650e-03  8.510136e-02  -2.128969e-01  -6.374064e-02  -2.160356e-01  -3.513293e-02  -1.017391e-01  -1.237386e-02  2.145630e-01  -1.580259e-01  1.518947e-01  -5.696904e-02  -1.629760e-02  6.729912e-02  1.922005e-01  -8.648339e-02  1.933213e-02  9.847625e-02  1.667743e-01  -2.422247e-01  -3.764518e-03  2.566185e-01  -3.475746e-01  1.875091e-01  -5.695476e-02  -5.368485e-02  6.947249e-02  2.481858e-01  5.568236e-01  1.366188e-01  -1.927308e-01  2.092666e-01  1.632445e-01  -2.848913e-01  2.611051e-01  6.744373e-02  -3.326924e-01  -1.049687e-01  -3.884326e-02  -6.128811e-02  1.037896e-01  2.254185e-01  2.767267e-01  7.022709e-02  2.729897e-01  3.856251e-02  -9.743968e-02  -8.699078e-02  2.103083e-01  1.225179e-01  2.145868e-01  -1.228816e-01  -2.546590e-02  1.244533e-01  7.562033e-02  -2.696872e-01  -4.737080e-02  6.432527e-02  -1.395322e-01  3.036899e-01  1.377330e-01  7.350805e-02  -2.063491e-01  -2.745838e-01  -2.243778e-02  -6.139278e-02  1.902175e-01  1.768671e-01  1.487849e-01  2.401697e-01  -4.723367e-01  -6.938679e-02  4.895829e-02  1.798950e-02  1.552405e-01  -1.377976e-01  -2.320747e-01  3.580932e-02  -2.260156e-02  -3.083799e-03  3.146946e-01  -1.596410e-01  -2.580090e-02  3.604316e-02  -9.885359e-02  -4.920532e-02  -3.059414e-01  9.505075e-02  3.125359e-01  -1.050828e-01  -9.899145e-03  -2.424181e-01  -4.081496e-02  2.838721e-01  -1.973825e-01  -1.417876e-01  -2.832741e-01  1.906693e-01  -2.218310e-01  -1.011901e-01  1.601022e-01  2.470366e-02  2.535216e-02  8.060417e-02  2.434922e-01  2.152898e-01  -1.073198e-01  -1.194635e-01  -3.415591e-01  -2.746881e-01  4.923296e-01  -1.367676e-01  1.477825e-01  1.204446e-01  -2.444886e-01  6.116797e-03  2.604330e-01  1.065392e-01  -4.487646e-01  -1.617994e-01  7.554422e-02  9.119272e-02  6.098434e-01  2.973348e-01  -9.235413e-02  1.015927e-01  -2.886565e-01  2.085122e-02  2.244301e-01  9.353840e-02  -1.840567e-01  -2.408590e-01  -9.426825e-02  3.548086e-02  4.568822e-02  3.738686e-01  2.942057e-02  -2.143283e-01  -4.640498e-01  -1.411653e-02  3.689665e-01  -1.699461e-01  -2.287320e-01  1.522561e-01  2.242502e-01  2.733822e-01  3.913462e-01  -8.712447e-02  1.641681e-01  9.880455e-02  -7.707632e-02  5.323879e-02  -1.517409e-01  -3.321606e-01  7.656995e-02  -1.862434e-01  5.030941e-01  9.747148e-02  6.931154e-02  5.326082e-02  2.201920e-02  1.812399e-02  1.066681e-01  1.619667e-01  -1.936941e-01  4.388471e-02  3.037967e-01  1.292346e-01  -2.541235e-01  -3.451003e-02  -1.751231e-01  -7.945339e-02  -1.452837e-01  2.044397e-02  1.635091e-02  -1.722644e-02  -1.035623e-01  1.286437e-01  -3.866890e-01  1.293608e-03  -3.381046e-01  2.183876e-01  -5.226101e-02  -2.352330e-02  -9.549341e-02  2.305303e-01  -2.288889e-01  -9.165187e-02  3.674950e-02  7.671154e-02  -1.314810e-01  1.273250e-01  -2.073190e-01  4.230376e-03  8.176435e-02  -3.554521e-03  2.895261e-02  -2.682623e-01  -4.836814e-02  -1.326880e-02  -3.858128e-01  6.854776e-02  1.864554e-01  -1.676051e-02  -3.036771e-01  1.586799e-01  1.920295e-02  -4.471948e-01  -4.197846e-01  2.009634e-02  3.029116e-01  7.652216e-02  -8.779907e-03  -5.084056e-02  -1.418047e-02  -3.398398e-02  -3.858781e-01  1.215950e-01  -2.734450e-02  1.768006e-01  3.552605e-02  -1.657096e-02  -6.126557e-02  1.976685e-02  1.430100e-01  -3.358114e-01  1.321514e-01  1.635029e-02  -6.026536e-02  1.128976e-01  -4.721566e-02  -9.684175e-02  -5.727438e-02  -3.554761e-02  -1.389175e-01  1.991431e-01  -8.212351e-02  1.661147e-01  5.714041e-02  1.162111e-01  1.881646e-01  1.146200e-01  8.786485e-02  9.302421e-02  -8.274635e-03  2.140097e-02  5.202439e-02  2.261975e-03  -7.027579e-02  -6.615774e-02  2.313071e-01  -7.558839e-02  5.417772e-02  4.804180e-02  1.548132e-02  3.800294e-03  -1.298438e-02  -1.126939e-01  3.290038e-01  -6.340306e-02  8.581649e-02  -1.434755e-02  -4.522735e-02  -4.584584e-02  -2.017129e-01  1.532369e-01  6.247420e-02  1.441474e-01  -4.090138e-02  5.747189e-03  -8.629519e-02  -7.807652e-03  -1.483638e-01  -4.515556e-02  -7.289501e-02  8.819576e-02  3.827421e-02  5.454951e-03  -2.542433e-02  -1.312014e-01  -1.912982e-02  -7.316458e-02  1.867752e-01  -9.346832e-02  6.106202e-02  -2.255260e-01  9.089630e-02  1.401503e-03  -1.820944e-02  -3.217646e-01  -1.373985e-01  1.808374e-01  9.326998e-02  2.093975e-02  5.584327e-02  -1.772168e-01  1.897787e-01  3.806748e-02  6.796563e-02  1.482445e-02  1.663251e-01  1.063523e-01  -2.247547e-01  1.165178e-02  1.275448e-01  1.157030e-01  -5.162203e-02  2.083351e-01  -7.612373e-02  5.823322e-02  1.542023e-01  -5.344660e-02  1.873786e-01  -3.001976e-02  -2.126038e-02  2.757229e-02  1.251009e-01  -4.740984e-02  -5.914921e-02  1.328359e-01  1.374760e-01  1.538331e-01  -2.058529e-01  -5.866342e-02  -1.118327e-01  -5.547362e-01  -2.166838e-01  2.446681e-01  -1.925742e-01  -6.366295e-02  9.407061e-02  -8.081144e-02  6.412676e-01  -3.622038e-02  -1.847159e-01  1.333831e-01  -1.478503e-01  -2.058119e-01  7.246850e-02  -5.076531e-02  1.450652e-01  1.921880e-02  2.197606e-01  3.480095e-02  9.639809e-02  -1.496184e-02  4.093826e-02  2.429755e-01  -2.871911e-02  -1.962795e-01  -6.973034e-02  1.762272e-01  2.876824e-03  1.824256e-01  1.285571e-01  1.898067e-01  -5.393215e-02  -3.899739e-02  -1.048414e-01  -1.051510e-01  -4.539563e-01  -6.566925e-02  2.808584e-01  -1.884987e-01  1.645166e-01  2.499440e-01  -5.383651e-01  -5.988610e-02  -8.821033e-02  -3.438535e-01  2.290393e-01  -4.389167e-01  1.266588e-01  2.168673e-01  5.220866e-01  1.014334e-01  1.317614e-02  -2.293754e-01  -2.393648e-01  7.200392e-02  -1.215608e-01  -1.045030e-01  1.454037e-01  1.742966e-01  -1.579982e-01  -6.947283e-02  2.281592e-01  4.365979e-01  1.199323e-01  1.190302e-01  5.589276e-03  -4.999334e-01  2.285259e-01  2.767070e-02  6.528299e-01  2.011134e-02  -1.166841e-01  1.295044e-01  1.342650e-01  1.596075e-01  9.114855e-02  5.932738e-02  -1.563411e-01  -3.313016e-02  -3.181250e-01  2.220435e-01  -1.169582e-01  2.242014e-01  1.342117e-01  3.639475e-01  -1.336606e-01  3.607429e-01  -7.709647e-01  1.506021e-01  -3.780851e-01  -2.879418e-01  -3.385825e-02  -4.113293e-02  2.429936e-02  2.523815e-02  -1.035258e-01  2.022697e-01  -6.817415e-01  -1.349762e-02  4.995171e-02  7.918999e-02  1.094745e-01  -3.601512e-03  1.940130e-02  -3.752760e-01  1.205185e-01  7.033438e-02  -5.946545e-02  -3.109084e-01  5.800411e-01  3.599632e-01  3.206459e-01  2.364075e-01  1.370328e-02  -2.301633e-02  4.065191e-02  -4.401521e-01  1.525465e-01  6.057472e-02  -4.691719e-02  -1.359167e-01  3.640476e-01  8.427908e-03  1.367151e-01  -1.254138e-01  -3.725840e-02  3.066795e-02  -1.114374e-01  3.574134e-01  6.034340e-02  -1.967316e-02  3.882665e-01  6.676883e-02  -4.601333e-02  -1.223636e-01  -1.416309e-02  -2.618772e-01  -1.480323e-02  7.071806e-02  1.700124e-01  -4.987538e-02  -4.147323e-02  -9.984349e-02  -1.875985e-01  -3.523739e-01  -1.162855e-01  1.720924e-01  2.030811e-02  -3.687838e-01  2.196042e-01  1.293973e-01  -9.051114e-02  -5.082630e-02  -2.791508e-01  2.193767e-01  -2.013865e-01  1.854052e-01  -2.225407e-01  -2.696155e-02  -1.505041e-01  -3.530053e-01  -1.062511e-01  2.342719e-01  5.244639e-02  2.075145e-02  -2.732121e-01  -1.864819e-01  1.298625e-01  2.428432e-02  8.923782e-02  1.121683e-01  2.017908e-01  1.201804e-01  -1.186447e-01  -3.609687e-02  8.096471e-02  2.685827e-01  8.937274e-02  6.266817e-02  -3.143412e-02  1.309697e-01  2.965685e-02  5.668030e-02  2.702932e-01  -8.094760e-02  -2.708032e-01  4.830710e-01  2.498805e-01  7.795558e-04  -3.428506e-01  -9.519630e-02  -2.242479e-01  -1.129738e-01  -9.330057e-02  -6.829916e-02  -1.554175e-01  -3.427195e-01  -2.045769e-01  -1.407048e-01  2.069287e-01  1.331236e-01  -2.706605e-01  5.409759e-03  4.655888e-01  -1.529756e-02  1.212130e-01  1.893464e-01  1.382126e-01  3.269818e-01  -1.124610e-01  2.954963e-01  -1.972258e-01  3.586206e-02  -1.932491e-01  -1.743601e-01  2.553713e-01  -1.911215e-01  1.362701e-01  2.909125e-01  -1.501954e-01  -1.320744e-01  1.298391e-01  6.629127e-02  1.593028e-01  -2.808816e-01  1.839758e-01  1.192635e-01  -2.113064e-01  6.120425e-03  -4.393242e-02  -5.183841e-02  -2.645413e-01  2.667780e-01  -2.820441e-01  2.113101e-01  -1.683103e-01  -7.422990e-04  -1.705822e-01  -5.299468e-02  -2.317797e-02  1.224073e-01  4.475984e-02  -6.134837e-02  -3.685842e-01  2.444713e-01  -5.949835e-02  9.039715e-03  -1.027142e-01  -7.740642e-03  -7.847753e-02  -5.682920e-01  -1.446232e-01  2.779002e-01  -5.373818e-02  1.686920e-01  -9.988683e-02  -3.791285e-01  4.052476e-01  5.836164e-01  -3.609317e-01  1.650056e-02  -9.819003e-02  -1.795547e-01  9.058876e-02  -5.174107e-02  1.919321e-01  -1.758897e-01  -6.636301e-02  9.262250e-02  1.456194e-01  -1.610419e-01  1.803976e-01  2.952515e-01  5.128115e-01  -3.621307e-02  -3.807855e-01  2.628696e-01  -1.811126e-01  1.906439e-01  7.613723e-02  -8.581293e-02  -7.420056e-02  -1.113279e-01  2.839836e-01  1.355321e-01  4.217265e-02  4.088191e-02  1.207666e-01  8.012797e-02  -6.884424e-02  -2.167167e-01  -4.318143e-01  -2.048990e-02  -1.294097e-01  4.556779e-02  6.338142e-02  -9.783722e-02  -5.031540e-01  1.736818e-01  -2.278814e-01  -1.261139e-01  2.440833e-01  -1.467823e-01  -8.120876e-03  -2.757519e-02  2.446137e-01  1.243661e-01  -3.620184e-02  -2.431230e-01  -4.596463e-01  -2.341520e-01  -1.185171e-02  -8.061770e-02  2.842939e-01  -2.721493e-01  -5.375813e-02  6.185598e-02  -1.161661e-02  1.295579e-01  -1.850473e-01  1.634666e-01  -1.239314e-01  -8.755261e-02  2.413427e-01  -4.954033e-02  3.825317e-01  -6.403613e-03  -3.022271e-01  1.502768e-01  3.870026e-01  -1.087474e-01  -9.641377e-02  -9.521805e-02  -1.954290e-01  -9.002779e-02  1.054670e-02  -8.659989e-02  -2.972832e-02  -2.936395e-01  7.630593e-02  2.833048e-01  2.321180e-01  2.969273e-01  -1.957361e-01  -1.214873e-01  1.914225e-01  -7.792282e-02  -9.138788e-02  -5.945919e-02  -7.234067e-02  -2.047960e-01  1.529235e-01  -1.278914e-02  -5.773497e-02  -1.388046e-02  2.019638e-01  -1.299910e-01  5.387974e-01  -6.369636e-03  3.099466e-01  -1.540657e-01  7.928360e-04  -4.617771e-02  1.838594e-01  1.206367e-02  4.186178e-01  1.314161e-01  4.683723e-01  -1.373735e-01  4.861177e-03  1.306255e-01  7.308426e-02  -2.556226e-01  3.091618e-01  2.811536e-02  1.212173e-01  1.017810e-01  2.694499e-01  -1.193353e-02  1.649462e-01  1.795347e-01  3.503416e-01  1.276164e-01  3.849257e-02  4.552530e-02  9.487268e-02  -1.932109e-01  3.351686e-01  8.001010e-02  -5.252275e-01  -3.542030e-02  -4.506584e-02  3.382172e-02  -1.308560e-01  5.630433e-02  3.113114e-01  2.088111e-01  1.158209e-01  2.129988e-01  -9.411190e-02  1.625307e-01  -1.181310e-02  -7.896871e-02  2.663743e-01  -1.657392e-01  -3.294067e-02  1.167878e-01  2.750506e-01  -2.658047e-01  -2.277587e-01  1.540271e-01  -4.936715e-02  1.788224e-01  -1.248412e-02  1.626682e-02  6.020675e-02  -7.881871e-02  -1.848158e-01  -9.417909e-02  1.238201e-01  2.174007e-01  2.331028e-01  -1.325390e-01  2.252483e-02  1.322584e-01  -1.457754e-01  7.690086e-02  4.848797e-05  -2.002114e-01  2.657192e-02  4.918730e-04  2.046617e-01  2.261467e-02  1.517338e-01  6.999408e-02  -8.782892e-02  2.867606e-01  1.129602e-01  3.818424e-01  -1.604354e-01  9.696333e-02  1.284612e-01  -7.494743e-02  1.273626e-01  -5.944214e-02  -4.925524e-02  1.918267e-01  