<?xml version="1.0"?>
<MethodSetup Method="DL::DNN_CPU">
  <GeneralInfo>
    <Info name="TMVA Release" value="4.2.1 [262657]"/>
    <Info name="ROOT Release" value="6.32/04 [401412]"/>
    <Info name="Creator" value="nsonmez"/>
    <Info name="Date" value="Wed Sep 18 12:23:55 2024"/>
    <Info name="Host" value="Darwin Sonoma-arm64.local 23.4.0 Darwin Kernel Version 23.4.0: Fri Mar 15 00:10:50 PDT 2024; root:xnu-10063.101.17~1/RELEASE_ARM64_VMAPPLE arm64"/>
    <Info name="Dir" value="/Users/nsonmez/Desktop/tmva_classification"/>
    <Info name="Training events" value="2000"/>
    <Info name="TrainingTime" value="1.10111499e+00"/>
    <Info name="AnalysisType" value="Classification"/>
  </GeneralInfo>
  <Options>
    <Option name="V" modified="Yes">True</Option>
    <Option name="VerbosityLevel" modified="No">Verbose</Option>
    <Option name="VarTransform" modified="Yes">N</Option>
    <Option name="H" modified="Yes">False</Option>
    <Option name="CreateMVAPdfs" modified="No">False</Option>
    <Option name="IgnoreNegWeightsInTraining" modified="No">False</Option>
    <Option name="InputLayout" modified="No">0|0|0</Option>
    <Option name="BatchLayout" modified="No">0|0|0</Option>
    <Option name="Layout" modified="Yes">TANH|128,TANH|128,TANH|128,LINEAR</Option>
    <Option name="ErrorStrategy" modified="Yes">CROSSENTROPY</Option>
    <Option name="WeightInitialization" modified="Yes">XAVIERUNIFORM</Option>
    <Option name="RandomSeed" modified="No">0</Option>
    <Option name="ValidationSize" modified="No">20%</Option>
    <Option name="Architecture" modified="Yes">CPU</Option>
    <Option name="TrainingStrategy" modified="Yes">LearningRate=1e-2,Momentum=0.9,ConvergenceSteps=20,BatchSize=100,TestRepetitions=1,WeightDecay=1e-4,Regularization=None,DropConfig=0.0+0.5+0.5+0.5</Option>
  </Options>
  <Variables NVar="19">
    <Variable VarIndex="0" Expression="lepton_pt" Label="lepton_pt" Title="lepton_pt" Unit="units" Internal="lepton_pt" Type="F" Min="2.00042801e+01" Max="3.58288849e+02"/>
    <Variable VarIndex="1" Expression="lepton_eta" Label="lepton_eta" Title="lepton_eta" Unit="units" Internal="lepton_eta" Type="F" Min="-2.40773964e+00" Max="2.46027517e+00"/>
    <Variable VarIndex="2" Expression="MET" Label="MET" Title="MET" Unit="units" Internal="MET" Type="F" Min="1.17903793e+00" Max="4.20774445e+02"/>
    <Variable VarIndex="3" Expression="METEta" Label="METEta" Title="METEta" Unit="units" Internal="METEta" Type="F" Min="-7.19895649e+00" Max="6.63172865e+00"/>
    <Variable VarIndex="4" Expression="Mjj" Label="Mjj" Title="Mjj" Unit="units" Internal="Mjj" Type="F" Min="0.00000000e+00" Max="2.32791479e+03"/>
    <Variable VarIndex="5" Expression="Mjjj" Label="Mjjj" Title="Mjjj" Unit="units" Internal="Mjjj" Type="F" Min="0.00000000e+00" Max="2.44956396e+03"/>
    <Variable VarIndex="6" Expression="Mt_lv" Label="Mt_lv" Title="Mt_lv" Unit="units" Internal="Mt_lv" Type="F" Min="1.00027971e+01" Max="3.52967377e+02"/>
    <Variable VarIndex="7" Expression="Mi_lvb" Label="Mi_lvb" Title="Mi_lvb" Unit="units" Internal="Mi_lvb" Type="F" Min="1.00000000e+01" Max="2.91448853e+03"/>
    <Variable VarIndex="8" Expression="N_jets" Label="N_jets" Title="N_jets" Unit="units" Internal="N_jets" Type="F" Min="1.00000000e+00" Max="4.00000000e+00"/>
    <Variable VarIndex="9" Expression="N_Bjets" Label="N_Bjets" Title="N_Bjets" Unit="units" Internal="N_Bjets" Type="F" Min="1.00000000e+00" Max="4.00000000e+00"/>
    <Variable VarIndex="10" Expression="R_lb" Label="R_lb" Title="R_lb" Unit="units" Internal="R_lb" Type="F" Min="5.65630078e-01" Max="6.30232000e+00"/>
    <Variable VarIndex="11" Expression="Eta_lb" Label="Eta_lb" Title="Eta_lb" Unit="units" Internal="Eta_lb" Type="F" Min="1.25133991e-03" Max="4.37817335e+00"/>
    <Variable VarIndex="12" Expression="alpha_t" Label="alpha_t" Title="alpha_t" Unit="units" Internal="alpha_t" Type="F" Min="0.00000000e+00" Max="1.76277626e+00"/>
    <Variable VarIndex="13" Expression="jet1Pt" Label="jet1Pt" Title="jet1Pt" Unit="units" Internal="jet1Pt" Type="F" Min="3.00228844e+01" Max="6.52585022e+02"/>
    <Variable VarIndex="14" Expression="jet1Phi" Label="jet1Phi" Title="jet1Phi" Unit="units" Internal="jet1Phi" Type="F" Min="-3.14052701e+00" Max="3.13799095e+00"/>
    <Variable VarIndex="15" Expression="jet1Eta" Label="jet1Eta" Title="jet1Eta" Unit="units" Internal="jet1Eta" Type="F" Min="-4.75914955e+00" Max="4.80533791e+00"/>
    <Variable VarIndex="16" Expression="jet2Pt" Label="jet2Pt" Title="jet2Pt" Unit="units" Internal="jet2Pt" Type="F" Min="0.00000000e+00" Max="2.87660858e+02"/>
    <Variable VarIndex="17" Expression="jet2Phi" Label="jet2Phi" Title="jet2Phi" Unit="units" Internal="jet2Phi" Type="F" Min="-3.14026093e+00" Max="3.13651514e+00"/>
    <Variable VarIndex="18" Expression="jet2Eta" Label="jet2Eta" Title="jet2Eta" Unit="units" Internal="jet2Eta" Type="F" Min="-4.70931959e+00" Max="4.86999607e+00"/>
  </Variables>
  <Spectators NSpec="0"/>
  <Classes NClass="2">
    <Class Name="Signal" Index="0"/>
    <Class Name="Background" Index="1"/>
  </Classes>
  <Transformations NTransformations="1">
    <Transform Name="Normalize">
      <Selection>
        <Input NInputs="19">
          <Input Type="Variable" Label="lepton_pt" Expression="lepton_pt"/>
          <Input Type="Variable" Label="lepton_eta" Expression="lepton_eta"/>
          <Input Type="Variable" Label="MET" Expression="MET"/>
          <Input Type="Variable" Label="METEta" Expression="METEta"/>
          <Input Type="Variable" Label="Mjj" Expression="Mjj"/>
          <Input Type="Variable" Label="Mjjj" Expression="Mjjj"/>
          <Input Type="Variable" Label="Mt_lv" Expression="Mt_lv"/>
          <Input Type="Variable" Label="Mi_lvb" Expression="Mi_lvb"/>
          <Input Type="Variable" Label="N_jets" Expression="N_jets"/>
          <Input Type="Variable" Label="N_Bjets" Expression="N_Bjets"/>
          <Input Type="Variable" Label="R_lb" Expression="R_lb"/>
          <Input Type="Variable" Label="Eta_lb" Expression="Eta_lb"/>
          <Input Type="Variable" Label="alpha_t" Expression="alpha_t"/>
          <Input Type="Variable" Label="jet1Pt" Expression="jet1Pt"/>
          <Input Type="Variable" Label="jet1Phi" Expression="jet1Phi"/>
          <Input Type="Variable" Label="jet1Eta" Expression="jet1Eta"/>
          <Input Type="Variable" Label="jet2Pt" Expression="jet2Pt"/>
          <Input Type="Variable" Label="jet2Phi" Expression="jet2Phi"/>
          <Input Type="Variable" Label="jet2Eta" Expression="jet2Eta"/>
        </Input>
        <Output NOutputs="19">
          <Output Type="Variable" Label="lepton_pt" Expression="lepton_pt"/>
          <Output Type="Variable" Label="lepton_eta" Expression="lepton_eta"/>
          <Output Type="Variable" Label="MET" Expression="MET"/>
          <Output Type="Variable" Label="METEta" Expression="METEta"/>
          <Output Type="Variable" Label="Mjj" Expression="Mjj"/>
          <Output Type="Variable" Label="Mjjj" Expression="Mjjj"/>
          <Output Type="Variable" Label="Mt_lv" Expression="Mt_lv"/>
          <Output Type="Variable" Label="Mi_lvb" Expression="Mi_lvb"/>
          <Output Type="Variable" Label="N_jets" Expression="N_jets"/>
          <Output Type="Variable" Label="N_Bjets" Expression="N_Bjets"/>
          <Output Type="Variable" Label="R_lb" Expression="R_lb"/>
          <Output Type="Variable" Label="Eta_lb" Expression="Eta_lb"/>
          <Output Type="Variable" Label="alpha_t" Expression="alpha_t"/>
          <Output Type="Variable" Label="jet1Pt" Expression="jet1Pt"/>
          <Output Type="Variable" Label="jet1Phi" Expression="jet1Phi"/>
          <Output Type="Variable" Label="jet1Eta" Expression="jet1Eta"/>
          <Output Type="Variable" Label="jet2Pt" Expression="jet2Pt"/>
          <Output Type="Variable" Label="jet2Phi" Expression="jet2Phi"/>
          <Output Type="Variable" Label="jet2Eta" Expression="jet2Eta"/>
        </Output>
      </Selection>
      <Class ClassIndex="0">
        <Ranges>
          <Range Index="0" Min="2.0004280090332031e+01" Max="2.5520199584960938e+02"/>
          <Range Index="1" Min="-2.4077396392822266e+00" Max="2.3941490650177002e+00"/>
          <Range Index="2" Min="1.1790379285812378e+00" Max="4.2077444458007812e+02"/>
          <Range Index="3" Min="-7.1989564895629883e+00" Max="6.6317286491394043e+00"/>
          <Range Index="4" Min="0.0000000000000000e+00" Max="2.3279147949218750e+03"/>
          <Range Index="5" Min="0.0000000000000000e+00" Max="2.4495639648437500e+03"/>
          <Range Index="6" Min="1.0002797126770020e+01" Max="3.5296737670898438e+02"/>
          <Range Index="7" Min="1.0000000000000000e+01" Max="2.9144885253906250e+03"/>
          <Range Index="8" Min="1.0000000000000000e+00" Max="4.0000000000000000e+00"/>
          <Range Index="9" Min="1.0000000000000000e+00" Max="4.0000000000000000e+00"/>
          <Range Index="10" Min="5.6563007831573486e-01" Max="6.3023200035095215e+00"/>
          <Range Index="11" Min="1.2513399124145508e-03" Max="4.3108148574829102e+00"/>
          <Range Index="12" Min="0.0000000000000000e+00" Max="1.6483803987503052e+00"/>
          <Range Index="13" Min="3.0084058761596680e+01" Max="6.5258502197265625e+02"/>
          <Range Index="14" Min="-3.1390850543975830e+00" Max="3.1357657909393311e+00"/>
          <Range Index="15" Min="-4.1170606613159180e+00" Max="4.8053379058837891e+00"/>
          <Range Index="16" Min="0.0000000000000000e+00" Max="2.4144270324707031e+02"/>
          <Range Index="17" Min="-3.1402609348297119e+00" Max="3.1365151405334473e+00"/>
          <Range Index="18" Min="-4.7093195915222168e+00" Max="4.8699960708618164e+00"/>
        </Ranges>
      </Class>
      <Class ClassIndex="1">
        <Ranges>
          <Range Index="0" Min="2.0045764923095703e+01" Max="3.5828884887695312e+02"/>
          <Range Index="1" Min="-2.3933339118957520e+00" Max="2.4602751731872559e+00"/>
          <Range Index="2" Min="1.7531331777572632e+00" Max="2.8337185668945312e+02"/>
          <Range Index="3" Min="-5.7212944030761719e+00" Max="5.3268523216247559e+00"/>
          <Range Index="4" Min="0.0000000000000000e+00" Max="6.5894073486328125e+02"/>
          <Range Index="5" Min="0.0000000000000000e+00" Max="1.1905906982421875e+03"/>
          <Range Index="6" Min="1.0124729156494141e+01" Max="2.3005450439453125e+02"/>
          <Range Index="7" Min="1.0000000000000000e+01" Max="2.4151247558593750e+03"/>
          <Range Index="8" Min="1.0000000000000000e+00" Max="4.0000000000000000e+00"/>
          <Range Index="9" Min="1.0000000000000000e+00" Max="4.0000000000000000e+00"/>
          <Range Index="10" Min="5.9324800968170166e-01" Max="6.0861439704895020e+00"/>
          <Range Index="11" Min="1.2654662132263184e-03" Max="4.3781733512878418e+00"/>
          <Range Index="12" Min="0.0000000000000000e+00" Max="1.7627762556076050e+00"/>
          <Range Index="13" Min="3.0022884368896484e+01" Max="4.3825540161132812e+02"/>
          <Range Index="14" Min="-3.1405270099639893e+00" Max="3.1379909515380859e+00"/>
          <Range Index="15" Min="-4.7591495513916016e+00" Max="4.4790749549865723e+00"/>
          <Range Index="16" Min="0.0000000000000000e+00" Max="2.8766085815429688e+02"/>
          <Range Index="17" Min="-3.1197924613952637e+00" Max="3.1316390037536621e+00"/>
          <Range Index="18" Min="-4.6597204208374023e+00" Max="4.6348013877868652e+00"/>
        </Ranges>
      </Class>
      <Class ClassIndex="2">
        <Ranges>
          <Range Index="0" Min="2.0004280090332031e+01" Max="3.5828884887695312e+02"/>
          <Range Index="1" Min="-2.4077396392822266e+00" Max="2.4602751731872559e+00"/>
          <Range Index="2" Min="1.1790379285812378e+00" Max="4.2077444458007812e+02"/>
          <Range Index="3" Min="-7.1989564895629883e+00" Max="6.6317286491394043e+00"/>
          <Range Index="4" Min="0.0000000000000000e+00" Max="2.3279147949218750e+03"/>
          <Range Index="5" Min="0.0000000000000000e+00" Max="2.4495639648437500e+03"/>
          <Range Index="6" Min="1.0002797126770020e+01" Max="3.5296737670898438e+02"/>
          <Range Index="7" Min="1.0000000000000000e+01" Max="2.9144885253906250e+03"/>
          <Range Index="8" Min="1.0000000000000000e+00" Max="4.0000000000000000e+00"/>
          <Range Index="9" Min="1.0000000000000000e+00" Max="4.0000000000000000e+00"/>
          <Range Index="10" Min="5.6563007831573486e-01" Max="6.3023200035095215e+00"/>
          <Range Index="11" Min="1.2513399124145508e-03" Max="4.3781733512878418e+00"/>
          <Range Index="12" Min="0.0000000000000000e+00" Max="1.7627762556076050e+00"/>
          <Range Index="13" Min="3.0022884368896484e+01" Max="6.5258502197265625e+02"/>
          <Range Index="14" Min="-3.1405270099639893e+00" Max="3.1379909515380859e+00"/>
          <Range Index="15" Min="-4.7591495513916016e+00" Max="4.8053379058837891e+00"/>
          <Range Index="16" Min="0.0000000000000000e+00" Max="2.8766085815429688e+02"/>
          <Range Index="17" Min="-3.1402609348297119e+00" Max="3.1365151405334473e+00"/>
          <Range Index="18" Min="-4.7093195915222168e+00" Max="4.8699960708618164e+00"/>
        </Ranges>
      </Class>
    </Transform>
  </Transformations>
  <MVAPdfs/>
  <Weights NetDepth="4" InputDepth="1" InputHeight="1" InputWidth="19" BatchSize="1" BatchDepth="1" BatchHeight="100" BatchWidth="19" LossFunction="C" Initialization="F" Regularization="0" OutputFunction="S" WeightDecay="9.9999997473787516e-05">
    <DenseLayer Width="128" ActivationFunction="3">
      <Weights Rows="128" Columns="19">
        2.849177e-02  -1.801499e-02  -3.106764e-02  -1.969824e-01  1.689343e-01  -2.119071e-01  -1.093412e-01  8.949718e-02  7.955260e-02  -9.635363e-02  -1.685703e-01  -1.944572e-02  -9.293599e-02  5.804225e-02  -2.027600e-01  -2.192513e-01  2.224290e-01  -3.338311e-02  -1.441937e-01  2.559848e-02  -2.237286e-01  2.407218e-01  -8.558026e-02  -5.066689e-02  -9.534486e-02  -1.157119e-01  -1.236439e-01  2.978654e-01  -6.076454e-02  -5.334766e-02  9.068339e-02  -1.180135e-01  3.175999e-02  -1.692335e-01  -7.329167e-02  -3.092571e-02  -8.258050e-03  1.976653e-02  1.594132e-01  -1.198501e-01  6.673995e-02  -1.736970e-02  1.896036e-01  -4.312336e-02  -5.660810e-02  -4.009299e-02  -1.623505e-01  -9.081089e-02  7.757373e-02  1.052977e-01  -2.724580e-02  -1.014664e-02  9.278633e-02  1.642642e-02  -1.894567e-01  -4.674214e-02  1.522768e-01  -1.260380e-01  6.948943e-02  -1.601092e-02  1.738572e-01  1.247749e-01  -1.374176e-01  -4.253722e-02  -1.316173e-02  -1.145689e-01  -1.889753e-01  -1.107259e-01  2.223703e-02  4.238970e-02  2.358298e-01  1.649217e-01  8.001830e-02  1.942697e-01  5.424232e-02  3.883815e-02  -1.567007e-01  1.714901e-02  3.329728e-01  -2.597845e-01  7.416064e-02  -7.400247e-02  -2.906223e-01  2.427676e-01  -1.638192e-01  6.272861e-03  1.351662e-01  -6.743225e-02  -1.474405e-01  7.497476e-03  1.501362e-02  -1.042128e-02  1.051869e-01  1.071116e-01  1.416192e-01  2.351944e-01  6.092114e-02  -1.987865e-01  1.735943e-01  -1.663067e-01  -2.870490e-02  5.707992e-01  -5.034530e-04  1.123848e-01  4.099918e-02  -2.391089e-01  1.597207e-01  1.278809e-01  -2.663553e-01  7.802867e-02  6.921283e-02  -3.246171e-01  -1.417478e-01  1.408127e-01  1.301001e-01  -8.018834e-02  4.165990e-02  1.884141e-01  -2.418561e-01  -2.757097e-02  5.035016e-01  -8.146093e-02  -4.394740e-02  -4.555178e-02  1.815958e-01  9.606713e-02  4.990072e-02  -7.448269e-02  3.043715e-02  1.251109e-01  -2.638697e-01  -2.824732e-02  1.503866e-01  1.463080e-01  1.346879e-01  5.829890e-02  1.452877e-01  -3.331412e-02  -5.043831e-02  4.236162e-01  -1.374058e-01  -3.288451e-01  2.048867e-01  8.302927e-02  -8.285195e-02  2.607825e-02  -1.779310e-02  -4.657250e-02  8.087543e-02  -3.025520e-01  -9.088653e-02  3.153549e-02  1.682923e-02  6.869252e-02  1.332282e-01  -5.063801e-02  -1.145807e-01  -8.461792e-02  6.101760e-02  -1.405596e-02  -1.590364e-01  2.211713e-01  -1.563482e-01  8.612633e-03  -1.203646e-01  6.945687e-02  -7.935153e-02  -2.382440e-03  -2.073200e-01  -7.703601e-02  6.271148e-02  6.703657e-02  1.136358e-01  -2.309518e-01  1.632384e-01  -1.127673e-01  1.738896e-01  6.004040e-01  -1.743206e-01  -4.505323e-02  2.067898e-01  -2.412324e-02  -9.145986e-02  -2.955286e-02  -2.834002e-01  1.893420e-02  -1.693586e-02  -9.755792e-02  1.413016e-01  -1.441547e-01  -1.226404e-01  8.906637e-02  -1.045101e-01  1.759393e-01  1.034169e-02  -1.526064e-01  8.739406e-02  9.391438e-02  -2.029637e-01  -4.291856e-02  -1.386571e-01  1.153237e-01  1.330253e-01  1.610384e-01  -2.867565e-02  1.030157e-01  -7.740044e-02  -1.449164e-02  2.222392e-01  -7.329413e-02  7.381546e-03  -9.137420e-02  1.584429e-01  9.421791e-02  -2.053818e-03  3.345144e-01  -1.360271e-01  -5.195106e-02  -3.671800e-02  7.720429e-02  -7.604870e-02  9.267667e-02  4.459171e-02  -2.529554e-02  -9.314104e-02  -1.197802e-01  8.316177e-03  2.085302e-01  1.666352e-01  -1.542832e-01  2.190384e-02  2.197843e-01  -1.656573e-01  -2.177703e-01  3.681593e-01  3.545318e-02  -1.963983e-01  1.375830e-01  -1.403369e-01  1.137879e-01  -1.454372e-04  -2.215358e-01  -1.116548e-01  2.208318e-01  3.869792e-02  4.703882e-02  -9.503065e-02  -1.201802e-01  -9.038448e-03  -7.898095e-02  1.365197e-01  1.253189e-01  2.781328e-02  9.695879e-02  3.652904e-02  -1.535347e-01  1.016000e-02  -5.146676e-02  -1.470266e-01  1.095939e-01  2.012662e-02  1.573097e-01  -4.959948e-02  -9.248902e-03  1.110398e-01  5.787578e-02  3.798494e-04  3.946311e-02  -3.877019e-02  -9.811180e-02  -6.985857e-02  5.145348e-02  3.321350e-01  9.398627e-02  -1.827280e-01  -2.853669e-02  1.050183e-01  6.623974e-02  -2.445085e-03  -2.313656e-01  -9.944103e-03  -8.604755e-02  -1.467686e-01  -1.789357e-02  3.254646e-03  3.353580e-01  1.045222e-01  -8.114568e-02  5.760298e-02  -2.942088e-02  -9.764448e-02  3.994737e-01  3.682709e-02  -1.258072e-01  -3.545065e-02  -5.350848e-02  8.846164e-02  1.048050e-01  -3.075823e-01  4.499728e-02  7.861760e-02  -2.247850e-01  -1.202056e-01  -1.193719e-01  7.355080e-02  -4.402136e-02  -8.668754e-02  1.361073e-01  1.285863e-01  -4.757647e-02  -1.451991e-01  -7.252662e-03  1.496417e-01  -1.211753e-01  1.706998e-01  4.228908e-02  -9.531365e-02  4.097522e-02  8.243230e-02  1.075169e-01  -6.072826e-03  -5.799234e-02  -4.904191e-02  1.291715e-02  8.606437e-02  5.845891e-02  1.034134e-01  -7.319734e-03  7.844021e-02  1.401609e-01  1.627705e-01  7.205377e-02  -2.786987e-01  4.461409e-02  -4.522565e-02  2.322439e-02  5.652106e-02  -1.426663e-01  1.357331e-01  -9.715694e-02  -1.410022e-01  -1.089797e-01  -8.021559e-03  2.169539e-01  3.437696e-02  7.974835e-02  -1.197231e-01  9.904192e-02  2.762324e-02  -6.815267e-02  -7.421500e-02  4.538497e-02  2.909791e-02  1.674867e-01  1.910017e-01  1.071572e-01  7.794079e-02  8.468980e-02  -2.476998e-01  1.580975e-01  -1.795897e-01  7.900363e-03  2.317770e-01  9.836043e-02  2.195175e-01  2.462960e-02  1.848875e-01  -7.846467e-02  2.050772e-01  -2.592872e-01  6.745422e-02  -6.458725e-02  -1.731683e-01  2.144002e-01  -1.684255e-01  3.695609e-02  1.614503e-01  -2.133899e-01  -7.935194e-02  -1.155042e-01  6.233183e-02  -3.751683e-02  -2.379584e-02  -1.423526e-02  -1.776543e-01  -1.361677e-01  3.472094e-01  -9.389070e-02  3.616336e-01  1.753990e-01  -1.282725e-01  -1.685709e-01  5.026896e-02  -2.997505e-02  -8.284942e-02  5.830090e-02  1.035077e-01  -1.971884e-01  5.050918e-02  2.789767e-01  -1.134081e-01  -2.143122e-01  -3.768746e-02  -3.836927e-02  5.572234e-02  3.256257e-01  -9.872258e-02  1.207558e-01  1.892977e-01  -9.308870e-02  -8.571929e-02  -1.976240e-02  -1.455754e-01  7.645512e-03  -4.099827e-02  -2.299593e-01  8.654604e-03  -1.332543e-01  -9.695563e-02  1.633569e-01  1.684439e-01  4.680111e-04  9.754233e-02  -1.428385e-01  4.761697e-02  -1.073199e-02  -1.348692e-01  -1.596608e-01  4.875484e-02  -3.463953e-02  1.787848e-01  3.410158e-02  -1.326486e-01  -5.583235e-02  -6.353513e-02  -1.298882e-01  -4.915421e-02  -5.637894e-02  9.102574e-03  5.331042e-02  -2.311093e-01  -2.360775e-01  -9.047908e-02  1.203959e-01  -2.282977e-04  3.531603e-01  2.808582e-03  3.767456e-03  4.892748e-02  5.296149e-02  9.898274e-02  -7.422955e-02  -2.082319e-01  -5.933384e-02  6.743374e-02  -1.844689e-01  -1.205046e-01  1.000301e-01  -1.334636e-02  9.776101e-02  7.856171e-02  2.158418e-01  -5.390410e-01  7.018828e-02  -1.489185e-01  1.180300e-01  1.322045e-01  -1.497466e-01  -2.380853e-01  1.476934e-01  -1.114005e-01  1.962333e-01  2.759074e-01  -2.326750e-01  -5.305194e-02  -3.090982e-01  -2.225643e-02  2.012140e-01  1.057470e-01  1.716960e-01  3.521199e-02  -6.124451e-01  5.600777e-02  6.917009e-02  -5.533606e-02  6.772450e-02  -5.370911e-02  1.058125e-02  1.724641e-01  7.211429e-02  8.067663e-02  2.880885e-01  -6.948024e-02  2.414253e-02  3.435838e-02  -1.352950e-01  1.896182e-01  3.192237e-01  -1.372531e-01  -8.539094e-03  -1.894339e-02  1.823316e-01  -1.540175e-01  -8.520579e-02  2.005732e-01  1.175446e-01  -1.959139e-02  1.532052e-02  -2.375849e-01  -1.927329e-01  -1.560373e-01  1.301109e-01  2.188721e-01  1.474405e-02  -5.654060e-02  6.444515e-02  -2.230335e-01  1.090263e-01  6.091911e-02  3.892918e-02  1.496055e-01  7.466325e-02  3.609848e-02  8.931489e-02  -8.968346e-02  -1.919249e-01  8.723366e-02  1.943604e-01  -1.868666e-01  -2.666543e-01  1.727206e-01  -2.518540e-02  -2.516074e-01  5.031366e-02  -4.597065e-02  -1.117837e-02  1.741036e-01  2.196255e-01  -5.464864e-01  8.015230e-02  1.213377e-01  1.293780e-01  -9.762821e-03  -1.628933e-01  -1.040318e-01  1.003341e-01  -2.058000e-02  -1.384271e-01  2.039877e-01  -1.254532e-01  1.160713e-01  5.615503e-02  2.322948e-02  -6.982855e-02  -7.832756e-02  1.981072e-01  -1.064119e-01  4.389952e-03  -4.281585e-02  2.808864e-01  -2.599858e-02  -9.687020e-02  -1.372952e-01  -2.084016e-01  -4.130112e-02  -7.063053e-02  -4.304133e-02  2.263132e-01  1.246771e-01  5.616329e-02  -1.258233e-01  -1.591389e-01  -4.298661e-02  -2.036318e-01  1.592780e-01  2.140453e-01  -9.156948e-02  2.001940e-01  -1.861909e-01  -1.220330e-01  9.899579e-02  -8.710921e-02  2.277099e-02  -1.471066e-01  2.799813e-02  4.698110e-02  -1.122323e-01  -1.457430e-01  1.068418e-01  -1.371895e-01  -2.040340e-01  3.007721e-01  -5.481685e-02  -3.900209e-02  -1.839965e-01  -2.965159e-01  -1.224091e-02  3.270933e-02  -5.043767e-02  -1.567341e-01  -6.759010e-02  6.491542e-02  -4.551324e-03  -1.480676e-01  -2.350812e-01  3.655818e-01  2.319186e-01  1.707727e-01  -5.116403e-02  4.414583e-02  1.628092e-01  8.602742e-03  7.665189e-02  -1.408500e-02  1.207322e-01  -1.819970e-01  2.880690e-01  -1.204707e-01  -4.986067e-03  -1.699351e-01  -1.678392e-01  -5.427901e-02  -1.216132e-01  -2.945457e-01  1.444456e-01  -6.475140e-03  -1.782997e-01  2.289977e-01  2.833031e-02  3.391172e-02  4.309133e-02  -2.720322e-01  -6.729303e-02  2.048520e-01  -7.665376e-02  -7.083964e-02  -6.409702e-03  8.348566e-02  6.509969e-02  1.139670e-01  6.078046e-02  -5.513751e-02  8.474778e-02  -2.227973e-01  -1.498814e-01  1.716416e-02  -1.146995e-01  2.048971e-01  2.249142e-02  -3.592576e-02  -5.166623e-03  2.747347e-02  -9.412081e-02  1.471948e-01  1.843450e-01  8.750875e-03  2.440877e-01  -5.075328e-02  -4.986614e-02  -7.726283e-02  2.364867e-01  -9.520486e-02  -7.454746e-03  -8.021379e-02  3.980784e-02  -1.748471e-01  -7.285732e-02  2.870092e-01  -1.606635e-01  9.431071e-02  2.085775e-01  -6.155908e-01  -3.097450e-02  1.596768e-01  -1.420572e-01  1.375642e-01  -7.391384e-02  -1.021790e-01  2.265656e-01  1.276089e-04  6.984863e-02  5.087997e-02  2.605828e-02  -9.877197e-02  -8.556543e-02  7.547196e-02  -2.035864e-01  2.372642e-01  -1.404299e-02  1.410905e-01  4.478390e-01  -2.529001e-02  -2.986512e-01  1.236810e-01  1.497740e-01  -1.412714e-01  1.890437e-01  -1.145035e-01  -6.656144e-02  -2.957800e-02  -2.035441e-01  -2.751785e-01  -1.625224e-01  2.950915e-01  -7.616154e-02  -9.767638e-02  -1.711182e-01  -2.388377e-01  1.697203e-01  3.401573e-01  -2.202162e-01  -2.743045e-01  7.536058e-02  3.502822e-02  1.556435e-01  2.050424e-01  -2.919177e-01  -1.987947e-01  -8.506592e-02  -1.250139e-01  2.209360e-01  1.399830e-01  3.022614e-01  -6.073537e-02  -2.552260e-01  1.263944e-01  -6.618693e-02  -4.364897e-02  2.739686e-01  -2.736671e-02  -1.228533e-01  2.621932e-02  -7.479327e-02  1.527433e-01  -3.032307e-04  4.132560e-02  3.781800e-02  -4.433504e-02  -3.052605e-01  -1.021203e-01  -6.854030e-02  -1.527735e-01  -8.159650e-02  7.602128e-02  -1.533849e-01  -7.338259e-02  -1.700576e-01  2.614716e-01  -2.498705e-01  8.128611e-02  9.394271e-03  8.470279e-02  1.415623e-01  -1.146137e-01  2.045985e-01  -7.011721e-02  -3.182185e-01  1.819656e-01  -3.680909e-02  -8.187948e-02  7.366841e-02  -6.482355e-02  -1.184630e-01  5.399567e-02  -2.042460e-01  4.949733e-02  4.668379e-01  -5.247635e-02  -1.401859e-01  1.815827e-01  4.040268e-02  1.419918e-01  8.691029e-02  -1.032822e-01  -2.362510e-01  5.456649e-02  -3.731410e-01  -1.691235e-01  1.045852e-01  -2.414830e-01  8.695468e-02  -5.615865e-02  -3.079084e-02  2.333866e-01  -5.419857e-02  -2.919221e-01  -9.999419e-02  -8.344368e-02  6.946619e-02  -1.221728e-01  -1.985449e-01  1.198134e-01  1.856440e-01  1.155023e-01  -7.323939e-02  2.758705e-01  2.878478e-02  -1.776235e-01  2.727732e-01  -6.276415e-02  3.420291e-02  2.563041e-01  -1.323586e-01  -3.879780e-02  3.434188e-01  6.419201e-02  -1.550007e-02  -1.193074e-01  -4.108015e-03  1.484368e-02  -8.827202e-02  -1.422115e-01  4.743993e-03  -3.233359e-02  4.471786e-03  1.266116e-01  1.619963e-01  -7.496423e-02  -1.839552e-01  1.596511e-01  -3.026164e-01  -2.033691e-01  -4.574093e-03  8.368646e-02  -5.082032e-02  6.917022e-02  1.533160e-01  1.557376e-02  -1.726258e-01  1.158838e-01  -1.150863e-02  -9.960062e-03  5.787088e-03  -3.151263e-02  -1.285690e-01  -9.383094e-02  -3.183705e-03  1.270277e-01  -7.392044e-02  1.992125e-01  -8.799722e-02  1.218984e-01  4.200194e-01  -1.772809e-01  -1.901116e-01  8.878193e-02  -1.029715e-01  5.269388e-02  1.827832e-01  -1.889281e-01  1.895961e-01  -4.513299e-02  -1.046807e-01  -7.332839e-02  -1.892374e-01  -7.479477e-02  2.977980e-03  -2.667514e-01  2.957532e-03  -6.940122e-02  2.310671e-02  4.435089e-01  -2.294016e-01  -8.651610e-02  1.568556e-01  8.068204e-02  1.985094e-01  1.703000e-01  -1.261176e-01  -3.786810e-03  6.296141e-02  -4.009622e-02  -1.121987e-01  1.006912e-01  -4.166782e-02  -5.347572e-03  -2.559069e-01  -9.286658e-02  -3.535573e-02  9.256766e-02  5.521377e-01  -1.856552e-01  -1.633924e-01  2.063583e-01  -1.057573e-01  -3.876886e-02  1.626748e-01  -6.162888e-02  -8.683202e-02  1.363186e-01  -1.156089e-01  6.268290e-02  -1.338798e-01  -4.434209e-02  -1.213683e-01  1.871133e-01  -1.452190e-01  -2.785381e-02  -4.942309e-02  -5.466218e-01  1.016339e-01  1.722511e-01  -1.414946e-01  -1.659202e-01  1.124378e-02  4.948824e-02  4.938010e-02  -1.066834e-01  5.761575e-02  3.005536e-01  -4.738754e-02  -2.775034e-02  -7.379556e-02  -1.928959e-01  2.616050e-02  6.962444e-02  5.471494e-02  1.050402e-01  -1.957545e-01  -1.651963e-01  1.117173e-01  1.923290e-01  -1.382945e-01  1.505132e-01  2.126019e-02  -1.834754e-01  5.623391e-02  -8.473509e-02  -4.466717e-02  -1.763885e-02  -8.790660e-03  3.985372e-02  -6.652389e-02  -1.383907e-01  5.390175e-03  -9.906343e-02  -1.293390e-01  5.199736e-01  1.775859e-01  -2.194175e-01  2.417233e-01  1.591328e-01  6.630495e-02  -3.416243e-03  -2.330612e-01  1.494487e-01  3.015932e-02  -2.493168e-01  -3.997152e-02  -2.218798e-01  -2.823208e-01  2.880379e-02  2.473061e-01  3.386352e-01  -7.983340e-02  1.870749e-01  -3.802237e-01  1.887175e-01  -1.496312e-01  -1.116257e-01  -1.131353e-01  1.355982e-01  1.310725e-01  3.807035e-02  3.444046e-02  1.837601e-01  -4.106816e-02  1.896284e-01  9.239760e-02  2.625863e-01  8.923463e-02  -2.014045e-01  -7.875989e-02  -1.709921e-01  -1.514783e-01  6.906934e-02  -7.633650e-02  -2.236907e-01  1.178927e-01  -1.024845e-01  3.684747e-02  3.056867e-02  6.868389e-02  1.893320e-01  -5.138779e-02  7.346776e-02  -3.205176e-02  1.043415e-01  -3.182423e-02  -8.980773e-02  1.104576e-01  -5.594665e-02  1.237438e-01  -9.172583e-02  -1.103042e-01  -6.085695e-02  2.376003e-01  1.560985e-03  -8.469859e-02  -1.584894e-01  1.499279e-02  1.114599e-01  -3.194899e-02  -1.856457e-01  -1.263636e-01  -1.641852e-01  5.037109e-02  -7.219715e-02  -1.618540e-01  2.121158e-01  -7.329956e-02  1.336274e-01  -7.900372e-02  -2.778575e-01  1.319919e-01  3.764955e-01  -1.833154e-01  -8.693832e-02  1.260895e-01  -2.293008e-01  4.572234e-02  -1.262953e-01  -6.106396e-02  2.085392e-02  -5.407830e-02  2.125255e-01  5.814848e-02  3.556573e-02  1.250678e-01  2.013755e-01  -3.440055e-02  7.516855e-02  -1.017467e-01  1.665886e-01  -3.530981e-01  -1.140652e-01  1.190317e-01  1.338550e-01  -8.767620e-02  -4.482875e-02  1.981838e-02  6.165366e-02  -1.617722e-02  -2.190401e-01  1.927232e-01  -1.151005e-02  -1.227573e-01  -1.630516e-01  4.044406e-02  -2.024775e-01  1.785035e-01  5.296116e-01  3.283294e-02  -3.242253e-01  -3.080117e-04  6.587610e-02  2.182356e-02  1.135239e-01  -3.303185e-02  -1.075623e-01  2.046594e-02  -2.281288e-01  8.245511e-02  7.689056e-02  -9.660954e-02  1.264555e-01  1.583498e-01  -9.551995e-02  2.333828e-02  -1.410034e-01  6.439685e-03  2.198536e-01  -4.342442e-02  -1.279702e-01  1.919946e-01  -1.674819e-01  1.192866e-02  8.149940e-02  6.726073e-02  1.221848e-01  -9.584441e-03  -5.029387e-02  2.750693e-02  -1.607728e-02  4.103577e-02  -2.164467e-02  -4.991319e-02  5.332383e-03  1.305532e-01  3.840510e-01  9.375385e-02  -1.304468e-02  -1.280407e-01  -6.719857e-02  -9.694086e-02  -5.004591e-02  -5.884030e-02  1.075445e-01  8.041215e-03  -2.283877e-01  1.482256e-01  -6.688762e-02  1.390107e-01  1.660995e-01  -2.436395e-01  -8.250407e-02  -5.233797e-02  -1.583357e-01  1.749193e-01  -6.874923e-03  -1.452421e-01  4.657824e-02  5.440331e-02  1.919700e-01  9.703531e-02  -6.696579e-02  8.273690e-02  1.335253e-02  -5.262490e-02  4.898930e-02  -1.220491e-01  1.507581e-01  -8.797351e-02  -4.697473e-02  2.573341e-02  1.250015e-01  -2.727856e-02  1.007114e-01  -4.872474e-02  -3.672394e-01  -1.830641e-01  7.798035e-02  6.438752e-02  1.112797e-01  -8.719772e-02  3.372754e-04  -1.101831e-02  -1.322359e-04  1.107024e-02  -5.683518e-03  -1.381579e-01  -8.459607e-02  7.096743e-02  8.332551e-02  1.341047e-01  2.186078e-02  3.571816e-02  6.736545e-02  2.736956e-02  -4.971281e-03  1.592977e-01  -1.062755e-02  5.931592e-02  -1.252272e-01  -2.388796e-02  4.161459e-02  9.669204e-02  -6.937034e-02  -2.492937e-01  9.206336e-03  -5.359234e-03  1.128097e-01  4.022947e-01  4.026673e-02  -4.942473e-02  7.346682e-02  1.733340e-01  -3.095682e-01  2.961953e-02  1.559155e-01  2.045943e-01  -9.452301e-02  6.829638e-03  1.091561e-01  3.706516e-01  -3.011249e-01  -5.638636e-02  1.410477e-01  -4.863952e-02  1.537755e-01  -1.191882e-01  -5.761364e-02  2.124754e-01  5.908880e-02  1.317894e-01  9.147869e-02  -8.176816e-02  6.727193e-02  -1.139398e-01  6.039635e-02  -7.682085e-02  -3.917955e-03  6.476185e-02  2.550271e-01  -1.807215e-01  -2.465792e-01  -1.499668e-01  1.708360e-01  2.406054e-02  4.151653e-02  1.957776e-03  -9.152370e-02  7.690464e-03  4.211239e-01  -1.423052e-01  -1.572278e-01  -1.649712e-01  6.721815e-03  7.600514e-02  2.934062e-03  -5.938350e-02  -7.252244e-02  8.496960e-02  -5.004114e-02  2.431377e-01  1.249428e-01  -8.200195e-03  -3.024319e-01  -1.138542e-01  -8.103981e-02  8.802245e-02  2.017724e-03  6.997212e-03  9.518350e-02  1.454438e-01  -4.646003e-02  -9.466521e-02  -4.596100e-03  8.836564e-02  1.292969e-01  -2.532217e-02  3.139105e-02  -2.444778e-01  -9.511063e-02  -2.797662e-01  -1.777195e-01  -2.560648e-02  3.020761e-01  2.998082e-01  2.309877e-01  1.400709e-01  -5.249206e-01  2.389592e-01  -1.209664e-01  -1.867488e-01  -7.030881e-03  -1.542897e-01  -7.968578e-02  1.612007e-02  7.068046e-02  4.797207e-02  1.692233e-01  8.486184e-02  -5.404088e-02  -3.401564e-02  -1.639657e-04  -5.642747e-02  -1.755710e-01  1.712465e-01  -2.035512e-02  7.402243e-02  1.723820e-01  4.696826e-02  -1.371247e-01  -1.182403e-01  -1.166337e-01  3.017914e-02  -2.024363e-01  5.745237e-02  -5.286211e-02  5.266833e-02  -8.579413e-02  -1.681309e-01  -4.461902e-02  -2.982808e-01  2.171463e-01  3.225040e-02  1.008763e-01  -1.335823e-01  1.460605e-01  -1.640615e-01  5.804700e-02  -2.528486e-01  1.729532e-02  -1.171463e-01  9.117289e-02  -7.402321e-03  -4.041170e-02  -3.634770e-02  5.949398e-02  2.241881e-01  8.115789e-03  -6.978219e-03  -8.478940e-02  -1.197584e-02  -3.620661e-02  -8.492932e-02  4.854630e-03  -2.387415e-01  -4.924216e-02  1.900023e-01  2.881220e-02  1.446277e-02  5.692513e-02  -1.889738e-01  2.261845e-01  2.224528e-02  -1.167350e-01  7.777454e-02  -8.185298e-02  4.298878e-02  2.566992e-01  1.628227e-01  -6.428622e-02  9.931978e-02  -1.662158e-01  -1.190828e-01  5.437214e-01  -1.918948e-01  -4.548276e-02  1.487470e-01  6.501593e-02  1.338461e-01  3.950774e-02  -1.923887e-01  1.793115e-01  2.882005e-01  -1.860909e-01  2.984218e-02  -2.270213e-01  -1.084452e-01  9.111584e-02  4.323410e-02  9.203701e-02  -1.105629e-01  1.034897e-01  -3.912261e-01  9.330673e-02  -1.305550e-01  2.403228e-01  -5.380929e-02  5.540536e-02  -7.350597e-02  -9.807812e-02  2.910850e-02  5.613158e-02  1.740533e-01  -1.130621e-01  5.554522e-02  -2.632246e-01  -1.954513e-01  2.188949e-01  1.190024e-01  -2.258959e-02  -1.064741e-01  -3.952989e-01  1.234276e-01  -2.976004e-01  -1.617627e-01  -2.941208e-01  1.712030e-01  9.958969e-02  2.689217e-01  -1.142936e-01  1.058990e-01  2.247627e-01  2.433270e-01  1.861531e-01  1.838270e-01  -1.923658e-01  -1.159057e-01  1.471142e-01  -2.746779e-03  -6.286291e-02  1.625541e-01  -1.821107e-01  -1.061622e-01  2.795128e-02  7.511323e-02  2.230584e-01  7.388097e-02  -8.200959e-02  6.967629e-02  8.996225e-02  -2.276930e-01  7.222385e-02  1.397550e-01  -1.558639e-01  8.512870e-03  1.185998e-01  -1.674221e-01  9.757423e-02  5.830947e-02  -5.329704e-01  -7.483658e-03  1.732832e-01  1.385958e-01  -7.599656e-02  1.839515e-02  -4.281223e-02  3.746615e-02  1.716191e-01  -3.233745e-02  1.963007e-01  -2.160717e-01  -3.215105e-01  -9.170313e-02  1.814301e-02  1.233466e-03  1.575263e-01  -8.525676e-02  -7.931766e-02  3.073407e-01  1.712545e-01  -2.628005e-01  -1.832129e-01  1.161894e-01  1.702749e-01  -5.034667e-02  -6.409394e-02  1.560415e-02  -1.550153e-01  4.374161e-02  1.423167e-01  1.658734e-01  2.683598e-02  1.795570e-01  1.484593e-01  -1.605123e-01  5.939887e-02  1.619100e-01  -4.745347e-01  5.197969e-02  -2.216779e-01  -1.180207e-01  3.967203e-02  1.287168e-01  -2.332023e-02  -5.275480e-02  2.174325e-01  -9.112649e-02  2.121576e-01  -3.412857e-01  -3.305805e-02  2.851068e-01  -1.013824e-01  -6.573749e-02  -1.730885e-01  -2.733990e-01  -3.830360e-02  5.822409e-01  -1.063619e-01  1.990018e-01  2.214347e-01  1.549547e-01  3.398559e-03  -4.425681e-02  -2.378264e-01  -1.126905e-01  -1.625551e-01  -3.490610e-01  5.901309e-02  -1.180639e-01  -1.980132e-01  3.531597e-03  -1.075846e-02  1.764280e-01  1.819498e-01  1.483119e-01  -3.088694e-01  1.772671e-01  1.680728e-01  -2.778184e-01  1.150357e-01  -1.996718e-01  7.965728e-03  1.311434e-01  -6.210871e-03  -1.577842e-01  8.963975e-02  -3.294238e-02  1.690488e-01  2.302012e-02  -9.110599e-02  5.349032e-02  -4.361064e-02  1.668566e-02  1.802451e-01  -3.040382e-02  -2.998445e-02  -2.782981e-01  1.508380e-01  2.447725e-02  2.433691e-02  -1.513204e-01  -2.680512e-02  6.565626e-02  2.433619e-01  -1.883707e-01  -1.839084e-01  1.574793e-01  -8.326547e-02  9.641711e-02  2.123641e-01  3.178368e-01  6.969225e-02  9.505156e-02  -4.613453e-01  1.709345e-01  5.433803e-02  -2.600698e-01  3.754576e-02  -1.654228e-02  9.584370e-02  1.007898e-01  1.328969e-01  -1.428911e-01  -1.221354e-01  2.638750e-01  9.863520e-02  -5.743934e-02  -4.959487e-02  -4.774616e-02  -1.302264e-01  -2.907774e-02  2.344167e-02  -1.074040e-02  -1.481221e-01  1.974312e-01  2.889437e-02  6.254709e-03  -7.857747e-02  -7.441378e-02  2.989146e-02  -4.319064e-02  4.414450e-02  3.010757e-01  -2.418100e-01  -3.984218e-02  6.713002e-02  9.874234e-02  -1.550004e-01  -1.517982e-01  -6.812982e-02  2.819959e-02  5.210673e-01  -8.238774e-02  -6.277486e-02  7.426539e-02  -1.502095e-01  -3.708427e-02  9.410305e-02  -1.642855e-01  1.586417e-01  2.066057e-01  -2.808593e-01  -5.395365e-03  -2.320219e-02  6.105559e-02  -4.766103e-02  -1.167772e-01  -1.151002e-02  -1.184192e-01  1.341726e-01  4.863727e-01  -1.114503e-02  -7.110184e-02  1.477423e-01  -8.097498e-02  1.037001e-02  1.097528e-02  -2.149474e-01  -2.196568e-01  2.097627e-01  -2.497535e-01  1.572873e-01  6.780295e-02  7.437110e-02  7.915395e-02  1.171398e-02  4.193632e-02  6.228756e-02  -7.044984e-02  2.254919e-01  1.758249e-01  -3.110578e-01  -1.803686e-01  -1.475057e-01  6.853446e-02  1.768508e-02  -7.177993e-04  6.778762e-02  -2.015263e-02  -1.792924e-01  2.997567e-02  1.748251e-01  -2.211784e-01  2.614839e-02  1.048224e-01  -2.281092e-01  -1.244917e-01  6.354351e-02  -1.810798e-01  -3.836742e-02  7.582038e-02  2.410840e-02  1.691690e-01  -1.970289e-02  -1.414936e-01  1.242520e-01  -7.679582e-02  -2.016775e-01  2.703989e-01  -2.780011e-02  -2.263913e-01  2.867935e-01  -4.800494e-02  -8.819642e-02  9.239479e-02  7.371061e-02  -8.686092e-02  2.871576e-01  -1.828091e-01  -1.583635e-01  4.767912e-02  1.146973e-01  7.311557e-02  5.199156e-02  -2.086597e-01  1.124841e-01  1.416288e-01  -2.219728e-01  -6.911325e-02  -2.007898e-01  2.764108e-02  -7.966974e-02  -4.464990e-02  5.162178e-02  -3.814747e-02  1.393669e-01  6.423129e-02  1.347773e-02  -3.006108e-01  -6.105907e-02  7.687484e-02  -3.686789e-02  1.734089e-01  -1.246504e-01  9.039307e-02  2.433637e-01  -2.834285e-04  -2.114899e-02  -8.720602e-02  1.661250e-02  5.566422e-02  1.392518e-01  -7.773126e-03  9.337843e-02  8.546322e-02  -2.742615e-01  6.139789e-03  1.400858e-01  -2.552347e-01  3.834742e-02  1.213508e-01  -1.581139e-01  -8.637134e-02  -1.658561e-01  -1.010576e-01  2.627141e-01  -1.335049e-01  -2.316268e-01  -1.362373e-01  -8.922584e-02  -4.338409e-02  1.099922e-01  -2.685602e-02  -1.341830e-02  -1.261210e-01  -2.010290e-01  2.324125e-01  1.330593e-01  4.948936e-02  3.256233e-02  -1.381389e-01  2.168007e-01  -1.109235e-01  -1.041195e-01  1.681506e-01  -1.784976e-01  -5.141223e-02  7.550659e-03  -1.058838e-01  1.509656e-01  2.991681e-01  4.229303e-02  5.614696e-02  -2.026945e-01  -1.228190e-02  -7.424144e-02  6.161647e-02  -9.272435e-02  -9.317124e-02  -6.342015e-02  9.650820e-02  -1.952368e-01  -1.597608e-01  1.934117e-01  -5.728499e-02  4.258747e-02  2.307544e-01  1.816517e-01  -9.460522e-02  -2.062822e-01  -9.701067e-02  -1.150866e-01  3.516990e-02  -1.541701e-01  1.786678e-01  5.605170e-02  -8.450172e-02  -7.302474e-02  -1.175988e-01  1.479197e-01  -1.808023e-01  -1.760371e-01  -2.910091e-02  -3.725619e-02  -1.246635e-01  2.072107e-02  1.251854e-02  1.720468e-01  -6.356944e-02  -9.608189e-02  -1.037616e-01  9.484944e-03  -8.984786e-02  -3.404793e-01  -1.626638e-02  1.977360e-01  2.416569e-01  2.404733e-01  -4.877670e-03  1.538565e-02  1.022632e-01  -1.310114e-01  -1.256775e-01  4.174220e-02  5.919212e-02  -1.346168e-01  -8.359626e-02  -1.699411e-01  1.476060e-01  -1.937825e-01  9.780824e-02  1.670709e-02  2.436420e-01  -3.637266e-02  -4.216583e-02  4.317811e-02  -1.642911e-01  -5.588456e-02  -5.530270e-02  5.566894e-03  9.673504e-02  3.345194e-02  -7.060703e-02  2.498877e-03  1.281077e-01  -2.923051e-02  5.564223e-02  -8.400664e-02  2.152337e-01  1.415010e-01  -1.522809e-02  -5.048320e-02  -1.004688e-01  -1.330136e-01  1.934399e-01  -1.359292e-01  -1.090436e-01  2.456762e-02  -8.958473e-02  1.092855e-01  2.362657e-02  -1.687060e-01  -3.095514e-02  1.415771e-01  -7.816832e-02  1.246874e-01  -2.171803e-01  3.636245e-02  7.155186e-03  1.249760e-01  -7.082676e-02  3.796594e-02  9.855215e-02  -7.824569e-02  1.074828e-01  1.618889e-01  1.816301e-03  2.665632e-01  4.710039e-02  2.223482e-01  1.027168e-01  -1.315417e-01  -1.025056e-01  5.902071e-02  1.466939e-01  -1.306710e-01  -1.412651e-02  -4.233216e-01  1.638802e-01  -1.315751e-01  -2.002901e-02  1.206991e-01  -2.813225e-02  1.058145e-01  1.996889e-01  -3.977252e-02  1.483395e-01  1.808573e-01  -1.893249e-01  2.033259e-01  -1.768848e-01  1.206329e-01  1.325315e-01  -1.194836e-01  -1.546501e-01  9.755885e-03  -3.882624e-01  1.177621e-01  2.704783e-01  1.105456e-01  -1.340685e-01  2.187850e-02  9.888418e-02  -7.242127e-02  1.316963e-01  -3.037868e-01  2.641048e-01  -1.654209e-01  -4.504437e-02  -8.427584e-02  1.088536e-01  1.003894e-02  -2.761928e-01  -1.012596e-01  6.880686e-02  -1.019171e-01  3.953198e-02  2.539226e-01  -1.829405e-02  1.393197e-02  -1.896590e-01  -1.326471e-01  -6.763156e-02  -2.614565e-01  -1.636210e-01  1.742687e-01  -1.268990e-03  1.005526e-01  -1.939967e-02  -1.238582e-01  -9.252372e-02  -1.510587e-01  -9.793126e-02  2.271662e-01  1.682789e-02  2.038140e-01  -1.467533e-01  -1.180892e-01  4.604901e-02  1.091403e-01  -1.039336e-01  -1.008813e-01  1.996354e-01  3.561802e-01  4.332415e-02  8.670974e-02  -1.616626e-02  3.078448e-01  -9.195399e-02  -3.438479e-01  2.092394e-01  -1.476454e-02  -2.996887e-04  5.998156e-01  -2.384401e-01  1.525858e-01  2.215684e-01  9.041324e-02  -1.603716e-01  1.373618e-01  -2.247113e-01  -1.287051e-01  8.169308e-02  -3.383996e-01  -8.077562e-02  3.072443e-02  1.294629e-01  1.721933e-01  -1.967243e-01  -6.866633e-02  9.536742e-02  3.734251e-02  9.201524e-02  -9.142089e-02  6.396116e-02  -1.341148e-01  1.482575e-01  -1.366748e-01  3.978590e-02  -9.102593e-02  1.557891e-01  -8.413003e-02  2.411260e-02  8.215687e-02  -1.086818e-01  -1.354212e-01  -7.002992e-02  1.631776e-02  1.415834e-01  1.243101e-01  1.733329e-01  -5.063072e-01  -1.378547e-01  -1.788329e-01  -5.178711e-02  -1.564863e-01  5.586182e-02  -3.693399e-03  1.295536e-01  -1.819958e-01  -6.836422e-02  3.276585e-01  -1.060107e-02  1.866615e-01  -1.882939e-02  -7.229847e-02  1.507227e-02  -3.362168e-02  2.392519e-02  2.455570e-01  -5.127973e-01  -6.532663e-02  9.614851e-02  -7.055050e-02  1.101111e-01  -1.264389e-01  -1.311722e-01  -1.283190e-02  -1.905939e-01  -2.750126e-05  3.787297e-01  4.911824e-02  4.228775e-02  -2.699660e-01  -7.346133e-02  -4.752411e-02  4.223174e-04  1.750783e-01  -8.084852e-02  -4.783399e-01  1.604577e-01  -2.264439e-01  1.526463e-01  5.680989e-02  8.227491e-02  1.148910e-01  -9.393785e-02  -1.344065e-01  -1.631822e-01  2.705678e-01  1.640730e-01  1.546957e-01  2.699951e-01  2.399383e-02  -1.189822e-01  -1.240537e-01  -3.705006e-03  3.989238e-02  1.984871e-01  -1.779288e-02  2.551568e-01  -4.362066e-02  -2.411555e-01  -6.113284e-02  -1.345337e-04  -2.159605e-02  8.185678e-02  -1.724358e-01  -3.001512e-01  -7.204877e-02  -2.583109e-01  -8.052818e-02  2.457083e-01  -2.225264e-01  -1.199645e-01  8.790635e-02  -1.826917e-01  7.757106e-02  1.479508e-01  -2.660750e-01  1.050677e-01  2.532615e-02  1.120087e-01  1.768970e-01  9.741028e-02  1.937948e-01  6.616316e-02  -1.734161e-01  -1.419873e-01  3.359637e-02  8.898042e-03  -1.803153e-01  1.220864e-01  -2.062020e-01  9.194455e-02  -1.430823e-01  -3.970213e-01  -6.119906e-02  1.946462e-01  -1.103846e-01  1.263148e-01  -1.117715e-01  9.955249e-02  2.117763e-01  -1.688219e-02  -2.759586e-01  -3.327259e-02  1.330664e-01  4.717695e-02  -4.101606e-03  1.120455e-01  2.755031e-01  -3.494021e-02  2.555975e-01  1.429894e-01  -6.581309e-01  -1.254375e-01  7.673176e-02  -2.445353e-01  -1.265534e-02  8.375560e-02  -8.078470e-02  -6.015744e-02  6.907752e-02  -1.051901e-01  3.200744e-01  -1.017573e-01  -2.092985e-01  1.307612e-01  -2.250687e-01  -1.448365e-01  -1.589788e-01  -1.089669e-01  -3.816920e-02  5.158581e-01  -3.829261e-02  3.049317e-02  2.115724e-01  1.258823e-01  -7.504395e-02  -2.422008e-02  -1.685829e-01  -7.830764e-02  -1.263404e-01  -2.552500e-01  5.537552e-02  1.109065e-01  -2.713959e-01  -2.861889e-01  2.152705e-02  3.506435e-02  2.640856e-01  -4.136428e-02  -5.274158e-01  -1.741544e-03  -1.070357e-01  6.893218e-02  5.289171e-02  -1.076854e-01  -1.244129e-01  1.206036e-01  -1.308055e-02  4.835379e-02  2.745099e-01  -1.036976e-01  5.625803e-03  -3.680282e-02  1.209923e-01  4.045173e-02  1.347834e-01  -1.192138e-01  1.930401e-01  1.006850e-02  2.808819e-01  -1.924388e-01  -1.404317e-01  5.642987e-02  1.057836e-01  -4.263175e-02  5.771535e-02  1.463596e-01  1.567864e-01  -2.206912e-01  -6.913118e-02  1.872693e-02  -2.991880e-02  -5.025661e-02  1.405464e-01  1.435933e-01  2.095827e-01  5.980640e-02  -4.282053e-01  4.339308e-02  -4.223417e-03  -2.044146e-01  -6.605447e-02  -3.563136e-02  -6.514110e-02  2.564596e-01  2.111454e-01  2.274669e-01  1.121139e-02  5.509637e-02  -2.570887e-02  1.935734e-01  -1.712331e-01  6.645259e-02  6.949845e-02  -1.776415e-02  4.486954e-03  4.791890e-01  -2.039282e-01  -1.840157e-01  7.845408e-02  -6.749174e-02  -9.868445e-02  -5.099010e-02  -9.842841e-02  -1.375440e-01  1.767436e-01  -1.585236e-01  2.429586e-01  1.453160e-01  -6.042485e-02  8.700210e-03  8.758565e-02  8.525895e-02  1.606077e-01  1.082323e-01  2.466877e-02  2.341354e-01  -3.618309e-01  -1.147904e-02  -1.784743e-02  -1.281081e-01  -1.275561e-01  5.913612e-02  3.322258e-01  1.664414e-01  -7.747660e-03  9.607280e-02  -1.400775e-01  -3.109833e-02  -8.532818e-02  1.946355e-02  -1.552034e-02  9.481132e-02  -1.334754e-02  1.831665e-02  -5.103493e-02  9.610668e-03  -9.155517e-02  2.203898e-01  -1.245338e-01  2.500467e-01  6.643295e-02  4.962702e-02  -1.658945e-01  -1.612574e-01  9.116692e-02  -2.794991e-01  1.662866e-01  9.858392e-02  -2.449395e-01  1.793229e-01  -7.579577e-02  1.607538e-01  2.555252e-02  2.283316e-01  -2.959124e-01  -3.015066e-02  -6.154299e-02  -9.131940e-02  1.070338e-01  1.760807e-02  6.692716e-02  2.217148e-01  -1.578054e-01  -3.768122e-03  9.522424e-02  -3.468851e-01  -2.639006e-02  1.750518e-01  -2.531322e-01  1.745803e-01  2.078593e-03  -3.404298e-01  1.549542e-01  1.000380e-01  9.096212e-02  2.613267e-02  -1.192262e-01  -2.283174e-01  3.054288e-02  -8.893873e-02  -7.568561e-02  3.512899e-01  -1.561573e-01  -2.004923e-01  -2.325843e-02  3.709866e-02  7.473347e-02  7.124698e-02  -2.585254e-01  1.163180e-01  4.274449e-01  1.885225e-01  -3.272419e-01  -5.451410e-02  1.130278e-01  1.666748e-01  1.310356e-01  -2.097496e-01  1.483365e-01  8.809494e-02  -1.629431e-01  1.065322e-01  -7.931370e-02  1.928891e-01  -2.131157e-01  -1.928228e-01  -2.827081e-01  -1.056208e-01  -3.468747e-02  1.852691e-01  -2.359745e-01  2.532623e-01  -5.154965e-02  -6.383573e-02  -7.418427e-02  5.417742e-02  1.307421e-01  -6.946176e-02  -2.052408e-01  -2.048874e-01  1.766227e-01  -8.359685e-02  1.801129e-01  -4.272634e-02  -2.273038e-01  -3.255896e-02  2.293283e-02  -1.898654e-01  1.411459e-01  -5.104012e-02  -8.552150e-02  5.504509e-02  1.305390e-01  5.931639e-02  9.015894e-02  1.513800e-01  -1.563621e-02  2.388950e-02  -2.740029e-02  -7.280226e-02  1.848662e-01  1.169910e-01  -1.654526e-02  -9.576152e-02  -4.466862e-02  5.929205e-02  1.174357e-01  4.972936e-01  -5.108620e-02  -2.847306e-01  -6.758817e-02  1.394295e-01  2.778919e-02  -8.248383e-02  -1.563426e-01  -8.136879e-02  -5.659042e-02  -1.824639e-01  -9.408714e-03  -1.172923e-01  -1.157859e-01  -2.044093e-03  -8.812124e-02  -5.293280e-02  -1.322476e-01  -2.483321e-02  5.143627e-02  -1.860714e-01  5.003600e-02  -8.985021e-02  -1.152779e-02  1.514806e-01  1.584956e-01  9.148984e-02  -7.125057e-02  -2.921858e-01  1.014877e-01  2.881743e-01  1.754065e-01  -1.161167e-01  -2.719317e-02  -1.925040e-02  -2.313773e-02  1.922473e-01  1.007876e-01  -5.798071e-01  1.051502e-01  1.468698e-01  -5.602418e-02  1.987188e-01  -8.933361e-02  -8.472781e-02  1.179597e-01  -1.189524e-01  9.766566e-02  2.423432e-01  4.958585e-02  -1.501584e-01  -1.976941e-01  -1.144898e-01  3.204375e-01  -1.861618e-01  1.676143e-01  -1.149908e-01  -5.000341e-01  1.993887e-01  2.329070e-01  -2.306136e-01  1.317869e-01  1.005375e-01  -1.462831e-01  -1.175473e-02  -3.452047e-02  -1.182212e-01  2.133296e-01  2.087449e-01  -1.583695e-01  -9.322400e-02  7.034082e-02  2.409447e-01  -1.514377e-01  2.767011e-01  4.953400e-02  -3.155717e-01  -1.105669e-01  3.796947e-01  -2.064744e-01  -6.969602e-02  -1.578654e-01  -1.032462e-01  -9.518429e-02  1.621843e-02  -1.172257e-03  2.089363e-01  -8.887276e-02  -1.967436e-01  9.125921e-02  7.231788e-02  1.538081e-01  1.540421e-01  -5.800977e-02  -1.327525e-01  -2.954500e-01  9.825458e-03  -5.127302e-02  1.412719e-01  -8.133408e-02  -1.182991e-01  5.700786e-02  7.406881e-02  1.017764e-02  2.090013e-01  -1.388305e-02  2.448888e-02  4.855445e-02  4.938114e-02  -1.314467e-01  2.522142e-01  1.206932e-01  2.231434e-01  5.744654e-02  -4.008583e-01  -1.798033e-01  2.903272e-01  -1.871682e-01  1.282221e-01  -7.492426e-02  -9.534790e-02  -4.981979e-02  -2.548955e-01  5.370755e-02  1.610390e-01  -4.922530e-02  -6.295709e-02  -1.041245e-01  -4.979933e-02  -5.284213e-02  1.013458e-01  6.481683e-02  -2.921642e-03  2.514860e-01  7.180568e-02  -2.382033e-01  -5.486032e-02  9.744348e-02  2.096182e-02  6.394416e-02  5.949680e-02  -4.230371e-02  -1.166653e-03  -2.465783e-01  2.981889e-03  1.097948e-01  
      </Weights>
      <Biases Rows="128" Columns="1">
        -1.055792e-02  -4.479053e-02  -6.136167e-02  -8.411184e-02  -1.041717e-01  5.052338e-02  7.961203e-03  -1.102636e-02  -3.367285e-02  1.850818e-03  -5.919548e-02  -2.170223e-02  4.522706e-02  -1.720456e-02  3.917037e-04  1.485876e-02  -4.683530e-02  3.832513e-02  1.204731e-02  -3.763641e-02  9.324014e-02  6.193764e-02  -6.582947e-02  9.021060e-02  -3.395320e-02  -4.663432e-04  -7.277884e-02  5.098666e-02  -2.745219e-02  6.840656e-02  -6.235658e-02  -1.699481e-02  7.531436e-02  5.173938e-02  -5.357539e-02  -3.373844e-02  9.827819e-03  2.418057e-02  1.433499e-03  2.945328e-02  -3.225868e-03  -4.341798e-02  -1.512512e-02  4.942340e-02  4.173758e-02  3.894148e-02  2.158343e-02  -1.088673e-02  2.623626e-02  -2.990989e-02  -9.772048e-02  -3.910159e-02  6.233839e-02  2.093014e-02  -7.172821e-02  -1.667418e-02  -5.642148e-02  2.037799e-02  1.523294e-02  -3.813567e-02  1.154390e-02  -6.731649e-02  -7.311514e-02  2.752990e-02  8.322947e-02  -8.769003e-02  2.304021e-02  1.519198e-02  9.838919e-03  5.367618e-02  -1.020928e-01  -8.732590e-02  -2.743245e-02  3.870275e-03  -2.108348e-02  1.852766e-02  6.739552e-02  -2.351635e-02  -3.551671e-02  1.913995e-02  6.028166e-02  -2.260505e-02  -2.709875e-02  -2.473839e-02  -3.513040e-02  -6.882523e-03  -5.418907e-02  -5.994079e-03  3.329680e-02  3.480679e-02  -2.776270e-02  -7.921080e-02  9.905294e-02  -4.377183e-02  1.135528e-02  -3.192306e-02  5.213744e-02  8.748541e-02  -8.790063e-02  6.717194e-02  -2.547508e-02  -6.020696e-02  -7.032353e-02  -7.247904e-02  7.864051e-02  -2.372151e-03  -3.576175e-02  3.520658e-03  -2.919088e-02  -8.735604e-02  -9.394503e-02  -2.551681e-02  4.226571e-03  -7.289750e-02  -1.735471e-02  -3.071800e-02  2.058908e-02  -2.355384e-03  9.466835e-02  1.881799e-02  1.359854e-03  1.106958e-02  1.301015e-02  -4.234575e-02  2.629211e-02  -5.932458e-02  2.024499e-03  -4.684347e-02  
      </Biases>
    </DenseLayer>
    <DenseLayer Width="128" ActivationFunction="3">
      <Weights Rows="128" Columns="128">
        1.088799e-01  -7.171513e-02  7.392167e-02  -4.840240e-02  -4.580737e-02  -1.304111e-01  1.009696e-01  -2.457047e-02  -1.062988e-01  -1.164645e-01  6.940938e-02  1.233667e-01  -1.047805e-01  -9.660121e-03  1.266892e-01  -4.728778e-02  6.830721e-02  1.807749e-02  -7.275561e-02  8.618111e-02  -1.795498e-01  -2.187608e-02  -8.336009e-02  -1.749614e-02  1.466882e-01  -1.406832e-01  1.180707e-01  -1.639675e-01  9.419504e-02  -4.310504e-02  5.545697e-02  7.641488e-02  -1.317487e-01  6.810492e-02  -7.960466e-02  6.259364e-02  -8.834694e-02  6.952474e-02  1.606897e-01  -2.950514e-02  2.688459e-01  -5.854842e-02  6.068139e-03  -1.463338e-01  -4.774370e-02  1.115899e-01  4.073276e-02  -1.571397e-01  7.602768e-02  2.211066e-02  1.419757e-02  1.384085e-01  -3.384871e-02  -2.219720e-01  1.740810e-01  2.295893e-01  6.556088e-02  -1.380457e-02  -1.882050e-01  4.084020e-02  -1.642102e-01  1.083839e-01  -7.590856e-02  1.606931e-01  -9.692960e-02  8.442257e-02  6.861222e-02  -1.118189e-01  -1.281735e-01  5.738527e-02  1.496237e-02  3.484222e-01  -2.786813e-02  -1.317234e-01  8.520706e-02  -8.405313e-02  -2.055464e-02  -8.324808e-02  -3.461799e-02  6.411649e-02  -1.398964e-01  1.402343e-01  6.902209e-03  2.570690e-02  -9.701377e-02  3.041190e-02  1.300908e-01  -7.265911e-02  -1.452873e-02  3.817092e-02  6.517125e-02  3.897176e-03  -1.999491e-01  1.012639e-01  8.289876e-02  1.594671e-01  -1.893408e-01  1.384394e-02  -9.048438e-02  -1.770525e-01  8.267928e-02  1.731630e-02  -1.275289e-01  -5.411990e-02  -1.003123e-01  -1.044634e-01  1.036536e-01  1.116335e-02  -4.933367e-02  -6.637105e-02  1.335866e-01  5.732740e-02  -1.386508e-02  -1.124372e-03  5.412231e-02  3.482924e-02  -1.056926e-01  2.285064e-01  -2.291346e-01  4.142728e-02  -2.666707e-02  -1.130976e-01  -1.982009e-01  -9.013750e-02  1.755967e-02  -1.034829e-01  9.536456e-02  1.614020e-01  -1.575348e-01  -1.063980e-01  -1.320368e-01  -2.011031e-01  -8.140457e-02  7.666653e-02  1.967706e-01  -7.795896e-02  5.657564e-02  1.378018e-01  1.566406e-01  -1.794869e-02  1.886549e-01  -2.165771e-01  1.024009e-01  -4.007091e-02  -2.289461e-02  -1.004833e-01  4.718389e-02  7.336880e-02  2.157980e-02  -5.626343e-02  5.047082e-02  -1.493215e-01  5.464014e-02  -2.024569e-01  -3.154128e-02  -1.028162e-01  -1.937569e-03  -1.457636e-01  7.497229e-02  5.709637e-02  -1.567606e-01  -9.859460e-02  1.355491e-01  -2.941690e-01  4.106791e-02  1.373485e-01  1.437407e-01  -2.263933e-02  -1.752380e-02  3.864475e-02  6.932884e-02  -9.547031e-02  5.746971e-02  8.853076e-02  -2.679109e-02  2.709247e-02  -1.256059e-01  5.729162e-02  4.806197e-02  -2.147345e-02  -1.815591e-01  -1.297797e-01  6.264037e-03  1.424573e-02  6.616287e-02  -1.371354e-01  2.455807e-01  9.787343e-02  -1.406513e-01  -6.875995e-02  9.958802e-02  -1.478235e-01  -8.749269e-03  1.958596e-02  -3.961324e-02  -3.159935e-02  2.182921e-02  3.160020e-02  1.871474e-01  4.919206e-02  2.529796e-01  -1.314038e-01  -9.031457e-02  -1.608360e-01  2.084805e-01  -7.537012e-03  -8.492833e-02  2.395777e-02  -4.445620e-02  1.188980e-01  7.648169e-02  -1.141686e-01  -1.062435e-01  1.504023e-01  -7.231799e-03  -7.060463e-02  -1.136380e-01  -4.660942e-02  -4.451374e-02  5.275824e-02  1.672248e-02  -7.894032e-02  -1.131249e-02  -1.739958e-01  -2.400851e-02  5.144611e-02  -1.263732e-01  1.124596e-01  9.760629e-02  -3.875839e-02  8.972276e-03  -6.315728e-02  -5.706719e-02  -1.035545e-01  -1.122010e-01  -2.006027e-02  1.084951e-01  -5.122559e-02  -4.320298e-02  -3.018711e-02  -1.253774e-01  9.450518e-02  -3.447765e-02  7.144425e-02  -1.521246e-01  4.100550e-02  1.365229e-01  2.892160e-02  -6.563316e-02  5.596402e-02  4.191520e-02  -1.040167e-01  -1.886089e-01  -6.537870e-02  -7.202658e-03  -5.055887e-02  2.747066e-02  -1.338253e-01  3.277767e-02  1.737466e-01  3.064536e-02  2.678294e-01  1.555562e-01  -8.348278e-02  1.284672e-01  1.331976e-01  1.262915e-01  -1.371422e-02  -6.052338e-02  -5.687148e-02  1.377957e-01  1.528014e-01  6.971805e-02  4.303818e-02  1.373513e-01  -2.652922e-02  -6.754363e-02  4.555348e-02  -6.969653e-02  -3.915144e-02  -1.939517e-01  -1.365911e-01  -1.586549e-01  -7.688872e-02  7.706329e-02  -1.192418e-01  1.109273e-02  -1.291825e-01  1.176258e-01  2.428738e-02  -1.682256e-01  -8.536305e-02  6.049306e-02  3.183771e-02  -1.145484e-01  -1.665998e-01  1.002886e-01  -5.791752e-02  1.336915e-01  -2.621189e-02  8.924972e-02  -2.055553e-02  -1.522259e-01  -2.339672e-01  -1.357898e-01  2.139414e-01  -3.791422e-02  -6.926920e-02  -1.540155e-01  -1.053196e-01  8.465771e-03  1.641133e-01  4.752331e-02  7.543156e-02  2.074714e-01  -6.948841e-02  -5.525475e-02  -8.995511e-02  3.024356e-02  4.417964e-02  -6.813233e-02  -2.312414e-02  -2.038692e-02  2.783503e-01  7.559023e-03  1.219900e-01  4.822262e-02  -1.377943e-01  1.628247e-01  -1.989351e-01  -1.171813e-01  -1.280038e-01  1.487108e-01  8.169690e-03  -6.190855e-02  -4.376855e-02  -9.159163e-02  1.665728e-01  6.493085e-02  2.880652e-01  1.713360e-02  1.320134e-01  -5.356621e-02  8.288876e-02  -2.559325e-01  9.091353e-02  -9.418272e-02  -7.062633e-02  9.041980e-02  1.322522e-01  -1.244835e-02  -5.386821e-02  -1.569603e-02  -9.988178e-02  -5.920155e-02  1.181990e-01  -5.371369e-02  7.000846e-02  -1.189894e-01  -1.104849e-01  1.209886e-03  1.251184e-01  -9.707082e-02  -1.916610e-01  1.172906e-01  5.493772e-02  -1.076057e-01  -5.278894e-02  5.356278e-02  1.319540e-02  -1.241350e-01  -1.001202e-01  -1.827446e-01  1.484302e-01  -7.306750e-02  -7.422570e-02  -8.847480e-02  2.695146e-03  -2.524510e-01  -1.473144e-01  -7.421832e-02  1.178508e-01  -2.289826e-01  7.037485e-02  -1.111578e-01  8.794203e-02  -4.719585e-03  -1.870144e-01  8.961798e-02  -2.076708e-01  -9.446357e-02  -1.537740e-01  1.666960e-01  -8.087920e-02  1.032993e-01  1.133465e-01  -7.225010e-02  1.228557e-01  -1.942181e-02  -1.964464e-01  -1.160878e-01  8.297533e-02  -1.205051e-01  -1.407590e-01  6.118864e-02  2.234996e-01  6.510197e-03  -9.530327e-02  1.130810e-01  2.967480e-01  -7.719724e-02  1.272045e-01  1.705894e-01  -7.468245e-02  -4.007042e-03  2.940748e-02  -2.184196e-02  5.720153e-02  -1.565678e-01  -5.656657e-02  8.074112e-02  1.725670e-01  -4.117343e-02  1.661458e-01  4.454139e-02  -1.355242e-01  1.058837e-01  -3.017934e-02  -6.351008e-02  4.337006e-03  2.854814e-03  2.457333e-01  8.472336e-02  -1.924782e-01  -1.772648e-01  -1.125350e-01  2.851716e-02  1.723744e-01  -1.893209e-01  -4.713159e-02  -7.554880e-02  -9.042421e-02  -1.502615e-03  -5.919577e-03  -2.832676e-02  -1.146935e-01  1.313992e-01  7.935676e-02  4.004496e-02  -1.813364e-01  -1.052712e-01  1.053658e-01  1.355285e-02  -1.809419e-02  -4.238056e-02  -3.019005e-02  -1.152616e-01  -6.478247e-02  -5.507533e-02  5.175815e-02  4.353188e-02  -1.749608e-01  1.819934e-01  7.847089e-02  1.660186e-01  9.822141e-02  -3.253032e-02  -2.783243e-01  8.472712e-02  -1.419474e-01  6.705063e-02  1.291425e-01  2.391243e-01  1.358710e-01  1.480486e-01  5.785360e-02  1.443283e-01  -7.403635e-02  -4.429124e-02  1.216069e-01  8.224902e-02  -5.821684e-02  -1.866213e-01  7.614859e-02  -5.000992e-02  -1.051942e-01  1.210194e-01  -9.000948e-02  2.324329e-02  -1.539337e-01  -3.618142e-02  6.406178e-02  1.250898e-01  9.715636e-02  -2.053248e-01  3.442031e-02  1.236348e-01  -1.377461e-01  -9.337801e-02  -1.335216e-02  3.091334e-01  -2.070690e-01  2.568927e-01  2.349079e-01  -3.764684e-02  2.039393e-02  9.365363e-02  1.216834e-01  1.273642e-01  -6.065340e-02  1.612688e-01  -8.831838e-02  -1.570086e-01  -1.473097e-01  6.746772e-02  1.578973e-01  -8.442915e-02  -1.427456e-02  4.491032e-02  -4.855294e-02  2.880520e-02  1.153417e-01  5.551815e-02  -1.071125e-01  9.336495e-02  5.284214e-02  7.751691e-02  7.353393e-02  -4.447582e-02  1.084449e-01  1.222144e-01  -6.424396e-02  -1.949199e-01  -4.750701e-02  -1.860370e-02  -7.370388e-02  -7.476732e-03  -4.337267e-02  -5.982175e-02  7.831085e-02  1.031357e-01  -2.026352e-01  -4.254198e-02  -1.201518e-01  -1.240152e-02  1.879237e-02  -4.128312e-02  -3.191260e-03  -4.441511e-02  3.880712e-02  1.593414e-01  -7.243498e-02  1.576231e-01  -4.628775e-02  2.781684e-02  -1.543572e-01  -5.053284e-02  -1.257988e-01  -1.504258e-02  -7.682466e-02  -1.504737e-01  2.774650e-02  2.483345e-01  1.406130e-01  5.086895e-02  -1.864457e-01  1.450776e-01  -6.218098e-02  -1.026205e-01  -8.621538e-02  7.186146e-02  6.825606e-02  6.642497e-02  -2.312158e-02  -8.543782e-02  5.172447e-02  -1.707559e-01  1.845460e-01  6.282783e-02  -1.392898e-01  -3.976848e-03  9.922004e-02  -7.409463e-03  -1.769407e-03  -4.441670e-02  -4.454361e-02  -1.074150e-01  8.290257e-02  9.942382e-02  -3.182916e-02  -1.091314e-02  1.827781e-01  3.491306e-02  4.618816e-02  -2.219643e-02  -4.871567e-02  4.807012e-03  1.810120e-01  8.487725e-02  -1.187687e-01  4.136977e-02  -1.507374e-01  6.983864e-02  -7.322530e-02  -1.772273e-01  1.506733e-01  1.236547e-01  1.446013e-02  -8.489628e-02  -2.708984e-03  1.033791e-01  5.933417e-03  8.454949e-02  -5.296258e-02  -6.079146e-02  1.127728e-01  1.650240e-01  -1.422517e-01  1.627677e-01  1.169003e-01  -1.311681e-02  -6.376640e-02  1.146650e-01  9.247045e-02  9.179176e-02  2.947915e-01  1.804417e-01  1.857181e-01  2.752245e-02  1.459936e-01  -1.194199e-01  -4.144579e-02  1.524674e-01  -9.890299e-02  -1.463800e-01  9.636045e-03  -6.045425e-02  6.389856e-02  -1.982647e-01  -6.961286e-02  1.378798e-01  -4.320318e-02  1.431591e-01  -7.122791e-02  -4.938240e-02  -5.459806e-01  -1.045890e-01  -3.385789e-02  -1.971676e-01  -3.904464e-01  4.494716e-02  -1.544312e-01  -1.841990e-01  -3.870258e-02  2.243915e-02  -1.839144e-01  -9.855144e-02  1.761212e-01  -3.642845e-02  7.594302e-02  -1.502223e-01  -3.256298e-01  -8.827446e-02  -2.037769e-03  1.902820e-01  5.018739e-01  -1.113104e-01  -9.691409e-02  1.884927e-01  -1.324597e-01  -8.741436e-02  1.101469e-01  -8.478072e-02  -7.559802e-02  -4.105660e-02  4.369017e-01  -9.010204e-02  -1.251652e-01  -2.004413e-01  -7.796922e-02  -7.316564e-02  1.555271e-01  -1.297187e-01  5.497496e-02  -2.712310e-02  -1.445045e-01  -2.375587e-01  1.560428e-01  5.316028e-02  -1.281183e-01  4.552458e-02  3.905624e-02  1.236919e-01  1.554041e-01  1.521650e-01  -2.342432e-01  5.594785e-02  -3.779794e-02  3.118060e-02  1.336233e-01  -4.626681e-02  -2.079746e-02  -6.623450e-02  -6.057285e-03  1.181951e-01  3.105657e-01  -7.751974e-02  -9.346196e-02  2.181026e-02  -3.043529e-01  1.295405e-01  2.468470e-01  -1.060471e-02  3.533829e-01  1.918252e-02  1.034198e-01  -1.872718e-01  2.158059e-01  -8.760637e-02  1.221191e-01  1.093452e-01  -2.783303e-01  -1.048258e-01  -5.732651e-02  6.508594e-02  -5.582364e-03  -1.247715e-01  9.002785e-02  9.078559e-02  2.099969e-02  -7.875436e-03  1.494392e-01  -6.804857e-02  -1.578842e-01  -5.419295e-02  6.796615e-02  1.406944e-02  7.543816e-02  7.686379e-02  -2.996532e-01  1.624715e-02  2.533811e-01  1.439626e-01  2.131476e-01  -5.360574e-02  1.583363e-01  -3.261800e-02  4.303886e-01  -2.973560e-01  2.729640e-01  7.276048e-02  1.985335e-01  -5.961765e-02  9.097438e-02  -4.759096e-02  1.266211e-01  5.542610e-02  -5.067420e-02  -8.320686e-02  -5.809396e-02  -1.162042e-01  4.428075e-02  3.443059e-01  2.063711e-01  2.634805e-01  -1.586958e-01  -1.907760e-02  7.415643e-02  -1.052873e-02  -1.362601e-02  -1.198453e-01  1.009105e-01  -1.133726e-01  9.533278e-02  9.435514e-02  9.009750e-02  7.259121e-02  -1.267640e-01  3.859712e-02  -6.216762e-02  1.203293e-01  -1.594034e-01  -1.902456e-01  -2.300224e-01  7.848365e-02  1.703350e-01  8.054985e-02  -1.050638e-01  2.130742e-01  6.900100e-02  5.938146e-02  -1.487720e-01  1.659614e-01  2.488955e-01  1.076423e-02  6.259476e-02  -8.891786e-02  -3.527790e-02  1.447757e-02  1.720571e-01  1.976139e-03  6.083603e-02  -1.130609e-01  2.175995e-02  -8.499920e-02  -1.085643e-01  -1.798259e-01  1.355973e-01  -6.668975e-02  8.671340e-02  -2.263904e-01  2.006433e-01  -1.044515e-01  -3.401094e-01  1.343691e-01  -1.084861e-02  1.417216e-01  -2.037662e-01  2.298126e-02  3.371233e-02  -2.348117e-02  -7.703322e-02  -2.043257e-01  -1.557266e-01  1.901847e-02  1.100263e-01  1.728169e-03  8.920379e-02  1.271556e-01  -1.771488e-01  -8.418765e-02  6.710915e-02  -1.426512e-01  7.201368e-02  1.656088e-01  -7.537870e-03  1.638628e-01  -1.741884e-01  1.358416e-02  1.675325e-01  -2.347107e-03  6.721403e-02  -2.373256e-01  -1.632589e-02  -1.836959e-01  5.793488e-02  -5.654933e-02  9.842237e-02  -3.341857e-02  -1.003920e-01  -1.032695e-01  6.280563e-03  -8.066412e-02  1.115080e-01  8.433373e-02  -1.477448e-02  2.326364e-02  -6.166861e-02  6.799616e-02  -8.259803e-02  -1.328141e-01  6.760915e-02  8.304186e-02  1.010782e-01  -6.266426e-02  -1.405713e-01  1.021318e-01  -1.749955e-01  1.590405e-01  7.720903e-02  1.417197e-01  -1.125639e-01  -1.021717e-01  -1.770649e-02  -9.693325e-02  1.497035e-01  -1.413192e-01  -4.381215e-02  1.065048e-01  -2.358802e-02  -1.144655e-02  -2.028004e-01  -6.208698e-02  -3.979814e-02  1.266690e-01  -1.059812e-02  2.959259e-02  1.058199e-01  3.769268e-02  2.822741e-02  6.429487e-02  1.012140e-01  1.762957e-01  7.277799e-03  7.597990e-04  1.031934e-01  2.273929e-02  1.650556e-01  -1.192585e-01  -3.685459e-02  -2.344144e-02  8.299170e-02  1.715351e-02  -1.786949e-01  -8.563948e-02  1.029312e-01  8.423430e-02  9.826427e-02  -1.540294e-01  6.295581e-02  -3.964281e-02  5.245429e-02  1.340999e-02  -3.631897e-02  5.275686e-02  -3.155822e-03  2.065272e-01  5.377756e-02  8.584798e-02  5.695289e-02  -1.430070e-01  -9.182859e-02  -7.202309e-02  -2.642008e-02  -3.121605e-02  2.683378e-01  -9.194887e-02  3.571745e-02  -1.902355e-02  1.579300e-01  -1.124894e-01  -1.692734e-01  -1.381648e-01  -7.931750e-02  1.932043e-02  7.848978e-02  6.869487e-02  -1.589752e-01  8.003034e-02  9.553772e-02  -7.688923e-02  2.819119e-02  -1.007279e-02  2.373906e-02  1.691560e-01  2.790475e-02  -1.827739e-01  4.071892e-02  1.407608e-01  1.871797e-01  6.933110e-03  -5.528134e-02  6.379848e-03  7.736143e-02  -1.553978e-02  -7.579900e-02  -1.404074e-01  -2.331778e-01  -7.215567e-02  2.894681e-02  1.309503e-01  -1.607695e-01  -2.677567e-02  8.279465e-02  -9.241748e-02  -1.742928e-01  1.166912e-01  -6.155472e-02  9.221691e-03  7.415427e-02  5.268643e-02  -1.475552e-01  2.077300e-01  -5.308294e-02  -1.506545e-01  9.624858e-02  1.912821e-01  -8.271327e-02  -9.405380e-02  -1.832689e-01  8.109517e-02  1.105326e-01  -3.390084e-01  -2.990507e-02  1.067589e-01  9.379511e-02  -3.607393e-02  -1.400371e-01  5.666062e-02  -5.030013e-02  -1.149670e-01  -1.274476e-01  7.625270e-02  7.987533e-02  -2.077792e-01  1.231981e-01  5.105167e-02  -6.199255e-03  6.775517e-03  -7.036471e-02  9.121715e-02  -8.963031e-02  7.412507e-02  -1.574099e-01  -1.032989e-01  -9.266561e-02  -9.227534e-02  -1.827470e-01  4.929472e-02  -1.508894e-01  7.584228e-02  -1.430062e-02  1.782688e-02  -2.544906e-01  1.959728e-01  1.015455e-01  -1.839133e-01  -4.025446e-03  -1.253385e-01  -1.001330e-01  1.341840e-01  -4.624215e-02  2.104788e-01  -5.743374e-02  -1.152250e-01  -7.804109e-02  1.120273e-02  1.291872e-01  2.373248e-02  -1.183797e-01  -1.215080e-01  1.919145e-01  -3.766979e-03  -1.499205e-01  -4.393044e-02  1.079286e-01  -1.074580e-01  7.943662e-02  -1.047977e-01  1.355131e-01  -1.402696e-01  2.684516e-02  -3.336858e-03  2.597048e-01  1.131116e-01  -7.491475e-02  1.175112e-01  -2.340638e-01  1.702917e-01  -2.937156e-02  1.385330e-01  1.404584e-01  -3.075854e-02  -7.641917e-02  -1.190916e-01  -8.923881e-02  1.935394e-02  -1.036084e-02  -3.185444e-02  2.291499e-02  1.566095e-01  -8.667713e-02  6.711813e-02  3.279004e-02  5.366227e-02  6.349956e-02  9.130029e-02  -7.621876e-02  1.386010e-01  -8.418415e-02  1.051093e-01  8.095436e-02  -1.025596e-01  -8.005418e-02  3.943660e-02  1.024887e-01  -8.194637e-02  -1.919032e-02  6.958028e-02  1.433411e-01  1.213354e-01  1.573782e-01  -1.014136e-01  1.411475e-01  1.231509e-01  1.502694e-01  1.122813e-01  -3.155567e-02  -1.251723e-01  2.361267e-01  5.778275e-02  -2.912158e-01  -8.118326e-02  8.628235e-02  1.400455e-01  2.970792e-01  5.685206e-02  4.896032e-02  5.749791e-02  5.324796e-03  5.952438e-04  4.542616e-03  3.638321e-02  2.917956e-02  -6.076100e-02  -2.565182e-02  1.192954e-01  -2.539798e-02  6.487317e-02  -1.247059e-01  1.471096e-01  2.214492e-02  -2.941327e-02  5.957158e-02  -2.092634e-01  -3.345736e-02  -1.237601e-01  -3.002219e-02  8.337877e-02  7.117805e-03  -1.172743e-01  -9.261388e-02  -8.940791e-02  -1.207094e-01  -2.471819e-02  1.687477e-01  -1.001345e-01  2.268121e-02  -1.585721e-01  9.431338e-02  -1.001728e-01  1.999549e-02  -8.072554e-02  -1.346275e-01  5.138314e-02  5.670298e-02  -7.260119e-02  1.703260e-01  1.461252e-01  1.085324e-01  -3.483862e-02  2.512535e-01  -1.166916e-01  -1.441472e-02  1.500253e-01  -1.814653e-01  -6.435368e-02  -1.442336e-01  -1.545563e-01  1.346054e-01  -7.276579e-02  5.119489e-03  9.433816e-02  5.570908e-03  4.945039e-02  -1.811746e-02  6.500363e-02  3.233044e-02  -7.012003e-02  -2.949895e-01  -3.610836e-02  -2.767161e-02  6.184915e-02  1.383940e-01  -1.157699e-01  -1.550860e-01  -1.898833e-01  -1.728820e-01  -3.442721e-02  -3.092469e-02  -6.731071e-02  -1.363657e-01  1.907747e-01  2.571234e-01  5.412151e-03  1.174592e-01  4.646234e-02  8.669445e-02  4.251805e-03  -2.364981e-02  1.042718e-01  2.205930e-01  1.232890e-01  -1.254544e-01  -1.654848e-02  -5.713066e-02  -1.877314e-01  5.041207e-02  -2.141782e-02  -9.574080e-02  -1.529089e-01  -7.187977e-03  3.579304e-02  1.493438e-02  5.277863e-02  6.335714e-02  4.768883e-02  -8.829915e-02  -1.314954e-02  6.533147e-02  -1.601875e-01  -6.233392e-02  1.202497e-01  1.690533e-01  -8.838906e-02  2.718342e-01  -1.265473e-01  -1.135949e-02  2.426846e-01  -3.306937e-02  8.141125e-02  -2.035577e-01  -1.966759e-01  -1.535576e-01  -3.475531e-02  -1.390584e-01  -1.030205e-02  -1.619624e-01  -2.182977e-01  9.062286e-02  3.537659e-02  -2.338339e-01  6.491776e-02  -1.294421e-01  -4.396490e-02  7.564460e-02  -9.184591e-02  -2.167832e-01  -1.142136e-01  7.631882e-02  -7.427034e-02  -5.504484e-02  1.986358e-01  -1.101170e-01  1.381810e-01  -2.161105e-02  5.778123e-02  -4.943170e-03  -9.746003e-02  5.108699e-02  2.476473e-01  -8.756040e-02  6.126387e-02  -1.084064e-01  -5.007933e-02  2.563092e-02  -3.031033e-02  6.347974e-02  1.417194e-01  8.381221e-03  -4.885721e-02  1.275158e-01  5.360163e-02  -1.706387e-03  8.215757e-02  -4.181731e-02  9.711605e-02  -5.669373e-02  -5.006992e-03  -1.522858e-02  1.561852e-01  1.431878e-01  -7.328755e-02  2.053506e-02  7.239896e-02  -2.249557e-01  -3.733024e-02  4.339552e-03  -6.106057e-02  -2.323560e-01  -8.243168e-02  -1.039225e-01  -1.994532e-01  1.442253e-01  7.077558e-02  1.269883e-02  1.715783e-01  -1.617003e-01  1.921542e-01  -1.381538e-01  -3.025354e-02  1.452064e-01  9.337070e-03  2.345406e-02  -4.395873e-02  -2.962131e-01  -1.381928e-02  -2.995204e-01  -4.036243e-02  -1.156203e-01  -1.510152e-01  9.574173e-02  -5.498464e-02  6.216381e-02  -9.709032e-02  -1.642456e-01  6.167292e-02  -6.563938e-02  1.327404e-01  -5.208127e-02  -1.199289e-01  -2.408685e-02  6.766873e-02  4.785211e-03  6.968329e-02  2.324572e-01  -4.968148e-03  2.054790e-02  7.280350e-02  9.699512e-02  3.470622e-02  3.111748e-02  -3.614901e-04  -1.096256e-01  -7.958800e-02  3.938574e-01  -1.762808e-01  -7.219209e-02  2.294014e-02  1.108068e-01  -2.364199e-01  1.346298e-01  1.127608e-01  -9.544531e-02  -1.271942e-01  -1.101990e-01  -2.776996e-01  2.863709e-01  5.034512e-02  -1.804040e-01  7.596451e-02  -9.731723e-02  -2.144712e-02  4.972575e-02  -1.635555e-03  -6.385329e-02  1.053480e-01  -1.120572e-01  -1.174412e-01  -2.147382e-01  -1.354421e-01  -5.890780e-02  -8.316721e-03  -7.375114e-02  4.116185e-04  3.838666e-02  -7.241409e-02  -1.351462e-01  -9.898524e-02  -2.436096e-01  4.153519e-02  -8.947692e-02  3.863360e-02  1.709623e-01  -2.256788e-02  -6.847540e-02  -2.371856e-01  1.057344e-02  3.112617e-02  -1.277772e-01  8.389267e-03  -1.381473e-01  -4.017162e-03  -2.589332e-01  9.504341e-02  2.840992e-02  -1.196564e-01  -1.429364e-01  9.365335e-02  -1.237636e-01  -1.091735e-02  -1.146174e-01  -4.893286e-03  -6.694895e-02  8.372841e-02  2.402478e-03  2.268198e-01  -6.177279e-02  -7.422046e-02  -1.678165e-01  -9.330767e-02  -5.857141e-02  -1.017703e-02  2.272072e-01  -1.634971e-01  -5.443713e-02  -3.135411e-02  2.710282e-01  8.611274e-02  8.336351e-02  6.038680e-02  5.492336e-02  -3.020234e-01  -1.666599e-01  -7.198314e-02  8.763769e-02  3.693120e-01  -1.346067e-01  -1.295487e-01  9.388482e-02  8.499820e-03  8.694658e-02  1.982557e-02  7.849801e-02  1.743781e-01  1.112418e-01  2.068362e-01  -9.173997e-02  1.385410e-01  6.184746e-03  4.340408e-02  8.162541e-02  1.639678e-01  -1.503531e-01  -8.522435e-02  1.041654e-01  1.826046e-01  -1.500065e-01  8.239080e-02  -5.660861e-02  -1.026539e-01  1.004489e-01  9.264811e-02  -6.004514e-02  1.188622e-01  -1.369430e-01  -2.273190e-01  8.535732e-02  -1.590214e-02  -1.235353e-02  7.884636e-02  -4.948604e-02  6.829491e-02  1.733560e-02  2.833063e-02  6.516695e-02  4.282048e-02  -6.566499e-02  1.468027e-01  -9.172966e-02  -1.802579e-01  -1.565316e-02  1.196148e-01  -7.013682e-02  -1.126141e-02  -8.780315e-02  5.121848e-02  -1.833014e-01  1.597696e-03  -4.321865e-02  -4.390551e-02  1.313830e-01  1.080822e-01  -1.667196e-01  -1.320166e-01  9.004595e-02  -6.502660e-02  -7.273670e-02  -3.356945e-02  1.139819e-01  -1.912604e-01  -1.151442e-01  2.320432e-01  2.073524e-02  1.792995e-01  9.026551e-02  -1.560024e-01  1.266275e-01  -1.419112e-01  -1.017815e-02  7.805863e-02  4.997405e-02  -2.585666e-02  -4.203875e-02  4.535750e-02  -2.611063e-02  -1.063337e-01  -7.615741e-02  2.236585e-01  1.854847e-01  -4.263002e-02  -3.780113e-02  9.556358e-02  -1.415581e-01  -2.159651e-02  1.879050e-01  1.153267e-01  -3.173846e-02  -6.119850e-02  -9.992081e-03  4.123898e-02  1.201623e-01  -7.574773e-02  8.365111e-02  -4.360615e-03  -1.097869e-01  4.971004e-02  -1.100730e-01  -1.310162e-01  1.755841e-02  -2.212138e-01  1.093300e-02  6.686450e-02  -2.445078e-02  6.430652e-02  5.358151e-02  7.683922e-02  -1.467628e-01  -5.378383e-03  4.325398e-02  -6.539467e-02  7.863363e-02  -1.269436e-01  -2.518811e-02  -7.289514e-02  -9.842747e-02  1.974107e-01  5.243377e-02  -6.162827e-02  5.993655e-02  1.420964e-01  8.295176e-02  -1.344282e-01  1.928417e-01  1.969453e-02  -1.255997e-01  -5.929600e-02  4.053656e-02  4.281276e-02  -6.135331e-02  4.241978e-02  -4.303664e-02  -1.661451e-01  9.136440e-02  -2.812063e-03  5.918465e-02  -4.327426e-02  7.847257e-02  -3.817708e-02  -1.969599e-02  -8.477816e-02  1.065347e-01  6.769478e-02  -2.928392e-01  -8.514959e-02  -5.641190e-02  -1.112158e-01  1.215114e-01  -1.396920e-01  -4.539186e-02  6.091891e-02  -3.883669e-02  -7.573756e-02  -8.665740e-02  1.735862e-01  7.855526e-02  1.415542e-01  -8.335835e-02  -1.126091e-01  -2.415705e-02  -1.664850e-02  -1.150288e-01  -1.136248e-01  1.343966e-02  -1.143908e-02  -2.899054e-02  7.710190e-02  1.236825e-01  1.497563e-03  -4.401534e-02  1.560726e-01  -3.181764e-02  -1.112712e-01  4.721047e-02  8.552404e-02  -1.025880e-01  -8.622532e-02  1.018895e-01  1.023254e-01  -1.462735e-01  1.193965e-01  4.161979e-02  -9.444800e-03  -4.119417e-02  -6.080654e-02  -7.976694e-02  5.889256e-02  3.131428e-02  3.251866e-02  7.553441e-02  1.749410e-02  -2.328931e-01  7.973488e-02  -1.028377e-01  -5.012534e-02  -2.769670e-02  -1.775780e-02  -5.349488e-02  -1.554994e-01  -1.223073e-01  4.979873e-02  -9.316985e-02  -5.071688e-02  -6.623016e-03  2.672543e-02  -1.219919e-02  -1.199027e-01  -1.785033e-01  4.319481e-02  3.746453e-02  -1.340890e-01  -1.734856e-02  2.405139e-03  1.428203e-01  -1.704810e-01  -1.227871e-01  1.614285e-01  -7.847436e-02  -5.801769e-02  -9.297226e-02  5.309954e-02  -2.254860e-02  -1.646782e-01  7.424045e-02  -1.118409e-02  1.592825e-02  -1.233990e-01  8.393157e-02  -1.060694e-01  -5.385714e-02  -2.912067e-02  2.943076e-02  7.439740e-02  -5.379805e-02  -7.910101e-02  1.008994e-01  2.390254e-02  -2.935866e-03  -1.199392e-01  6.947077e-02  -3.643179e-02  -3.050490e-02  -4.938530e-02  -5.423575e-02  -4.335191e-02  7.917049e-02  -1.599331e-01  -1.963495e-02  -1.183401e-01  -2.468613e-01  7.286680e-03  -8.767113e-02  5.027857e-02  -2.025997e-01  9.447549e-02  -7.879766e-02  -1.274355e-01  1.402829e-01  -5.594163e-02  1.996503e-01  2.567346e-01  -6.365430e-02  1.537503e-01  3.121419e-02  6.282642e-02  -5.730798e-02  -5.605831e-02  4.561889e-02  -1.570183e-01  -9.884750e-03  5.904707e-02  2.524700e-01  1.156031e-04  -4.844809e-02  -1.071203e-01  4.911127e-02  9.464720e-02  -5.377667e-02  1.319772e-01  1.943589e-01  1.456680e-01  -2.367324e-02  3.549609e-02  6.035509e-02  -1.291942e-01  -6.596998e-02  5.889423e-03  -8.072984e-02  -6.292246e-02  5.591475e-03  1.452362e-01  -1.165074e-01  -2.560171e-01  -6.074049e-02  1.274989e-02  5.564602e-02  -5.339649e-02  1.987849e-01  -5.562611e-02  -2.653083e-01  3.420771e-03  1.325250e-01  1.885695e-01  9.616172e-02  1.465704e-01  -8.555099e-02  -7.006526e-02  5.482555e-02  3.486624e-04  9.509897e-02  2.264336e-02  9.180018e-03  -1.406637e-01  1.066470e-01  8.349471e-02  4.441671e-02  5.636163e-02  -6.791551e-02  -3.779623e-03  5.759275e-02  1.080079e-01  5.396339e-02  2.282510e-02  2.247798e-01  1.783429e-02  1.368005e-01  -1.281267e-01  7.379260e-02  3.448121e-02  -5.544364e-02  1.220475e-03  1.099126e-01  5.177673e-03  2.007192e-01  -1.317506e-01  1.096900e-01  3.156297e-02  -2.337551e-02  2.535259e-01  3.755426e-02  -3.391380e-02  -6.647879e-02  1.062596e-01  -1.894168e-02  -5.800448e-02  -1.172763e-01  1.180352e-01  2.233571e-01  7.324383e-02  -2.685710e-04  5.013035e-02  3.623125e-03  -1.286607e-01  5.603522e-02  1.625824e-02  -9.524137e-02  -4.733181e-02  4.784436e-02  6.281371e-02  1.476277e-01  -1.934297e-01  -6.406993e-02  4.497339e-04  1.549740e-01  1.080293e-01  9.047410e-02  -5.928312e-02  6.793196e-02  9.118763e-02  -6.416105e-02  -9.920459e-02  -2.002878e-01  -8.876215e-02  4.286664e-04  9.197658e-02  -1.945683e-01  1.204596e-01  2.229827e-01  -1.472027e-01  1.578544e-01  -2.633765e-02  -2.645524e-02  1.398454e-01  1.576244e-02  -1.782317e-02  -1.548801e-01  -1.137213e-01  -8.867654e-02  -1.230384e-01  -1.076060e-02  6.437094e-02  3.275659e-03  -3.199204e-02  8.652973e-02  1.104702e-01  -4.598304e-02  -1.195946e-02  -4.054866e-01  4.388642e-03  5.297215e-02  -1.588304e-01  -2.612574e-01  -4.077535e-02  -1.103687e-01  -2.344653e-03  -7.532816e-03  -4.942926e-02  -9.299689e-02  -6.017375e-02  -7.920439e-02  -1.312189e-01  -1.022014e-01  -3.692443e-02  -2.183529e-01  9.540024e-02  -1.596208e-01  9.837097e-02  1.656709e-01  8.951187e-02  -1.301225e-01  5.070506e-02  8.749527e-02  -7.636770e-02  6.210690e-02  -3.630437e-02  -9.029923e-02  -9.479887e-02  3.695446e-01  -8.716016e-02  1.271642e-01  -1.114798e-01  -9.512407e-02  -7.822274e-02  6.347392e-02  -1.364793e-01  -7.890115e-02  -1.886184e-03  -1.036864e-01  -1.339615e-01  1.532063e-01  2.514233e-02  -1.998026e-01  1.262864e-01  -1.460809e-01  -7.727665e-03  1.042806e-01  6.859078e-02  -3.380403e-02  -1.961476e-02  9.784521e-02  -1.057096e-01  2.594922e-02  5.553605e-02  -1.968265e-02  -2.830214e-02  1.314603e-01  -6.879447e-02  1.433599e-01  1.240817e-01  1.013459e-01  1.286155e-01  -1.376325e-01  -7.750668e-02  2.156478e-01  -1.877856e-02  5.444753e-02  -6.385801e-02  -3.493399e-03  -7.854125e-02  1.122853e-01  -5.166061e-02  2.110917e-01  3.339286e-02  3.661830e-02  -5.022697e-02  -2.939390e-02  -1.254405e-01  -3.465468e-02  -6.535969e-02  -1.865153e-02  -8.442170e-02  4.585269e-02  1.121790e-01  1.100916e-01  7.588104e-02  8.115187e-02  1.777626e-01  -2.052304e-02  4.107218e-02  5.737895e-02  -3.724125e-02  -7.454590e-02  8.862923e-02  1.716224e-01  1.267197e-01  1.569558e-01  -1.193148e-01  -1.393621e-01  1.704215e-01  1.793907e-01  -1.173221e-01  5.608637e-02  1.541570e-01  6.900646e-02  -1.835750e-01  6.029035e-03  1.009237e-01  9.625440e-03  -2.215472e-02  5.257767e-02  -1.399501e-01  -4.196383e-02  -1.699260e-01  -8.715475e-02  1.533469e-01  2.730815e-01  1.119162e-01  1.101607e-01  1.706869e-01  7.617255e-02  -7.261623e-02  3.703946e-02  9.389723e-03  8.421553e-02  7.453570e-02  -4.751469e-02  1.006383e-01  6.589776e-02  7.283644e-02  -6.774373e-02  1.519917e-01  -1.209212e-01  5.132666e-02  1.326595e-01  -1.824521e-01  5.573025e-02  -1.188071e-01  -7.191332e-02  -8.385687e-02  -3.551845e-02  -2.925379e-02  5.829260e-02  1.276156e-01  -2.852126e-02  7.599577e-03  -7.496881e-02  -3.733116e-02  -4.348029e-02  -9.418050e-02  1.071001e-01  2.902777e-02  1.887792e-02  1.004529e-01  6.768437e-02  4.839648e-02  1.251398e-01  1.140761e-02  -4.331569e-02  1.837386e-02  6.365374e-02  9.260088e-03  1.951912e-01  -1.527684e-02  1.278204e-01  -1.630584e-01  -6.065897e-02  -1.589612e-02  1.696334e-01  -3.399476e-02  -1.422329e-01  4.351996e-02  1.021757e-01  4.679635e-02  1.201038e-01  1.487730e-01  -3.335832e-02  -1.071547e-01  7.455389e-02  1.066385e-01  1.945361e-01  -1.012877e-01  -4.189022e-03  -1.113384e-01  -1.062885e-01  -9.106979e-02  -8.074056e-03  1.195006e-01  -2.183185e-01  -1.372220e-01  6.143022e-02  -7.114111e-02  2.251215e-01  -1.557683e-01  1.096812e-01  6.297480e-02  1.044571e-01  -1.495611e-01  -3.024013e-02  1.613702e-01  -7.356921e-02  -5.750048e-02  9.581421e-02  -2.593558e-02  4.456908e-02  1.933394e-02  1.533573e-01  1.097277e-01  6.927138e-02  -9.276534e-02  1.666307e-01  -6.962840e-02  1.780256e-01  -1.450899e-01  1.315655e-01  7.285714e-02  -7.662824e-02  -4.538039e-02  -1.333988e-01  -4.782036e-02  9.928083e-02  -2.486467e-02  1.260059e-01  -9.571171e-02  1.344504e-01  -5.901820e-02  -1.052636e-01  -1.073245e-01  -3.197723e-02  -2.353477e-02  1.139823e-01  -5.497005e-03  9.312776e-02  5.196454e-02  6.159410e-02  -1.241753e-01  1.224249e-01  1.805228e-01  1.091436e-01  -1.507200e-01  -3.639763e-02  6.088890e-02  -1.321024e-01  -1.055938e-01  8.889753e-02  8.351831e-02  -1.001124e-02  -7.498759e-02  7.508808e-02  4.903235e-02  1.204602e-01  -1.425680e-01  4.480125e-02  -6.872974e-02  2.206387e-03  1.682281e-01  -9.104091e-02  2.432044e-02  1.989102e-01  1.763967e-02  -6.515907e-02  7.155670e-02  -7.786079e-02  -2.239486e-02  -1.537901e-01  1.120759e-01  -1.465133e-01  -1.675123e-02  9.798750e-02  -3.969266e-02  2.310178e-01  1.502009e-01  -4.137131e-02  -7.070393e-02  6.667582e-03  7.334852e-02  1.698848e-02  -9.706354e-03  3.828610e-03  1.107430e-01  1.484443e-01  6.080093e-02  6.105431e-02  -1.272348e-01  8.197088e-02  -7.044808e-02  -1.339279e-01  -4.712115e-02  3.357929e-03  8.463362e-02  -1.675843e-02  1.561912e-01  1.583587e-01  -1.621625e-01  -3.980725e-02  -2.968436e-03  5.778088e-02  -1.305414e-01  -1.097046e-01  -3.054197e-01  3.187915e-02  -2.036775e-02  1.368182e-01  3.922907e-02  4.313359e-02  -9.826946e-02  5.756497e-02  3.235009e-02  -1.959030e-02  -8.174679e-02  -1.778852e-01  -1.044474e-01  -1.238626e-01  1.580654e-01  -2.222641e-01  -4.326290e-02  5.578463e-02  -2.602002e-02  2.394966e-02  1.378751e-01  -7.443929e-02  -4.719408e-02  5.449455e-02  -1.190983e-01  -1.550909e-01  5.480353e-02  3.921444e-02  -2.153900e-01  9.447032e-02  6.396320e-02  -5.362158e-02  -9.491932e-02  -1.109402e-01  -1.161580e-01  1.618293e-02  -2.864536e-02  -1.838739e-02  1.386543e-01  -3.518541e-02  -1.430637e-02  -3.940685e-03  -6.090468e-02  -7.437794e-02  -4.246218e-02  -1.707934e-01  -2.445529e-02  2.172645e-01  -1.550219e-01  1.572411e-01  -9.773762e-02  -8.575330e-02  -2.297514e-02  1.488724e-02  5.692985e-02  -1.387940e-02  1.382744e-01  -2.647148e-02  -8.964450e-02  -9.602953e-02  -8.221462e-02  -1.002724e-01  2.466836e-01  -2.529676e-01  1.008493e-01  -5.233365e-03  1.894642e-01  -1.158087e-01  1.155185e-02  7.467943e-03  -2.863648e-02  9.075967e-02  2.475127e-02  -9.955770e-02  2.393530e-01  1.196177e-01  2.175743e-01  -2.125387e-02  -6.112050e-02  -1.282438e-01  2.227218e-02  -3.373950e-02  5.841571e-02  1.391291e-01  -9.406489e-02  -4.298348e-02  -5.318680e-02  -1.660245e-01  -1.621946e-01  -1.160948e-01  -1.195315e-01  1.106573e-03  4.030807e-02  1.349764e-01  1.452998e-02  -4.198464e-02  1.035522e-01  -1.028344e-01  -1.557362e-01  -1.295762e-01  3.449592e-02  4.406410e-02  5.858487e-02  -9.276748e-02  1.020287e-01  -9.264556e-02  5.239287e-02  -3.246399e-02  -7.157610e-02  -1.672182e-01  9.152780e-02  -1.082786e-01  2.399937e-02  -1.248505e-01  8.850577e-02  2.008338e-02  -7.592648e-02  -6.143700e-02  -2.148728e-02  -4.570685e-02  -1.246664e-01  2.311938e-02  1.410575e-01  1.378893e-01  1.172262e-01  -4.036320e-02  -4.808241e-02  1.383459e-01  -1.063141e-01  1.047411e-01  1.149697e-01  -7.763360e-02  -3.269915e-02  -4.887697e-03  1.247303e-02  -5.472432e-02  2.143921e-02  1.620783e-01  -1.514243e-01  -1.176376e-02  3.865086e-03  6.550782e-02  -1.551038e-01  2.023382e-01  -2.202331e-03  -1.574056e-01  -1.644856e-01  5.638778e-03  2.138232e-02  1.134394e-01  3.966194e-02  -1.072139e-01  1.981444e-01  7.981975e-02  -2.189738e-01  4.154474e-02  8.264469e-02  -1.125743e-01  9.188720e-02  -6.363172e-02  -1.077036e-01  1.913872e-01  -8.217406e-02  1.003439e-01  -4.810039e-02  8.801040e-02  6.802448e-02  1.140677e-01  4.825419e-02  4.193261e-02  1.302864e-02  -1.562449e-01  5.850657e-02  5.761125e-02  -9.037489e-02  2.153279e-02  7.488141e-02  -1.220004e-01  -1.296018e-01  -1.418868e-01  6.380377e-02  -7.237668e-02  -1.498534e-01  -1.580230e-02  -3.995486e-02  -3.533164e-03  -6.908512e-04  1.147183e-01  4.323820e-02  -1.482531e-01  -1.520953e-01  -1.439760e-02  1.588249e-01  3.433482e-02  1.948319e-02  1.534257e-01  -1.035666e-01  -3.402667e-02  1.363138e-01  -1.056549e-01  -6.556033e-02  1.402908e-02  -3.975513e-02  -1.462223e-01  -1.230445e-01  -1.179920e-01  -3.482147e-02  4.261743e-02  1.443493e-01  1.693235e-01  -6.219291e-02  -1.068676e-01  -1.302336e-01  2.406195e-01  -1.747556e-01  -2.654959e-02  1.046745e-01  3.469788e-02  2.530750e-02  7.513148e-02  -1.490232e-01  1.761997e-02  -3.677456e-02  6.549027e-02  -1.099183e-01  -8.755959e-02  4.687801e-02  -1.396406e-01  3.224180e-02  -6.348554e-02  1.622964e-01  -1.638340e-02  3.065961e-02  -1.103493e-01  1.526339e-02  1.726795e-02  -5.249723e-02  -2.414423e-01  -1.075975e-01  1.302778e-01  6.312777e-02  2.191908e-01  1.069551e-01  7.806416e-03  9.236773e-02  7.372034e-03  4.247102e-02  7.080229e-02  1.383114e-01  -6.912194e-02  -1.832355e-01  -2.774883e-03  -1.231544e-01  -6.837893e-02  1.134002e-01  3.564053e-02  1.792423e-01  -8.994643e-02  4.073634e-02  -1.307028e-01  1.284820e-03  -8.131637e-02  -2.026930e-01  2.949355e-02  6.300552e-02  1.727500e-01  -9.376604e-02  1.258257e-01  -1.683546e-01  7.674242e-02  3.747851e-02  5.335462e-02  -1.216963e-01  -2.698719e-01  -3.590874e-02  2.096847e-02  -1.164101e-01  2.156643e-01  -6.815646e-02  1.948155e-01  -6.423035e-02  1.882925e-01  2.994843e-02  -6.025884e-02  1.592014e-01  -3.620974e-02  1.361797e-01  8.093008e-02  2.390883e-02  1.925785e-03  -7.614614e-03  -7.920564e-03  1.260090e-01  2.528831e-02  -2.059715e-01  1.333686e-01  6.908651e-02  -3.658956e-02  -8.078793e-02  -7.933237e-02  1.528813e-01  1.456914e-01  1.306791e-01  1.343566e-01  -9.622069e-02  1.166075e-01  5.598012e-02  7.825208e-02  4.253985e-02  -3.160489e-02  4.884860e-02  5.978032e-03  1.852155e-01  -3.648732e-02  -2.666904e-02  -1.321896e-01  6.381541e-02  8.269712e-02  -1.240385e-02  1.366675e-01  -1.025318e-01  -1.202896e-01  7.022606e-02  7.412217e-02  -2.363524e-01  2.981975e-02  3.996142e-02  6.711483e-02  3.433168e-02  7.768457e-02  -1.251033e-01  -1.179193e-02  1.300894e-01  8.257482e-02  1.146334e-01  -6.896342e-02  1.087070e-01  -1.115984e-02  2.411375e-02  -4.405690e-01  -2.132985e-01  -2.890558e-01  6.991517e-02  -2.663877e-01  9.659041e-02  -9.853377e-02  -1.465209e-01  8.859102e-03  -1.299289e-01  -1.156717e-01  1.103382e-01  1.077227e-01  -4.677153e-02  5.857679e-02  -8.582000e-02  -1.721058e-01  -7.115875e-02  1.138035e-02  3.879285e-01  4.606061e-01  2.890688e-02  -5.389667e-02  1.965695e-01  -1.297507e-02  7.384302e-02  1.185249e-01  -1.165102e-01  -4.560294e-02  -1.456556e-01  5.728477e-01  -6.571966e-02  -8.767121e-03  -2.863757e-01  2.265058e-02  -2.116109e-01  2.004562e-01  -3.452993e-03  1.032019e-01  -5.375399e-02  -1.118675e-01  -2.583272e-01  3.108495e-01  6.851724e-03  -7.844141e-02  -3.387532e-02  5.429338e-02  4.732260e-02  8.486881e-02  1.937618e-01  -3.287704e-01  -9.405150e-03  -4.681265e-03  -2.614594e-02  4.116420e-03  -2.483984e-02  1.214256e-01  -1.490792e-01  -1.951936e-01  -1.910880e-03  1.490991e-01  -2.322448e-02  -3.764954e-02  -9.765704e-02  -2.397138e-01  1.570212e-01  1.840863e-01  -6.445381e-02  1.123860e-01  -9.439719e-02  2.702400e-01  -4.242355e-01  1.658346e-01  7.707277e-02  1.333132e-01  3.148508e-02  -3.434000e-01  -1.915832e-01  9.718613e-02  1.534076e-05  -2.664030e-01  4.228112e-03  2.468478e-01  1.835806e-01  1.318988e-01  -1.540318e-01  1.672418e-01  -9.820606e-02  6.101139e-03  1.276088e-01  2.995131e-01  1.299022e-02  -4.029778e-04  9.450199e-02  -2.712627e-01  -1.070508e-01  2.444285e-01  2.532186e-01  1.265658e-01  -1.365740e-01  8.841269e-03  1.290066e-01  4.144844e-01  -2.964112e-01  2.643231e-01  8.189387e-02  4.833411e-02  -6.538055e-02  3.786739e-02  -1.060792e-01  -8.871920e-02  2.761029e-01  -1.708610e-01  -6.549494e-02  -1.023080e-01  -2.350189e-01  -2.842982e-02  2.135257e-01  2.890861e-01  2.439230e-01  1.223769e-01  -1.485784e-02  7.389898e-02  8.980729e-03  9.138526e-02  9.021765e-02  -8.151186e-02  -9.544303e-02  2.750643e-02  2.306648e-01  7.869438e-02  -1.438899e-01  2.180571e-01  9.409814e-02  9.103049e-02  1.224692e-01  1.287851e-01  -8.277880e-02  2.716986e-01  2.269644e-02  -1.031942e-01  1.254112e-02  1.193748e-03  -2.358381e-02  1.800061e-02  8.529043e-02  8.174272e-02  -1.105947e-01  -2.737436e-01  3.532630e-02  6.311382e-02  -2.579050e-01  -1.952188e-01  6.981937e-02  -8.193091e-02  4.653281e-02  8.713670e-02  -1.927613e-02  -3.404936e-01  5.951719e-02  1.690197e-02  -4.356657e-02  -1.436772e-02  1.383481e-01  -2.948377e-02  2.179597e-01  -8.182389e-02  4.760094e-02  1.759708e-01  7.430479e-02  -2.767269e-01  1.526743e-03  2.333967e-01  1.370483e-01  -1.166742e-01  2.824137e-02  -1.124451e-01  -4.210274e-02  1.188914e-01  1.594440e-01  -1.997811e-02  7.553621e-02  2.417351e-01  1.070730e-02  1.046234e-01  1.676941e-01  9.753996e-02  -4.870975e-02  -9.122321e-02  7.056323e-02  1.293857e-01  3.132119e-02  1.263641e-01  -7.569255e-02  1.659112e-01  -4.371994e-02  -1.485794e-01  1.999631e-01  -7.779682e-02  9.421220e-02  1.252036e-01  1.102915e-02  1.712640e-01  5.827126e-02  -2.514244e-03  1.107397e-02  2.278370e-01  -5.214662e-02  4.501700e-02  2.136170e-01  -1.277077e-01  -9.416984e-02  8.362786e-02  -9.398570e-02  1.689551e-01  -1.089272e-01  2.147071e-02  -1.512735e-01  8.077677e-02  -5.459558e-02  -1.168731e-01  3.824298e-02  1.370685e-01  1.247163e-01  -1.707004e-01  3.834003e-02  -1.515246e-01  1.296411e-01  8.576295e-02  -4.826224e-02  -6.284197e-02  2.942552e-02  -2.001419e-01  -6.582137e-02  -6.121651e-02  2.066670e-01  -7.285416e-02  1.009788e-02  -1.055940e-01  -2.376441e-01  2.082865e-01  2.956556e-01  -8.368179e-02  -3.989851e-03  5.515837e-02  -8.189587e-02  -2.432738e-01  1.805723e-02  -1.847482e-01  -2.635051e-01  -2.032248e-02  7.466985e-02  5.306601e-02  6.032503e-03  -1.080442e-02  -9.025282e-02  -1.393057e-01  -6.528328e-02  -2.924879e-02  6.250954e-02  -1.304180e-01  -8.668548e-02  -2.091149e-02  -4.945327e-02  -4.725938e-02  -1.651134e-01  -2.551594e-03  -1.212688e-01  -2.501507e-01  9.306533e-02  -9.027396e-02  -2.583360e-02  1.935773e-02  8.235293e-02  -2.795958e-02  2.031864e-01  2.452883e-01  -5.598754e-02  -1.297867e-01  6.912799e-02  -1.174876e-01  -1.178807e-01  1.358602e-01  -7.493180e-02  -7.295204e-02  5.135286e-03  3.862953e-02  4.705885e-03  4.276225e-02  -1.153626e-01  5.194431e-02  -9.617791e-02  1.047243e-01  -1.243593e-02  1.718778e-01  -1.993930e-01  1.956951e-02  1.946069e-02  2.179451e-01  1.693319e-01  -1.927627e-01  2.778306e-03  -2.453529e-02  -9.423387e-02  1.853257e-01  -7.128742e-02  -8.122244e-02  1.799466e-01  -8.468127e-02  -3.350434e-02  7.928584e-02  -1.237330e-01  8.261013e-02  6.872738e-02  -7.102342e-02  -9.325645e-02  5.323075e-02  8.624023e-03  -3.877852e-02  1.241042e-01  -8.966175e-02  4.014068e-02  8.057153e-02  1.946449e-02  4.777492e-02  -1.813487e-01  1.483486e-01  -1.351941e-01  -4.163897e-02  -2.976770e-02  -1.245653e-01  8.954203e-02  -1.165735e-01  1.369944e-01  -1.353408e-01  -1.609094e-02  -2.503262e-02  -1.580567e-01  7.925110e-02  -3.483593e-02  9.305581e-02  -6.051515e-02  6.295355e-02  1.074242e-01  1.036936e-01  1.253558e-01  -6.315550e-02  1.401353e-01  1.691018e-01  9.309579e-02  -1.936943e-01  -4.984813e-02  1.174311e-01  1.215853e-01  -1.383777e-01  -5.166654e-02  -3.373792e-02  3.876882e-02  1.244814e-01  1.169642e-01  -2.393668e-03  5.546367e-03  1.656960e-02  -7.404177e-02  7.333750e-02  1.587402e-01  -8.084517e-02  4.568836e-02  -1.263329e-02  -1.947872e-01  -1.105007e-01  -2.194122e-01  1.264948e-02  1.112436e-01  1.332879e-01  1.348462e-01  8.244062e-02  -8.907717e-02  -1.091108e-01  3.759771e-02  6.276255e-02  -1.691217e-01  -1.537857e-01  -5.274396e-02  1.238968e-01  -2.509035e-02  6.401951e-02  -1.766659e-02  1.305499e-01  8.150928e-02  -7.261097e-02  1.071272e-01  -4.828624e-02  1.187293e-01  -3.934208e-02  1.994560e-02  -2.061546e-01  -4.923167e-02  6.283726e-02  3.613965e-02  6.735910e-02  1.295839e-01  -1.378414e-01  -4.920050e-02  2.496793e-02  6.566510e-02  -1.073746e-02  -9.752196e-02  5.170114e-02  2.947181e-02  -1.471133e-01  -1.171867e-01  -1.078486e-01  -5.974776e-02  -5.659671e-02  1.569262e-01  1.264000e-01  1.926807e-01  1.406548e-02  -2.498920e-03  -2.290795e-01  3.577763e-02  -1.169691e-01  -6.280806e-02  -9.202774e-02  -4.735046e-02  -5.391703e-02  6.251100e-02  1.583193e-01  -4.165288e-02  -5.586823e-02  -1.170036e-01  -3.754650e-02  1.554316e-01  2.055300e-01  1.396824e-01  1.014065e-01  -7.941662e-02  -8.395649e-02  5.153827e-02  -1.073798e-01  1.927565e-01  -1.460151e-01  2.551534e-03  1.121209e-01  -1.674916e-02  1.566065e-01  -1.263663e-01  1.607179e-01  -1.345952e-01  -3.360528e-02  1.639485e-01  1.724110e-02  -1.233076e-01  -1.375518e-01  7.992984e-02  -6.494037e-03  -1.686440e-01  -2.722621e-02  -8.141886e-02  4.713603e-02  -8.046122e-02  1.382349e-02  -3.833545e-02  2.838607e-01  5.064715e-03  -1.924744e-01  -3.178029e-02  -1.108582e-01  -3.326081e-02  -1.511290e-02  -2.313739e-02  -6.262034e-02  -5.896518e-02  -2.234093e-01  -1.487166e-02  8.535151e-02  1.264451e-01  6.063176e-02  1.424049e-01  -1.530540e-01  -8.080994e-02  -1.923839e-01  -9.787182e-02  -1.035776e-01  1.755604e-03  -1.179747e-01  1.195236e-02  2.660425e-02  2.159889e-01  -2.073024e-02  -1.441509e-03  9.475049e-02  1.308283e-01  8.682409e-05  7.500931e-02  -5.470190e-02  1.908689e-01  1.891723e-02  1.044104e-01  -1.898539e-01  -1.411063e-01  1.243415e-01  -1.777089e-01  1.487570e-01  4.846614e-02  9.392547e-02  -2.675217e-02  -2.259553e-02  -3.926495e-02  7.539811e-02  -1.047724e-01  -3.750126e-01  -1.145689e-01  -7.212898e-02  7.175585e-02  -2.243733e-01  1.515197e-01  -3.193861e-02  -2.013810e-01  -9.924497e-02  7.341055e-02  -1.703976e-01  -8.730260e-02  -5.466016e-02  -1.459154e-01  9.972755e-03  8.179528e-02  -3.712224e-01  1.202160e-01  -1.285133e-01  6.556668e-02  4.384815e-01  6.807223e-02  5.094833e-02  9.351390e-02  4.910873e-02  1.266111e-01  -2.506931e-02  -5.109670e-02  5.519854e-02  6.538197e-02  4.344916e-01  5.781966e-02  -1.893284e-01  -2.291789e-01  -1.333442e-01  9.808453e-02  2.522043e-01  -4.364965e-02  1.104604e-01  -7.896469e-02  -1.077564e-01  -2.100447e-01  2.052569e-01  -7.366984e-02  -2.473858e-01  1.099254e-01  -6.098438e-02  -1.086106e-01  3.119556e-02  -3.082325e-03  -1.552837e-02  -7.570265e-02  -1.676545e-01  -1.970903e-01  1.018087e-01  1.959028e-02  -3.345370e-02  -3.171780e-02  -2.574267e-01  -7.149474e-02  3.044068e-01  -3.031898e-02  1.274675e-01  1.403744e-01  -1.542236e-01  -7.120589e-02  2.851052e-01  1.251212e-01  2.739586e-01  8.456233e-02  -5.398521e-02  -3.732864e-01  -1.057980e-02  6.345153e-02  1.051391e-01  -7.798693e-02  -1.756814e-01  -6.445745e-02  2.804494e-03  2.575356e-02  2.436824e-02  6.128909e-02  1.074248e-02  -2.226352e-01  -9.328813e-02  -9.927145e-02  6.502473e-02  6.464135e-02  5.103857e-02  2.656066e-02  -6.663734e-02  1.331515e-01  1.321454e-02  -1.285919e-01  -2.604020e-01  -3.346194e-02  5.712521e-02  2.150158e-01  2.377304e-02  -5.583286e-02  5.984172e-02  1.263658e-01  1.511410e-01  -8.788685e-02  2.028017e-01  3.114249e-02  -5.039309e-02  -3.594097e-02  2.646553e-02  4.704221e-02  9.172376e-02  2.042320e-01  -1.935031e-01  5.805542e-03  -1.424590e-01  -1.407918e-01  3.764518e-02  2.768060e-01  4.249775e-01  1.665750e-01  -1.068416e-01  1.183886e-01  4.309363e-02  -1.161711e-02  1.052014e-01  -1.077466e-02  1.290529e-01  -1.002126e-01  4.229949e-03  6.678420e-02  -1.268532e-01  -4.835625e-02  2.980134e-01  8.249547e-02  -1.023712e-01  8.348122e-02  -1.623679e-01  -3.309637e-02  -5.465729e-03  2.737221e-02  -1.599535e-01  -8.584481e-02  -8.043323e-02  7.076637e-02  8.033952e-02  1.489180e-01  2.092590e-01  -3.701967e-02  8.137573e-02  -7.842744e-02  7.876877e-02  -5.001873e-02  1.746255e-01  -2.580410e-02  1.541184e-01  -7.476392e-02  7.532356e-02  -1.232143e-01  3.098241e-02  1.004348e-01  -4.797259e-02  -1.295547e-03  1.816701e-01  -1.631055e-01  5.759263e-02  -1.970454e-02  1.615644e-01  -2.098683e-01  -4.851814e-02  1.187360e-01  2.961257e-01  5.114376e-02  8.625561e-03  -1.500363e-01  -1.279089e-01  1.155201e-01  1.822878e-01  -1.002522e-01  -1.116758e-01  9.128672e-02  3.425143e-02  -1.004544e-01  3.775192e-02  -8.621778e-02  -1.176987e-01  8.466130e-02  -7.742914e-02  9.981194e-02  -4.258103e-02  -1.941570e-01  1.397141e-02  -7.144139e-02  -3.780251e-02  -4.395685e-02  -1.576864e-01  9.711709e-02  1.289254e-01  -9.054221e-03  -1.743799e-01  7.571372e-02  -1.038631e-01  -8.026078e-02  -2.723092e-02  2.665596e-02  1.966694e-02  1.296862e-01  5.571136e-02  1.260416e-01  3.496950e-02  -2.805882e-01  -8.149210e-02  -2.281610e-02  -1.558409e-01  -6.404119e-03  1.267593e-02  1.336701e-01  -1.232471e-01  -1.246897e-01  -1.578368e-02  1.578108e-02  1.112393e-02  -1.433114e-01  1.243944e-01  -4.567295e-02  9.070921e-02  3.439622e-02  -1.848170e-02  1.884489e-01  -1.351646e-01  1.431688e-01  1.581656e-01  -9.531683e-02  1.480788e-01  -1.843673e-01  -6.553981e-02  1.216597e-01  -3.228965e-01  7.408465e-02  3.260473e-02  4.709628e-02  -2.461769e-01  1.281291e-01  1.555205e-02  -7.821327e-02  -6.886256e-02  -5.401354e-02  1.329080e-01  2.759495e-01  -8.606066e-02  3.432993e-01  1.078813e-01  -1.676786e-01  1.696587e-01  2.890463e-02  4.328158e-02  -1.377504e-01  -2.690183e-01  -9.866154e-02  -3.745203e-01  4.838401e-02  -1.393795e-01  6.274284e-02  9.135357e-02  -2.074507e-01  -1.783769e-01  8.997510e-02  -4.565793e-02  3.928726e-02  1.120683e-01  -6.784613e-02  -5.601245e-02  -9.545612e-02  -1.696233e-01  -1.182023e-01  9.133060e-02  -1.081806e-01  2.551194e-01  2.333134e-02  -1.404333e-02  1.117728e-01  1.496904e-01  -1.246563e-01  -6.716616e-02  7.930433e-03  -1.056236e-01  6.503011e-02  4.663227e-01  -1.746299e-01  -9.469146e-02  -2.043988e-01  3.881603e-02  -2.667063e-01  -1.154227e-01  -8.602187e-03  3.200969e-02  5.970207e-02  -1.620629e-01  -4.720311e-02  1.840521e-01  -6.182155e-02  -1.836950e-01  -3.750724e-03  -1.266161e-01  -1.522638e-01  6.593571e-02  -6.542988e-02  -4.121048e-02  2.284395e-04  -2.945309e-02  1.332156e-01  -1.333002e-01  1.493722e-01  -9.651930e-02  4.664592e-02  -2.539679e-02  1.104918e-01  2.646059e-01  2.163084e-02  9.356474e-02  -9.731742e-02  -1.952232e-01  -3.629365e-02  -3.392421e-02  1.741645e-01  2.328971e-01  -5.205068e-02  1.049533e-01  -4.491828e-02  1.564702e-01  -2.214456e-01  2.595931e-02  8.750827e-02  -9.785931e-02  -1.465450e-01  3.226215e-02  -2.623618e-02  -1.510046e-01  2.382684e-01  7.872961e-02  -3.091992e-02  -3.754923e-03  7.467027e-02  -1.661835e-01  -3.493631e-02  -6.280901e-03  -1.438634e-01  -1.073573e-01  -1.077965e-01  -2.174201e-02  6.790316e-02  -1.278296e-01  -6.223011e-02  1.139393e-02  8.022134e-02  1.714710e-02  -5.806338e-02  4.474456e-03  8.084330e-02  1.403945e-01  -8.635455e-02  9.244607e-02  -2.362560e-02  1.871506e-01  -1.623134e-01  1.728620e-01  -2.582931e-02  -4.965690e-02  1.946049e-01  6.213351e-02  1.696081e-02  -1.277501e-02  -1.969167e-01  -8.036197e-02  2.317542e-01  3.387698e-01  1.574563e-01  -2.849737e-02  2.749673e-01  6.097921e-02  -8.779203e-02  -1.147319e-01  1.835527e-01  4.989225e-02  -1.409895e-01  2.640023e-01  -7.648806e-03  1.669626e-01  -1.669285e-02  1.744485e-01  -1.239591e-02  -2.744876e-02  -2.140962e-03  -8.442539e-02  6.850292e-02  1.769638e-01  -4.131791e-02  -1.498605e-01  -5.991456e-03  9.108240e-02  1.550207e-01  4.357999e-02  -1.233889e-03  7.941369e-02  -1.243543e-01  -9.960923e-02  -1.681184e-01  -2.252537e-02  -4.073225e-02  -1.043023e-01  -5.037075e-02  -1.704910e-01  1.026081e-01  1.566466e-01  -8.021205e-02  -3.921674e-01  2.244770e-01  -9.651121e-05  1.305780e-01  5.870278e-03  1.508670e-01  6.302354e-02  5.947847e-02  4.744826e-02  -3.882442e-02  2.050096e-01  7.157900e-02  -2.557611e-01  -1.118234e-01  1.681695e-01  